-5.863094365902500548e-09	-6.470959155009894544e-09	1.132276222800502534e-09	-6.043836978194296855e-09	-5.624847561925943601e-09	-4.122920872936937867e-09	-5.262373458593763183e-09	-6.230013602830865573e-09	-6.150809931426974320e-09	-5.431205037082941919e-09	-6.291639247899523901e-09	-6.300992077340912875e-09	2.513603433379427742e-10	-1.144721479034100298e-09	-1.773986453301491752e-09	8.416679362030738720e-10	8.915908835919528252e-10	9.235086849378849226e-10	-2.250481283506506112e-11	-2.975608151276457201e-10	-3.582270571444201135e-10	-2.228028014654440084e-09	-1.845620391207294260e-09	-2.013017151883153659e-09	-4.025002312875617516e-09	-4.111402859893090122e-10	2.881025662698289205e-02	2.228010087486793512e-09	9.502293388436210789e-09	2.609299795624247661e-08	-9.406721590322354156e-10	6.047725008699330103e-09	3.635638532971893766e-02	1.366096932925200125e-01	-6.273332811040111992e-09	-7.245520964701053696e-09	-3.567715287454654484e-09	-4.430502195532806378e-09	-4.599438349177962261e-09	-3.897352345659086750e-09	-4.024523350840412098e-09	-4.048233032130107788e-09	-1.981250478053453794e-09	-3.929518401414338019e-09	-4.236194369795374807e-09	-4.993948476349957556e-09	-5.017597481132833843e-09	-4.986545587183326259e-09	-3.545411377150837599e-09	1.190158775312966034e-09	1.095468500543527075e-02	6.944333880361177726e-09	2.445876435567402986e-08	8.400601272620766835e-02	1.783953618681756403e-09	1.436501028162900174e-08	6.433801964888900826e-05	6.375414425015830944e-02	-4.451030663763838182e-09	-2.795775333735135831e-09	-1.378453838991617694e-09	4.154909082802574886e-09	1.490633942167876431e-07	1.173160597538505934e-08	3.276604557279740292e-08	8.108940485563768952e-02	4.572014709339696361e-09	1.885640337961628757e-08	4.389876392575819787e-06	2.319395222480248897e-07	-3.214968511238661913e-09	-1.225985177005120272e-09	9.681251927757084835e-10	8.169579425922672051e-09	1.540703464013574171e-07	2.382954444630503070e-08	6.342513388118783681e-08	3.447328967227820118e-01	9.743651160397105994e-09	2.708270814443003756e-08	7.036250695511460373e-02	4.814989247590650996e-08	-1.271620509409490233e-09	1.226371277293337122e-09	-4.467295081481708441e-09	-4.953176400325287682e-09	-1.475210730916417954e-09	-4.660889233085886717e-09	-4.155512575609097596e-09	-3.097869898174065948e-09	-5.007098175747440448e-09	-4.614762152530983000e-09	-3.953412496566345846e-09	-3.800902491755503187e-09	-5.521704608614434145e-09	-4.622807130077408719e-09	-1.419954265689512651e-09	3.148791156118467837e-09	2.991761284017985417e-08	5.902701624581621556e-09	1.176827055310769203e-08	1.781695053526511737e-08	3.901843948744228842e-09	1.464577149551202823e-08	6.006742225317521916e-02	8.318696755798091202e-02	1.841854149312490036e-08	7.287611824158228156e-08	1.030383787898127695e-09	5.376612208459375931e-10	1.909447331558714904e-08	3.523830071381399400e-09	4.864493742500303259e-09	5.118850129494332000e-09	6.670721124754485602e-10	3.352327573943918862e-09	5.689981286341134466e-09	2.785951316868500549e-09	-2.421736820114554851e-09	-7.958566730883444056e-10
-5.274401817206818845e-09	-7.083322564728257572e-09	-3.890389459210898975e-09	-5.745596573692387754e-09	-4.784342354381114105e-09	-1.505639885593499596e-09	-5.412882003546153729e-09	-6.209752281251363596e-09	-6.147823785923529143e-09	-2.437493719122339505e-09	-6.187840787888266222e-09	-6.758070834860570134e-09	8.917933475645074223e-09	5.426990635575830335e-09	3.779133894880077049e-09	9.032884921291723521e-09	8.738846947438484406e-09	8.500500714689467858e-09	8.188868053321402996e-09	7.277546150560524025e-09	6.831169457171863044e-09	2.269433378571047820e-09	5.411447573450538113e-09	3.850814260780311128e-09	-1.477757585005119388e-09	9.390745037331092130e-09	1.696086452341444284e-02	1.812599473881381204e-08	4.630111508805243562e-08	2.479248360969644992e-07	6.945847524773255313e-09	2.355706294327956432e-08	5.713018322063814769e-02	1.303518759919894410e-01	-5.702816421526340691e-09	1.889974400836058324e-09	-5.527779143591791935e-10	-2.537358471477958778e-09	-3.177426875738123550e-09	-1.548908641807824860e-09	-1.663646698834585361e-09	-1.713855068791377119e-09	-3.276840484588818669e-10	-1.100935571814643640e-09	-1.987202554656601998e-09	-3.457841269534975805e-09	-2.006864000327348733e-09	-3.201733085411357598e-09	-1.594691569105277159e-10	1.087718040115279529e-08	3.398972820859912786e-02	2.715766389907153389e-08	7.518386782128118762e-08	8.664910124944120995e-02	1.211914498266457648e-08	3.753396953095766357e-08	7.716135325458802849e-06	4.742135122473693787e-02	2.319431852420786138e-09	5.031493331015005319e-09	4.063024826685350496e-09	1.763587518974956112e-08	6.106432051522255319e-07	3.674911797486148317e-08	8.767491114592779304e-08	7.789776228491998578e-02	1.985770039595290172e-08	5.081912827067682399e-08	6.938457397321841260e-06	2.328460686756164556e-07	6.185896292815753542e-09	9.318917809748633748e-09	1.171803899603481904e-08	3.300432603190777773e-08	2.861206000675488954e-07	6.968627636864186906e-08	1.754668423996026438e-07	3.620385937115392916e-01	3.598135036123744523e-08	8.464399589582603716e-08	5.086108491649175833e-02	7.805330662429269249e-08	1.120339626870107884e-08	1.486300200913816313e-08	-2.768238910540532597e-09	-5.100031639871767651e-09	1.587252304193822232e-09	-3.912986407906340193e-09	-3.575251826440937664e-09	-3.097920949576697231e-09	-4.101881236629704342e-09	-4.145426365092677382e-09	-3.591161720285602351e-09	-3.140702757237875616e-09	-4.216869741556094461e-09	-3.170610717615785863e-09	3.714317033658769833e-09	1.594938178122572849e-08	4.145485817605933581e-08	2.391393724003106636e-08	3.593671385696755577e-08	3.864982117341663981e-08	2.016556075085707640e-08	4.678552810250317722e-08	4.626372721773670121e-02	9.041783882015452800e-02	1.694001727546026839e-07	4.207199531281705502e-07	4.745505076790033493e-09	3.796810019541643846e-09	4.424786872124926382e-09	7.306468707300832466e-09	9.114730088300447629e-09	9.587484621006361549e-09	5.229450240532053948e-09	6.774277073480855713e-09	9.806803733043486529e-09	5.088170565498089444e-09	1.751472590701646763e-09	1.890197811476156652e-09
-4.116450679078102985e-10	-4.350223642699428531e-10	9.872370057138740238e-11	-3.826065220787953443e-10	-3.770314354564497621e-10	-3.501580259970332071e-10	-3.419230394179046187e-10	-4.066075481699843349e-10	-3.971935006077637478e-10	-3.914035599500313637e-10	-3.964611627660605785e-10	-3.970337992256888891e-10	-1.480672269380817257e-10	-2.860524495005857399e-10	-3.037223517773766163e-10	-2.245725987115005091e-10	-2.230785067830262516e-10	-2.195916510377791911e-10	-2.513948549235590135e-10	-2.623885979540066801e-10	-2.677418021961482440e-10	-3.192141321430690644e-10	-3.121329116106146138e-10	-3.218006486914427835e-10	-3.529761654091622356e-10	-1.422002134737827379e-10	1.519205927766200184e-02	-1.897406843884702426e-10	4.793760732290857622e-11	1.381070658458425794e-09	-2.608758491951402910e-10	-7.691079114944204925e-11	5.799926306742000243e-02	1.289428037749559830e-01	-3.823303846298038687e-10	-4.792135877144491056e-10	-3.011820555591494769e-10	-3.373642560181434699e-10	-3.446894834246946564e-10	-3.551275094557779868e-10	-3.598124529735403116e-10	-3.605075051817429851e-10	-9.063383228810190542e-11	-3.661756709019998911e-10	-3.829297995243365390e-10	-3.907805904294271038e-10	-3.262547251468161237e-10	-3.964029382342326037e-10	-3.194594692732863331e-10	-2.011672344218596385e-10	3.050141517082967033e-02	-8.034069529934244440e-11	3.818675702811472405e-10	6.272242515800566243e-02	-1.939968507296378007e-10	1.444348030960380725e-10	1.107708786898409837e-06	5.644176143376058996e-02	-3.561424881548912361e-10	-3.378883284109227781e-10	-2.564814913243537941e-10	-1.210743987681281054e-10	1.117484573549169752e-08	4.930105994884142362e-11	5.766495437417037181e-10	8.739767106425322396e-02	-9.975095765217454792e-11	2.581245984191990184e-10	6.180650448446138709e-08	2.249033719881430343e-09	-3.332858266282392302e-10	-3.110833695135834139e-10	-2.106232301557007324e-10	-6.166846232148208696e-11	2.366887791687276976e-09	3.479699647566563762e-10	1.297140808474147300e-09	3.690765417382363411e-01	2.490111705462874714e-11	4.942739107299765877e-10	5.635341490666639225e-02	5.865034024408038537e-10	-2.892755991690738633e-10	-2.537578481594662143e-10	-2.611628902633225635e-10	-1.180925499331921258e-10	-3.023717732799656060e-10	-3.662340250186356831e-10	-3.282988526592281835e-10	-2.943022130043327838e-10	-3.666659359060880318e-10	-3.590803124056042796e-10	-3.238790133970726882e-10	-2.103042486237990366e-10	-3.609099942542608258e-10	-3.542400172862677838e-10	-2.727359081329629985e-10	-1.528572024843559984e-10	2.460494270443518265e-10	-6.939588078147876794e-11	6.986025870731463123e-11	3.197667289163342902e-10	-1.202240305403976752e-10	1.858082183701066571e-10	4.488440879022859847e-02	9.048706680194112950e-02	2.383315807133831528e-10	-1.719987239924557387e-10	-1.316542888384591161e-10	-1.882015324559179776e-10	1.641769839072020492e-12	-2.283972877144050296e-10	-1.850727515998959941e-10	1.892447441316749097e-10	-2.520516891928590829e-10	-2.340517633865929911e-10	-1.455852798365537128e-10	-2.321387546491228808e-10	-3.305146109667487195e-10	-3.202498637773992653e-10
1.452266902290903419e-08	1.163450753339681319e-08	9.690603418165908506e-09	1.369757968075321080e-08	1.316573561371068772e-08	1.306845551447580091e-08	1.345311848410819729e-08	1.284090268210060669e-08	1.254178267599961687e-08	1.093101599702222478e-08	1.394401578513333835e-08	1.241187323096474011e-08	5.312702111054043992e-08	3.753315734890524203e-08	3.276557641765552929e-08	4.559153937862587562e-08	4.282301349528096939e-08	4.088825860989371702e-08	4.737352417467770695e-08	4.299527293905530433e-08	3.981620616598855026e-08	3.087897058574457644e-08	4.483971856188981335e-08	3.835006800403677155e-08	2.738809450064238067e-08	6.177602708244816422e-08	2.613871877436679814e-02	8.971327137128726511e-08	1.660477196388788013e-07	3.167013017267095131e-07	5.665138892716174803e-08	1.096912362087078678e-07	4.226124221479522075e-02	1.351623396711540137e-01	4.019666749678931246e-08	5.791701814818926862e-08	2.951557654042553421e-08	2.266569457972813040e-08	2.123504161464035363e-08	2.710718298567689908e-08	2.622697337033404281e-08	2.560328013216883166e-08	2.700778473101777931e-08	2.571431134451041288e-08	2.496411632235330544e-08	2.041111758480027933e-08	2.700287968517353201e-08	2.363474067164137128e-08	3.068727668394608789e-08	6.494967135146339785e-08	1.756212720254783990e-02	1.223513080445618612e-07	2.779424822951980394e-07	6.337638878165323397e-02	7.735259510433728466e-08	1.736005512393109808e-07	2.170971981562306967e-03	5.980854851838011271e-02	4.586885633793533421e-08	5.762093669403313756e-08	4.302665907758731724e-08	8.758267313946687567e-08	7.063678398101314046e-06	1.545421715970137227e-07	3.065926151631437909e-07	9.797614724404843378e-02	9.985572016494564513e-08	2.039445173821521878e-07	3.655210783761514475e-05	1.368583823438291681e-06	6.039577815611863669e-08	7.424121640063835086e-08	5.996245128167066805e-08	1.192454403760381210e-07	6.902108526827453532e-07	2.599234871122537930e-07	6.023196989586741389e-07	3.516985557124910899e-01	1.429178661763711061e-07	2.834552719159963810e-07	6.989826911935363707e-02	3.741803309109204194e-07	7.585802459262731401e-08	8.969779325342228245e-08	1.861048230578649145e-08	1.688235514204602159e-08	1.682541378859392018e-08	1.997476788261625911e-08	2.003639259592856835e-08	2.003245383913381821e-08	1.914193876821258127e-08	1.915897362304677178e-08	1.951800065453326824e-08	1.744390850774079208e-08	2.008338307114228556e-08	1.868598155072078131e-08	4.379677997945450883e-08	7.894327540131049827e-08	5.121295649141863420e-08	1.048659481233144487e-07	1.315172342698207845e-07	1.032468747999283375e-07	9.846330735398230970e-08	1.797367695279611144e-07	6.122005452308598022e-02	7.267286209025022869e-02	3.806678991602542218e-07	5.190408916049466135e-07	3.830623431245780252e-08	3.228501500497761796e-08	2.671704696791831482e-08	4.032571438689287473e-08	3.638779922400415620e-08	2.674761274800663419e-08	4.188503709082978086e-08	4.032848685689952942e-08	3.453789993914215432e-08	2.720508892007013265e-08	3.793923603659229538e-08	3.486283475973474651e-08
-3.933933473539661176e-09	-4.363896181773157325e-09	1.096354701242856337e-09	-3.981666131509856381e-09	-3.018085106102729238e-09	-3.645585342280183686e-09	-3.585608211192431390e-09	-3.893691848842307166e-09	-4.006607776092095332e-09	-3.837561367144031378e-09	-4.154880636390042343e-09	-4.137131603115972674e-09	1.123828848949070088e-10	-1.326743566537257648e-09	-1.658415152573121539e-09	-1.688481635035954376e-10	-1.434494339738961986e-10	-1.234957792221428041e-10	-6.681079917920702762e-10	-8.176898215667041931e-10	-8.426227457056130399e-10	-1.919527677312449961e-09	-1.738738501664853879e-09	-1.853039482478327417e-09	-2.885395232062126973e-09	-3.997209973772142286e-10	1.784822691680989365e-02	5.681740245774383558e-10	4.597345283786575711e-09	1.217251649668560700e-08	-1.196981067641636467e-09	2.612306179766791306e-09	4.238086871268326172e-02	1.475686972316602175e-01	-3.471165266292179386e-09	-4.300313556389955659e-09	-2.643899196192030720e-09	-2.898944233893661922e-09	-3.015796676253164197e-09	-2.800482995166349365e-09	-2.795174506136067312e-09	-2.762333758368266417e-09	-2.020613530429406747e-09	-2.578334439713421268e-09	-2.853480750448641036e-09	-3.443914004126443409e-09	-3.141913683261520024e-09	-3.382823532455508723e-09	-2.674293562354738786e-09	-1.601763401783875124e-10	2.171735555976611262e-02	3.165767665933506572e-09	1.253882932210714385e-08	8.459531343488466137e-02	5.696653526134487367e-10	8.196542681139177272e-09	2.094705755391410105e-03	4.437509032124780511e-02	-2.989129711557020003e-09	-2.054952802546061393e-09	-1.554036681981407179e-09	1.327897891137339267e-09	7.543752724184371720e-08	5.982815313438820816e-09	1.733123067375990585e-08	8.774994617395269481e-02	2.120152576548147882e-09	1.005453670565541656e-08	2.839048988039675959e-06	5.407760921720356746e-08	-2.385312332276782112e-09	-1.396921615255881528e-09	-1.724168753452668645e-10	3.681234147504691596e-09	4.480980257782790229e-08	1.292348711071603293e-08	3.492379320144660241e-08	3.295916250199014130e-01	4.806363258619575331e-09	1.382884501823148704e-08	8.559288994600264266e-02	1.899756022172270376e-08	-1.185805171601623760e-09	-9.042207928161839683e-11	-2.881384202689224065e-09	-1.293652488451160657e-09	-2.914154732657767798e-09	-3.209997829516299447e-09	-2.895601677302075828e-09	-2.021513431437259566e-09	-3.356420233312588969e-09	-3.228740034189949481e-09	-2.569981312820942826e-09	-2.692927772895638293e-09	-3.590340149344714837e-09	-3.379010185125169999e-09	-1.428986896239682522e-09	1.595579315146394563e-09	1.457590731571227706e-08	2.655147745483022670e-09	5.894159835754000390e-09	1.062284844488475056e-08	1.482216155088139207e-09	7.189444513228505754e-09	4.078494066822516140e-02	9.569722082928393270e-02	-4.271292121789385200e-09	3.199118749169968289e-08	-5.554675052766109511e-10	2.896086511559815762e-10	2.282149782970993163e-09	1.685443344342777949e-09	3.265946112532606714e-09	2.637848697620592990e-09	-1.126884787690251506e-10	1.457351558401738225e-09	4.052584781479698185e-09	1.632963704802369570e-09	-2.099662128147032650e-09	-1.286022294045142052e-09
-4.881749791151882211e-09	-5.135458935962336422e-09	1.579433648206575775e-09	-4.486836154905450487e-09	-4.424550022917686954e-09	-4.138957765808155682e-09	-4.200301639992024250e-09	-4.939608146492307417e-09	-4.751554747847511086e-09	-4.344315930188452436e-09	-4.847950269930146414e-09	-4.814255585838036488e-09	-5.350832002365832955e-09	-2.590281568999147893e-09	-2.872573186201470905e-09	-1.567487427195144135e-09	-1.406470247965616989e-09	-1.274457410016678032e-09	-2.193507821419142921e-09	-2.217731752353623000e-09	-2.085278566171560073e-09	-3.185114329169136811e-09	-3.308566231982452736e-09	-3.284553963239846901e-09	-3.938204263261703706e-09	-1.780757125270040632e-09	2.433529178717842856e-02	-7.210858396402124327e-10	3.095034307826424309e-09	5.962560291819645130e-09	-2.347358821081273710e-09	8.936816367383164419e-10	4.988278437041442775e-02	1.369888016188713642e-01	-4.842919588769863414e-09	-5.112717518235071834e-09	-3.489750061193108078e-09	-3.744177889198357037e-09	-4.200464968722315528e-09	-3.891104796365164297e-09	-3.856374548023718479e-09	-3.863876793725358921e-09	-2.656730216864005201e-09	-3.904703451143516640e-09	-4.028351215713524121e-09	-4.235095789858564159e-09	-4.091159959448506683e-09	-4.372086940448891027e-09	-3.723791637839840460e-09	-1.758669274661168482e-09	2.136045822922099519e-02	1.361260908764298077e-09	9.327869108165707484e-09	6.810301688935543885e-02	-1.296479801442192906e-09	3.915093106881471571e-09	1.025247318340412568e-05	5.718054499027288434e-02	-4.126223313151448849e-09	-3.278542518373825977e-09	-2.820052839012617077e-09	-5.022951822628672816e-10	7.860742951132528709e-07	3.651377393667010785e-09	1.272550433027559136e-08	9.794125833947872617e-02	1.259903506899901790e-10	5.852798585174316834e-09	1.194844368034362208e-06	7.324009408787658609e-07	-3.559776041906390362e-09	-2.528308731005612836e-09	-2.063638079174958733e-09	9.589248461285584994e-10	6.755143731194295540e-08	9.330215687061448418e-09	2.729819660242447345e-08	3.549937089478555907e-01	2.239056543559104038e-09	9.358432732087283027e-09	6.501779546872042681e-02	2.168497908396197732e-08	-2.784028286452514744e-09	-1.670068161628290432e-09	-3.870775389732686747e-09	-2.542767322371027564e-09	-1.986519330897264725e-09	-4.205412414093055149e-09	-3.512952681832371215e-09	-2.803543593093256465e-09	-4.260590195400823816e-09	-4.025307524339604297e-09	-3.638156586517611483e-09	-3.225717848679213460e-09	-4.316510851778000200e-09	-3.530916433810516331e-09	-3.000741007513365492e-09	-8.869490663283070947e-10	9.781437349373455010e-09	1.224428891357148094e-09	4.387471449639065111e-09	9.608283363281427879e-09	9.917856065493688026e-11	5.269883020202398497e-09	5.506158894459362019e-02	6.912176550400764286e-02	-8.980870879702230715e-10	1.995358686161208323e-08	-8.649262792161016166e-10	-1.011146760882726420e-09	-4.305462261275930826e-11	1.306829955733561170e-10	2.245575835376201919e-09	7.776484440152948530e-09	-1.632690525922108517e-09	-1.775797842344366086e-10	3.331713803037598533e-09	1.318415479944717461e-09	-3.111930646329368068e-09	-1.884282811861528958e-09
-2.425406105234548429e-09	-2.498278941489377998e-09	2.151660543302942028e-10	-2.402481884823262710e-09	-2.209489017936975328e-09	-1.685716848950310569e-09	-2.329230347160715304e-09	-2.414867592327184324e-09	-2.413581184432453244e-09	-2.029050294791822948e-09	-2.566331003147300301e-09	-2.594616615149232272e-09	1.659820474256354816e-09	1.598193251101182527e-10	-1.797653506346034606e-10	1.214964879708905356e-09	1.290141155074778088e-09	1.339312229380456205e-09	7.060795250979495163e-10	6.255286186840321229e-10	6.480249613151181924e-10	-4.960388484451216373e-10	-3.264563135971829533e-10	-3.951064766065327184e-10	-1.410918184368238537e-09	5.742524742393033263e-10	1.203330389519745823e-02	2.015678508190831089e-09	7.000314298398865282e-09	4.421001558306541107e-08	-1.204685216824744289e-10	3.057757692366296391e-09	5.672288827493670443e-02	1.385598663016318899e-01	-2.100850645432553543e-09	-1.387166636653494423e-09	-1.182393298613319493e-09	-1.673610561378281410e-09	-1.778844153781266447e-09	-1.427491813051233737e-09	-1.461249551182890358e-09	-1.454744963550611622e-09	-3.710440694265627040e-10	-1.676860248475662897e-09	-1.636323234962180091e-09	-1.902028643941473471e-09	-1.804830890426288248e-09	-1.860610103142030750e-09	-1.311771041403641738e-09	7.173657131922195333e-10	2.876776187481919211e-02	3.724390045590392193e-09	1.228424934858978304e-08	5.625231468705527149e-02	1.049651010830347619e-09	6.414439595332301597e-09	6.832990759162283108e-03	4.975849376939665142e-02	-1.538536095160798141e-09	-5.941625990285622373e-10	-3.433068190344794023e-10	2.038200439851673435e-09	1.326492139576294078e-08	6.191237373148418863e-09	1.643326059911632229e-08	9.904815655055203283e-02	2.592624026337264151e-09	9.352940715811579310e-09	5.172557592557407544e-06	4.431620475451721298e-08	-9.461619897220604295e-10	1.440612826352194394e-10	7.310525620631810802e-10	3.793024125932835017e-09	3.494322915946408445e-08	1.213782366066159388e-08	3.178844845730569359e-08	3.644151340243239057e-01	5.196024750830374643e-09	1.390468969737092036e-08	5.427762080174153986e-02	1.649304150941100507e-08	-7.961370862596766688e-11	1.016037526612434723e-09	-2.024870390568081318e-09	-1.861836519308233880e-09	-5.485985110890739855e-10	-1.832475150107255721e-09	-1.658549212331056407e-09	-1.213503589615511835e-09	-2.000566664130740484e-09	-1.850354385450214469e-09	-1.401742850431890063e-09	-1.239840748927010429e-09	-2.209732386647804738e-09	-1.811231662596656543e-09	1.811966662102553334e-10	3.889065095480189368e-09	1.417821341305635263e-08	3.700479996649668737e-09	7.383753902895574962e-09	1.365455345562010789e-08	2.091561343093816725e-09	6.987547816053369651e-09	3.397402476967043700e-02	9.935191452133801393e-02	1.690885348339501163e-08	2.917838818817306718e-08	1.816621856109466513e-09	9.888175465290415288e-10	4.081209190069755441e-09	2.657775302636654796e-09	3.034448985800740950e-09	6.348634528692608723e-09	1.303045293110812117e-09	2.646582701875030480e-09	4.664532068747631325e-09	2.646181376805947118e-09	-2.909064379734769244e-10	6.009387636636222786e-10
-1.631078394444666404e-09	-1.784656680760087387e-09	4.206467857726176483e-10	-1.694300430473271474e-09	-1.484778606186806695e-09	-7.414072393334138522e-10	-1.586507308318847579e-09	-1.715649366327433731e-09	-1.724334659785161815e-09	-1.575630099004781469e-09	-1.798606468994689607e-09	-1.849602229493276302e-09	3.338199157979997122e-09	1.916641939911250623e-09	1.513622671038902757e-09	3.145897298219031370e-09	3.200560551019424964e-09	3.241202301803391713e-09	2.688648806516845516e-09	2.592154481470104768e-09	2.620738703753772698e-09	1.163419145090922987e-09	1.574896154565221405e-09	1.386689613312047526e-09	-4.504159930024478222e-10	2.146954328756539886e-09	1.366719371034954937e-02	3.851253441405774357e-09	8.552390435159875864e-09	1.625453233947731428e-08	1.688648537112813200e-09	6.130958138785435485e-09	3.981151278213696659e-02	1.458282265714472836e-01	-1.854073322245610584e-09	-1.370598093041543912e-09	-1.300285670416154266e-10	-6.448485581868468746e-10	-7.855020759493536032e-10	-3.925358543870258856e-10	-4.514155180679133259e-10	-4.630002236399527626e-10	4.293233784703539169e-10	-6.253122516018061790e-10	-6.475511363595621118e-10	-9.185939804254181372e-10	-7.328641665575640685e-10	-8.470761163672140546e-10	-2.763614776042765909e-10	2.467408498711655236e-09	3.266197560346062456e-02	7.175491146799888801e-09	1.964867189989297185e-08	8.893963949169716998e-02	3.548334228276867715e-09	1.193441151498922905e-08	5.977670804476252139e-03	3.712264003690370767e-02	-6.622406023944856952e-11	7.816956254788819990e-10	1.049987523033393445e-09	4.989376770595119925e-09	5.127923943300861224e-07	9.542986561161543069e-09	2.203623774708463347e-08	8.347929345888369101e-02	5.244268916762629191e-09	1.419634093364505659e-08	3.012861456085402449e-06	9.565536580802691373e-08	9.339563072136026617e-10	2.093714867042779040e-09	3.239206857231991141e-09	9.985086094161983296e-09	1.690308109998687390e-07	1.828015928402989033e-08	4.562381819103806425e-08	3.435326749674610380e-01	8.746441227908719225e-09	2.021046532269534925e-08	8.309247590266234662e-02	3.771199780384680982e-08	2.596719635399218696e-09	3.979458874443830930e-09	-1.289683348712764971e-09	-1.274727946128770300e-09	5.934662738503497160e-10	-1.060750500826835716e-09	-9.110955536760567290e-10	-5.434324707838640544e-10	-1.168252013951928202e-09	-1.070869621388863760e-09	-8.247117589481233441e-10	-7.062585477689346063e-10	-1.364512691247343557e-09	-1.192912218604746415e-09	9.658545979990188178e-10	5.211032289726802935e-09	1.658384059147862384e-08	5.713845146387329389e-09	8.881252402597297134e-09	1.153033642085093795e-08	4.741826777517089261e-09	1.150709734617774778e-08	3.003014218641345684e-02	9.585230238958004911e-02	2.393692200883054710e-09	6.305369767614934679e-08	2.839203115089224455e-09	2.454201760426133721e-09	6.323414092824464869e-09	3.782840819974657741e-09	3.569195522791014030e-09	8.794444510007864948e-09	2.745927063319585381e-09	3.749292154735913252e-09	5.197998780289339076e-09	3.523574313872283943e-09	1.270057378821375335e-09	2.104954700465521640e-09
-5.084936495125232062e-09	-5.457739771923458199e-09	3.349517041758606534e-09	-4.828973012348427892e-09	-5.003975724015172622e-09	-5.088015261794974848e-09	-4.214239884526952284e-09	-4.833327869482922079e-09	-4.971158310427240590e-09	-5.130107299062402922e-09	-4.931282757057808151e-09	-4.967941245173258536e-09	7.240092889880260041e-10	-1.586645262397348991e-09	-2.154045182453407000e-09	-4.972499980339838114e-10	-5.598938728165497688e-10	-6.297126755998247630e-10	-7.807419727650114863e-10	-1.124299631627036700e-09	-1.285089685817909674e-09	-2.547076167801019706e-09	-1.860345291919024073e-09	-2.266482196823709262e-09	-3.395627931489697555e-09	2.018977354700168840e-10	3.017201671758232284e-02	2.018516295482101036e-09	1.005973818966137691e-08	5.887451860661093815e-08	-9.287657344974634942e-10	4.331975213038631157e-09	2.292430778769109084e-02	1.479553408771124567e-01	-2.610645145590896532e-09	-5.510054775805452113e-09	-1.413130427075252011e-09	-4.256047993308840676e-09	-4.316504684789336349e-09	-3.728357190789135505e-09	-3.807748768436171117e-09	-3.867466939977746465e-09	-1.449346330557345976e-09	-3.601866044129782578e-09	-4.093416916589812314e-09	-4.531766798379368480e-09	-3.624342556149742407e-09	-3.930388660480852433e-09	-2.978779963999847313e-09	5.379864308881671291e-10	1.589781693690367134e-02	4.666391136962698839e-09	1.849052920088358978e-08	6.587259126212507976e-02	2.410285177526261879e-10	6.960201501353296099e-09	2.276778427176098449e-02	3.880368273364577514e-02	-2.780329739000901615e-09	-1.565836599447065737e-09	-1.623449878814142393e-09	2.596851000775132020e-09	3.762386667191748767e-07	8.594069909177838400e-09	2.570290627690933940e-08	1.102715753853722308e-01	2.717048529684467517e-09	1.118129221545908897e-08	7.592259136795047069e-07	1.050851938495129568e-07	-1.661019199011108134e-09	-2.887159410178679433e-10	-3.275729479510388403e-12	5.685732573324898838e-09	9.266847493091859570e-08	1.676502253714304040e-08	4.672632169464807126e-08	3.485928322938824930e-01	6.859653996341153936e-09	1.940778409968899645e-08	7.206544000360604052e-02	2.874220509950187953e-08	-2.792597139124742132e-10	1.153859302298560148e-09	-4.563188404789916458e-09	-3.108809069455454113e-09	-2.783511024544189519e-09	-4.172562557810000184e-09	-3.725714914506194294e-09	-3.216046335921833426e-09	-4.124577921518805842e-09	-4.109661248089832796e-09	-3.188944137508116945e-09	-3.173100625701327487e-09	-4.457612498098160239e-09	-2.730490646506251669e-09	-1.408859909887055772e-09	2.572172107637590690e-09	1.771863576398223448e-08	3.711361533758395496e-09	8.647759352951859494e-09	1.197390267535497154e-08	2.874532239130497983e-09	1.131232199123441409e-08	3.613549679696312356e-02	8.853948873304280653e-02	8.085608383349277109e-08	4.939795268200529441e-08	-8.130951258417205984e-10	-1.215890847427162123e-09	-7.573639207055175926e-10	-1.261791962907258081e-10	1.520471943731115593e-09	4.323262776651925876e-09	-9.500885953030150982e-10	-3.859597136874746797e-10	1.728983709576117647e-09	-2.816869331302683761e-10	-2.530521580327110715e-09	-2.371145511265905300e-09
-2.115369574085040454e-10	-2.468251689490607820e-10	1.296919758071613195e-10	-1.932969676960893986e-10	-2.042838736041813767e-10	-2.128219937660144337e-10	-2.010026311741380407e-10	-2.244545615674980390e-10	-2.304488342567351764e-10	-2.233681355194745842e-10	-2.258275293566767119e-10	-2.317423455414762764e-10	6.716508817447157364e-12	-1.433180205943266561e-10	-1.662237191940021623e-10	-1.000171388422915316e-10	-1.076339845970401801e-10	-1.117031230282428405e-10	-1.041647142243812838e-10	-1.226049616758469982e-10	-1.334524216527194684e-10	-1.720212612383854281e-10	-1.337339131807341204e-10	-1.609866316260915112e-10	-1.595346737863117577e-10	1.996490219025944820e-11	2.586421245214573852e-02	3.142571778498315460e-11	3.130232312234302523e-10	2.039510296410924755e-09	-6.578661920317570125e-11	1.349051063125326248e-10	4.461368730799188803e-02	1.379221680659062366e-01	-1.313117698598993703e-10	-2.005181095279395311e-10	-1.370712494601078826e-10	-1.719004694900539272e-10	-1.874666563589469700e-10	-1.858209641103185178e-10	-1.885283175896654692e-10	-1.918713515348923010e-10	-3.804619853599552038e-11	-1.540244627215519026e-10	-2.000382873114608119e-10	-2.219871725351558677e-10	-1.569350132328818575e-10	-2.048356052306661411e-10	-1.498594805584773983e-10	-6.288127993551011807e-12	1.668268123401070099e-02	1.402792275192824614e-10	6.403333151861920305e-10	8.341319164408772524e-02	2.933325837972943345e-12	3.353433774404161160e-10	7.347489397110050155e-03	3.911277786661004896e-02	-1.288815682891433344e-10	-1.135067462768635029e-10	-7.825172669955325092e-11	9.461132533312643422e-11	7.225635076816579658e-08	2.909896785134890411e-10	9.382728786100906039e-10	8.159927040918911467e-02	9.929718319150773551e-11	4.757198660002984570e-10	7.323392997866475218e-08	3.966754792853509050e-09	-9.158472319580295804e-11	-7.345168727867246993e-11	-3.516437402284157422e-11	1.656081130620233725e-10	3.270660925198126962e-09	6.227467003321608143e-10	1.717639602694264311e-09	3.331034700729543219e-01	2.347380143486944838e-10	7.026059841276789199e-10	9.298410003303306248e-02	7.836266325133164226e-10	-4.903242554834584272e-11	-2.895689043847080113e-11	-6.963115392415056554e-11	-2.117600386772163704e-10	-1.340666194439797866e-10	-1.883122230893762876e-10	-1.586615089130552623e-10	-7.989242431749034816e-11	-1.867936242999861548e-10	-1.798856166335824423e-10	-1.609588562827946640e-10	-8.502652012961377066e-11	-1.865256638167257330e-10	-1.595975377090406515e-10	-9.791057683797993116e-11	3.320657889951037393e-11	7.219287944303135688e-12	9.295863043908516840e-11	2.153201332807635873e-10	2.125259860958410084e-10	8.874678687073241806e-11	4.252472070906159835e-10	3.600811658494868644e-02	1.013486798999502780e-01	1.210115777817195447e-10	9.697444914013799746e-10	-5.570043117099920511e-11	-1.020054801283925901e-10	1.577175842167263874e-10	-7.062583648974309277e-11	-1.371654859014354054e-11	-3.175706870826904000e-11	-8.213321477596294516e-11	-7.463011016510913147e-11	1.478711636430144067e-12	-8.736090372153570944e-11	-1.490732415294569702e-10	-1.626456987755164754e-10
