-9.112923717581491008e-10	5.227036775455790560e-10	-5.084245582531387175e-09	-2.445336529247877969e-09	-2.075645494425924510e-09	-5.388316550298699052e-09	-2.388077172643671198e-09	-4.746488979061388047e-09	-5.201961104622157085e-09	-5.373321248016521182e-09	-4.800439387757355773e-09	-2.148697450092450511e-09	2.663858810187739946e-08	1.959042804677820466e-08	1.914550771565466615e-08	2.758470928233601478e-08	2.647051229373185128e-08	2.530962640563085303e-08	2.529653323421499087e-08	2.481167059003280613e-08	2.327053040456946441e-08	1.634668602029137891e-08	1.731969299969234538e-08	1.494563029148602507e-08	7.321887211067978279e-09	2.902280185512134161e-08	3.932161388233569588e-02	6.420192078734707081e-08	1.496255513161226006e-07	4.631268886409904152e-07	2.807722489834899161e-08	8.482016385698286810e-08	5.084753578606832775e-02	2.100428196757726795e-01	1.090693962509937816e-08	1.527922908411244052e-08	7.521892962560362966e-09	3.471040840084138494e-10	-5.944071635830626723e-10	2.603879882642306655e-09	1.924021129828308747e-09	1.274442780847318090e-09	4.452073179894267719e-09	2.135351674106942506e-09	8.082913813782762053e-10	-8.719744171102503012e-10	2.744280280822016901e-09	1.968885368318294732e-09	1.039313625948544262e-08	3.418866331599816554e-08	8.511934134982513528e-03	1.038750837391679390e-07	3.925346329072298344e-07	6.373856411894665737e-03	4.105925625718348829e-08	1.387600556328650282e-07	7.836956363619593810e-04	7.541414813087626845e-02	1.251389777873537279e-08	1.750032101677389697e-08	1.892252715521728695e-08	5.238327023209338691e-08	4.812130719604902976e-03	1.250930758703349837e-07	3.695660524024205543e-07	1.654784521380385787e-01	5.444581965089418510e-08	1.563066483961215140e-07	6.791102004111711601e-05	4.040028014511824365e-06	1.989488288352130939e-08	2.623911008683454168e-08	2.832407584245202777e-08	7.108816174294443935e-08	2.843642204215471595e-06	1.866665539303086007e-07	5.131059029415619606e-07	2.450792853196580579e-01	7.569192188288119978e-08	1.933019498452289454e-07	1.366566645824928150e-01	3.738164098508265878e-07	2.685142565395153200e-08	3.326802528678001961e-08	4.724345582622093352e-09	-1.774038018587472551e-09	-3.422776830476248395e-10	1.555939535041379092e-09	1.395205897394352036e-09	1.020632141286522734e-09	3.040402136198495025e-10	1.478304237067841618e-09	2.811416489216190922e-10	-6.963273211090104484e-11	-1.018083461025379002e-10	2.905169648817169051e-09	1.901209063583980451e-08	4.479268380968312640e-08	2.637153455180722274e-07	8.553550355209889685e-08	1.527171010323401408e-07	2.333008503701249604e-07	5.252235794406121662e-08	1.439649708172223136e-07	3.825065026960293106e-06	5.659368999583686000e-02	3.839911143908630661e-08	4.053200536770178700e-08	1.516336535293317387e-08	1.569318899827831719e-08	2.768387609053199490e-08	3.054610186520128463e-08	3.649858103216799877e-08	3.780497602358788136e-08	1.807236888372834299e-08	2.968187723342824585e-08	3.290791324628255991e-08	2.605102205547001707e-08	9.703644351612039713e-09	8.978526589334918996e-09
3.786871925430084978e-10	-7.551263172012474281e-10	-5.924224347864274440e-10	-6.424308259386101933e-11	-5.254715485692278905e-10	-5.595506549130630262e-10	-3.053827410796375715e-10	-4.715428548756950275e-10	-6.949212558317744863e-10	2.309959380424824564e-11	-3.766327767042650073e-10	-6.677173803408541005e-10	8.177890763310607852e-09	7.249435824357495373e-09	7.930048679319301332e-09	1.082263934487872503e-08	1.083338008043306133e-08	1.063240498833055835e-08	9.147969497114337880e-09	9.725875390032454287e-09	9.725705186654313525e-09	6.728702767997195013e-09	6.693670166063487829e-09	5.929861115456464047e-09	2.631365565801014590e-09	8.215182512929812075e-09	3.137230075970854487e-02	2.017994811148979452e-08	4.735395311458865193e-08	2.084652649800862713e-07	8.334007629969499202e-09	2.273631813856907919e-08	6.420318031366657741e-02	2.064095734970643747e-01	4.160603241449372886e-09	5.568975565373925680e-09	2.060668018854892052e-09	7.532095035018836747e-10	5.303056202593654088e-10	1.487623601150482901e-09	1.279878657102753124e-09	1.143629772605759466e-09	1.275609331834763130e-09	1.043424693390305937e-09	9.437248809890260978e-10	4.811774585736104175e-10	1.286132986165377897e-09	7.966519509869598904e-10	3.347854125479259188e-09	8.797813645093457186e-09	3.028402584547543880e-02	2.926378134792647540e-08	1.021502203235236143e-07	8.690855236276270619e-04	1.086070292319818436e-08	3.060390923621601014e-08	6.383177879649341436e-06	6.771988743717098636e-02	4.786595230736974544e-09	6.324330354644620303e-09	5.475383777220076386e-09	1.295671801895788537e-08	2.263691138015642119e-07	3.607460733608955196e-08	9.366540012759399295e-08	1.681858191730703500e-01	1.486000842785581808e-08	3.750359644248408882e-08	1.195272894410980331e-06	1.037953027224271953e-07	6.588832880590280523e-09	8.213051273941273210e-09	8.170016513429128353e-09	1.761524200543661178e-08	1.482264118903089213e-07	5.448487750382741119e-08	1.410173849060362976e-07	2.614410333491524185e-01	2.227707291871822704e-08	5.517067058103003777e-08	1.203006001266869185e-01	4.805433942610925494e-08	8.387871184064170985e-09	9.715207299920734140e-09	8.852201820293556408e-10	6.546240240124676346e-10	1.080477413345819864e-09	9.359628422736034978e-10	8.879104248002860491e-10	8.223297940391024458e-10	6.920365557596200970e-10	7.632037175853989300e-10	6.138291448310689932e-10	3.222322389771599811e-10	1.039146644643827940e-09	4.956868914717565272e-10	5.135175639866982802e-09	1.119434024011549703e-08	4.370769970498579665e-08	2.334967249448730490e-08	3.784757332655982364e-08	5.581387094332593997e-08	1.390937684010653196e-08	3.382067069223955178e-08	2.977704302028893489e-07	4.920434447645427589e-02	4.441324469863299699e-09	1.499725681651059884e-08	5.574166217187382130e-09	1.093206986990788962e-08	2.874959975314176761e-08	2.741428086518242454e-08	3.392910228471727252e-08	9.759369149613950129e-08	1.126183143243199593e-08	2.669562897674963098e-08	5.053708955338790920e-08	2.254797683095215258e-08	4.884460048467360388e-09	5.276869686632072782e-09
-4.291915982372110865e-11	-2.542846629613403020e-10	-7.057090814620418852e-11	-2.079050199125382682e-10	-2.106143152971472383e-10	-2.413380910108513497e-10	-1.849090378246597451e-10	-2.426417304854488871e-10	-2.519314120946000361e-10	-2.037630380208903027e-10	-2.284356008715679592e-10	-2.438320017375152532e-10	6.836506469228717712e-11	-5.487724993069943295e-11	-9.507481514591301390e-11	-3.117868457020527666e-11	-5.466036254948534443e-11	-6.654260503769351714e-11	-7.870782263351289823e-12	-4.967745676588426245e-11	-7.533826839757605437e-11	-1.028270280042583504e-10	-3.242519969684682894e-11	-6.464590543124254642e-11	-8.581523619578392868e-11	1.640553620882251436e-10	2.910339299724897313e-02	4.780335082260843702e-10	1.266259016773885913e-09	4.525015515348162523e-09	1.356909110639315112e-10	6.977377795892815069e-10	6.482646625724837464e-02	2.062356067216029876e-01	-6.285828834848719550e-11	4.029815680461118112e-12	-8.818750824466822876e-11	-1.821649664557665961e-10	-1.969071273447669640e-10	-1.596900906855951123e-10	-1.685630250633543500e-10	-1.753700839465326036e-10	-1.172999697793766814e-10	-1.567523316964356530e-10	-1.776917096866971237e-10	-1.989084621204772717e-10	-1.043543831123128618e-10	-1.838038567966646572e-10	-5.000452129354081581e-11	2.208196600139519041e-10	1.787153873973459928e-02	7.924843160028543645e-10	2.748352310536697610e-09	4.957754913915981133e-08	2.490707484558670336e-10	1.059956494978624337e-09	1.027469863873652421e-07	6.998136033805697764e-02	-3.108630752093829725e-11	3.860556106674009788e-11	5.099119083692558711e-11	4.227895277953122771e-10	1.227690760617210393e-02	9.856877562452266956e-10	2.986505014013898224e-09	1.566824483011070579e-01	4.126002925605755345e-10	1.347636143416732470e-09	1.837747265785126783e-07	2.057387209261127872e-08	4.646528124356085494e-11	1.284198724047991193e-10	1.503847782018779592e-10	6.067505958026833093e-10	1.470305364017616889e-08	1.754183349572205832e-09	4.763749177078610954e-09	2.637895151847103881e-01	6.708469138204792448e-10	1.795363171931343014e-09	1.257339043073833207e-01	3.311132429358549342e-09	1.263083230010118964e-10	2.072981124348550970e-10	-1.279151461860918939e-10	-7.436336209162602526e-11	-8.784323717750188774e-11	-1.326160679439668710e-10	-1.374106877834427748e-10	-1.426616175998441847e-10	-1.634134934708360655e-10	-1.431587608345448543e-10	-1.491756718984555453e-10	-1.650009391638048752e-10	-1.395411799193965482e-10	-8.600399894255862835e-11	2.573231339906787951e-11	2.438866199186325287e-10	1.638133204396682085e-09	5.388026015383420533e-10	9.886678430329354225e-10	1.466640677705918117e-09	3.116312190941987595e-10	8.627758936241424293e-10	6.850021310046335486e-09	5.349844821250505922e-02	3.222296643994075143e-10	2.510947904560609075e-10	-7.638630540243657727e-11	-1.608466281621763177e-10	7.100324133808399703e-11	1.006747253562726290e-10	3.505992712966897903e-10	5.012437816201435584e-10	-1.806614122966081885e-10	1.244825807610664792e-10	3.536892764921981759e-10	1.936712057265271101e-10	-1.491568802030273330e-10	-1.786487844598221746e-10
-4.852231858485025653e-10	-1.288179797347653772e-09	-8.145161034572199748e-10	-7.363391464044387145e-10	-1.262591891145939442e-09	-1.208193551374341187e-09	-9.338274712049339084e-10	-1.239751600668844055e-09	-1.278220460504595827e-09	-4.409350365195622581e-10	-1.030640445162129972e-09	-1.259234850128921370e-09	-5.854062572898245206e-11	-4.988894609555052710e-10	-5.801566532371610470e-10	-2.580005925968841403e-10	-3.241333282169880392e-10	-3.623853295615605749e-10	-2.988080384378027019e-10	-3.310841761885920509e-10	-4.259944810110998227e-10	-6.365410359638818405e-10	-5.113857275702209875e-10	-6.220133907443157379e-10	-8.011318118058522213e-10	-2.227889994086767884e-13	4.333161833254755430e-02	6.671438215885788510e-10	2.142212913683723670e-09	4.794586991685450101e-09	-1.511872671504101049e-10	1.608442367353623080e-09	5.370844327307327387e-02	2.001487730366378059e-01	-5.971140768997691435e-10	-5.088320718581768817e-10	-5.183300635059923771e-10	-9.004800968244897219e-10	-9.770172540779379214e-10	-8.238245329359177018e-10	-8.581394436100306226e-10	-8.850639655506258282e-10	-6.321395754240091835e-10	-6.836826128768667607e-10	-8.806119927447839979e-10	-9.767204928702820099e-10	-4.916620488809719397e-10	-8.255772270529541278e-10	-6.540381235490950855e-10	2.926052612697918935e-10	4.677901074134739948e-03	1.979661846644294866e-09	8.298489717253869084e-09	4.477052835742537872e-07	3.544566027845002380e-10	3.752576674321926196e-09	4.498779935949403082e-05	7.651145636918571524e-02	-5.880543638709136186e-10	-4.633959823196954236e-10	-3.300878064013166336e-10	8.378028566630163696e-10	7.274254657134521240e-03	2.542541128815877366e-09	7.464374523227099385e-09	1.746057618841959647e-01	8.431700862386532964e-10	4.612889563341379422e-09	2.483397251988965211e-04	2.016385753001862432e-07	-3.284606635501326454e-10	-1.625482993777276103e-10	-1.595277393021809014e-10	1.074481276687500964e-09	3.241887316321456341e-08	4.641318362303049072e-09	1.183470464991286719e-08	2.474790728541572393e-01	1.392869408280223085e-09	4.727569154909724094e-09	1.426225468283727205e-01	9.940197147887856327e-09	-1.192943928924147750e-10	4.956206991311827411e-11	-7.382367743681876941e-10	-5.523378265020247554e-10	-4.782448196758497977e-10	-9.138116804435892613e-10	-9.143897341564933666e-10	-9.262760397690997384e-10	-9.850146498300058299e-10	-8.833031551713924771e-10	-9.625707304355232704e-10	-9.010736509560372542e-10	-8.642963328944294457e-10	-7.618656216164456504e-10	-1.033398386483091629e-10	6.021066500961147365e-10	8.962000983207612949e-09	1.246299330978380792e-09	2.855836482355562198e-09	5.149415601592134528e-09	5.949324897363981767e-10	3.058101751680246350e-09	9.588197057379971430e-08	4.934601568328250698e-02	2.455083682153882382e-09	1.297923235267772880e-09	-4.751322914032785719e-10	-6.787273520779411592e-10	-5.439404707948632970e-10	-7.616296023365307298e-10	-7.285786592146899337e-10	-4.246559703338528842e-10	-6.329149010623623811e-10	-7.621227920875036728e-10	-6.097897693808565828e-10	-9.406008636094219835e-10	-7.082165877612140304e-10	-7.815383950516776507e-10
4.746982393285120896e-10	-1.141220767844956103e-10	4.652477333882894614e-10	1.258984240908678527e-10	1.466286360953249170e-10	-3.212257939864297536e-11	9.598022187688917128e-11	-4.805150195787254375e-11	-1.313390010676359938e-10	-4.396937310086988488e-11	4.178762611242334959e-11	-2.304304145641204072e-11	5.363487674299879435e-09	4.547890948906412213e-09	4.623515767561800514e-09	6.089449719241092281e-09	5.957121272446976723e-09	5.769127134032414234e-09	5.444675710628178305e-09	5.506716425367602665e-09	5.349595111781898978e-09	4.001373046967860636e-09	4.040974298247683717e-09	3.641274523853204218e-09	1.888872292830577292e-09	5.382294302640464075e-09	3.639585301815451146e-02	1.170562958892851187e-08	2.681592018526565782e-08	8.979265652453599026e-08	5.227422021194851259e-09	1.405109597850611087e-08	4.667524917576867244e-02	2.220567140034777343e-01	2.604941250899793719e-09	3.422086947254674378e-09	1.730319405798862719e-09	8.836758238549623181e-10	6.935856783772321823e-10	1.216680105249556806e-09	1.096325684452746806e-09	1.004810187838116305e-09	1.245750757719602471e-09	1.070872188310354434e-09	9.067298822814529621e-10	6.290724221387254211e-10	1.187186795670394942e-09	8.968892279908844548e-10	2.307921404268477429e-09	5.907465196733373383e-09	1.338765323585266662e-02	1.747827769993671762e-08	5.996642313956094177e-08	3.795038577929391661e-04	6.876618303584352323e-09	1.935387949682286091e-08	4.097421569613756732e-03	6.747037888845217046e-02	2.971129054552400871e-09	3.862775827131704498e-09	3.685420240311464635e-09	9.266222078950208583e-09	5.681143551534667373e-04	2.185476584423004974e-08	6.090807294667676660e-08	1.777467513939671728e-01	9.035109788399835579e-09	2.252054559698126825e-08	5.304647238754713175e-07	1.628634370650641651e-07	4.109789057111579270e-09	5.160081597975668105e-09	5.198168086743722064e-09	1.159879035289591334e-08	1.177023080556056712e-07	3.252458469682798077e-08	8.896452743213682818e-08	2.325355514152520064e-01	1.340468848756836202e-08	3.350266604627693539e-08	1.481995288367973229e-01	4.583036363520268684e-08	5.528443543706851965e-09	6.580738475423791194e-09	9.601595751801646836e-10	7.654011297088436245e-10	6.251156410076150954e-10	8.280725098599341575e-10	7.443415456340323807e-10	7.065934765962465226e-10	6.858769652330603479e-10	7.373033271736000243e-10	6.039392763923587573e-10	4.906699174510441600e-10	7.685425726525473544e-10	5.007578444195333993e-10	3.604468645712883820e-09	7.799511489130924658e-09	3.141892110288124010e-08	1.343145449075574604e-08	2.111663816077024831e-08	2.891020079191975893e-08	8.282719946792016256e-09	1.862870618065805218e-08	8.156983175674047013e-08	5.048538229282661244e-02	5.784421078361420161e-09	8.022560181508139712e-09	3.526027924524306455e-09	5.053704781051206585e-09	1.098189894517406822e-08	9.837061065152942421e-09	1.236819725062944588e-08	3.061394412501065526e-08	5.393276382541661961e-09	9.356253687876595444e-09	1.579891645148747793e-08	7.929741290810404683e-09	2.934503842185278719e-09	3.003608357770473073e-09
-2.685060201493488443e-10	-3.331902767153686377e-10	-1.785460663644444660e-10	-2.152712744155535117e-10	-2.823631334130955622e-10	-3.306949983416970153e-10	-2.884488964301717158e-10	-2.834689998853109903e-10	-3.278144345214865472e-10	-9.900599646840586397e-11	-3.305682627828859894e-10	-2.857922410369699042e-10	1.807995488931182127e-10	-7.570139189909305128e-12	-6.675434111685716935e-11	3.080435033864624685e-11	-9.511286533563946254e-12	-2.983495723062936791e-11	5.060256288969912758e-11	-1.851828929040896424e-12	-4.036429417032326122e-11	-9.265971947880972915e-11	9.604645147890486582e-12	-4.174093649596733018e-11	-9.770543744669031373e-11	2.923078766305661771e-10	3.603193330298066349e-02	7.707755246114999637e-10	2.009767452719933421e-09	7.931299331738300841e-09	2.327659151790018217e-10	1.092588567269122648e-09	6.459455266497067527e-02	2.076264624767331646e-01	-4.495926514028961346e-11	5.041303517255620017e-11	-4.721566036708711856e-11	-2.331452246187890524e-10	-2.627021507971783535e-10	-2.032637816495217941e-10	-2.125050300898063126e-10	-2.268936176052272892e-10	-1.728988182807830159e-10	-1.749740287873017342e-10	-2.279371266504703271e-10	-2.541574543323729267e-10	-1.357717812207088745e-10	-2.268819456434782751e-10	-3.728993757951654988e-11	3.830448788107987540e-10	1.394418624591030505e-02	1.306712805822177321e-09	4.752913977151564504e-09	1.479463994254829780e-07	4.187083492389196858e-10	1.711482514426095167e-09	2.829162334890141319e-07	7.035837816111011056e-02	-2.015972043318398997e-11	7.300507030817576534e-11	1.119213134412118201e-10	6.922450158931663467e-10	9.374545041462194542e-03	1.567108788492858898e-09	4.852156760542767343e-09	1.655333594513224427e-01	6.572590205866819241e-10	2.126894636559905836e-09	2.934112914530588151e-07	6.360835005427784537e-03	1.438831401782694694e-10	2.879204586291784592e-10	2.663719207145229076e-10	1.005473026218963517e-09	3.917738837161375418e-08	2.682492354495203678e-09	7.394040875429116597e-09	2.566390810585186810e-01	1.008487385235649004e-09	2.685421602254595438e-09	1.305587913871954775e-01	8.877906884550245029e-09	2.623676364941717599e-10	4.018981675183492780e-10	-7.937812428395513353e-11	-1.769315641170520551e-10	-1.383204443099439726e-10	-1.890487944934026607e-10	-1.939833554420169010e-10	-2.025758114983647954e-10	-2.090254184627717568e-10	-1.999873383472750819e-10	-2.168726405438117429e-10	-2.193747878605784353e-10	-2.275938176590150129e-10	-7.880892166110035017e-11	7.596317029886152796e-11	4.185071987189189901e-10	3.025303981875200905e-09	9.269045177868900045e-10	1.829765007124063701e-09	2.992565923453517272e-09	5.561296631955466236e-10	1.557905345516427152e-09	3.056095326395442508e-08	3.897701625269089226e-02	5.750740663542151971e-10	3.963559165999300678e-10	-3.833591465584530313e-12	-7.115850060237858058e-11	8.534606773549406825e-10	2.589844368843036074e-10	6.126800560815722911e-10	1.650057547591936236e-09	-1.014454409788477325e-10	2.558159334304844878e-10	9.641066317584651872e-10	3.672100582834827953e-10	-1.359860325662264008e-10	-1.620799010990340294e-10
-2.667644281840397394e-10	-4.090517225254524197e-10	-3.128634429991186872e-10	-4.060510446473323328e-10	-2.589229301569060753e-10	-4.114050206775771650e-10	-3.614872350402691139e-10	-3.924589288836897237e-10	-4.546070560659491468e-10	-3.154088614617043341e-10	-4.106296855197888720e-10	-3.293936793384039283e-10	7.048780829272437636e-11	-1.648483765841202305e-10	-2.313298487293371470e-10	-1.341503959317605391e-10	-1.712128822937657165e-10	-1.905889450036921106e-10	-9.897736256169203771e-11	-1.600447513926159075e-10	-2.028701979032445457e-10	-2.516714602123786849e-10	-1.682082826361498516e-10	-1.936399378765426661e-10	-2.123224445070124583e-10	1.187819249502997274e-10	2.574580843591976059e-02	6.410552326681541007e-10	1.861950967182662896e-09	5.948586101132854070e-09	1.153004640114039400e-10	9.509861999889303272e-10	6.157459656653987978e-02	2.161398484978128143e-01	-2.532136834625322927e-10	-1.326272504896490603e-10	-1.570549624545270594e-10	-3.460121483708500925e-10	-3.667032959772065993e-10	-2.990001813645247660e-10	-3.196160046393044992e-10	-3.261245750220825866e-10	-2.473133756424880744e-10	-2.198490214374726318e-10	-3.317764927757547757e-10	-3.635494549414072846e-10	-2.867266424604227539e-10	-2.379656391231883150e-10	-1.612475544140472805e-10	2.704716437652323805e-10	1.215959301986202327e-02	1.243496496570172330e-09	5.184203293779527103e-09	1.767669254524905887e-07	3.590508081815102239e-10	1.973327464344414725e-09	3.415827288733909862e-06	6.830225182225571623e-02	-1.948822331631544415e-10	-8.045826065142139526e-11	-2.491445742308264519e-11	5.226822705292271348e-10	1.802074351197493693e-02	1.460720349638275992e-09	5.050945103455249126e-09	1.590199745452326729e-01	5.975557450950525861e-10	2.405086238828870467e-09	9.172026532408307701e-06	8.606232021976898746e-08	-8.558944527060122383e-11	6.601955375576539503e-11	9.334829168509663404e-11	7.044715889602783260e-10	1.385022953853487254e-08	2.589706846163911004e-09	7.261557737144059425e-09	2.623346903351935766e-01	9.215036769799680575e-10	2.677045649153910693e-09	1.242438681825087515e-01	5.061476992332698764e-09	3.764402768068239938e-11	1.801041187300737084e-10	-1.619485734323591028e-10	-2.722584900254659889e-10	-1.949152429081651526e-10	-2.858677962225905917e-10	-3.130743034296225079e-10	-3.196065685025772380e-10	-3.150511712555396119e-10	-2.882394412979178978e-10	-3.263127787600080891e-10	-3.235273977203949910e-10	-2.028413565627710389e-10	-3.403825669147993698e-10	-3.933260922829025741e-11	4.538105432796272344e-10	2.456344338131059559e-09	6.621211468849351508e-10	1.357181055263491050e-09	2.030650936645088883e-09	3.247827286986873712e-10	1.244855257059191728e-09	9.791522449408723099e-09	5.244570523042997590e-02	2.980113468794877991e-09	9.085940208203108847e-11	-8.761263554089197852e-11	-2.053315180284524160e-10	2.050309053428894094e-10	-8.613698004634474623e-11	6.942366599599326726e-11	6.398344935172748414e-10	-2.335706632743926396e-10	-8.718220408716949063e-11	3.642502640884627850e-10	-1.093142479009505031e-10	-2.856603582473907336e-10	-2.976728508224292825e-10
-5.461990240198615070e-09	-7.871185501577780019e-10	-7.368659955330004093e-09	-1.566092113804059095e-09	-6.538054843506007334e-09	-5.747842028028562270e-09	-4.839970506751800891e-09	-6.833973237660817689e-09	-7.083031514260529815e-09	-6.676322809867474773e-09	-6.388427019887270993e-09	-4.984467443943315176e-09	1.025265272785283819e-08	6.479334684121208987e-09	6.563979650606439405e-09	1.157174703364046911e-08	1.107174490823640070e-08	1.059513720824508883e-08	9.388743058599538937e-09	9.592118240812219994e-09	9.037446093691128261e-09	5.050311827369856189e-09	6.023771514391032528e-09	4.594156452551297038e-09	8.674554020562105584e-11	1.148612053635494835e-08	3.120835636182651626e-02	3.072240154353500138e-08	7.246834593758510202e-08	2.288489828439957792e-07	1.047253547218727915e-08	3.715746295429828289e-08	3.784511733302543118e-02	2.252457463686748651e-01	2.063955945370139754e-09	5.284470013971864354e-09	1.329820101517919588e-10	-3.242850932321338492e-09	-4.329057831232911039e-09	-2.478703242369265398e-09	-2.824541936960913001e-09	-3.179302505912702262e-09	-1.676930988920271410e-09	-2.627417173683094075e-09	-3.476640692000027258e-09	-4.243957865724844511e-09	-1.488917822723256908e-09	-2.752999966159814395e-09	1.498141529116625855e-09	1.252070997661791386e-08	2.185667129956283053e-02	4.631655115838902965e-08	1.603295088440907211e-07	3.023845136290325645e-03	1.468184061489081690e-08	4.724515934269755116e-08	9.374362673527173936e-03	6.159071115555523473e-02	3.235667868541096671e-09	6.487895891982204329e-09	6.469698222010097314e-09	2.272189229280039232e-08	5.422792226508685136e-03	6.179609788542224141e-08	1.663995966499812122e-07	1.721222749689082232e-01	2.206133265273074734e-08	5.995113530621521384e-08	1.068810320184253591e-06	3.768809898526746745e-07	6.811484930033043358e-09	1.042204197735965547e-08	1.108551544069112217e-08	3.112221348250652558e-08	7.169701467891389806e-07	9.560283167396904977e-08	2.491259384525701176e-07	2.440241372219834060e-01	3.621257078033719247e-08	9.481258263402607384e-08	1.455433355165600406e-01	1.601777158413820912e-07	1.154445806980322857e-08	1.536753368677660234e-08	-2.393835661681694456e-10	-3.099010910730326607e-09	-2.778097715904016186e-09	-3.048884379619148253e-09	-2.929612554834638413e-09	-3.251693818704890372e-09	-3.831629072879740510e-09	-3.064429545961593610e-09	-3.722137112091991757e-09	-3.241028465183015377e-09	-3.625851290001139445e-09	-1.294555470572299804e-09	5.609034677083718274e-09	1.661594134623635636e-08	6.203921680148448494e-08	3.087981712154672700e-08	4.644044238858355727e-08	6.236736131455962575e-08	1.803563798818366928e-08	4.176477912015632473e-08	1.164963881821963677e-07	4.273790207554460652e-02	6.017332694572342302e-09	2.089141782096165580e-08	6.498194405731459637e-09	1.565483788335376094e-08	3.359185890730977223e-08	3.760387494053338386e-08	5.549531717993525540e-08	1.147263147950755147e-07	1.319825514343037894e-08	3.650437170119396726e-08	8.495974076407207633e-08	3.119305023861605298e-08	2.763468678411006397e-09	3.432245093821213219e-09
1.547081323275085238e-09	1.094068396663682012e-09	1.028656738089935118e-09	1.314281683304304243e-09	1.243291424811131085e-09	1.181957138728489394e-09	1.311832397381094428e-09	1.212349449814830126e-09	1.114468147485410031e-09	9.906115886207121091e-10	1.318034099194722625e-09	1.147333369956230075e-09	9.789311676490315278e-09	1.038192578101921862e-08	1.214997118307892408e-08	1.454909755712419785e-08	1.498030983122319148e-08	1.475891649919038691e-08	1.220789573729641315e-08	1.368663880390192120e-08	1.417117348853212749e-08	1.036587894704560394e-08	8.146584307740636988e-09	7.862781281415162852e-09	3.517882526770116708e-09	7.459372560113298399e-09	3.840673094292036682e-02	1.545847936424736710e-08	3.346906578622712972e-08	4.613318363487771239e-08	7.592115580427073554e-09	1.786422020410822666e-08	4.032096082481257532e-02	2.233359108198727239e-01	4.620795842147382465e-09	5.609122633864648716e-09	3.594644296406870141e-09	2.675926677799148646e-09	2.488294391547446694e-09	3.255179553707679708e-09	3.075555115610642027e-09	2.953580894709076035e-09	3.186447895978046904e-09	2.920444431950754084e-09	2.825453787044839077e-09	2.391183882984089137e-09	2.928965972980199508e-09	2.616156248929555738e-09	4.194953137017075665e-09	9.145145122238487820e-09	7.149464959157348504e-03	2.349987211591419655e-08	7.575010853079884243e-08	3.975714769251575355e-07	1.014823848173979363e-08	2.808527266956564854e-08	1.115504385580171932e-02	5.934726259394471071e-02	4.913482950559214609e-09	5.936127842763052646e-09	5.751636606587823516e-09	1.253968922146654158e-08	1.605202203030423741e-02	3.033298796075175614e-08	9.591174160299982262e-08	1.735067925875806993e-01	1.371565583325040540e-08	3.732052631899480650e-08	2.447812544477675364e-05	5.630154004697226613e-07	6.569525683594733327e-09	7.929290609568457448e-09	8.327140404235526188e-09	1.971659295367935123e-08	8.901431676783891663e-07	4.585014689112151889e-08	1.431627111605067416e-07	2.583245804311855576e-01	1.807105412832603827e-08	4.458339289879420634e-08	1.277396876633843104e-01	1.218600105553030118e-07	8.530186103957983840e-09	1.015038734545856846e-08	2.081110385958505069e-09	1.644999204424478626e-09	1.581456973560452517e-09	1.990387354767754665e-09	1.919001095978951410e-09	1.839227831704579481e-09	1.917419128524199187e-09	1.856091796911130683e-09	1.754967718051713138e-09	1.585004965217779799e-09	1.901216322382751990e-09	1.702506790828513529e-09	5.953424454352048743e-09	1.188825193695875853e-08	6.111161161964994693e-08	1.766133816905627218e-08	2.747132703485270252e-08	3.241589795989373554e-08	1.216722859679967703e-08	2.981102198334565982e-08	1.791751560872897344e-07	4.463309434177773621e-02	9.416819153790178267e-09	9.516798666129765146e-09	7.402047171792136119e-09	1.055863607271892522e-08	1.033718501085615321e-07	2.652988838713914555e-08	7.919677833569977009e-08	1.362537068675277193e-07	1.153988988271000853e-08	2.742691894234381262e-08	1.368047783162104242e-07	2.235904137469091216e-08	6.886071160032340054e-09	7.215497666395149283e-09
-3.967288581445001129e-10	-6.413577848064364312e-10	7.152823087928964046e-11	-4.101535638346591480e-10	-6.133971322538157131e-10	-5.775440897812091502e-10	-4.940145842922331314e-10	-5.764059254996298302e-10	-6.428907278725285687e-10	-6.612317542665378773e-10	-6.004940228625323158e-10	-3.866236464465689662e-10	3.461403071834256037e-10	-2.186592973608315367e-11	-1.624916693087997316e-10	-5.867513738349312181e-12	-7.134575548289453839e-11	-1.129641273814940840e-10	6.698071879140265861e-11	-6.140944720843981610e-11	-1.402674664422804664e-10	-2.156965901846208432e-10	-1.396178712575794582e-11	-1.042241797014499787e-10	-1.735821866158426013e-10	5.924382828037536703e-10	3.964982896770725962e-02	1.627919577426401738e-09	4.292986742427408692e-09	1.262941319389621721e-08	5.001837273151100709e-10	2.225786127499187284e-09	5.359973558831468421e-02	2.109878534025173558e-01	-1.836603418527606030e-10	8.170469374454387450e-11	1.085778908001929386e-10	-4.696712212090295674e-10	-5.023210952526975725e-10	-3.866552758064689199e-10	-4.086668717504490182e-10	-4.347779203955296041e-10	-3.065059420276786071e-10	-3.772545863138579287e-10	-4.379742563297516887e-10	-5.026628763868391094e-10	-3.010069185707378407e-10	-3.956175741290525655e-10	-2.257792473363162110e-11	9.972748456203844089e-10	6.356910008010879624e-03	3.612236231447457180e-09	1.956569516737541439e-08	4.319900283527851152e-03	1.057096418992218951e-09	4.828599320077900483e-09	4.766080683772070010e-03	6.443717918470541484e-02	-8.141956967034109867e-11	1.201033041762319395e-10	2.653369195800623918e-10	1.548195290121229520e-09	1.002579610048045210e-02	3.235463534170563710e-09	1.050902860921284403e-08	1.595677963019587198e-01	1.348230266002858108e-09	4.396762692850508452e-09	5.387334206799028901e-07	8.210781417237928801e-08	1.679579268271400669e-10	4.272988631839843391e-10	5.518020083214405954e-10	2.179900885513457892e-09	9.759311331890900851e-08	5.503376562001543459e-09	1.588502444219040419e-08	2.414021416548795818e-01	2.048899569113206316e-09	5.447233279071402234e-09	1.511742998313106989e-01	1.049564756973066583e-08	4.376636910663260901e-10	6.906639050095923951e-10	-1.482096713088395352e-10	-2.181913125267721689e-10	-3.624421635780204018e-10	-3.007774647159527413e-10	-3.122336761165994241e-10	-3.377359193166123149e-10	-3.693393587957804669e-10	-3.647018209212675818e-10	-3.408367901050600587e-10	-3.228852088412989656e-10	-4.386866719043096828e-10	-2.591035296995677668e-10	1.995679680744879037e-10	9.072604516007778782e-10	5.784118968864292021e-09	1.644859131848873466e-09	2.930422343423779117e-09	3.981291866621738406e-09	9.596772204493865078e-10	2.610613200002830747e-09	1.840870723974270870e-08	5.371161159864358547e-02	2.222743261285129062e-09	6.789124749067771054e-10	-3.793386920480683473e-12	-1.286873641256675023e-10	1.049243191446198878e-09	3.696692160482965827e-10	9.068013873924073142e-10	2.095822367150811450e-09	-2.740642444321387222e-10	3.575561063782494978e-10	1.308720352320142060e-09	4.388904143738480155e-10	-3.101166056160489998e-10	-3.711082865051059805e-10
