-3.710801694217618558e-11	-1.089136000612340344e-10	-1.758332049377282510e-10	-1.603575397790079243e-10	-7.458631596384523164e-11	-1.667090525560107300e-10	-2.216800132529845873e-10	-5.868425144817359299e-11	-2.287443988502548374e-10	-1.340954634182098571e-10	-1.840188091777860379e-10	-1.802483158300874168e-10	-2.618013904145928535e-10	1.294520197317642289e-10	2.995603620580341927e-09	3.939778314483676608e-09	1.226845668561568093e-08	4.944369108268508653e-09	-1.538431646753411159e-10	1.114736764942646793e-09	3.292549336726472974e-09	4.156145070173450391e-09	3.045274481233659437e-11	1.588237487271116553e-09	-1.116029734732564190e-10	3.779455025677845004e-10	4.357995831652904106e-02	1.610869103079606618e-09	2.113322123859274253e-08	7.762195680990749090e-09	2.989074660055502035e-10	1.324229187545464572e-09	9.866332064584468209e-02	1.351241505275511401e-01	4.304894688489422427e-10	1.216738706259873827e-09	2.352251832662782697e-10	9.288201681447070257e-10	1.611214372195148969e-03	4.035007461241462405e-09	7.207931130292407956e-07	1.128816091996601330e-02	1.093911065240600048e-09	2.837853515132183587e-09	1.860477926451671940e-02	7.462961018822608129e-03	7.937846418937493762e-10	1.654035417563106142e-09	-3.748476024196983002e-11	3.752635643589992494e-10	3.033470323256590162e-02	2.373386980630520489e-09	2.334321769429805500e-07	1.034100385322429955e-01	5.008417072070632978e-10	1.934213587980239753e-09	2.067100036100475140e-03	7.585860807005651019e-02	3.489368721435328351e-10	9.200336074298916542e-10	2.204041631882178029e-10	7.996769917421620065e-10	3.214220805061578003e-03	3.535491417519293901e-09	6.529355450176396810e-07	1.174304773483656333e-01	8.570422091157664566e-10	2.699876073038461095e-09	4.023445259764243153e-07	2.675920080326122958e-03	6.342670656606230170e-10	1.477057610721301048e-09	3.318675885364046977e-10	1.065494752935540406e-09	1.917840950074721665e-08	5.146099014816415638e-09	8.186875253851171041e-02	1.354090238803545843e-01	1.374285261092418140e-09	3.822832257588672415e-09	1.512832316645543011e-02	9.577888393415717397e-09	8.741522818973043245e-10	1.622234387042577852e-09	-1.030068720635382943e-10	1.627894865947963313e-10	3.817791667826022217e-09	7.864262028272239978e-10	4.676467251212921024e-10	1.318389826348907392e-09	1.838151148944343014e-10	6.104261074181795437e-10	1.106403126813937588e-09	1.040617581302783372e-08	2.350486233124459361e-10	6.263953022251509812e-10	2.808464424591335454e-10	7.521244997947904192e-10	7.327937129495868638e-09	2.139752096044964555e-09	1.078814588990820354e-08	5.104302996291660359e-09	7.596707157926207008e-10	2.148029116797412560e-09	7.908581181241763902e-02	3.718023358181105770e-02	1.391014096709297681e-09	1.621782346784441746e-08	1.037239271099428663e-10	-3.519941827461152853e-11	5.081754318498938054e-09	1.451104038245192464e-09	5.985325272198973912e-09	5.883017162523028236e-09	2.618524166184828192e-10	8.523824254862718283e-10	5.059069432123034449e-09	2.876616452512518143e-09	2.654200896967891268e-10	4.648712730354286346e-10
5.605571398035220164e-10	4.644691401315479231e-10	1.291432992982581717e-09	1.118927357494854986e-09	1.186475849254403945e-09	9.747295007141141730e-10	8.241916800213126831e-10	9.229973973012574037e-10	8.664875647986277214e-10	6.059910923783628324e-10	9.541268458986250290e-10	8.910802706298215752e-10	6.658919065546738125e-09	1.517677407293030266e-08	2.225449162558355467e-08	2.419382710267809080e-08	2.073516264872432185e-08	5.260378487517147743e-08	1.437023794052076285e-08	1.688069149563011733e-08	1.771366264785130720e-08	1.983702428384851142e-08	1.443983473599677690e-08	1.800723622342043409e-08	1.688626032796372864e-09	5.256779504144109070e-09	4.552697565787809653e-02	1.781676183279568982e-08	1.105280853165518846e-06	1.272786320729916874e-07	5.103232321364227171e-09	1.346307691999209601e-08	9.229225065709695253e-02	1.404459929737085500e-01	5.215977572790089455e-09	1.117207336366970732e-08	4.026280199633685484e-09	9.508379651627354699e-09	6.538878841155570931e-07	3.493970783799382500e-08	1.036445545836682925e-06	3.986591464077581371e-07	1.147312053520566707e-08	2.835278591856389047e-08	3.801998580739017475e-02	2.300359195461696568e-07	9.029043403765544447e-09	1.535308357016881523e-08	2.091556455117856476e-09	5.827262636597548236e-09	3.338554755788454564e-02	2.317401571719358394e-08	4.034334264333411918e-05	1.198974629857105928e-01	6.435359911112469217e-09	1.694046515075413729e-08	8.681317066409392769e-03	5.944812909600542816e-02	5.574413416077158728e-09	1.025488658117949049e-08	3.677883039475854542e-09	8.978436982382753368e-09	3.187193278824217678e-03	3.287956386941920445e-08	1.776613941783900614e-04	1.171886462011100666e-01	9.522242518679740381e-09	2.526325184465885939e-08	6.245113822308531000e-05	5.510121743587020487e-07	7.343860206395127261e-09	1.282080539385206311e-08	5.058983911479168180e-09	1.168999845273243014e-08	1.321510542563762406e-07	4.514530530759061095e-08	7.627470145293703541e-02	1.437797215429739428e-01	1.381668702512295261e-08	3.417406445069582799e-08	1.445634619898879779e-02	4.303721172279368291e-08	8.772167913688837904e-09	1.284689554270775087e-08	1.544978598268358540e-09	3.469991543432149546e-09	1.877856169878219477e-08	8.818016076535427238e-09	1.832482462106787064e-08	1.661643139496916683e-08	3.769520381016340755e-09	6.679574986285363088e-09	1.567029176656302144e-08	2.362561983945126477e-08	4.224438058748761095e-09	6.881597824873881867e-09	3.391438775798008483e-09	8.793039554922118307e-09	9.812144694132454793e-08	2.454216785225212204e-08	2.681089979116028490e-07	6.365991879700543036e-08	9.142016716114878353e-09	2.123259744762799061e-08	5.197575635530838484e-02	5.515370090144016552e-02	9.677740081640276888e-09	4.203734132986647346e-08	2.813330833815602206e-09	4.988915619194844006e-09	1.458426670256938089e-08	1.286000724495970779e-08	2.077154907208168075e-08	2.028030285367907606e-08	5.788447541649522223e-09	1.019846712687902695e-08	1.834553270359630261e-08	1.089132331255895275e-08	5.150151623135024266e-09	6.599872153202937777e-09
-1.503289840850356556e-09	-1.580338402749705573e-09	8.966675974493896425e-10	-1.319731866731034753e-09	-1.344555859697212110e-09	-1.433858364415272958e-09	-1.337040079310823214e-09	-9.435427612049973443e-10	-1.445054242682401924e-09	-1.555723234128382953e-09	-1.220104043632412866e-09	-1.315540135287059662e-09	-7.805744144618476106e-10	-1.540270709050373243e-09	2.041031136906765331e-10	8.145642864195146079e-10	1.594491655525735082e-09	1.238720724412589954e-09	-1.601009531819071508e-09	-1.328110629153849025e-09	8.706869183918604380e-12	-1.596644093930752966e-10	-1.336470874665427680e-09	-1.006431896047855104e-09	-1.035950930954040890e-09	-5.947600457623494434e-11	3.587583091189329443e-02	1.731919033794313838e-09	3.099657463329734454e-08	6.733465434835750412e-09	-4.995328321725252793e-10	1.358900710774021013e-09	9.719865102394656398e-02	1.439067453199175117e-01	9.245840065482983236e-11	1.469823039801690990e-09	-1.081769023574265553e-10	9.630705867995009047e-10	4.854224937444418046e-06	5.866374495717238119e-09	2.688608168684291406e-07	2.131775164897336409e-07	1.014325505383048819e-09	4.079931421071328875e-09	3.984116605815279238e-02	8.569847258601602132e-08	4.901110351083238871e-10	1.935184457079578821e-09	-1.022513544304782810e-09	4.513220964840923253e-10	4.636267758430536595e-02	3.175479629611605703e-09	4.066992517962741932e-06	1.105868212746257129e-01	-1.522588783853892615e-11	2.566524094704575016e-09	7.748040178364505549e-04	5.969514752011383096e-02	-3.497288565552526917e-10	6.241126104907204247e-10	-1.993238697835012308e-10	5.131672602669811168e-10	1.769083448519645919e-04	5.255463706660840767e-09	1.899940060475195500e-06	1.169370894711255771e-01	6.495407242041657444e-10	4.393849652799122503e-09	9.038517415220013031e-05	1.117757208320750580e-07	6.132611636271890876e-11	1.320341888054346869e-09	2.224502847955308994e-10	1.698619884747036048e-09	2.033426378520563640e-06	7.764394755217142450e-09	7.926893010758215286e-02	1.395436839281957719e-01	1.330554867352784125e-09	5.501598590493748069e-09	1.572925780200121540e-02	1.643833416830631213e-08	4.967961493577549424e-10	1.697108575719592028e-09	-8.851216074344865877e-10	-2.608149004779312191e-10	1.059358839392816170e-08	8.510174358563531769e-10	3.610186620998489053e-09	2.547574516104225811e-09	-5.389561705441889596e-10	6.296030422597380863e-10	3.700830925500350607e-09	1.320788319739194407e-09	-4.786972630727664989e-10	3.243912046294526005e-10	-2.759461960816848761e-10	7.269781476136573820e-10	1.728549483362181594e-08	3.845111320612019622e-09	3.465644806795429284e-07	1.491281613165440065e-08	4.247913555117351061e-10	2.824121913317143555e-09	6.174991247773641001e-02	5.224794149705980217e-02	4.076023798791512829e-09	1.057184859234382802e-08	-5.986945943700321951e-10	-5.609008307716422303e-10	9.304241578532124705e-10	5.497859494695956066e-11	1.123761115248230862e-09	1.644903846393386819e-09	-3.667933484238538353e-10	-1.500802436469454324e-10	7.918608292965978353e-10	-3.418229339259269739e-10	-5.955916899188742499e-10	-5.212116851010819483e-10
-2.184961071501341374e-09	-1.038450152291320192e-09	-8.582395799502732270e-10	-1.860229335108929689e-09	-1.557984383287484486e-09	-1.849722954264745757e-09	-1.786770648757097048e-09	-1.282187808378699384e-09	-1.980328131604312733e-09	-8.594265698285147276e-10	-1.877155032886870415e-09	-2.163422627014708366e-09	-1.306047763762872526e-09	-2.240762318975248559e-09	3.855683044392349178e-10	5.875916280701263752e-10	2.533182274484350118e-09	2.621966199623977986e-09	-2.503423925512390863e-09	-1.520361242191334053e-09	2.831477684104503320e-10	4.822111049865912918e-10	-2.031507289673676290e-09	-1.452337945749213068e-09	-1.218589407100432602e-09	-3.124843161528086676e-10	4.881980839505999786e-02	3.053966152725487703e-09	4.942626017007712076e-08	8.758215393272982369e-09	-5.431735833192890835e-10	2.434046550069811585e-09	1.024794319466662967e-01	1.255429042291262010e-01	-7.093286785393304390e-11	2.957006313185765164e-09	1.669539883168461352e-10	1.403387348630491895e-09	1.496688768918864645e-06	8.779759162023128131e-09	2.356937897350649805e-07	1.122024908875866929e-07	1.841552674035349352e-09	7.131858167886112374e-09	4.175386403227027143e-02	1.286284658423439298e-07	9.431244046161443803e-10	3.463066355678288631e-09	-1.197286465359613027e-09	-3.205201224151285015e-10	2.880312253191513044e-02	5.321963712799919807e-09	7.614113730957701948e-07	1.088133435547415789e-01	8.521898573313284556e-11	4.320949006460340705e-09	1.754213734788424676e-03	8.393114721674095613e-02	-3.182404785839164192e-10	1.451583132451810021e-09	1.052349803540904685e-10	1.404748770009438787e-09	3.216007524839286806e-05	8.652049245178723504e-09	4.974441072552985550e-06	1.168330522850241221e-01	1.198900905836465369e-09	7.116863940243664190e-09	3.326411975006663226e-05	1.703039157034667888e-07	3.232016496884379134e-10	2.467771684821945246e-09	1.822742534337968298e-10	1.960347890884548553e-09	6.864800594174647598e-08	1.265442819916796834e-08	8.481173421584443928e-02	1.413299458543516574e-01	2.938952186045719852e-09	1.139729191206508418e-08	2.197219053434883509e-03	2.378205395750616176e-08	1.067861808132694226e-09	3.086237782527738138e-09	-1.430025781373517993e-09	-9.752284312363885035e-10	1.735834334801828792e-09	4.157287228031292449e-10	1.595896554008343516e-09	1.414244327265260993e-09	-9.864792033464638506e-10	-2.762677084971412944e-11	1.734507167516078827e-09	2.028781734120931664e-09	-8.571049041793277476e-10	-1.100715123715175687e-10	-3.592978672294873337e-10	1.198674043661049448e-09	2.867867478944723389e-08	6.111742185571202483e-09	2.180724771724810332e-07	2.240891789727787201e-08	8.717444184756242869e-10	4.869132014891035600e-09	5.800069267295036857e-02	5.485568148163925961e-02	6.621846214070622911e-09	1.892272846685175397e-08	-7.118764169694867236e-10	-1.260126093849873752e-09	1.798746459509609661e-09	-5.607399567350550466e-10	2.452788596046523901e-09	2.618636877558391676e-09	-1.058554920607807999e-09	-9.529878495484296663e-10	2.473093296100958870e-09	-4.195812752301598578e-10	-9.510974357934748666e-10	-1.217083312067115417e-09
-6.273278247644033623e-09	-6.149812064364908800e-09	5.124607334113641611e-09	-5.882697460636667497e-09	-6.221485425293649509e-09	-5.820579254659344964e-09	-6.299181387718065059e-09	-5.092749382845308104e-09	-6.119007439916263801e-09	-3.487450940075406651e-09	-5.567813837633089029e-09	-5.989868062418650632e-09	-2.839026873383267328e-09	-5.539966739481951469e-09	-3.606863173579887092e-09	-3.856362437659413689e-09	2.388107077280435863e-09	1.826506611649394965e-09	-5.885983491126445058e-09	-6.433442655795676616e-09	-5.265145523604889567e-09	-3.298533118412467549e-09	-5.045026247887513833e-09	-5.850619784735181829e-09	-4.272130464914243823e-09	-1.867587065385868811e-09	5.123403489399107336e-02	4.875738579588442739e-09	3.374637257731026065e-06	3.810477606673018879e-07	-3.282226616047444813e-09	2.063296184033157347e-09	1.040610622464991780e-01	1.273546400701310033e-01	-6.683571946595577624e-10	2.188382585629086244e-09	-2.118944079696722607e-09	1.344529534588419128e-09	3.614646787683411421e-05	2.002029234117737396e-08	7.030796349118201624e-06	2.007758874431362039e-05	2.123716191531184901e-09	1.115605040311778298e-08	4.183503553135588249e-02	2.379404187431203012e-07	2.796444868588353103e-10	3.582082695196726516e-09	-4.493329304238892856e-09	-2.341987665256674904e-09	3.038852089210883345e-02	6.720430960388692025e-09	4.140529464134992217e-06	1.149097043512296024e-01	-2.168845704103766564e-09	2.749374775107870825e-09	3.866809422699495936e-08	7.000871947704215281e-02	-2.210166600723173591e-09	2.060655462117287231e-11	-6.763281553433434728e-10	-2.917207954989399670e-10	3.984822228999699255e-03	1.304599243221944823e-08	3.210559163654965945e-05	1.072767675641858459e-01	-5.970064270963374614e-10	5.900899043576190088e-09	5.183859028684987828e-08	1.102118967699682973e-06	-1.143362324148201031e-09	1.898021512062274521e-09	-1.756138984979876375e-09	1.242125774411870271e-09	6.976222088639158078e-08	1.986168432354933546e-08	7.189958134702083281e-02	1.529914776009980715e-01	2.207629165393813306e-09	1.446405283006822203e-08	1.209458490853113251e-02	2.061987377492283007e-08	-4.422463156293937891e-10	1.680437922284533967e-09	-4.931744626916524537e-09	-3.819381813439914222e-09	4.008788021742515143e-09	-6.889548511846431774e-10	6.454638380725500651e-10	6.082074204823529996e-10	-3.414476172195195153e-09	-2.379015731279229569e-09	-5.964414405041360438e-10	8.729717069112234092e-09	-3.069029240021679189e-09	-2.450229774221978790e-09	-2.709818102997351681e-09	7.711877183943755106e-10	2.453155883342511708e-08	9.379692310813874227e-09	6.161064432273207636e-07	5.517045595145997307e-08	-4.072126950913103418e-10	6.545827174615646658e-09	6.070537838441103506e-02	5.115015408133911229e-02	3.321137219883578871e-09	7.196874842660701876e-08	-1.155606543224564057e-09	-3.672629927770009847e-09	-2.598780941786892149e-09	-3.181626989459518053e-09	7.469955161109719937e-10	3.716439512546227908e-09	-3.533101702273677817e-09	-3.727100145494264205e-09	-1.316824542713970458e-09	-4.501966859707889012e-09	-3.247869149708749719e-09	-3.942887836695753541e-09
-4.594197362252884655e-09	-4.688033258400866354e-09	2.362618763075258697e-09	-4.104028656358461192e-09	-3.784021851322263614e-09	-4.238476667736796499e-09	-4.400333288547566195e-09	-3.305468249190487574e-09	-4.456289746279546794e-09	-3.868256142687018681e-09	-4.184419161599278329e-09	-4.439288155789328034e-09	-2.630625810526001868e-09	-5.003282451897968469e-09	-1.778313041851708250e-09	-1.397546490459558465e-09	2.912450269158964910e-09	1.905565950693563666e-09	-5.125252899991819134e-09	-5.082555422752524698e-09	-2.411568622026476521e-09	-2.053359229366206473e-09	-4.244945717051301985e-09	-4.604955002661337244e-09	-3.448324075217615498e-09	-7.958329522255048714e-10	4.594196923698219692e-02	2.785066986903911576e-09	4.880716358817076213e-08	2.514030145681790693e-08	-2.151809903430364535e-09	2.047326096806783602e-09	9.441198725976873707e-02	1.342220974493616992e-01	-1.130423921349662628e-09	3.173988615387310623e-09	-8.402196247481589732e-10	7.756696560178577214e-10	5.467662894744712262e-07	1.260254762702339849e-08	9.581753486390975096e-07	9.170656072786457203e-07	1.358621031462152209e-09	1.081686806509249126e-08	3.975929681395021925e-02	3.340065756490377530e-07	3.198283179882891329e-10	3.877074250986373427e-09	-2.527218476009706096e-09	-1.570097912155079687e-09	3.342133546804614691e-02	6.241508580977150701e-09	2.617052778440837362e-06	1.096642659781686263e-01	-1.240432473658482607e-09	3.972452668419106445e-09	6.836807336224734119e-03	7.303886500191839048e-02	-1.765875594230745221e-09	4.771027560791888437e-10	3.048916241456147300e-10	9.895997001258938726e-10	1.007751953026386630e-03	1.107425689361231074e-08	1.419015606154109890e-05	1.180827385313884675e-01	1.314039631421044625e-11	7.872457003591445547e-09	6.055864792976562501e-05	1.921981316658850144e-06	-6.908480187173127555e-10	2.448740200256778809e-09	-6.520681124200065903e-10	2.208518040703129262e-09	2.661980232970289012e-07	1.648768490966074390e-08	6.369962049200900145e-02	1.444020766649470044e-01	2.065952323780376576e-09	1.092320905588234528e-08	2.176955615660708734e-02	3.291671291852280963e-08	1.089313604636204794e-10	2.745302857614088868e-09	-3.060575711514677210e-09	-2.461902973493601601e-09	5.369768308341199996e-09	-3.300912631213491598e-10	1.440893698548922252e-09	1.472031116829795724e-09	-2.347278149220497679e-09	-1.345207147296791410e-09	1.380031725710516064e-09	2.148691095440929420e-09	-2.423160434354603193e-09	-1.369103161963744736e-09	-1.381983096397510119e-09	1.142753977171489764e-09	2.517724184843245921e-08	6.652646657326391567e-09	1.715951614581531040e-07	2.550973319169839133e-08	-3.229767146816983002e-12	5.393371860856485938e-09	5.866058945504951799e-02	5.499833192525108855e-02	1.068964175455733261e-08	3.590387705869778076e-08	-2.487600841922880173e-09	-2.027050455413650282e-09	-5.102648764582879424e-10	-3.851662950930674735e-11	3.185297187444940671e-09	4.257789899909575931e-09	-1.776760210053226879e-09	-7.810957287510077588e-10	3.060776180029271227e-09	-1.198139107733432970e-10	-2.282057988261738483e-09	-1.933828631288162607e-09
-3.081065293515539729e-10	-1.847362088770793606e-10	-8.006963284512684719e-11	-2.694559303789876696e-10	-1.925045992878365254e-10	-2.718002266354589090e-10	-2.981532159233561790e-10	-2.939390227423766983e-10	-3.025626660220068439e-10	-1.787150149095688179e-10	-3.030545274600922151e-10	-3.226201445579637209e-10	-2.193294818089217229e-10	-2.778258210586959057e-10	6.547242868780177834e-10	7.451553910306190441e-10	1.727824491655791296e-09	1.342574475680659864e-09	-3.912977629922800945e-10	-1.481025104522694777e-10	4.681060783912586760e-10	5.382074883917001533e-10	-2.663412080704617333e-10	-3.896234102741873785e-11	-2.241876215835338330e-10	4.575853011077150086e-11	4.883250555367437545e-02	7.918001568066267332e-10	2.018154815430748916e-08	6.318530551638560696e-09	-1.889790923035113938e-11	6.035482494058716415e-10	1.020091512533339573e-01	1.381067963131419885e-01	1.022772970225197513e-10	6.145184078968345767e-10	7.830907027459085520e-11	3.380852873682049149e-10	9.030096183158599110e-08	2.216156975980833334e-09	1.210677048464492564e-07	1.234153241050429722e-07	5.043628331925895968e-10	1.593952239296635206e-09	3.764172830536436504e-02	1.174974011539353692e-07	3.362621462246626892e-10	9.155312972668769095e-10	-1.627294667633752139e-10	3.469582370862365192e-11	2.747224963297267494e-02	1.209538924534050620e-09	2.513240275290604844e-07	1.196069916474935546e-01	8.406399134703443827e-11	8.513197404618276463e-10	1.785985182640348292e-07	6.505106560324973308e-02	4.010482456987895045e-11	3.920982917071813118e-10	1.648079181896421003e-11	3.041916494991594269e-10	3.323774672027122144e-03	1.886532579788451054e-09	8.581684237295148661e-07	1.119101587123177699e-01	2.888140175138905514e-10	1.366656619062458348e-09	3.061306785593693617e-07	2.479406382901461468e-08	1.488807061143946207e-10	5.501355713743612484e-10	3.673192179168727740e-11	4.357251553479497817e-10	1.023260859824927126e-08	2.638215567772564665e-09	6.792420448995233062e-02	1.320547077946886971e-01	6.342484416612421641e-10	2.009959419736110211e-09	2.910477242511164825e-02	3.948606610753157533e-09	2.953241697892029836e-10	6.644852042704700124e-10	-1.742568465752279406e-10	-9.864345277349316297e-11	9.374655443257993865e-10	2.351473546604712729e-10	7.112230558537075840e-10	6.611591242446647284e-10	-8.757873834356836048e-11	1.070866441936118620e-10	5.511703255296168323e-10	1.168032222782332122e-09	-6.252746723109896780e-11	1.287114483665125072e-10	-7.115378709438442574e-11	4.904261483100882522e-10	2.446737491154199723e-08	1.802920377182992017e-09	1.432978233241771289e-05	1.324145056349657974e-08	2.658002620588897393e-10	1.091376572280730749e-09	6.264648411715860454e-02	5.429888649889604707e-02	1.110897237942350247e-09	6.266170634263137294e-09	-1.297045613481257250e-10	-9.707287761003565335e-11	8.163627484084200353e-10	3.196247352685768888e-10	1.317290232741833965e-09	1.195619046264037895e-09	-4.597155916774178415e-11	1.827518727009425214e-10	1.805194506393268858e-09	4.380667548981961291e-10	-5.384145196714995308e-11	-2.265090193357851590e-11
-2.667776628758976528e-09	-2.096912640215505493e-09	1.257957928735100583e-09	-2.415393587482475741e-09	-2.317886534978704357e-09	-2.645562033005243799e-09	-2.886800428444132878e-09	-2.265464560149512273e-09	-2.743124085201159814e-09	-2.683781036037225520e-09	-2.471280533704691590e-09	-2.689845109936724927e-09	-1.240410346633817829e-09	-2.083082020452192457e-09	-9.836203497343919629e-10	-1.084458882410124895e-09	-4.819242432580879266e-10	-1.082979727858958535e-09	-1.981471930444333609e-09	-1.837730395584613231e-09	-1.596093139474040872e-09	-5.284978271875436649e-10	-1.709837274305457304e-09	-1.930230987989875763e-09	-2.212044137763697755e-09	-7.604279929427081293e-10	5.207305982078387629e-02	1.859045045887062552e-09	9.471964995647118007e-08	1.885310747852183154e-08	-1.375347334032346159e-09	1.202774315846708139e-09	1.012422050480214913e-01	1.307437394814725817e-01	-1.358558045108644578e-09	9.561795079215540173e-10	-6.600547950114438048e-10	1.645249812338733925e-10	1.198954198527779090e-07	5.831648888074195772e-09	9.618685775244330604e-08	5.006910634208984372e-08	1.309036609507128004e-09	5.466104003240332819e-09	3.589695124249892705e-02	2.276890895495867665e-08	-5.605096464164544976e-10	9.253164044131674443e-10	-1.829454056534239809e-09	-9.755776363420444679e-10	2.451434215538276368e-02	3.775682572634436668e-09	2.638647604901582211e-06	1.093873281610868858e-01	-8.938533380801415703e-10	2.406718641628906684e-09	5.141826802862768568e-07	8.035935185355837229e-02	-1.332358981055186686e-09	1.004150099318383165e-10	-1.749757791046515558e-10	1.602586396405234239e-10	3.189848820398180716e-03	6.770176610690988921e-09	2.056971474216774649e-05	1.125521873836319575e-01	-2.296834429362769580e-10	4.279255123564202706e-09	4.153003978839457206e-07	1.047197964030457538e-07	-9.538189673972727728e-10	5.686083213997485454e-10	-8.054824031407206552e-10	8.495372724175051161e-10	6.836522373861914099e-08	9.515177269917839721e-09	7.802048133102075511e-02	1.401763643496561074e-01	1.342881690019365849e-09	6.931634452204541127e-09	1.386468803620640941e-02	1.346083612151110936e-08	-4.332377738838463314e-10	8.918465968765437023e-10	-1.865632183876515860e-09	-1.461661433531999236e-09	1.496060686117442376e-09	2.157167147636573379e-10	2.991362479418447964e-09	1.252224025874640188e-09	-1.195039868488404649e-09	-5.536944272632980313e-10	1.524062828521846444e-09	1.241392519533370716e-09	-1.668482351327037312e-09	-7.557163214606790535e-10	-1.231985963393590764e-09	7.602324893262213738e-10	5.905082887045874383e-08	5.980278764318227534e-09	1.794175229530261455e-05	4.469097772106238162e-08	-8.560722345203743672e-11	3.288681645210928624e-09	7.571949042929999873e-02	4.221717492009094408e-02	2.721352065987961273e-09	1.192265231222242930e-08	-9.137494873514089095e-10	-1.400158086929056844e-09	-1.888824438019235401e-09	-7.478133128467779425e-10	9.969770949063935419e-10	1.542517263671737858e-09	-1.344804955003043194e-09	-9.567430820782212023e-10	1.070312578319156498e-09	-8.303160117181821311e-10	-1.562751410381175249e-09	-1.537617401879410299e-09
-4.634863396922826607e-10	-4.925482860755862916e-10	8.100674785680692894e-11	-4.177983010945685246e-10	-3.502064911960903458e-10	-4.375183046882158805e-10	-4.090409777113825699e-10	-2.621203628847549270e-10	-4.515119996209941582e-10	-4.159407275737207631e-10	-4.139635654982555968e-10	-4.326658282462469759e-10	-3.649961502884668248e-10	-4.571985349826341924e-10	-1.840186369457471201e-11	1.369451447805058004e-10	6.776367919799086182e-10	4.934309970940478470e-10	-5.398568406373761843e-10	-3.863707619963426659e-10	5.040300373986505895e-11	-2.270087699003336807e-10	-4.649401572698907900e-10	-4.576759252061911657e-10	-3.361416508069761037e-10	-4.564702112397086186e-11	5.847884675292319701e-02	3.759532250156665151e-10	6.103838307463721973e-09	1.497661196369430824e-09	-2.034510466168261809e-10	2.975095905018974956e-10	1.050360596217671805e-01	1.202990820361577451e-01	-6.259023504120059527e-13	2.405413314419812159e-10	-9.447612959155289117e-11	3.457071236551285712e-11	6.980389419325923100e-09	1.181883752276471369e-09	1.358159952571407418e-08	9.394265394608610318e-09	2.058658303950221621e-10	1.141026593857901769e-09	3.861176562854547883e-02	3.485764721815073011e-09	5.970364440454729128e-11	2.962048268049344715e-10	-2.941672028252441351e-10	-1.570019765613551407e-10	1.563121108526815267e-02	7.647658414248223423e-10	9.729625133835123869e-08	1.199916417097723897e-01	-9.986244206372590945e-11	6.530877357004838475e-10	7.206276874254381684e-07	8.333592474711508380e-02	-1.158562525088419850e-10	1.297130044354307044e-10	-1.316350180909810821e-10	6.756941072090437087e-11	3.951897327165461611e-03	1.375439188936164740e-09	3.431127861884828315e-07	1.134115321431325152e-01	6.649887218682003190e-11	1.101558505360714572e-09	8.928966365669884309e-07	1.248318566496515689e-08	-3.202224712900491807e-11	2.384150361129311881e-10	-6.504609451626821456e-11	2.650659098261662622e-10	2.359620186028974365e-08	2.067163304887588495e-09	7.851989252741203851e-02	1.422305577155174028e-01	2.857827689912079068e-10	1.440084989780091504e-09	1.529307164920161791e-02	2.792256813209409997e-09	3.944056632957165088e-11	2.826160357038711130e-10	-3.216547057409996541e-10	-2.445171613362856852e-10	-3.166655414944393868e-10	-3.460166942082034966e-12	1.592411259622383275e-10	2.063562905658878694e-10	-2.263719340001053437e-10	-7.737327831115071363e-11	2.458622186710446809e-10	8.945791912030081971e-10	-1.999459755476821527e-10	-1.016565551344552580e-10	-7.481061882595328919e-11	2.333233635079765623e-10	3.320472244995016013e-09	7.351848321702181946e-10	9.569151854945397682e-09	2.283818109941735193e-09	6.312300432064804689e-11	7.053688125569848334e-10	5.358615552808116550e-02	5.162020211630043848e-02	7.241321182289371295e-10	2.699964758863794180e-09	-2.077749785618972386e-10	-3.174730818185353391e-10	2.753571448534998700e-10	-1.390453702863690783e-10	5.586595813396367892e-10	6.286269035952586145e-10	-2.847579089854685132e-10	-2.301799806002104613e-10	6.027902986355577589e-10	-8.357279964072344821e-11	-2.487137571677540156e-10	-2.756219281439415778e-10
-1.447103022450614287e-09	-1.551014219758551546e-09	5.914710856726277055e-10	-1.299146719254271940e-09	-1.071966475260079527e-09	-1.313458279131070260e-09	-1.425054697586379828e-09	-9.408249924408091506e-10	-1.421882049656599368e-09	-1.165016256369796971e-09	-1.298012942016347884e-09	-1.351384612257801478e-09	-1.062106751527535375e-09	-1.468772483390832296e-09	3.420884379663045857e-09	1.837372349003236359e-09	3.337883933791285131e-09	2.660009001282313884e-09	-1.727287716283264421e-09	-6.007599312171282358e-10	1.385080259978321518e-09	1.471633708155608916e-09	-1.110484935673995486e-09	-6.827823451885539560e-10	-1.046299922892656238e-09	2.551182911372188617e-11	5.073483735859321553e-02	1.774863815866830219e-09	4.098668721724165464e-08	1.635987381659223564e-08	-4.716731662905171695e-10	1.310280699611525341e-09	8.658459988535589791e-02	1.502649186499268597e-01	-2.748102921558266549e-10	1.519491736242278318e-09	-2.286248233553829056e-11	6.021397083711485096e-10	2.238518054595574533e-07	5.116006583801081922e-09	9.661407574370677442e-08	7.844412059069618307e-08	1.138772216264444032e-09	4.528078427218930869e-09	3.963613409203732563e-02	5.340125341774902707e-08	3.435515977199426204e-10	1.794031607656124998e-09	-8.272466570485688294e-10	-2.801030882227583623e-10	2.294373082252634116e-02	2.912568843588692281e-09	4.528009463905205386e-07	1.360216853704929174e-01	-1.353777250161950078e-10	1.994841213422977933e-09	1.282979191493240079e-02	4.344476230186513493e-02	-3.957115957965584309e-10	6.003487471248293937e-10	-3.140530020220055165e-10	4.450976562464719929e-10	9.992239777763247885e-03	4.993043365282577257e-09	2.280057999583876107e-06	1.055946301190460734e-01	7.107169348585597640e-10	3.853702255006028756e-09	3.532014967996051358e-03	4.918489029111969646e-08	-6.837639170955194102e-11	1.056626288548892475e-09	1.101151511016607452e-10	9.428130589884862800e-10	3.449120648402331973e-08	7.252935400229136227e-09	7.455075916314586604e-02	1.122117645307964123e-01	1.340837757479594160e-09	5.263123483908021950e-09	4.185399961424661475e-02	2.181814743896889346e-08	5.866128831935702357e-10	2.074915663808477481e-09	-8.719368378919426949e-10	-6.274926404866239905e-10	4.747239501801082886e-09	3.235551621258615829e-10	2.945692089557354968e-10	9.028102865976221521e-10	-6.246524847805505499e-10	-1.712965342518461463e-13	5.857020407531805622e-10	2.746402864820139699e-09	-6.345897048878786734e-10	-8.503809370652900697e-11	-3.958862874610122070e-10	9.027612195217876033e-10	2.052627165955279394e-08	3.417588542426378499e-09	5.911568750743443074e-08	1.296934384798469334e-08	4.396244621517588269e-10	2.841421302809778992e-09	4.603899469836859881e-02	6.376162362214156387e-02	5.374214425247296355e-09	7.900286120006663256e-09	-4.102049564516515559e-10	-1.112310283774359027e-09	1.613331650742236980e-09	-1.248555901908685570e-09	2.795251278176241030e-09	2.872248303156807172e-09	-7.847816030768338905e-10	-1.405501862706155670e-09	2.911939439549738052e-09	-5.865654179977701810e-10	-6.805592919061589494e-10	-9.340317481446486399e-10
