-2.452612499344775495e-10	-2.604198102364226406e-10	6.078014164976805833e-11	-2.409776125394993147e-10	-2.210943507452724901e-10	-1.988437630977941414e-10	-2.382298317601393561e-10	-2.327252838486013639e-10	-2.451048127683817432e-10	-2.313628282601334849e-10	-2.229159287091076816e-10	-2.323104707471043046e-10	-9.148813745762994760e-11	-2.174964771670738114e-10	-1.632570195035448845e-10	-1.132214963988654916e-10	-1.796079983418663624e-10	-1.976347233737069266e-10	7.712773194539940287e-11	-2.506541084949544552e-10	-2.596495468579718544e-10	-2.569526705460826994e-10	-1.725875585243231083e-10	-8.594070586097461360e-11	-1.994309658698696570e-10	1.221556667516154409e-11	3.331557046116123688e-02	5.667938724989689172e-11	4.732302237562883485e-10	1.802380809903181843e-09	-7.981975969842139263e-11	1.586062094761980151e-10	4.868450716160089425e-02	1.122518916608537809e-01	1.316032577334585800e-11	2.048063261615367159e-10	8.041093490859718876e-11	-2.194467989893949461e-10	-2.323002774141623405e-10	-2.016214235482583068e-10	-2.067114810518441117e-10	-2.183033343546843034e-10	-1.765869716979523800e-10	-1.486903760147942962e-10	-2.097515927970380872e-10	-2.258061964622797030e-10	-1.428577806944575926e-10	-1.464488855747354471e-10	-1.901993989721038979e-10	-4.968504512820772910e-11	2.117050824691793162e-02	1.611598996047986776e-10	8.681607449581370491e-10	5.779925226500690072e-02	-3.662654909576291792e-11	2.806819394337287114e-10	2.994671645508828890e-08	2.906997172086567272e-02	-5.842352417499069889e-12	1.426222032336523695e-10	-1.372125017591406901e-10	4.502959889183578841e-11	1.714500199498248749e-07	3.406681936229156065e-10	1.225550790796864831e-09	9.859843097652229438e-02	6.379194571046361721e-11	4.576216095244813737e-10	2.342592890496293441e-08	1.915841771782394011e-03	1.958043534918157533e-10	5.884685956155384731e-10	-6.059271225036912399e-11	1.546312339373603667e-10	2.569116882012894632e-07	6.861000749177776905e-10	2.221826947413960258e-09	3.922563945819775300e-01	2.421519279665845013e-10	8.166215034175502412e-10	1.174837606132554113e-01	2.285230094000600346e-03	3.970296128984876463e-10	1.007452836924101912e-09	-2.105428213936097560e-10	-9.723180545899577340e-11	3.069716943989983068e-10	-1.765252442817491981e-10	-1.429702823390501077e-10	-1.207794404189481701e-10	-2.002349131215213901e-10	-1.658836053078041748e-10	-1.425294678150574862e-10	-1.730198404522402675e-10	-1.609556775232736135e-10	-1.471460536563648627e-10	-9.127269659635036068e-11	-9.895542592315765735e-11	1.552273016678250844e-11	-3.731022323056521338e-11	2.606610587134682017e-11	5.504609481950915260e-11	-4.284406770890129371e-11	6.715956390488984030e-11	1.636302434165639683e-10	2.332865586650130102e-10	7.866404433789863566e-10	2.620224848171854301e-10	-8.279298648997333768e-11	2.550161540780576270e-10	2.038006569143685287e-07	4.987578355676685305e-10	1.654732686207158642e-09	8.516523715346197010e-02	1.746709759184799264e-10	6.909074310409785456e-10	7.907055351764335422e-08	2.629124066092264975e-06	3.068592541687338943e-10	7.675664486370550972e-10
-1.138426920875104415e-08	-1.222542713678571854e-08	1.274887672710763192e-09	-1.163414002677580511e-08	-9.858794811708006942e-09	-8.698983224492192866e-09	-1.033412834220630143e-08	-1.049361009493580275e-08	-1.093267628017444981e-08	-1.100484006613007430e-08	-1.093493548609620821e-08	-1.036634313003163933e-08	-5.110288892486235630e-09	-1.226374430722162032e-08	-1.071440510139672684e-08	-3.781982130059437869e-09	-7.509289227859865701e-09	-1.017045311032993729e-08	-2.592921729658722887e-09	-1.255297988424184225e-08	-1.316160795534170303e-08	-1.074634986091248487e-08	-9.234514647139446927e-09	-1.159937353510207942e-09	-9.670900934962514966e-09	-2.986678039301923488e-09	3.577485867107064316e-02	3.527849815869870242e-09	2.200308975444724711e-08	1.041719667036328307e-08	-3.578432882143579441e-09	1.112041414245226657e-08	4.279424044055685217e-02	1.088868935336458899e-01	5.989558672639039316e-09	2.930847405776486008e-08	-2.415422150782948145e-09	-9.042841948892400582e-09	-9.027092969371427825e-09	-9.436798213831487788e-09	-1.061782273542233146e-08	-1.117149259506581580e-08	-9.208240302402313787e-09	-1.994619289128410775e-09	-8.153542113387178093e-09	-1.323197712651441752e-08	-1.112255370982110689e-08	-9.993066860745512428e-09	-9.421328905015471748e-09	-2.800604688956612607e-09	1.506402189947996309e-02	1.109671253328918334e-08	5.361975048109780590e-08	6.830143082771007734e-02	7.167643554289468387e-11	2.685248833008542872e-08	2.523788489248085846e-04	3.639564664698324153e-02	2.583118003728175246e-09	1.423866615566649617e-08	-6.395233744759502701e-09	1.007686282666576386e-09	9.046966955061904594e-07	2.200393045169586405e-08	7.563734230829570753e-08	1.042225483917438023e-01	5.865529913801525145e-09	3.784772450640504049e-08	1.584955322845149397e-05	1.368748416105318166e-06	1.090043726374596789e-08	3.129800692337031792e-08	-2.624414610620795430e-09	7.064022008581701887e-09	2.059662749082218339e-07	4.341219366766611445e-08	1.398444177449703694e-07	3.997803474605514662e-01	1.564659520058840443e-08	5.265884130481596392e-08	1.100213335027013101e-01	8.924202075815606400e-03	2.166906199776248993e-08	5.124455782212221883e-08	-1.086504194881016453e-08	-8.639966781571014117e-09	1.505109430985087624e-08	-9.057339016370045113e-09	-6.843989188535340210e-09	-5.038349322493211235e-09	-1.020838001671841522e-08	-7.796124723086734154e-09	-5.959998674968791392e-09	-7.906108101779673631e-09	-7.875538498020630224e-09	-7.092175745188649060e-09	-3.671476723390746601e-09	-3.855495618140641192e-09	6.025769617796379608e-09	2.532635998380041651e-09	6.246272955991413405e-09	9.168875077711900434e-09	3.393712355761187425e-09	1.220172214210661803e-08	2.160685592506764385e-08	2.967980271941619550e-08	2.870672234465370562e-07	1.428368218593064113e-07	-1.466519744741631397e-09	1.577433062862582488e-08	4.754763151057599448e-07	3.032923440191475941e-08	9.550545311699036032e-08	6.955544984052011714e-02	1.113189425042140574e-08	4.829372193410297373e-08	6.144612847125038282e-06	6.557418460619933822e-07	1.684228705245620948e-08	3.720892474875726787e-08
3.290536100515247381e-10	-1.292029265660631381e-09	4.035349248226034142e-09	8.821213987381608753e-10	1.689628643719478243e-09	1.503425828953465650e-09	8.365806490636821291e-10	1.023449525737612535e-09	5.167474592314593131e-10	-1.410174360199494132e-10	1.208509753806446248e-09	1.024232743565903545e-09	1.107148059526393903e-08	3.385444541798190775e-09	1.582449199152208738e-09	6.244063178467769660e-09	5.762584124046033527e-09	4.643598469993541353e-09	1.123930285382872492e-08	3.481929707445194714e-09	2.231517357103826011e-09	1.633658816938895346e-09	7.904798860774052175e-09	8.161017201505657257e-09	6.923195252286807364e-09	1.607725573764031387e-08	3.159326621659479944e-02	4.813513897472889960e-08	1.180018291817645373e-07	3.854301239342536773e-07	2.589698639205089938e-08	9.100194788844713050e-08	4.899364518700269344e-02	1.071739077591336714e-01	3.255185814058133065e-08	7.524387014598244939e-08	8.445082879194940645e-09	3.387790121062628950e-09	3.618255549030111812e-09	5.937603973763001723e-09	5.494253059339496807e-09	4.901803940835994577e-09	6.612415167723194042e-09	6.313868209275181667e-09	4.647347547081075793e-09	2.866430724123426592e-09	8.277278595505720677e-09	7.007681329502617404e-09	8.411072214974781365e-09	1.947737388644410593e-08	2.282507366364740567e-02	6.563775572054580164e-08	1.987190023613689002e-07	4.443512029110077005e-02	3.412318213177888355e-08	1.160125424214281677e-07	2.869686100997993154e-05	3.843289412155986851e-02	2.807867920779773550e-08	5.862388636754161762e-08	1.448927881496841166e-08	3.045941336627101344e-08	5.551268650361082626e-06	9.391268706051142966e-08	2.722737224388044563e-07	1.156631724778573733e-01	5.009874568789559228e-08	1.666639698945217794e-07	2.402197762616352107e-05	4.335768007981152892e-05	4.701654546904992147e-08	1.002564830030016859e-07	2.408997538921276220e-08	4.854664156508607230e-08	8.245993528745040164e-07	1.487856372863435110e-07	4.477655692546280159e-07	3.900243463596037019e-01	7.759254958532134327e-08	2.504206709645188889e-07	1.000167798627913524e-01	1.170662325474745684e-02	6.775986780785985709e-08	1.296450725162631307e-07	4.502442655945511233e-09	5.800095357414697731e-09	1.433266258741975418e-08	1.166607367645588084e-08	1.385804133841486554e-08	1.512388065673592973e-08	8.934217694494427165e-09	1.224927929741828897e-08	1.401207995242211041e-08	1.229261455638919766e-08	1.304554217674123079e-08	1.342621897494695505e-08	1.460948877032074536e-08	2.223772893467812934e-08	6.233098800917019068e-08	4.131593689735539001e-08	5.537121949185286203e-08	6.521178537946235903e-08	3.550770196513861240e-08	6.174939823594221237e-08	1.032446431916435049e-07	1.886646640380617442e-07	2.172580236675867546e-06	5.026238225908772304e-03	2.138755321261977102e-08	4.170519332101938626e-08	1.365135171486915685e-05	1.177169569359067084e-07	3.435747580965893905e-07	8.381201673058463752e-02	6.637235358198660086e-08	2.222854620272278906e-07	6.720930529110062689e-05	1.062002604329286199e-04	5.950153223076872871e-08	1.233443213672815284e-07
-6.925119698435041360e-09	-7.151030710369410099e-09	2.551533994718581047e-09	-6.525765433974774078e-09	-5.991363972655571108e-09	-5.540196560327929898e-09	-6.348019202262025803e-09	-6.075354503308118921e-09	-6.448965421790207216e-09	-5.969806327052619483e-09	-6.040708434836300208e-09	-6.091553669344250638e-09	-4.047860458201215626e-09	-5.183445788102163110e-09	-5.671370408120261419e-09	-4.020326588739684272e-09	-4.199291623363992241e-09	-5.413967416623973745e-09	-1.806185343991710043e-09	-6.564892557955361614e-09	-7.088070550562191316e-09	-5.217180525401916029e-09	-4.691618331701796913e-09	-1.008497134793045551e-09	-5.197311866583557925e-09	-2.168610016981474953e-09	3.789904549303646508e-02	1.049854235732874779e-09	1.101225707954059133e-08	2.747177122323857650e-08	-2.216284480373133547e-09	5.098902431105600208e-09	5.289672570891888748e-02	1.041138775234655700e-01	5.122430949132419012e-10	5.556291482867267765e-09	5.713413264231272507e-09	-6.339334147958979346e-09	-6.302639727858002465e-09	-5.567914751642392668e-09	-5.798285315690804749e-09	-6.068412188764854086e-09	-5.108437334398119408e-09	-4.764799829506111337e-09	-5.659635878872743862e-09	-6.438064262662628993e-09	-3.939144291848331345e-09	-4.513713857015088514e-09	-5.217097594940961064e-09	-4.336850927056478801e-09	1.584983257017751057e-02	4.366474236140744996e-09	2.377938044760493201e-08	5.625857149047615996e-02	-1.049638872075697704e-09	7.960451666082762488e-09	1.104874908745469497e-06	3.886678188461236555e-02	-4.749379514157145352e-10	3.104691638388960936e-09	-3.622208806383179157e-09	-2.334750938954835042e-09	1.317778193402063559e-06	9.453266285156817173e-09	3.377666100289406651e-08	8.107814367496522789e-02	1.771921224376262387e-09	1.282794923889640424e-08	5.947440142277063779e-07	6.100909875046292216e-03	3.519596812678317954e-09	1.056853395358559771e-08	-1.659697992765386701e-09	-1.461973413441436714e-09	2.341076397883784598e-06	1.847648576136627355e-08	6.124080917536130478e-08	4.363550938309903038e-01	6.210441562498005039e-09	2.031817037481107822e-08	9.088745902437243840e-02	2.641547914701070695e-05	9.166679163981438261e-09	2.184560222061414302e-08	-5.756317688296461315e-09	-5.158131346550211273e-09	2.321863181054126489e-09	-4.710555201398023367e-09	-4.270813818229704157e-09	-2.734812601136674779e-09	-5.187290225640394805e-09	-4.658506591603915391e-09	-3.952647424027282336e-09	-2.570517278130897945e-09	-4.288931578686043038e-09	-4.964330652757413355e-09	-3.063620792277580830e-09	-3.546336521630876518e-09	-7.764188410626878203e-10	-8.175784645686453389e-10	-6.106981874860512653e-10	-3.240052893685274860e-11	-3.585532694522745050e-10	2.629803178866278513e-09	3.727938889098484046e-09	3.669396850564938296e-09	1.399905323696193096e-08	5.199060516141103051e-09	-1.555234265578696683e-09	1.490117957236561948e-08	5.069277017454167089e-03	1.370081722572295895e-08	4.427414124283270445e-08	7.459038875009355030e-02	4.865205076275193705e-09	1.857569064382894993e-08	1.079998211443223759e-06	8.574443698309037989e-07	6.055030225987280175e-09	1.376261732060059168e-08
-3.224792504729529496e-10	-3.237353233280080090e-10	-2.220256406057012440e-10	-2.933246324358446312e-10	-2.154433102496323741e-10	-1.558361557701993828e-10	-2.808243414283209045e-10	-2.600861236354971136e-10	-2.822113979230362139e-10	-1.649633488544909744e-10	-2.874841674604618304e-10	-2.677201003174368288e-10	-1.053981582224255860e-10	-3.139484813826213178e-10	-3.113375311786882125e-10	2.235414611309861902e-10	-3.278822079906166613e-10	-3.423017599631826866e-10	-2.663095887356951384e-10	-1.672123049683829496e-10	-3.481500404079399954e-10	-2.712989751693494808e-10	-2.880957005143593532e-10	-1.771990211614949588e-10	-2.709166302422551062e-10	-7.716405274980287588e-11	2.809111358811419365e-02	-6.987664269836815941e-12	3.881725245095275396e-10	8.522214925036642653e-10	-1.392878570191387251e-10	1.307961002393174400e-10	5.969193140664259822e-02	1.064661960069933910e-01	-1.545185688940588635e-10	-2.693943036988804751e-11	1.936086903076299148e-10	-2.317919917993837775e-10	-3.000759547220929410e-10	-2.941005002957067312e-10	-2.976605376388660468e-10	-3.038836493584990126e-10	-1.918306565505823651e-10	-2.668376359734326503e-10	-3.018772656213196178e-10	-3.321396497974081081e-10	-2.985385924028610488e-10	-2.921474992171994870e-10	-2.629176828995109927e-10	-1.193959489504249497e-10	3.057974426221544972e-02	1.497695315573309136e-10	1.095717501466675025e-09	5.239997798233452658e-02	-6.223181753981558294e-11	4.202425746793487940e-10	7.629414390853649400e-07	3.607859295783595599e-02	-1.410373128860734012e-10	-4.131882977053374796e-11	-1.999557749457349073e-10	-4.062342954471491855e-11	7.360060874394655524e-08	3.611128730162865707e-10	1.544260826735479576e-09	9.883301307838866789e-02	4.214355217394890117e-11	5.625769738474657839e-10	4.118788616980232723e-08	4.354347370272972844e-07	8.378120303529261424e-12	2.321702096883360937e-10	-1.174757851553021334e-10	1.224081800895895313e-10	8.318820760092364660e-08	7.972838313798341060e-10	2.799143341457265905e-09	4.352222991703581512e-01	2.532195406984173341e-10	8.837279825100401793e-10	8.089178091304122242e-02	2.743721002781780959e-07	1.841281265091926933e-10	5.238652978637256479e-10	-2.927616821292865790e-10	-2.736108526651139584e-10	2.336857454095693448e-10	-2.457026079928966335e-10	-2.076230914738213690e-10	-1.805505497138837905e-10	-2.697606190833150105e-10	-2.330943661169678039e-10	-1.911390183910609182e-10	-2.312487729321718478e-10	-2.518036386380997831e-10	-2.337642646079862887e-10	-1.469606334531475301e-10	-1.908421278329793848e-10	-1.514598354742471517e-10	-1.352352710674993405e-10	-1.473913489330477599e-10	-1.278153071472918540e-10	-1.084698267216387554e-10	-8.832621988212646145e-11	-4.320144474233102644e-11	-1.067519569545152430e-10	-9.533874204916719039e-11	-2.231611025434921563e-10	-1.399460598238757661e-10	2.569210933002175591e-10	8.285992116433014244e-08	5.695321324115873527e-10	2.273529924011393936e-09	7.174352889523405441e-02	1.644722735707693718e-10	8.175069014691417827e-10	4.528275706013742800e-08	2.146274649048817266e-08	9.157458457408537852e-11	3.156085948805444756e-10
-3.979679387919776029e-09	-4.268018539760731413e-09	2.199048795592650382e-09	-4.242275084815247846e-09	-3.792454917017310856e-09	-3.312515601254623192e-09	-4.315612526697624145e-09	-4.212642159739684761e-09	-4.309849815578267143e-09	-4.219260592628217616e-09	-3.947741121314271585e-09	-4.155191557707707492e-09	-9.935198003378090191e-10	-3.103660670624980343e-09	-3.301744943695759326e-09	6.645901010310683378e-10	-4.032955060813761278e-09	-3.602944333972572140e-09	1.113805598753749575e-09	-3.998246721931018595e-09	-4.175815013386572617e-09	-4.177242656231257804e-09	-2.599313660762877205e-09	-8.936803563311748205e-10	-3.368138668436189392e-09	1.434396773734319090e-09	2.871696071409277073e-02	1.862576627545186099e-09	9.587832976528046284e-09	3.060543129080176012e-08	-7.826076079770398069e-10	3.917015541834956021e-09	5.923384097602596432e-02	1.079882184409089452e-01	1.754285665649068331e-09	9.435655485270613495e-09	1.892566978928430568e-11	-3.717964383949997034e-09	-3.500941888284874968e-09	-3.014286682084964606e-09	-3.483196979295649831e-09	-3.591775648224177680e-09	-3.238494095612890163e-09	-2.223332825943315617e-09	-3.251311428627670942e-09	-3.760711492493605184e-09	-1.743235460426420819e-09	-2.319337652530880319e-09	-3.144000474734358439e-09	-2.066383786957781268e-09	2.823599558506452445e-02	4.179032963867028981e-09	1.926563603655604780e-08	3.685495788112265469e-02	3.681952359113773380e-11	6.156313149873622088e-09	4.194260582700396474e-07	4.270237292280691654e-02	1.177756281141963830e-09	5.551512512364722228e-09	-2.222608070648811030e-09	-4.723878722803859316e-11	7.578137111618099176e-07	7.694127256580533759e-09	2.600478154329233544e-08	1.079729954600465586e-01	1.917495849331106981e-09	9.414661334654427191e-09	2.662356496146156561e-07	1.796680282240299196e-05	5.377019217723021528e-09	1.687240683444768294e-08	-1.124740928836006323e-09	5.494212259529799862e-09	3.799847221090090960e-06	1.451465794419734514e-08	4.572543559914296880e-08	4.030222939444182417e-01	5.428642287373903850e-09	1.485421324115803269e-08	1.064537259656193474e-01	6.526427293451836842e-04	1.149578671999297758e-08	3.245680615711135211e-08	-3.735817769103351748e-09	-1.983234538711843983e-09	2.136314830215548014e-10	-3.691876589564590512e-09	-2.702750763195479432e-09	-7.232395081740634890e-10	-3.667929359540376898e-09	-3.049163218148160692e-09	-2.513868448692955833e-09	-2.009589676770499953e-10	-3.140431140667717760e-09	-2.764605870537829563e-09	-2.179287170201845135e-09	-2.883773718278848786e-09	3.326638019689068051e-09	1.875775350840455699e-09	3.018240451352486055e-09	4.357455222259795986e-09	1.885529421787371974e-09	4.556498059577546634e-09	1.055525928305993082e-08	2.126181264259890014e-08	1.963984807261789517e-07	1.539303256478170618e-06	-7.648863575606845438e-10	8.342874130803246711e-09	1.751362601797620055e-06	1.054776210798695307e-08	3.304369334785137055e-08	7.813174804227333847e-02	3.756119782579461311e-09	1.318021114440877344e-08	3.991032022250839596e-07	6.860707184256924606e-06	8.279502929630147925e-09	2.216269816598393546e-08
-2.043576049566688799e-10	-2.199185826871462216e-10	8.610765951879701700e-11	-1.955301884354733187e-10	-1.814900090929838479e-10	-1.701402553815593318e-10	-1.895778846236808172e-10	-1.902575156383791104e-10	-1.966790014148163670e-10	-1.880867009198625052e-10	-1.775444280674509812e-10	-1.846663217275233751e-10	-5.377303937773746992e-11	-1.741668139756600948e-10	-1.308194423030499683e-10	1.780318179347982385e-11	-2.022344415531465910e-10	-1.848482100043671526e-10	8.360277567662012497e-11	-2.004650287932911838e-10	-2.105423523730306857e-10	-1.617924521435435319e-10	-1.400405073874940283e-10	-1.348218530719734339e-10	-1.503897667457338675e-10	9.576440196743641526e-11	3.218417623779392528e-02	9.389693589215111462e-11	4.930257739096446376e-10	1.486267971384567098e-09	-4.612640055037340555e-11	1.915423356990524834e-10	5.482258170699717131e-02	1.063134345648574092e-01	7.880191982648247671e-11	2.706240326097246970e-10	-7.122239236608231563e-12	-1.892809363788199909e-10	-1.730651041007907371e-10	-1.561873926822687273e-10	-1.525165807040016292e-10	-1.724496954762461048e-10	-1.625930490064722230e-10	-9.702706155208197972e-11	-1.534963940273659384e-10	-1.820295323375003707e-10	-8.520605105226739478e-11	-7.446338280502469098e-11	-1.467398661725276087e-10	-3.183858936580520974e-11	2.281259993267124517e-02	2.071627183125926558e-10	9.475600842505890987e-10	5.566858846208209977e-02	-1.035723472002751588e-14	3.177119774660612464e-10	2.559877750405611323e-08	3.471730801342634565e-02	4.577861597214167979e-11	1.830770428678983079e-10	-9.988156390337490638e-11	5.639283188664632095e-11	6.306347747160577343e-08	3.741534020191668421e-10	1.300550684471268709e-09	9.375980775004154333e-02	1.035900032345733349e-10	5.484584016872323414e-10	1.195962713004966225e-07	1.822299031850513644e-03	2.254009104070631148e-10	5.352081840305673135e-10	-3.465441357343697478e-11	2.485468529922889672e-10	1.479740319174126456e-08	7.305981106822186550e-10	2.346612650095239139e-09	4.256933521028595790e-01	2.624388914273825479e-10	8.506676489011408028e-10	9.222541346639138993e-02	2.895193496239665577e-03	3.901797781714750626e-10	7.996518478109964742e-10	-1.689419112743380028e-10	-1.016147557735858587e-10	2.025679291635220958e-10	-1.540327806889179280e-10	-1.101418345011392890e-10	-5.729282257873968526e-11	-1.685879678649460658e-10	-1.266364405405184845e-10	-9.462572350084256465e-11	-8.696923209324098179e-11	-1.310823072949684658e-10	-1.088860243885240878e-10	-6.958484891314809851e-11	-7.983790505080189648e-11	1.229619441603175213e-10	6.463318767480495970e-11	1.374899659017642903e-10	1.838971232309302215e-10	6.842255408947693686e-11	1.995957802008078465e-10	4.088611724098016142e-10	6.703444311907682323e-10	4.529799511526947597e-09	1.523916542817483397e-09	-3.604910101066433448e-11	2.477483538862645953e-10	5.391112498883252798e-08	5.301381947620031961e-10	1.741309638647484122e-09	7.708146257358142184e-02	2.156450511461368542e-10	8.278977413685714280e-10	3.335237983596452320e-06	1.517139625989034852e-07	3.306628894393004036e-10	6.662520545162792570e-10
-1.874815826508811566e-10	-1.972193879424406895e-10	1.134742698828905280e-10	-1.846192817373963834e-10	-1.604843154608044453e-10	-1.485084530827116424e-10	-1.945690793125970059e-10	-1.695950847460540406e-10	-1.898866386161770884e-10	-1.878689221607052225e-10	-1.665186677695311871e-10	-1.670596176761167738e-10	-1.407250614592779475e-10	-1.471431208993116020e-10	-1.684222996414042618e-10	3.340723290021294779e-12	-1.279251875049411717e-10	-1.564832406681886357e-10	-1.225219971537170313e-10	-1.983566438957996724e-10	-2.059511675989282444e-10	-2.069604521020007313e-10	-3.417895869688360518e-11	-1.760378576974290657e-11	-1.553129799991589311e-10	-1.294708430615225098e-11	3.734146890992554729e-02	1.550255662426669449e-10	1.108761310886954389e-09	3.838831647181911883e-06	-5.358076212746569979e-11	1.912191606617022195e-10	4.762180853469184100e-02	1.056151869388276543e-01	-1.680049219151821530e-11	1.051793850635763322e-10	-6.348976235983215837e-12	-2.042115903850386539e-10	-1.540487042907787769e-10	-1.470881174117982952e-10	-1.516960362518293630e-10	-1.642041204922653794e-10	-1.086579340092179836e-10	-1.700164429957255117e-10	-1.570832047160525453e-10	-1.655006315364564634e-10	-1.519123612817313396e-10	-6.508954317191836807e-11	-1.518120020655197316e-10	-1.745051160077780488e-11	1.664941718145786925e-02	1.643569719393267400e-10	7.892907177968992261e-10	5.866131038570641248e-02	-3.533976629266089339e-11	1.887564370192407713e-10	2.596011644225023376e-09	3.772559684453414414e-02	-1.043721066181642256e-11	1.076005847059316478e-10	-1.038195460664152809e-10	5.118826414672629803e-11	1.440458120770242574e-08	3.177579313622227241e-10	1.083197733330710940e-09	1.018514860934191940e-01	4.755619685937409725e-11	3.399427737091691674e-10	3.570793263118857075e-09	3.161063292615269951e-08	9.048699048330792844e-11	3.099138078769013014e-10	-6.586544278628409872e-11	1.646522580537915482e-10	5.324362596423518366e-09	6.436181534419307125e-10	2.003225758501115282e-09	3.694327197130548579e-01	2.616227933106251129e-10	9.655423409673726704e-10	1.376109191784947450e-01	1.145440955367798240e-02	2.332180332969478028e-10	5.830884525311050749e-10	-1.666262206930158330e-10	-1.139337259776757071e-10	1.828087294248041060e-10	-1.311948889966956845e-10	-1.168396808880153037e-10	-1.191776782256457071e-10	-1.577432147389578164e-10	-1.366499022181089123e-10	-1.277049723454257996e-10	-1.469019214040015465e-10	-1.217280587557574500e-10	-1.231304926499510064e-10	-9.356432023473243890e-11	-9.637436367255503366e-11	-5.836519092307678867e-11	-3.743414652699450896e-11	-2.486262111238938799e-11	-8.942341370528430062e-12	4.899668026022019950e-12	-1.781235313818467242e-11	-1.838474309788914175e-11	5.517439685941190037e-12	-7.852622781441420324e-11	2.096369869037223143e-10	-2.799200874144140745e-11	1.454986011314166156e-10	1.872312607432417859e-08	4.534843403151586749e-10	1.478304005404867384e-09	7.603169581113845832e-02	1.432900674327327619e-10	5.414391499193460456e-10	1.067361259437760780e-08	4.894159650081321237e-08	1.886318175227043029e-10	4.763749291233212304e-10
-3.514950174676974700e-10	-4.125835074789737383e-10	2.457628301002359679e-10	-3.930814873545229803e-10	-3.456601567319864298e-10	-3.013010779629353272e-10	-3.930786974606874035e-10	-3.718850370043391754e-10	-3.878033250255297094e-10	-3.679665202356365931e-10	-3.657394055825608755e-10	-3.678431140703352394e-10	2.656014711756477917e-10	-4.226197434292450068e-10	-3.852903623432877192e-10	-3.602901225581857263e-10	-3.142157048674772622e-10	-3.084957243822086325e-10	-1.577381291974844747e-10	-2.969105121798224966e-10	-4.105366666270888660e-10	-3.688932417429745135e-10	-3.176526627146769487e-10	-1.833645933193076744e-10	-3.238334530395219184e-10	3.609616866120298454e-12	2.697156118906348862e-02	-5.974459120843132543e-12	5.048274541917762354e-10	1.106711710856830037e-09	-1.997028099169687468e-10	1.826179628579275475e-10	5.367287822248868051e-02	1.064012944248078352e-01	-1.513207698454804313e-10	3.376822683362601389e-12	-1.254405420257315707e-10	-4.038936093798510533e-10	-3.545990806074111647e-10	-3.476333410051588691e-10	-3.135325325378508156e-10	-3.701639478605233083e-10	-3.774296056768409567e-11	-3.830841751973049841e-10	-3.692902061136813973e-10	-3.789758261633690762e-10	-1.768558116615528580e-10	-1.789825761661826007e-10	-3.084958640164032093e-10	-8.884029543948334324e-11	2.709115684518140221e-02	1.668236583145589805e-10	1.185116765691752846e-09	4.724063558159040388e-02	-1.291969159694908201e-10	4.149651789060343036e-10	9.651153635545162764e-08	4.235861868027496896e-02	-1.383181675469932670e-10	5.722200914088800815e-12	-2.423913892534555033e-10	-3.089802493039101480e-11	1.846381286999553273e-08	4.367962277838383192e-10	1.699464893774107198e-09	1.045850130795086957e-01	3.305564302579593801e-12	6.694688024710548369e-10	5.457214629250376425e-08	4.209150802103413689e-08	2.969904110828592360e-11	3.193206507594329590e-10	-1.486760135592829617e-10	1.183633575577084186e-10	1.278552852359823507e-08	9.301950156087395593e-10	3.163167345621246977e-09	4.205993254756195676e-01	2.389372404337587409e-10	1.111809157903423150e-09	9.391153344082181498e-02	5.759637667977732498e-07	3.422547107655219225e-10	9.662364669769064860e-10	-3.433847937841413474e-10	-2.894134510337093619e-10	-4.712815638793589887e-11	-2.828473507746201537e-10	-2.298330776757356122e-10	-1.575880799399765164e-10	-3.337835354115509846e-10	-2.615501339385425782e-10	-2.151285289959914910e-10	-2.045631020191152228e-10	-2.793360879503637918e-10	-2.594610545563977682e-10	-2.531074076306114552e-10	-2.097820458679485801e-10	-1.861341882636018805e-10	-1.337487995747569506e-10	-1.767349625150307234e-10	-1.576070059815281807e-10	-3.378876041712828893e-11	-1.270562925939937227e-10	-9.296271741329060135e-11	-7.461240389851728809e-11	-2.738078435230781920e-10	-1.109497892831210241e-10	-9.333547657152251462e-11	-8.791518772837665650e-12	3.043431804067164540e-08	6.673238178842111507e-10	2.355790775739768330e-09	7.716703519712278525e-02	1.595216810725783939e-10	9.644445957974094803e-10	6.350584452780748757e-08	5.215176933357301475e-08	1.808235642209628099e-10	5.699552477042831496e-10
-9.180919922600746246e-10	-9.718329342030454854e-10	2.396183018115652168e-10	-9.491422440453141119e-10	-8.419141044458553985e-10	-7.271962207801913212e-10	-9.447676931317259446e-10	-8.854335089655149330e-10	-9.081412245366533392e-10	-8.834349553883507161e-10	-8.939461676321509308e-10	-9.006953066238518825e-10	-3.059695367444914200e-10	-9.111222850078283314e-10	-6.927643736332668893e-10	-7.081741670411756845e-10	-4.283603600010182163e-10	-6.313293821861349194e-10	2.346951197622823557e-10	-9.104286558794282700e-10	-9.391246960449194552e-10	-8.868677916007634759e-10	-5.017387037651676042e-10	-5.378227387972259478e-10	-7.857390424924418880e-10	1.904332236017708595e-10	3.776995319072806723e-02	-1.231016493985160920e-11	9.374153921890135437e-10	1.264912892156541933e-09	-3.958434451597054070e-10	1.064658998545915294e-10	4.849679050218243248e-02	1.064292893893756115e-01	-2.209355507245550459e-10	9.938209633263722075e-11	2.360090769519184190e-10	-8.006832656127035742e-10	-8.636602054920627356e-10	-7.901440554202269762e-10	-8.216891719413498914e-10	-8.285725190194648795e-10	-7.062312902845516900e-10	-5.757278459479094343e-10	-8.089585773477105565e-10	-9.016555367890432172e-10	-6.347778251596289873e-10	-6.690673767240720131e-10	-7.674780062869792190e-10	-5.282738310001033167e-10	1.639810963317851755e-02	4.255634979997843821e-10	2.628716731107566828e-09	7.013320687346555338e-02	-1.920422855632969795e-10	7.857637916372501796e-10	2.058359250655399627e-06	3.492265917986730334e-02	-2.319244716984460687e-10	2.417391944140449296e-11	-5.972470211298289811e-10	-5.898492651493712084e-11	4.370432119631501156e-08	1.028897526358587981e-09	3.748916364609287602e-09	9.277141814677584974e-02	1.467678311038573557e-10	1.297921886087065068e-09	8.134472160193132851e-07	3.986191439112818589e-08	5.675065732424027511e-11	4.687357559254705430e-10	-4.129694734710465004e-10	8.436716153315107263e-10	9.959962346556146935e-08	2.214454266740666577e-09	7.128011021299318009e-09	3.957019609826193940e-01	6.595748628902794542e-10	1.535370594636795443e-09	9.662345302819673465e-02	2.174021284265190146e-02	3.649843050106271122e-10	8.259603362719261108e-10	-8.495267462158783020e-10	-4.868672073293884297e-10	3.788357249584730401e-10	-8.901421561097522033e-10	-7.973964167977242518e-10	-4.066397454864844142e-10	-8.588065840912760694e-10	-8.321856125781090574e-10	-7.112931900898644622e-10	-2.818434459195100708e-10	-8.702046331527352130e-10	-8.778336752489634665e-10	-5.089298140300517590e-10	-5.978624770887677428e-10	-2.645471778593223170e-10	-2.172981222936778654e-10	-1.873135631039439737e-10	-1.102798277992809637e-10	-1.965060805559124829e-10	-5.138596917716806637e-11	3.228775833962684541e-10	5.502338788387958299e-11	-7.412408785620984041e-10	2.012208392389539229e-10	-3.755795912282382984e-10	1.114842276785397129e-09	5.237655522724250882e-08	1.570377316916492116e-09	5.033140300555510868e-09	7.900743251079724028e-02	5.108778908683990300e-10	2.020933144367411785e-09	2.369881606986736571e-06	3.770100656036196829e-08	3.132239616420815643e-10	7.710454279541066365e-10
