-9.867492019277755225e-10	-9.876181972548787069e-10	-1.135443898293321423e-09	-1.197532359945149103e-09	-6.246126434594636583e-10	-1.286634784506098984e-09	-1.220089729322152691e-09	-1.670502870663187854e-09	-1.528503279738216750e-09	-1.120036654716246113e-09	-1.583859236348739860e-09	-1.175218675991198113e-09	3.800942088501967134e-09	3.387126620086938652e-09	3.965486525191841642e-09	5.744303595966195029e-09	6.025936002668179368e-09	5.897185762277908287e-09	4.687094200934591967e-09	5.009626777852191134e-09	5.338429932170145186e-09	3.058987847152139303e-09	2.417663726583714678e-09	2.297323032761371391e-09	6.284635233007955622e-11	3.116783787466567254e-09	1.304115519017169482e-02	7.182703449092253118e-09	2.009383474526374305e-08	5.098170699662121411e-08	2.705484568777781850e-09	8.438849628289999171e-09	5.122700881598958589e-02	1.852096669827686115e-01	8.292645949341524787e-10	1.081542710141753161e-09	2.539917712299969890e-10	-4.168234726314980130e-10	-6.207865357110227984e-10	-6.431136332734057199e-11	-1.227980280241144644e-10	-1.009926324807020114e-11	1.189993852340958904e-09	5.650094720767495925e-11	-2.866296040592101834e-10	-7.606448219783467134e-10	2.612262203355572938e-10	-2.574390881654426707e-10	4.459802329644246869e-10	3.428915394397491614e-09	3.764549562567005153e-02	1.105633696512396410e-08	4.365287361793981365e-08	4.750054658395462011e-06	3.809082493128890459e-09	1.084679658662690069e-08	1.625871023729566836e-02	7.643242441204488313e-02	9.192595531576791144e-10	2.345068076814729890e-09	1.702931298080706507e-09	5.950124129305009174e-09	1.235922728623201940e-02	1.555753465547113550e-08	5.527155292962897258e-08	2.353594853195246084e-01	6.233389388125935149e-09	1.613787772505660542e-08	1.293174624666893749e-03	5.202468701791795412e-07	1.967546679742662861e-09	3.733562368980979339e-09	3.248546050248826162e-09	8.441141699976684875e-09	1.112924432026429915e-07	2.423662332495840277e-08	8.623190522807439458e-08	1.948757677667683486e-01	1.021873150502959643e-08	2.328711625503787421e-08	8.094692531082320341e-02	2.961942971306884658e-08	3.172910894253640219e-09	4.487885934716825972e-09	-6.608775253441982630e-10	-9.624079878000787596e-10	1.047893705312472284e-09	-7.423242237726166679e-10	-8.536308192603918728e-10	-8.673431742972650960e-10	-9.479994184769997453e-10	-7.668833346797539353e-10	-7.915815606281993086e-10	-9.963224697237261939e-10	-8.134008241028428625e-10	-1.055515331091543164e-09	1.403883418325107790e-09	5.092655510641112667e-09	2.369086705521184831e-08	9.557285195805584567e-09	1.838396384845798009e-08	2.550879423782263587e-08	6.217886916033629104e-09	1.550404137480421853e-08	3.632975653779743630e-02	5.901505380010050456e-02	3.681373176979254045e-08	5.863437534512741040e-09	2.079326898511234066e-09	5.001092594217270651e-09	1.276205430529898799e-08	1.047918410966119975e-08	1.625654231379318636e-08	2.266029452187486607e-08	5.962187646896157925e-09	1.010075092152447593e-08	2.029132845261514722e-08	9.773835470328952889e-09	1.927062044061550022e-09	2.744736989163110569e-09
-4.984579200629988944e-10	-5.984306951975751547e-10	4.660444258764483581e-10	-3.855912834979894640e-10	-4.889330816858774844e-10	-5.568053856512384490e-10	-4.278152077127685135e-10	-5.647070103531928093e-10	-5.422563092931379251e-10	-5.848990068376834014e-10	-5.518369115960686869e-10	-4.353842355798596536e-10	5.580812960055470977e-10	4.376916291615569488e-10	5.151156636456094125e-10	8.561361700642692472e-10	9.074611918830258075e-10	8.867136459261856898e-10	6.704466978628433110e-10	7.252533760657722714e-10	7.781972871372864969e-10	3.677908196515721508e-10	2.217967934084469515e-10	2.089437229005205081e-10	-2.001218853248163253e-10	4.280891628281638583e-10	1.721749917007834099e-02	1.053827465538902842e-09	2.994703628874822865e-09	6.095388407525548475e-09	3.195956669021988429e-10	1.497971466098191616e-09	2.894739494562164131e-02	1.989232501316851309e-01	-2.209537013057480888e-10	-1.039062420578066528e-11	2.585768883895783070e-11	-3.505360592500931905e-10	-2.654736649320649015e-10	-1.905087345372105643e-10	-2.057353746717768567e-10	-2.462629104572190923e-10	-8.843201605424935040e-12	-3.374021348172791800e-11	-2.355293014985300101e-10	-3.522419088189199277e-10	-1.033405805425927553e-10	-2.610155284254411653e-10	-1.186361390630556849e-10	5.146661045353109850e-10	3.910723069071617153e-02	1.526582532766889800e-09	4.542106196672379132e-09	1.666450396014281310e-08	5.132126248333903546e-10	1.827885687519392684e-09	4.703927870677726553e-02	4.749447632510920420e-02	-9.323647389514044585e-11	1.607132574522884710e-10	1.674988765349090228e-10	1.164037678751839100e-09	1.982709572568957707e-05	2.810039125557466046e-09	1.000646749234669554e-08	2.533642951599854864e-01	1.053888754340966288e-09	3.194311484455266621e-09	2.516711302308021858e-04	6.511768534232009053e-08	1.148307341192473293e-10	4.290056141019686883e-10	5.068915774396297124e-10	1.600653746194318197e-09	2.677641651907718021e-08	4.454457074044320436e-09	1.561677951226680162e-08	1.709364373238255741e-01	1.764598625466576252e-09	4.284247351934028457e-09	1.078361361694475246e-01	6.077846761793399220e-09	3.448562814957667231e-10	6.095235305653933432e-10	3.434456777104751663e-11	-4.884843922644524901e-10	-4.110276945350513891e-10	-3.361304927487310163e-10	-3.858195901739267190e-10	-3.841756006358147089e-10	-3.765693222464018351e-10	-3.496120843514434864e-10	-3.376698074307849425e-10	-4.116438885207873383e-10	-3.342200624688029649e-10	-9.260301398772088218e-11	5.512931791147428595e-11	7.485373826432023918e-10	3.102672941072054886e-09	1.285473720523211729e-09	2.249906565803818592e-09	2.813396085301893272e-09	8.706442556924109044e-10	2.111169469143429843e-09	1.075303047767303723e-08	8.886225058176355773e-02	9.357453807177707311e-09	1.329343298114770701e-09	-1.209439316470019373e-12	1.089009940955471867e-09	4.277984063735075366e-09	2.355514524528472786e-09	4.295676781144950239e-09	5.373579222815344998e-09	1.220539675235790424e-09	2.560303736280429401e-09	1.397693887053703301e-08	2.781818928882853091e-09	1.528241578786171434e-10	3.557779161232131506e-10
1.741794993928351803e-09	1.291612499053698369e-09	1.216954225061959264e-09	1.542273065625426086e-09	1.483089979516518110e-09	1.421628710279404885e-09	1.495186001516326340e-09	1.402480977781699420e-09	1.332714667400969525e-09	1.190347851699370466e-09	1.555601456339754094e-09	1.373869518751359145e-09	9.531992002479298213e-09	9.994696770567326077e-09	1.232682347479741489e-08	1.573391731188469173e-08	1.707070985578276552e-08	1.716808736947036833e-08	1.278475648350064866e-08	1.433672148634372967e-08	1.607799882447199256e-08	1.031397533227101162e-08	8.363463442278219196e-09	8.153608143638894816e-09	3.674745844786725904e-09	7.769867296982466776e-09	2.071992993317331444e-02	1.543428165045492192e-08	3.924146236382775805e-08	1.261674396073647350e-07	7.562605718646455584e-09	1.591998165219364780e-08	5.202572092028211886e-02	1.811107414377487734e-01	5.342975983959453413e-09	6.787570349541745735e-09	3.763417022656581298e-09	2.876870278873116775e-09	2.748296912280481320e-09	3.561553461098452920e-09	3.454459834773056661e-09	3.317871315256822215e-09	3.469824134319374526e-09	3.304985877427892669e-09	3.171071562485906261e-09	2.613318535592841603e-09	3.253999370961003979e-09	2.888862052479379714e-09	4.226052668615317857e-09	8.551834183083969037e-09	3.954303024521318988e-02	2.044349101232468755e-08	6.662773533539308256e-08	7.869226459368815554e-03	9.021624377325522613e-09	1.867008132137665208e-08	2.831340797857758579e-02	5.177160670024837097e-02	5.742311708502151441e-09	7.382130578317187198e-09	5.854251268259905842e-09	1.160876644289758317e-08	2.629236406771951619e-07	2.794387294481469291e-08	9.040670305458021384e-08	2.532146062972888134e-01	1.244496135759875410e-08	2.621629287753927402e-08	1.189536065775912647e-03	8.565257227904075245e-08	7.080568106757926946e-09	8.814881838957063792e-09	7.895751190252136523e-09	1.448160167681805224e-08	8.048285579816092981e-08	4.160359714030506567e-08	1.354527855827897197e-07	1.556090517435127496e-01	1.856795289900852257e-08	3.905126277132999390e-08	1.188630409900361395e-01	3.730715839178964547e-08	8.614249833496462643e-09	9.891014975028514656e-09	2.247676869827059439e-09	1.845999628609945563e-09	1.832715645357827365e-09	2.240634460558967258e-09	2.203066404073324795e-09	2.131871440752301540e-09	2.112948460356635192e-09	2.062393539465503599e-09	2.022754798410044039e-09	1.829570135171109343e-09	2.200625289302748355e-09	1.988809046341031482e-09	5.647299486912123743e-09	1.085399088161865500e-08	5.226615706137567653e-08	2.251788842981386670e-08	4.967492231466454890e-08	9.113082195993123885e-08	1.451960907303607572e-08	3.861364709003115927e-08	5.900395953054201649e-03	8.386743748850777891e-02	8.511642426949362920e-09	1.263229771956085031e-08	7.082068024508803526e-09	1.209572533623867150e-08	5.147637366574825625e-08	2.654446272066640243e-08	5.507242568030402571e-08	9.597543041987114381e-08	1.402479498863752022e-08	2.539148360129027353e-08	1.006603073472781529e-07	2.487501894300322792e-08	7.199638393286896287e-09	8.112373629949323211e-09
-1.416397488978595493e-09	-1.035132454389959260e-09	-2.575172350220579947e-09	-8.881060413768786145e-10	-2.014226063235607757e-09	-2.064772812598772771e-09	-1.541250481620222132e-09	-2.760627367355486499e-09	-2.562634052203933736e-09	-2.678403451629999348e-10	-2.580042354938741859e-09	-1.842818670498183298e-09	8.816210038213542447e-09	7.335038632190602804e-09	8.197438276042041648e-09	1.216813159768493398e-08	1.247051296119645445e-08	1.215193197556666798e-08	1.033201806486824504e-08	1.076186053532246923e-08	1.121194287199953234e-08	6.596805651625647667e-09	5.891014325068341292e-09	5.380168399104993006e-09	1.140350243077977451e-09	7.496208381696036578e-09	2.049282098676561553e-02	1.712800735964995299e-08	4.600028609787600055e-08	1.261787501226048701e-07	6.927143383957648421e-09	1.957677049489052372e-08	4.539782262602170410e-02	1.792565929946104142e-01	3.052980498537730474e-09	3.540552729559260077e-09	1.767254958096670896e-09	5.147339450816784360e-10	-3.763286053730676039e-11	9.732498494755342786e-10	1.095123570042676749e-09	6.440695640579906461e-10	1.812990028004697148e-09	1.646039638972195915e-09	4.696577335154266441e-10	-6.444311711522977045e-10	3.407561766538910150e-10	1.107471131857050844e-09	1.754814719051221767e-09	8.041320178458059729e-09	2.937425556096499510e-02	2.649478253225002690e-08	1.057459486933910002e-07	6.050774334063987493e-04	9.014080944905939566e-09	2.363444736328010141e-08	2.888215254586841071e-02	7.004385698758615331e-02	3.243652600925320695e-09	5.712615261469480615e-09	4.628186510932895002e-09	1.397248975359370843e-08	1.496851789279483175e-02	3.545562291642057795e-08	1.184455478996982913e-07	2.565038868794929927e-01	1.474641563523343919e-08	3.668761172872253751e-08	6.431641700098533060e-04	3.773951729702836931e-07	5.558486892802135437e-09	8.569531737201957948e-09	8.024800385369342138e-09	1.916535960667739105e-08	2.680658256401994528e-07	5.399014644665193047e-08	1.802567848608053139e-07	1.580678190677561878e-01	2.332019265612746189e-08	5.189317228723295085e-08	1.102073504241981999e-01	6.384415093019863959e-08	7.854065634887266909e-09	1.022824728372609669e-08	7.865478982052294058e-10	-8.933579536420802410e-10	-2.788234219653363221e-10	-9.849538924051100955e-10	-8.864295154131329984e-10	-9.310168817583291579e-10	-1.243218098562495741e-09	-1.091444328532352218e-09	-1.052394815690649041e-09	-1.503739054349765572e-09	-9.008648586653275046e-10	-4.745347032215058325e-11	4.301065614924453517e-09	1.107521379075200187e-08	4.483398717871220142e-08	2.228121370852034719e-08	4.104483909617617689e-08	5.825583379512174432e-08	1.442978816081710569e-08	3.420268635433745758e-08	1.783703835744202340e-02	6.771707159834407241e-02	2.024221786227417676e-08	1.312989159592223877e-08	7.118147721581551184e-09	1.422988156799719043e-08	8.379203210139223643e-08	3.154917534728336908e-08	6.085610855032701409e-08	1.023968077391985608e-07	1.633226478969969751e-08	3.086622227610214624e-08	1.070840817666496899e-07	3.359063147147775318e-08	5.916462468234184976e-09	7.735474568023019161e-09
-2.774646772989068028e-10	-3.161912409546083683e-10	1.057433471069199068e-10	-2.229576871323354442e-10	-3.036532207801055608e-10	-2.915373172397160411e-10	-2.170023646688075993e-10	-3.064952454908572374e-10	-2.949699857899037712e-10	-1.845195317974096525e-10	-2.848822662219964117e-10	-2.952773780063020942e-10	1.873690272112075240e-10	1.307168892446692713e-11	5.426511635254836618e-11	1.688482857857996641e-10	1.978843269617050429e-10	1.898601366171443640e-10	9.644527100174429535e-11	1.191212382477185975e-10	1.392313522519217317e-10	-1.027483227480993168e-11	-6.357123063641059010e-11	-7.209054940661055005e-11	-1.800221159797664861e-10	1.687976406496900153e-11	1.606346623538197627e-02	2.712837768967981245e-10	1.046510546448626296e-09	3.025695061248144326e-09	-1.104393813218344730e-11	3.600277583560412907e-10	4.935053257493140361e-02	1.858103725274706519e-01	-2.525316690864515990e-10	-1.398326045094550342e-10	-1.767153331955039816e-10	-2.278271121847906659e-10	-1.599040225177461686e-10	-1.858682923517417241e-10	-1.408082803374728800e-10	-1.810674434550795196e-10	-1.589204734570550679e-10	-5.108371829955189165e-11	-1.905174359340352136e-10	-2.289174551141267624e-10	-1.319755750769705819e-10	-1.782701006786350802e-10	-1.566808392444286351e-10	3.654269528056108021e-11	3.112619108266128504e-02	5.226788938725200870e-10	2.604250647834251502e-09	1.092240359965931766e-02	6.068433702917778170e-11	5.041379058853221580e-10	2.415885397163244214e-02	7.352609882805587194e-02	-1.499921058497037687e-10	-1.188287048643376624e-10	-6.164537081711285948e-11	2.115125411030645474e-10	1.665007486324332139e-02	7.916313042408922237e-10	2.911013834396316644e-09	2.227629804847995332e-01	2.243429713636341939e-10	8.552205711832866489e-10	9.460695001130585077e-03	9.315282198681897611e-09	-9.486659849160853908e-11	-4.498805521142705397e-11	4.308968260125484683e-11	3.645898170593414935e-10	8.136642619688811578e-09	1.306049948655788117e-09	4.516509725763990284e-09	1.963719098738402891e-01	4.732779463153281090e-10	1.281111411201709599e-09	7.776448397748456087e-02	1.795127911763467567e-09	-7.661484082918332336e-12	5.311315093075826945e-11	-1.031093414904582303e-10	-2.163724071397247108e-10	-1.892731144601779817e-10	-2.128293429393012464e-10	-2.247959769019558970e-10	-2.306467846113985083e-10	-2.395434152862677142e-10	-2.118435499500383261e-10	-2.183295952875384137e-10	-1.870897907024373739e-10	-1.926090112671097242e-10	-2.186498265296141798e-10	-3.603132241459306682e-11	2.057320138364718562e-10	1.671645389058292769e-09	3.892044882318150566e-10	8.661115024758196946e-10	1.186790219909168063e-09	1.932011278332653534e-10	6.976673455134353411e-10	2.406848572399675548e-02	6.196340780558958622e-02	2.818674341820290394e-09	1.155902705652583944e-09	-1.310431372688800620e-10	5.876080316062091424e-11	9.691635001913589240e-11	2.496558241408445731e-10	1.498876544435557141e-10	4.180372185219464379e-10	1.297998261657354552e-10	2.481764373538575208e-10	2.914523644080371522e-11	7.295459664473370923e-11	-1.087212948665386781e-10	-9.544315479035672280e-11
1.028497220900876551e-09	-5.960796758449621141e-09	-4.949450417585940709e-09	-2.612574696086845566e-09	-4.781161485297877208e-09	-4.810670557767393936e-09	-4.902556186458988132e-09	-5.071832047734095134e-09	-5.005443612055851314e-09	-2.805803701356270882e-09	-5.511802046432629509e-09	-5.317472289831271603e-09	5.037706099862386062e-09	3.817473828222625802e-09	4.359877184945943556e-09	7.499918317291480888e-09	7.929172796537347399e-09	7.795266924763005267e-09	5.579403353673333964e-09	6.096420155499245162e-09	6.757613217997993444e-09	2.342040226135677601e-09	1.112009980241053131e-09	1.054539922730256245e-09	-2.334381905007182890e-09	4.319950137881493630e-09	4.636179109307675579e-03	1.085114139918403208e-08	3.455572567645715808e-08	1.152817558548460032e-07	2.161362992423427386e-09	1.205741429293221126e-08	3.804960292074869438e-02	2.143880239459010073e-01	-1.745577242228880133e-09	-1.235922239793318232e-09	1.166550400668567688e-09	-4.211574043807079714e-09	-4.151344101105528462e-09	-2.533854010981493398e-09	-2.781508185750340004e-09	-3.014817523413079404e-09	-1.916606242800803634e-09	-1.256154213619261342e-09	-3.068626785653408194e-09	-4.176266548045027516e-09	-1.233211574010225675e-09	-2.697963968732305760e-09	-1.939625689386218629e-09	3.489812584172034605e-09	4.765134501375425241e-02	1.840939750400684527e-08	8.200594950752694854e-08	9.415205613442326508e-04	3.948203006700509756e-09	1.501610165230875744e-08	3.893973394517161180e-02	4.090411730846971183e-02	-1.344170951686434962e-09	1.139982843881796552e-09	8.850175228034425083e-10	9.270234401338897602e-09	9.341966455726538263e-03	2.517621097681444276e-08	8.371226075701189260e-08	2.400338358936787431e-01	8.632040437967320896e-09	2.550876741250023326e-08	9.077607361822516083e-03	1.920272191503147347e-07	2.374982424180804627e-10	2.987867607434196422e-09	3.784390379372801090e-09	1.448782309174375674e-08	3.266698557668921456e-07	3.988490254284533505e-08	1.296308144352861203e-07	1.673380064830461422e-01	1.546248730683525272e-08	3.673621735292112662e-08	1.037349988130399914e-01	4.489325736414284182e-08	2.554146017887269013e-09	4.928668651800105573e-09	-2.490211772679490761e-09	-4.264459761203920996e-09	1.518010988051953136e-09	-3.926052637812889252e-09	-3.729988661975038972e-09	-3.741471042903141719e-09	-4.065454787339727484e-09	-4.067698159244985930e-09	-3.790932400723523093e-09	-3.947110755687192064e-09	-4.302419599217052037e-09	-2.637072569567549920e-09	5.970371783728757528e-10	7.075360175218367319e-09	3.325637840335230328e-08	1.500503292488828299e-08	2.950214402152188096e-08	4.394570958611707240e-08	9.120662645712890218e-09	2.641346475038361139e-08	9.692683653541666835e-06	8.495176928155813434e-02	3.476503879049035423e-08	1.201594310134408405e-08	2.199434110852377393e-09	6.142998860656683253e-09	3.202102548378524087e-08	1.252483559572367660e-08	2.052278447630635467e-08	5.404981301168349688e-08	7.041149212127312727e-09	1.142866572675131411e-08	3.029738759648104237e-08	9.223463311503291135e-09	1.730266210005399456e-10	1.434485254509797604e-09
-1.162636676082734009e-10	-2.367716332252488657e-09	3.863964848015633682e-09	-1.318659992983502569e-09	-6.214258727013572275e-10	-1.843864299336607152e-09	-7.003413609476124666e-10	-1.897031818554279217e-09	-1.839051677018225248e-09	-2.539629808116306702e-09	-1.332573122311945123e-09	-6.541560331646015720e-10	1.881374737803026273e-08	1.686115907272797498e-08	1.867218420250123456e-08	2.511683771811186602e-08	2.604166610868419235e-08	2.550451521551474190e-08	2.112794996700709686e-08	2.231612352825699011e-08	2.343860696573250070e-08	1.528100662516753438e-08	1.404330207390735431e-08	1.311790861438955723e-08	4.510050969245199895e-09	1.608972785977223293e-08	1.703203533475332321e-02	3.022735018352747804e-08	7.396538536420722125e-08	1.647771991616988024e-07	1.422659895207738567e-08	3.629000593695585850e-08	5.946820635249869952e-02	1.786258697581394883e-01	8.211616029274243846e-09	1.053532992441704553e-08	1.120066283880424746e-08	1.986145822726818884e-09	1.703498416652251121e-09	4.075982278226000380e-09	3.537706806447786426e-09	3.239489546628366131e-09	5.542795441416170310e-09	3.197742870087683965e-09	2.963679212395054979e-09	1.659719546094767619e-09	3.814329057810717565e-09	3.079191154522050357e-09	5.844596087455516351e-09	1.733646423695144135e-08	3.849548750127079061e-02	4.303061380051286782e-08	1.351970459113402650e-07	3.208126664692420625e-06	1.793227392229797789e-08	4.350291709703043572e-08	2.883600758574560510e-02	6.241407045300997880e-02	8.930085501920045367e-09	1.354111513520054582e-08	1.084011563329250616e-08	2.886787587883389003e-08	2.363987864115629865e-03	6.404107941437177976e-08	2.210300147133363792e-07	2.517247100383246394e-01	2.722693311408078097e-08	6.506632004315743166e-08	5.973690260985567392e-04	2.257729306941075420e-05	1.384301142002468169e-08	2.024631927461182090e-08	1.681401280517151498e-08	3.829358746970496453e-08	5.549593906250082990e-07	9.789826704305900917e-08	3.371449245882283115e-07	1.705831771658028184e-01	4.229449235145885082e-08	9.334711605924814738e-08	9.833925357775430420e-02	1.538615622187790854e-07	1.924142969383229952e-08	2.461407540542451360e-08	1.684060708368910191e-09	1.166536430554636394e-09	3.088314336052227129e-09	1.195600022715952801e-09	7.747651314987178065e-10	6.294506507540305837e-10	6.076396208231102072e-10	7.829813515597290077e-10	3.191854255800752426e-10	-3.360661647145053570e-11	5.854291336998334674e-10	1.752292226223908264e-09	1.004551465062798499e-08	2.427544020424845126e-08	1.052081689249334280e-07	4.189415009434448112e-08	7.597341397222066218e-08	1.057237818668021013e-07	2.837679182972800737e-08	6.733596110567328184e-08	1.055629810197221755e-02	8.093352237440833152e-02	5.643245162727361755e-08	3.339641876253479759e-08	1.418363928100901574e-08	2.814744500317455054e-08	1.197965529343593046e-07	5.803852742250865583e-08	1.138303799148868567e-07	1.957831075411320189e-07	3.067485059230394177e-08	5.675561800166367143e-08	1.917446135671296391e-07	6.886948207130392925e-08	1.409199293695626167e-08	1.756731526756114017e-08
-9.909239801988770428e-10	-1.262586927592332891e-09	6.019834498652068734e-10	-9.906683532496265411e-10	-9.879993501304417296e-10	-1.164247792574640463e-09	-8.924734009435602393e-10	-1.200887029991203741e-09	-1.163477294497291575e-09	-1.152261649944951770e-09	-1.089354185959188399e-09	-9.972897712973676352e-10	8.729097476234133827e-10	4.244151127992242235e-10	6.042621721957672614e-10	1.223207661590958944e-09	1.342976294376610620e-09	1.286648671997020967e-09	8.924511284329441966e-10	9.825080092976084524e-10	1.064848315824097854e-09	4.439715685952511047e-10	1.812025709436301450e-10	1.688479937303926116e-10	-5.188161122056556111e-10	5.983975059132761270e-10	9.523965761308749237e-03	1.841020455424799821e-09	5.746433654935516126e-09	1.494941577337871458e-08	3.525366518973534625e-10	2.357545764366881383e-09	4.287536520993246586e-02	1.959819011636644570e-01	-6.844709663387914828e-10	-5.790863190936984849e-10	-2.093465784701793944e-10	-7.541783593158923818e-10	-6.962052646079410169e-10	-5.775945328365900745e-10	-6.172812045337141052e-10	-7.076322363617214693e-10	-1.142070340732892421e-10	-5.052362352526283870e-10	-7.089512159728751928e-10	-7.236652926964275948e-10	-4.543105255158733268e-10	-6.837058311517456509e-10	-4.337518108582106641e-10	6.314869917534029616e-10	3.000764043824575428e-02	2.958683204847019223e-09	1.108380162702241878e-08	1.277853797471840954e-07	6.799442344331532648e-10	2.905172734591449800e-09	2.966752522760636099e-02	6.725014288870140300e-02	-3.394772300661600418e-10	5.127330812283709424e-11	1.957505832136935065e-11	1.494099489219884768e-09	1.986146577011230901e-02	4.718914941101828022e-09	1.663867878005996544e-08	2.408104460151049564e-01	1.598675054987010680e-09	5.044321029899552611e-09	2.123041005815057695e-05	3.253595755990371292e-04	1.025748682626253402e-10	6.997846734117254168e-10	5.365614676440606675e-10	2.226892718673532000e-09	3.863989228992616866e-08	7.627240245803260177e-09	2.617675064475315119e-08	1.598206509214520621e-01	2.949146235419795169e-09	7.296582177083870949e-09	1.106533164279580317e-01	1.519571463375387010e-08	5.180373285494974355e-10	1.040018293081218133e-09	-3.193703769088612490e-11	-9.333783707777829520e-10	-7.660892941599353784e-10	-8.947018926193408887e-10	-8.498816191659256074e-10	-8.544756712447877858e-10	-8.849529618098030227e-10	-7.901070912278634241e-10	-8.340846276009123796e-10	-7.871574740413156826e-10	-6.598185180889657952e-10	-6.648705322894589022e-10	-7.117642107816023502e-12	1.096294868244779947e-09	5.680535895385525645e-09	2.609572739487301380e-09	5.195296052493054146e-09	7.143246237022096772e-09	1.545104739626920855e-09	4.575073588308238701e-09	2.386496426785520222e-02	6.933568225291399101e-02	1.563622423336899251e-08	3.277846710778704348e-09	1.014538232838073864e-10	5.197148528607044242e-10	1.547168485665992183e-09	1.222919104689721446e-09	1.665968701686676469e-09	1.771870607234077636e-09	7.994528219247699944e-10	1.157440051803084889e-09	2.739109761967691276e-09	1.044699570297032357e-09	-1.197681420639935265e-10	6.413725744792393441e-11
-8.531204647801468188e-10	-1.525881689376958659e-09	-1.162419797357064412e-09	-1.405043400367852582e-09	-7.273859357458080582e-10	-1.016923186233867333e-09	-1.345043698816541614e-09	-1.638688553736988189e-09	-1.569890540756796611e-09	-1.552535223235590278e-09	-1.641643764508267647e-09	-1.303797447880827170e-09	6.410985541792885224e-10	4.969178406963331849e-11	2.185642477203708078e-10	8.172586165227160113e-10	9.001006324629059114e-10	8.670489239232999295e-10	5.587257454492208642e-10	6.643306452104201679e-10	7.593215642380843126e-10	-1.161382043957636686e-10	-3.224490883383230216e-10	-4.041332012870378352e-10	-9.994261944345557094e-10	1.934437346099495453e-10	1.997656684957942880e-02	1.439088983214624293e-09	5.877891369544706927e-09	1.788043574797955617e-08	-8.490499406839983584e-11	2.063141368923255764e-09	3.307313346687539707e-02	1.937356520576001828e-01	-7.253718479748597376e-10	-7.738728949539229472e-10	-8.054033358152829619e-10	-1.184980772647883613e-09	-6.678578622883444871e-10	-9.349316608595067775e-10	-9.302106796886872325e-10	-1.036644498963276792e-09	-4.063642211979390537e-10	-4.856055249147331487e-10	-1.052389861477568863e-09	-1.280518379030377087e-09	-7.793576424524426758e-10	-1.037707293104972616e-09	-8.652802433431206197e-10	2.519618647935446749e-10	2.877005507494976438e-02	2.873094085295755069e-09	1.525103432080571137e-08	1.926188447509744509e-05	2.396209207873423115e-10	2.592397048337379948e-09	4.323368191092157725e-02	5.948383596682327301e-02	-7.244132795032131238e-10	-3.520063380702804189e-10	-2.767239914912539696e-10	1.480457906780552123e-09	5.169718728709334424e-03	4.198561830987176895e-09	1.584057010965650943e-08	2.368485213705306403e-01	1.182147281309542072e-09	4.726075910032019809e-09	1.419212149669899642e-02	1.186275614087214989e-07	-3.749216842190463691e-10	5.643703038891987623e-11	1.323603054538385729e-10	1.814538977103772697e-09	3.337304714958025690e-08	6.899891467583633766e-09	2.418961666913758244e-08	1.825200782959783274e-01	2.535432099531907641e-09	6.876910713045082251e-09	8.936422154900038051e-02	8.437721460629901744e-09	-2.750869738798108975e-11	3.234460074848354569e-10	-4.865200353442272228e-10	-9.414301346448332603e-10	-1.181993384563811381e-09	-1.182425445385712557e-09	-1.298782240100194306e-09	-1.313429664370765713e-09	-1.306863418894177712e-09	-1.236097835762376672e-09	-1.160249838127284094e-09	-1.027070659727620275e-09	-1.100970452778652616e-09	-1.175562290457450202e-09	-3.903240032062176968e-10	8.107629172593075227e-10	7.036060171347324946e-09	2.196611926180272708e-09	5.113526218233043297e-09	7.605436873771573085e-09	1.188199948789027928e-09	4.362305050902462401e-09	9.656820709622546475e-03	8.395601020169243811e-02	3.055368958313615187e-09	1.031837146438469593e-09	-1.450804984460388388e-10	9.892419953674512917e-10	3.408649767837751761e-09	2.909791742982165229e-09	4.137279782278074700e-09	2.237521326317710246e-08	1.345057030062479547e-09	3.205123162761738316e-09	9.240266354275010084e-09	2.513986926227857154e-09	-3.953284516584854865e-10	-1.875790185351215707e-10
-9.356031219128175269e-10	6.188105983068665100e-11	-9.214379930298541352e-10	-8.613555900697516036e-10	-9.699035732981685679e-10	-1.235183034095041915e-09	-8.051069711611986978e-10	-1.589733020564411865e-09	-1.627010557956403935e-09	-1.059145297268313326e-09	-1.405426472770048546e-09	-8.204543293168577432e-10	7.094239415803814909e-09	5.973499479071084299e-09	6.793089636990122818e-09	9.566416009818899916e-09	9.868672851661530896e-09	9.627074720888211098e-09	8.161699333589523969e-09	8.613611276129745071e-09	9.004610885811827833e-09	5.651278296437308106e-09	5.044396531673235546e-09	4.676841293596168861e-09	1.154745934248106012e-09	5.785473244035619653e-09	2.611886673387312646e-02	1.267048880816618734e-08	3.385728417210551558e-08	9.250216018157048694e-08	5.308931986824391344e-09	1.457704715290400754e-08	3.550744514931554463e-02	1.831275395069479617e-01	1.850519675649910261e-09	3.884567114727996160e-09	1.812456251359500504e-09	1.754179344342327631e-10	1.943905711594961776e-10	1.213118855554083223e-09	1.078009852602032312e-09	9.883753672415632838e-10	2.978838990028948708e-09	1.087580966744422519e-09	6.794557295403215189e-10	2.313694485503474980e-10	7.205858766970277374e-10	3.546311843244677016e-10	1.622162745964570180e-09	6.264366936745885911e-09	2.541095241537011037e-02	1.890263440503715259e-08	7.282892856018062076e-08	2.170915738027066964e-04	6.940276647987539996e-09	1.789212436977997437e-08	2.178915574495092142e-02	8.145910829490581040e-02	2.785963682253051824e-09	4.558193061223860387e-09	3.739763015487048295e-09	1.072956369662512859e-08	5.953255298862369926e-03	2.550100802444418675e-08	8.508011965753800504e-08	2.567796195501683698e-01	1.093707534448685177e-08	2.722787325722115852e-08	2.445537884979291686e-04	5.599860905463644989e-06	4.786405115840141366e-09	7.152722281181898728e-09	5.761481099875524808e-09	1.341017642029978213e-08	1.563547312986216010e-07	3.854353297258361899e-08	1.301458536770051938e-07	1.372793459284816220e-01	1.711383932539657593e-08	3.802430096575593715e-08	1.328764623855385185e-01	6.003333484151697562e-08	6.722392520967736427e-09	8.669267207295166099e-09	1.028581273181777575e-09	-7.998781370572936169e-10	3.228160696484720172e-10	-3.461942169275955564e-10	-3.969544558296011010e-10	-4.350883550386370447e-10	-6.211915344501326345e-10	-4.207699310779290768e-10	-4.593754168764557725e-10	-5.640845872041703253e-10	-2.130249454638911687e-10	-2.030117796553308981e-10	3.279237138648559365e-09	8.182128788009537032e-09	2.982390517861765824e-08	1.537438682930377659e-08	2.727576505269436969e-08	3.700850635906537809e-08	1.072286193728651619e-08	2.466030546399250391e-08	2.727743682625433444e-02	6.595031676311152724e-02	8.533880254550000824e-09	7.701293239650459059e-09	5.352615664524479191e-09	1.299327636548121343e-08	1.918008148171903602e-07	3.207631134273564161e-08	8.257132917980149127e-08	1.322767290824193123e-06	1.469030836136926107e-08	3.357067615529404044e-08	2.901637908344045688e-07	3.928939708592266429e-08	5.443760017921691251e-09	7.264857376774757845e-09
