-1.017806821791592188e-08	-9.042832062129232755e-09	5.231853826983321505e-10	-1.020223737145134400e-08	-9.110577102865590725e-09	-3.481791728045185561e-09	-1.037131556652061947e-08	-1.035682048716246499e-08	-1.031300924181246694e-08	-1.028085997383763835e-08	-1.006492119631444962e-08	-1.011319258503470575e-08	-1.011986040887182553e-08	-5.542182204561940227e-09	-1.182373447660278470e-08	-1.137757769190633095e-08	-1.086989499128521418e-08	-1.029389692927278165e-08	1.815433295369760386e-09	-1.043318894931291039e-08	-1.080850191861124556e-08	-1.061465591235372631e-08	3.057599679745417061e-09	-1.176234618732543495e-08	-1.052205011487220046e-08	-2.747845508401189571e-09	3.452018696619200272e-02	9.668382353369326239e-09	3.875163985187808681e-07	1.346949899327941347e-02	6.390047181625197033e-10	1.315460787976032780e-07	5.868219040258679936e-02	5.484398692105337675e-02	-4.233972043836895882e-09	8.330571408150301907e-03	-5.276800283275471675e-09	-6.453931756016503153e-09	-7.226855706227561876e-09	-6.459982421958409952e-09	-4.928764208718106402e-09	-5.195254649504061855e-09	-5.522919264547034784e-09	-6.369018667689998531e-09	-7.091360294828676394e-09	-7.385537487690192337e-09	-6.067292489605638925e-09	-4.788709303027105382e-09	-9.596447164030787897e-09	-6.144443288493290830e-09	1.790533979082752428e-02	1.478775408262744111e-08	5.078245648128016884e-07	9.123199189509607898e-02	2.996058253432344543e-09	8.820025263590530985e-08	4.918565088628909892e-07	5.928034883896907567e-07	-2.960472661116221997e-09	9.822100914151128922e-08	-4.165783941198456325e-09	-5.826681897913829991e-09	4.174261434025110469e-07	2.704273710739141788e-08	3.173005020114833894e-06	9.718945954198650317e-02	1.009179710250704231e-08	1.884682991326737516e-07	8.282053048917076234e-07	2.906781592859765395e-03	1.087518458256334235e-09	1.116914454226641847e-06	-6.366898388593166028e-09	-3.564856202431214164e-09	1.215908089530336794e-07	5.298468190607688286e-08	1.740667609551500572e-01	1.263502744078575102e-01	2.697529539638084647e-08	3.537836918658289476e-02	2.238896413417208742e-02	3.401524411155754796e-02	5.702834145817170074e-09	3.069113125521849908e-03	-1.187991494934461539e-09	-6.565789870513912807e-09	2.154264181289260372e-10	-1.076025102929906222e-08	-9.801154964172208000e-09	-8.787037720000161778e-09	-1.078803923032955619e-08	-1.076547764218557513e-08	-1.068408941917229988e-08	-8.973833310210399468e-09	-1.011937452243347380e-08	-8.480489325700947615e-09	-7.889593768901325362e-09	-7.734969282837881233e-09	-7.716296256647286644e-09	-5.756880700841161509e-09	-5.190628039722318621e-09	-5.603795351631176377e-09	-5.560609483500693753e-09	-5.251578892510341364e-09	-5.757118851188788939e-09	-6.928967850675640346e-09	1.544393082958112713e-08	9.796561476901270072e-09	5.410441729900010651e-10	1.566336030664021560e-08	2.826632809402478159e-07	4.175232699684520983e-08	3.355069623503225199e-03	1.817752334041309314e-01	1.859198845777350172e-08	5.547531992113109225e-07	2.485146530598385251e-02	1.563366796568827974e-02	4.425812928472906783e-09	2.708183158430280566e-05
1.868289285093027613e-09	1.777660096033092079e-09	1.734428221183624844e-09	2.209815783119151208e-09	2.171845327298352620e-09	2.049630420819229642e-09	2.225827632757184417e-09	2.136003201073880874e-09	1.923844758284419504e-09	1.684147436125369162e-09	2.477471992478071919e-09	2.433401387850893036e-09	2.904306620449568642e-09	1.749732754827142914e-09	1.437762976489405822e-09	2.029473362671646243e-09	1.850584470453395986e-09	1.713005500541757883e-09	2.126896173193015460e-09	1.885991644370921912e-09	1.621650653302393774e-09	1.387030919134774539e-09	2.569652601584140327e-09	2.163216413693344307e-09	3.068904136396019005e-09	5.128524050982654623e-08	3.068867156812984942e-02	2.399376377821179843e-08	3.883721037241438537e-07	2.624688549282019889e-02	1.348292821989137694e-08	1.012999774620715437e-07	5.192919972860903649e-02	5.145672297174912202e-02	1.343325954682510157e-08	8.691475987720210031e-03	3.550136322510135042e-09	3.201891675165350623e-09	2.891806408762384877e-09	3.780877988540882575e-09	3.668657913141540171e-09	3.416264614107598193e-09	3.773938335420187924e-09	3.695411777461353573e-09	3.265215502891900591e-09	2.853067614398353260e-09	4.581799313750698767e-09	4.222179907724368031e-09	3.761035564881422071e-09	5.427287585498153969e-08	2.378807453885607021e-02	2.974390781717660253e-08	5.099716301868667872e-07	8.044453868901280114e-02	1.649564003592227554e-08	1.026545072282282896e-07	1.531572506707534542e-06	1.986140788930260415e-07	1.308732435617365422e-08	8.505092431910069792e-08	5.219740634908446869e-09	7.949750315901901276e-08	1.700695488736164824e-06	4.411747514384700610e-08	2.915294875418734129e-06	6.398772287616247278e-02	2.453675650726199404e-08	2.811650197333739432e-07	3.690220221634060303e-05	2.789291280054573968e-02	2.164886480249599839e-08	2.760291237778383405e-06	7.162716419710703125e-09	1.180194773082372774e-07	4.810104987468289468e-07	7.222739488345041615e-08	1.618680822337275060e-01	1.325726695285089352e-01	4.012153744812165729e-08	3.037194072807895481e-02	5.694672487558873064e-02	2.022827296995535415e-02	3.344568143252763503e-08	2.914580128807791530e-06	2.089172486131354300e-09	1.798561899326713060e-09	1.824176504549664102e-09	2.402144250829578040e-09	2.337166884519505036e-09	2.187202313941435183e-09	2.443172388983773099e-09	2.325777868063337365e-09	2.071867690976816809e-09	1.792575616913398247e-09	2.888054200455522019e-09	2.653547323424529656e-09	3.835889064133796674e-09	6.739816182550249051e-09	5.462771357759393133e-09	6.709060199667751381e-09	7.081975140150398644e-09	6.600321294463260173e-09	6.633219643956658423e-09	7.370588499315708033e-09	6.590800993701694963e-09	5.941268934348826062e-09	8.516807657560128210e-09	1.010253774149278349e-08	6.593901975936370890e-09	1.760790203754682561e-07	6.796955283300836449e-06	5.908502283937920030e-08	1.807419845354634250e-02	2.139990591522674124e-01	3.216149529127885612e-08	5.470670510960013750e-07	7.330819144995562786e-04	1.920276594467853893e-05	2.697265478596306119e-08	1.176981232375118087e-06
-1.387070596336555499e-10	-1.309312169692885726e-10	-7.969981760374997625e-11	-1.373521807577819566e-10	-8.154788975539880474e-11	-7.341716594912996509e-11	-1.404506493312388122e-10	-1.321281872253178279e-10	-1.248768228028252619e-10	-1.687464080215489918e-10	-1.482613410929615871e-10	-1.418158931518969679e-10	1.492943492439832601e-10	-1.900694033453941960e-10	-2.152704101796604376e-10	1.913489183178041736e-11	-2.037453932508171534e-10	-1.594335043905819599e-10	-1.895270954310626101e-10	-1.655910394574731738e-10	-1.901827229116083952e-10	-2.131534898144146047e-10	2.053787390736197159e-10	-2.031553640575764351e-10	-1.009146124572103998e-10	7.156970789379428375e-10	2.764217191923973999e-02	1.362011701987328365e-09	3.604050958840249183e-08	1.739598803206261063e-02	6.256157018308573013e-10	1.108193100418083791e-08	5.572618478572158307e-02	5.735030474345363671e-02	3.194026032129416611e-10	1.005806455226196730e-02	-1.405619495806900807e-11	-1.923076770163581584e-11	-5.132572323584271031e-11	3.842522705583919008e-11	4.519226384220927143e-11	2.292801221944125968e-11	6.474664790037603414e-11	1.307842395379054201e-11	-3.338381806345782538e-11	-6.671663124718522287e-11	2.988001893996557291e-11	7.283729663925818645e-11	-3.828732537726590856e-11	8.446610032162495155e-10	2.596535472227209929e-02	1.756301555595084304e-09	4.635250999736989738e-08	8.220994437527488763e-02	8.117359285280515348e-10	7.536008035719527966e-09	4.458327753874287378e-08	2.668604832394756898e-08	3.833656352416997813e-10	7.115290682617026446e-09	9.194111942647717372e-11	1.226516283452770570e-09	9.733574251993481240e-08	2.780895734575200887e-09	3.020153211425613307e-07	8.103423215580532468e-02	1.346457349481146105e-09	1.546079828268927253e-08	5.360014479710460650e-08	1.695955329665035580e-02	7.496766284597545663e-10	1.545782110094879012e-07	2.836132344547200619e-10	1.957499938050865988e-09	2.976175450035383965e-08	4.816096388889697169e-09	1.866229219859908139e-01	1.408206005595279420e-01	2.651132512516668413e-09	3.190683346175798851e-02	2.371979439094911921e-02	2.030677253534875909e-02	1.427787390589395804e-09	2.541618105179871802e-04	-1.261528490989260791e-10	-8.473502770275534363e-11	3.523995439506148498e-11	-1.812080952220790784e-10	-1.254025654203386029e-10	-8.522032088420981220e-11	-1.805987516203992224e-10	-1.621848107143871692e-10	-1.590672265112220602e-10	-1.208860574765311001e-10	-1.632057856359584925e-10	-8.653133627031395781e-11	-1.862023246044006574e-11	2.200465882775916614e-11	7.660512212079483536e-11	2.036857678986188664e-10	2.072965214169297369e-10	1.776338827220336168e-10	1.835950989452096106e-10	1.804452992875133647e-10	1.265119196736229206e-10	6.963055004367092653e-11	1.382292429286292706e-09	2.095234149562673013e-09	2.679524958711187296e-10	2.082025219701675970e-09	8.877546633720171543e-07	3.948455232016518972e-09	1.919591619717201389e-03	1.959642249301684347e-01	1.987248091302803787e-09	5.551979252450517126e-08	2.414096515332805545e-02	3.683071718260770365e-07	1.081769504434154535e-09	1.573476379051995408e-07
-1.206733063531489233e-08	-1.396295024416906710e-08	1.482890916922386765e-08	-1.280081651309178029e-08	-1.149063001771342395e-08	-1.128053329696668603e-08	-1.308417259180361487e-08	-1.276242101210389792e-08	-1.258776221265527798e-08	-1.405080682912480687e-08	-1.377249695806128330e-08	-1.289585805787451331e-08	-1.231261227794847169e-09	-8.329169151891558400e-09	-1.243665705163376756e-08	-1.476737475999985913e-09	-1.268916917046321965e-08	-1.286749782494920346e-08	-1.327877251919962262e-08	-1.269500743054198436e-08	-1.427900132772222743e-08	-1.345485589307653378e-08	-1.254690178855312222e-08	-2.288238118276890399e-09	-1.049163414778033752e-08	-5.906601957770629029e-09	3.051072706494595277e-02	1.499396802003708865e-08	4.484351114737235151e-07	2.155875567242135013e-02	1.766794856906951447e-09	1.850844201248177227e-07	5.869716338177369958e-02	5.010272703490221968e-02	-7.902312437281245813e-09	9.557177863728047451e-03	-5.100466295256798226e-09	-7.368998286615982734e-09	-9.392283414174176552e-09	-7.901956941096494794e-09	-6.811576364237891623e-09	-7.052830271420221650e-09	-5.667892111203355935e-09	-8.228585911844863189e-09	-9.212495272973123286e-09	-9.465015619146571690e-09	-8.067460404812558205e-09	-6.174975237761552900e-09	-9.253150053637994160e-09	-4.778810816335320118e-09	2.268263620071731337e-02	2.190922739207494223e-08	5.843068715660988011e-07	7.713773585836840307e-02	4.762559101175411516e-09	1.220486573964387193e-07	8.574435646127957182e-07	4.128604978908350341e-03	-5.924369073004709254e-09	2.472707552300617742e-07	-7.527065470587405795e-09	-1.232082120209895925e-09	7.512525732560132963e-07	3.943694687922139074e-08	2.569622040590465230e-06	9.245405568330816726e-02	1.439288689072432476e-08	2.549191910355981337e-07	1.068948524985380843e-06	1.323809941768544669e-02	-2.337936865683639844e-09	1.674538323708637732e-06	-3.782691376412279703e-09	6.996052410523141520e-09	2.890673953794215866e-07	7.566787969482517401e-08	1.699439488835177980e-01	1.246944930084656067e-01	3.759271149012456550e-08	2.850190564358735454e-02	3.331427232416619283e-02	3.227030492194465916e-02	8.186873309372111950e-09	3.164151644925138605e-04	-9.087533236238643810e-09	5.620885068640147927e-09	2.572316816397908396e-09	-1.270649335793133431e-08	-1.276777946572798628e-08	-1.257233701508232316e-08	-1.239296436902089568e-08	-1.298598474995631548e-08	-1.346176676298719318e-08	-1.035976669286596248e-08	-1.137385212243871239e-08	-1.086653664347974816e-08	-7.640709465769074659e-09	-9.677407059558243487e-09	-9.600802608916945148e-09	-7.115789909209664188e-09	-6.475956444338650720e-09	-6.726295739956108424e-09	-7.469355302917809810e-09	-7.739273242370158093e-09	-7.985297255789989326e-09	-9.480450362737737689e-09	2.540867752151017754e-08	1.636328166771092972e-10	-2.536609033702035677e-09	1.072855781942683396e-08	6.130410601458678311e-07	5.918078306109246241e-08	1.559146860739287106e-02	2.026866883455350210e-01	2.614564464192161985e-08	9.352851588151513858e-07	1.227463405052896597e-02	3.133166228289485785e-04	2.683519200098122653e-09	1.450390150491381356e-05
6.283518191093040424e-09	6.120689535425440064e-09	2.242509660354621095e-08	7.805013404059531508e-09	8.601262596230153861e-09	5.983913039021605566e-09	7.639395167646023162e-09	7.049460160055609764e-09	5.553680122456480657e-09	4.601342441446409949e-09	8.943150678985930963e-09	9.148851950310394253e-09	1.714898880559109902e-08	6.577207365916617473e-09	4.613584968841855034e-09	1.271902308917713117e-08	6.043647657449600576e-09	5.362022806573826138e-09	1.131674336495295859e-08	6.451237025690843080e-09	5.224787136504518144e-09	2.336260502976138882e-09	2.484347780893079076e-08	8.247585473996835323e-09	1.654869149012904274e-08	1.263345581304465521e-07	3.370052684593432407e-02	1.888090019926137279e-07	3.837674282456232487e-06	2.135539251450692400e-02	9.918562769956225702e-08	1.091887311687434263e-06	5.272818761415994787e-02	5.503482080154958878e-02	7.804357135561198577e-08	6.632649207262671445e-03	2.221854743331124813e-08	2.029069184943419329e-08	1.640039336674181475e-08	2.417196380017865582e-08	2.457687952482971730e-08	2.245541940698549354e-08	2.586105495907008429e-08	2.331065938331308371e-08	1.925018066987986907e-08	1.594583316182064743e-08	2.912568830174933855e-08	2.828830933965442240e-08	2.239824789314669719e-08	1.428435811021063217e-07	1.960803224804798239e-02	2.347053486041523126e-07	4.370969034249894479e-06	8.424537299433082493e-02	1.214553760590990360e-07	8.686269129194798191e-07	4.498902908142627847e-06	4.986871744365330021e-06	8.350322012365391357e-08	1.054040178810590669e-06	3.651166551285207116e-08	2.123345128899158746e-07	4.092722349037871982e-05	3.569856838247784067e-07	2.334227170030576232e-05	6.903931620991266005e-02	1.785960880361861688e-07	1.363666325103517476e-06	3.433449014358171429e-06	2.129094648692660824e-02	1.360170803066836760e-07	5.060186389731251766e-05	5.360961423048908433e-08	3.303653569250865585e-07	5.403684372227901085e-06	5.875947762573435348e-07	1.768845982648434290e-01	1.569410692270948593e-01	3.164072067918523921e-07	2.803455103561624390e-02	2.851960193164545035e-02	1.605839630597764162e-02	2.212793635234443375e-07	3.445328453786586104e-03	9.798477108374193886e-09	1.183538801078303981e-08	1.422122127812165661e-08	7.953678990072154995e-09	7.748327888928253276e-09	7.615061343747857478e-09	8.514794059652465040e-09	7.203444516275162655e-09	5.233819758152507190e-09	9.804063959927554711e-09	1.161198843628420441e-08	1.512238207667842586e-08	2.440009347265705696e-08	4.191312517267018388e-08	3.881359930916044195e-08	5.048131677290660126e-08	5.441838134028389643e-08	5.021848903773194998e-08	4.827702130567282246e-08	5.520199515481869221e-08	4.882204836772496188e-08	4.331614180114611938e-08	8.033970039215587326e-08	9.532672326300558790e-08	4.923127219450107865e-08	3.158219052220809812e-07	2.572477419843303327e-05	4.806525486416312006e-07	1.442538220345817093e-02	1.804345784338047542e-01	2.485038570437621661e-07	5.781932663998344450e-06	3.020658183327009499e-02	1.168592260943590285e-03	1.816013709263284708e-07	6.273682252218076762e-05
7.277914072322140702e-10	7.078140753736947809e-10	7.164377745303073818e-10	8.408980862729004866e-10	8.694845803315377244e-10	8.057377400554690923e-10	8.461321463857578901e-10	8.009090902924318773e-10	7.057683184086106866e-10	6.003714023301662320e-10	9.800830990276727093e-10	9.181801062123876429e-10	1.410202506509261175e-09	7.195820919001058474e-10	5.245464687173802612e-10	8.872516009107155199e-10	7.361655396901538976e-10	6.851249344315284675e-10	9.554699625428903471e-10	7.456550519449798233e-10	6.381006581252357173e-10	5.249805964314271001e-10	1.260438311836922221e-09	9.040010570824716801e-10	1.333131354375950404e-09	2.030988838144915661e-08	3.553348434134319389e-02	1.175201045712444124e-08	2.912596919733406140e-07	8.364961522931708970e-03	6.737546083096310818e-09	1.128799878593037099e-07	6.167159523368021673e-02	5.234207289766492494e-02	7.081893671271065423e-09	1.085809554943041599e-02	1.634291420308508452e-09	1.534744393492252042e-09	1.342895271748574829e-09	1.831163137333956189e-09	1.806565847442621642e-09	1.672823390260564193e-09	1.892001558169688362e-09	1.777070805585189249e-09	1.538347330368738365e-09	1.332750680557029322e-09	2.274691324115322206e-09	2.160698815163870671e-09	1.683268147131355781e-09	2.121324629370522852e-08	1.708676733763205349e-02	1.417299260640064571e-08	3.364101443818488309e-07	9.345412432864194652e-02	7.789644712762481830e-09	4.804292171906589636e-08	1.259460363307915451e-07	1.281953291949850189e-07	6.664742289023399497e-09	5.109603015450209121e-08	2.421444205798828047e-09	2.915454448017170389e-08	3.404421598059370194e-07	2.116733439789688761e-08	2.296347170404147103e-06	7.769615440238472615e-02	1.157929297656407214e-08	1.120881994314724934e-07	3.354380047433813703e-07	2.117085691061417266e-02	1.176913578598085991e-08	8.762459377018634604e-06	3.548540687063581828e-09	4.717385958929997971e-08	2.808621974138543329e-07	3.478198928629000241e-08	1.645921645955892854e-01	1.393142733081482731e-01	1.991256561426008574e-08	3.436981690400346678e-02	2.734167730246246306e-02	3.052939829940442412e-02	1.948776078625242238e-08	7.754454157077008336e-05	8.086790240578890960e-10	7.072696185051104513e-10	7.367660063988997472e-10	8.995676284127802146e-10	9.083587589444649214e-10	8.589928391037038810e-10	9.213329566914331782e-10	8.732698566331363907e-10	7.595221688967771489e-10	6.748673645735445689e-10	1.131400289894408214e-09	1.104807231358759650e-09	1.770933317871113700e-09	3.485642166267499604e-09	2.676158588107102340e-09	3.344722439465551697e-09	3.624714006644009827e-09	3.363889518117724857e-09	3.247306297851297533e-09	3.714054499487353366e-09	3.267944733438906168e-09	2.969614681503987863e-09	5.893931786770479728e-09	5.779144355179902295e-09	3.138359526250284902e-09	4.715835725508922215e-08	7.674608287151344099e-07	2.853979377602845134e-08	1.184378354964923767e-02	1.984566762989239674e-01	1.566794451199625855e-08	3.886220332579046030e-07	1.523976788742339994e-02	3.976843701416386622e-05	1.527293795169412521e-08	2.135457089140312080e-06
-4.511453248078631873e-09	-5.638448655343368059e-09	-5.848054996760786390e-10	-5.327262537047529153e-09	-4.325390806353519213e-09	-4.292218659539736563e-09	-5.447511109026368427e-09	-5.430032090894317195e-09	-5.220980932449736023e-09	-5.519427055949469389e-09	-5.551197240638643537e-09	-5.402247447228929693e-09	-4.810579599255755023e-09	-4.978116898573500579e-09	-6.377829299305110665e-09	-4.496025365762201196e-09	-5.323565486977065992e-09	-6.261461998601196869e-09	-5.193535887187528356e-09	-2.262137571853437064e-09	-6.283006566082458579e-09	-6.196034347821035761e-09	1.395172542556610541e-09	-6.733552791771510676e-09	-5.999178307671255872e-09	-3.209207229923672934e-09	3.434493734216452487e-02	5.168479336447995748e-09	3.010228381814721532e-07	2.071332372180657508e-02	3.069676251463455111e-10	6.285087085349259558e-08	5.463401281963498057e-02	5.556194336796521638e-02	-3.763924120047935236e-09	9.464822070993680891e-03	-3.588322545138824416e-09	-4.393800722262636107e-09	-4.585722313218733795e-09	-3.533650725359763924e-09	-2.691681070929761725e-09	-2.839371141542552462e-09	-2.861784564426593833e-09	-3.755590062350473118e-09	-4.149740250301232564e-09	-4.397819464630430605e-09	-3.708257250583031767e-09	-2.143809966944092001e-09	-5.474348625487837829e-09	-4.741549552538149830e-09	1.823066184655932134e-02	8.015037862990054887e-09	4.061868912320987383e-07	8.361760809883517220e-02	1.484610308109155738e-09	3.778239421069906873e-08	1.388647992538876490e-07	1.022414519324910975e-07	-2.712422176152552001e-09	3.021500410175915431e-08	-7.588744674270037758e-10	-4.563206748227978744e-09	2.151903469259910237e-06	1.452005405868075778e-08	2.424373041179293121e-06	9.458058711945523112e-02	5.328339789690482169e-09	7.372827112979624564e-08	1.749951426539911196e-07	1.750075891786889151e-03	-1.072653467898627645e-09	9.151287404350982709e-07	-3.840825645792369749e-09	-2.799886279293530587e-09	1.281833444369255685e-07	2.892778367680176098e-08	1.792815023986578937e-01	1.120779304256602632e-01	1.538416410261895144e-08	3.770209921303227518e-02	4.100114904489861323e-02	3.502311668525499161e-02	1.726888150296458481e-09	1.648130994171578098e-06	-4.635406424030339098e-09	-2.777579929274043688e-09	-3.429245431379461845e-09	-6.017182726542146873e-09	-5.219521029177268401e-09	-4.656433755960503614e-09	-6.085675767898339613e-09	-6.003953148978075743e-09	-5.927855157116607398e-09	-4.328559856532063882e-09	-5.776459792367146296e-09	-3.982053081627460883e-09	-4.390028647455531195e-09	-4.880875321657655513e-09	-4.410013814418833956e-09	-3.412089763670615330e-09	-3.175418795474593108e-09	-3.319687610631321245e-09	-3.448049506524625046e-09	-3.872145772621976104e-09	-3.683679748174274005e-09	-4.428272415105567019e-09	8.187307410821012503e-09	4.695813377364762940e-09	1.366656984776541525e-09	8.054855398573123595e-09	5.698640087864332958e-06	2.269576045821854309e-08	2.023184918543061411e-03	1.929965319835357240e-01	1.083051815090443657e-08	3.208910299628431933e-07	1.763106572742493411e-02	9.350291122329131357e-03	5.505322018170741022e-10	6.980367842940523081e-07
1.775537648918408128e-09	1.252994813516911150e-09	2.118444317240365612e-09	2.096851839977208464e-09	2.124848924015811643e-09	2.244102790690019545e-09	2.127506264445011477e-09	1.991224005093791560e-09	1.736571044435846210e-09	1.452563443618065683e-09	2.517112959042635799e-09	2.371660110307536168e-09	3.744659571751660949e-09	1.761113685169922241e-09	1.372043011220325824e-09	2.368283926106183695e-09	1.899431080297121392e-09	1.719312661030462720e-09	2.583275710841857189e-09	1.946598595004566374e-09	1.548000543547521176e-09	1.257545104879188489e-09	3.386128131820293980e-09	2.461417147677522396e-09	3.545519367330565596e-09	6.498329709728791369e-08	3.146481119190728398e-02	3.215267683903391823e-08	6.546301820091383783e-07	1.624696445041608553e-02	1.847649571276449568e-08	1.773317654125549778e-07	5.847403449821225035e-02	5.553743677888219044e-02	1.922328057284396780e-08	9.392006661041271687e-03	4.415628348877070341e-09	3.683559613778066142e-09	3.686750462080909620e-09	5.066814704205480998e-09	4.992865668049190779e-09	4.609638775329133345e-09	5.249796437415328250e-09	4.933119415888605391e-09	4.268496976399380900e-09	3.651191534350072608e-09	6.134145508855353687e-09	5.854281971682850214e-09	4.480650421079928585e-09	6.404205751732970726e-08	2.068665668795065596e-02	3.960579152451687446e-08	9.090572882581298739e-07	8.569943778036935578e-02	2.196859139743516951e-08	1.226154910685833817e-07	5.047900085130960162e-07	1.937373391845303738e-06	1.871182299237589174e-08	1.639984888602510889e-07	6.508821732565423247e-09	8.211971908833493185e-08	7.566632338589223538e-07	5.846656593455768259e-08	5.951978818854481720e-06	8.346511110189511196e-02	3.312564062872526576e-08	2.842517572603746343e-07	2.422151500643218300e-06	1.045116685940206992e-02	2.948750917603297591e-08	1.565979569526988347e-06	9.578162254481703677e-09	1.472896793927552191e-07	5.098325474000633832e-07	9.527066989741318014e-08	1.706391831315613172e-01	1.283764552572802808e-01	5.706587760974984251e-08	3.455949647146673576e-02	4.826358775021588610e-02	2.322102558115375984e-02	4.425745845931166669e-08	1.334985531518404128e-06	2.086809458461480691e-09	1.182396589902843790e-09	2.456414761740830040e-09	2.588701931221256983e-09	2.605815609399151812e-09	2.506441963225606438e-09	2.652779326557128012e-09	2.505680096071664684e-09	2.175008413084221154e-09	2.041592447255016579e-09	3.276356577191669823e-09	3.202538132362807640e-09	5.092982134220227614e-09	1.401278249403573294e-08	1.083342335305560874e-08	1.265570886886508965e-08	1.499664293307514655e-08	1.395694750043215586e-08	1.199187175453053647e-08	1.527873662768518530e-08	1.407349476490108574e-08	1.247237965443319528e-08	1.741985540259611301e-08	2.392217929730032069e-08	8.544524598395979744e-09	2.157143240455345913e-07	1.100050983720781781e-05	7.909107062941741716e-08	6.357543654884874849e-03	2.034860565640229102e-01	4.540182189611514259e-08	8.783768207934227630e-07	3.970656416338649679e-03	9.675889353201140228e-03	3.728596536390744905e-08	1.766494514051443435e-06
6.007889536271029722e-09	5.166877527595184341e-09	4.990987487170853020e-09	7.325742719023356220e-09	7.005865859286214359e-09	6.334998671728438777e-09	7.400053949627096142e-09	7.072390146733861493e-09	6.266717317426702016e-09	5.484595258974234665e-09	8.240497540719569823e-09	8.008397253811962308e-09	9.044748909904033940e-09	5.730158463539076282e-09	4.769350380077846705e-09	6.660082994403046731e-09	6.235638256191049060e-09	5.750608434554275397e-09	7.005469245701299907e-09	6.326730285351486058e-09	5.413469687561353666e-09	4.773172033563720432e-09	7.402792577354109523e-09	7.313470645020362141e-09	9.930049290270011182e-09	2.573087380809056165e-07	3.204444030819483119e-02	7.966497194086122835e-08	1.350387433183025466e-06	2.561381046748000337e-02	4.620033923656859514e-08	4.834278042211942465e-07	5.565800062399317572e-02	5.428243188746068731e-02	5.214944239274567372e-08	8.652385529917403645e-03	1.127631193221618315e-08	9.799545609114163000e-09	9.558083445080658882e-09	1.273428906289386348e-08	1.242593476559113010e-08	1.157846367973781560e-08	1.271942689115834422e-08	1.234592930630225845e-08	1.088149087692045085e-08	9.477583041456359993e-09	1.583815980749807521e-08	1.418728076592063696e-08	1.211987122078722479e-08	2.220628071586395394e-07	2.152134644696467730e-02	9.964089105801380305e-08	1.971386820697751786e-06	8.384218987791647315e-02	5.524924634705056069e-08	3.447222478203515987e-07	2.091443023701191132e-06	2.744774171083256109e-06	4.915276082242869129e-08	3.104524900496817218e-07	1.678751556035825153e-08	2.980112220852313061e-07	1.382045838091271937e-06	1.484952063932735461e-07	1.392511674644605545e-05	7.942785995952483802e-02	8.126083030401311574e-08	7.349150920819061302e-07	2.693783648261150339e-06	1.824632395279253416e-02	8.372051437100695204e-08	6.414076618144484994e-06	2.320956713375686363e-08	5.051895975890791282e-07	9.512121196603488075e-07	2.464774857667665201e-07	1.731537337683771438e-01	1.457562689662418309e-01	1.380706989702681238e-07	3.266938999140730354e-02	1.929241080128954455e-02	2.189493187747456118e-02	1.324573662618925920e-07	1.384506878177206370e-05	6.427920486581594413e-09	6.245895084264168287e-09	5.698781862131098556e-09	7.703644480009150463e-09	7.511803625573440033e-09	7.059898986569652470e-09	7.826718912945347736e-09	7.414676742827549250e-09	6.614798176314625518e-09	5.542272975871699316e-09	9.320989580513392829e-09	8.175172576542644281e-09	1.262623657796659948e-08	2.425483368381269024e-08	1.855411081589464687e-08	2.306561966670681654e-08	2.460125916118801693e-08	2.290395014239670236e-08	2.272578205615597604e-08	2.521697346223488375e-08	2.237235298768652334e-08	2.067084099923346087e-08	3.453740089316463328e-08	3.340799945057962640e-08	2.125559010257169981e-08	6.254925297991298328e-07	2.436720863310275241e-06	2.000369877695666084e-07	1.446070341759638292e-02	1.809681117083735968e-01	1.086554659369407385e-07	2.296955156264098679e-06	3.245216608884424203e-02	3.913490543382917328e-06	9.738849295095565409e-08	1.325325426437489712e-06
2.498279404147441400e-09	2.380733474696387677e-09	2.816689824198439721e-09	2.917731553070978016e-09	2.961344480513443138e-09	2.842350210688185026e-09	2.946370382083502597e-09	2.780623773036445924e-09	2.441843462225519536e-09	2.039280606845076525e-09	3.281664945899912973e-09	3.175300646722659733e-09	4.936474802535969799e-09	2.446990329518109459e-09	1.726663108964240326e-09	3.219409555593234428e-09	2.474789077522767285e-09	2.268804712030404516e-09	3.154730148262651021e-09	2.701964117992597877e-09	2.186813698806823565e-09	1.704603839890452781e-09	4.407216949726100509e-09	3.048451549397892577e-09	4.664219467402535174e-09	7.363317388466341879e-08	3.468415810485503403e-02	3.900060456945425417e-08	6.240534674123200312e-07	1.742107720212961175e-02	2.335961205798916676e-08	1.924659858727142678e-07	5.338291804692486126e-02	5.763817536535299768e-02	2.155558082027827644e-08	7.933684246081356556e-03	5.788973093906659499e-09	5.270902414638421747e-09	4.814203130156507397e-09	6.493849239993923731e-09	6.404835017963529439e-09	5.945458963522874735e-09	6.726982917001191155e-09	6.290390731703910557e-09	5.439578804731650097e-09	4.771937718074669442e-09	7.825306702571078267e-09	7.489216327942511375e-09	5.841471055751039813e-09	7.560536302528278298e-08	1.906648838046689706e-02	4.835366994124128947e-08	8.734747408670327066e-07	8.873308957866762881e-02	2.744610968053775701e-08	1.399184326208719753e-07	5.208118650755699554e-07	7.157449846166977982e-07	2.103210908755165576e-08	1.382738663811450813e-07	8.483993229018617100e-09	1.081608944811287008e-07	1.794229862790292350e-06	7.214380739849493710e-08	4.557577398900774391e-06	9.914297632365516588e-02	4.134489593769216102e-08	2.902178166711870870e-07	1.001808348221830820e-06	2.514996312355363608e-04	3.415479351034945466e-08	9.254434276241945113e-07	1.238204192300756527e-08	1.701792515158950667e-07	3.577528643645442370e-07	1.198414908921618816e-07	1.644162367055864993e-01	1.223727302938811268e-01	7.332961488228776701e-08	3.307158843261517184e-02	4.012426189369235757e-02	3.447411761125923624e-02	5.943680502340400224e-08	2.406133851811318499e-03	2.905556692919069493e-09	2.754791697601450311e-09	2.937083188537448205e-09	3.319307609604748381e-09	3.400381622561039247e-09	3.238827147948867112e-09	3.399409847041801025e-09	3.233106837608485399e-09	2.837197827031820917e-09	2.562490822384426534e-09	4.082777967859590024e-09	4.057632460065678116e-09	6.199357130487698884e-09	1.205240161032074901e-08	9.408116807589249553e-09	1.148579161813136806e-08	1.244335441533981279e-08	1.155246808368060015e-08	1.129715754355027418e-08	1.263580636839557048e-08	1.119743419913620048e-08	1.039629274062569026e-08	1.708512157070194712e-08	1.872848408751304143e-08	1.110503874699526555e-08	1.844278293448912794e-07	2.214687348847146029e-06	9.690870484240085100e-08	1.256322244118821506e-02	1.799725483356077183e-01	5.666046898907602097e-08	7.540573135843617413e-07	2.171579228512374518e-02	1.060886235624410034e-02	4.439015517007800423e-08	3.581123088365873559e-06
