2.345379381869778898e-08	2.186900067659368450e-08	2.086348073359291870e-08	2.602946290894652875e-08	2.587638575172615648e-08	2.509206696969217396e-08	2.470774639987591019e-08	2.472114783856245964e-08	2.268404340707444608e-08	2.054926651053062610e-08	3.171601417287810972e-08	2.440266502150809812e-08	4.735241835911598988e-08	2.736661210629765679e-08	2.208846448070113498e-08	3.084516741897907650e-08	2.835390593159749713e-08	2.657303458009973206e-08	3.312575836197833614e-08	2.861743473186493150e-08	2.493957520432791540e-08	2.161057899821062856e-08	4.025191177736697233e-08	3.034219995579636031e-08	3.950508473046714074e-08	1.210043973136597947e-07	3.284920319976841058e-02	2.221151177623958286e-07	8.793941735535321517e-07	3.228108158402567146e-04	1.091687315078623535e-07	3.896540462514697993e-07	6.145293024243553975e-02	9.982144450954792692e-02	2.254416533002421042e-07	1.587610361131462107e-07	4.257354266896248214e-08	3.971709322299800412e-08	3.762413956430747233e-08	4.810952675250560537e-08	4.697880184795129584e-08	4.522467717890971935e-08	4.691733402856340990e-08	4.549648141024567462e-08	4.255954431592512990e-08	3.685867193328750049e-08	6.060670582295518532e-08	4.615322311651814806e-08	4.503726386221825219e-08	1.286945620769549563e-07	2.835318397144362748e-02	2.315258996725485630e-07	7.781524158572325891e-07	9.170499659901906742e-02	1.297194469816258489e-07	4.336280324132362006e-07	3.611478495766430228e-06	2.163685916277616195e-02	1.851575998887136359e-07	1.779835664852866174e-07	6.563233761421191923e-08	1.946305065560768376e-07	9.885884595475120048e-06	2.907326915302403263e-07	9.369118634390649528e-07	9.141926445335091245e-02	1.723552330054388866e-07	5.473139690608384524e-07	2.811688182732208125e-06	6.010598442891205459e-06	2.489279240659124309e-07	2.359282283667583840e-07	9.391328249888999739e-08	2.819876883763632381e-07	2.233541947383365096e-06	4.918292488542124012e-07	1.711531473751737052e-06	4.288114624480902637e-01	3.003529593252742570e-07	1.268017671928792184e-06	7.342799756318120485e-02	1.957750102807079849e-06	3.270751016355848880e-07	3.293370517107126882e-07	2.815630641017534313e-08	2.935706647051837881e-08	2.957282521545279268e-08	3.539010315844082581e-08	3.601744953844618378e-08	3.531839075963625080e-08	3.308447469644285645e-08	3.460080651941222114e-08	3.220235883063767932e-08	2.977975124066911509e-08	4.584701478164333187e-08	3.550984833786842237e-08	6.588977611580425125e-08	2.207112877061824646e-07	6.735577783587680483e-07	2.650567630289899967e-07	5.924183143952812446e-07	1.146496334358606002e-06	2.063550298594951278e-07	9.905688169322966090e-07	8.304666542138017249e-03	3.228977899724135014e-02	5.517049150022180895e-06	2.955199083662227166e-02	7.837742530147731072e-08	1.976850924125265678e-07	4.526820053489811956e-07	2.421779284694917445e-07	4.436272100887993343e-07	6.711711339518179385e-07	1.654777786888430956e-07	3.608156441903151730e-07	4.965769118484248689e-07	3.756903717547995498e-07	2.045328225000738644e-07	1.842906691865264051e-07
5.751914824153924442e-10	5.500855563984516642e-10	3.296402948002420673e-10	7.517153258325632052e-10	7.430857173332487275e-10	7.301481535050624913e-10	6.645242534892351873e-10	6.648249319418544909e-10	6.450522125341347896e-10	5.351820639257922406e-10	8.104342115257557333e-10	7.108712605136037580e-10	9.412930195566319923e-10	7.162004297435326724e-10	5.503066041096992082e-10	9.020549796973558700e-10	7.978474698627163393e-10	7.368640578035016740e-10	9.554526844584761946e-10	7.932106791243063028e-10	6.655477103237646710e-10	5.284497623998174645e-10	9.213490537430012002e-10	8.684895939402014357e-10	1.132500407996443377e-09	3.368174609429419937e-09	3.601880489091033311e-02	7.161706822226752398e-09	2.530806647190453295e-08	8.459355003389269767e-03	3.360260483210918479e-09	1.039515090933176684e-08	5.858861284351789267e-02	1.004394189421018296e-01	5.039097139888788233e-09	6.669603794664827920e-09	1.004344252475534209e-09	7.159393450402168896e-10	9.624506289805284688e-10	1.412766001685888428e-09	1.320914260022144964e-09	1.282634634189802247e-09	1.201799875235280242e-09	1.268451342355977342e-09	1.182726202040314949e-09	9.422462975249713695e-10	1.557518707288667033e-09	1.280329931167538098e-09	1.371417487977424694e-09	4.042861057708386692e-09	2.428917603175801895e-02	7.764451411358193217e-09	2.301240498344276037e-08	8.102769690889972953e-02	4.231963923271228858e-09	1.400608864274587331e-08	1.581334860886022125e-06	3.565721252195919871e-02	4.662259792918729210e-09	6.489159995338710644e-09	1.997906427458450138e-09	5.510219760449895045e-09	1.043114730154547997e-07	1.008659036212506045e-08	2.769492017376473458e-08	8.331854806173566441e-02	5.571486038378981907e-09	1.569629025206653650e-08	1.012342757905005622e-07	6.584073122854320452e-08	5.988724845233056430e-09	7.573456815021111306e-09	3.014186892584062511e-09	8.418847738401845285e-09	4.366804823627926467e-08	1.704051141408751775e-08	5.165922943397940486e-08	4.201831781287892476e-01	9.524625480734500966e-09	3.205910576844209353e-08	7.854459701669862237e-02	5.111351453977093258e-08	8.458341696414835544e-09	1.091915743958301322e-08	6.971534243359959344e-10	7.979682257767388687e-10	8.208742178342890177e-10	1.078419395308389039e-09	1.099097244702081483e-09	1.110281026371490821e-09	9.482565831445002738e-10	9.860763996830041863e-10	9.873079011853619445e-10	8.708446885389528171e-10	1.221904891718758225e-09	1.117759987383153367e-09	1.776707663914189995e-09	4.379185992642836034e-09	2.111062094142895998e-08	8.537740864698588573e-09	1.747558009819099300e-08	3.713348587917605904e-08	5.820194258753137612e-09	2.041215621950321277e-08	1.908431806410581383e-02	2.297447576672554531e-02	1.574144630302495529e-07	3.141184594167501648e-02	2.239579628712361069e-09	5.838178859917080608e-09	1.664173673558459676e-08	6.863400179180822849e-09	1.829579857872848063e-08	3.763247692107752541e-08	4.031653926723152295e-09	1.254914808239997517e-08	2.123485596487679448e-08	1.230846147002490356e-08	4.272107168135685501e-09	4.222641977630343791e-09
-9.519743958746829136e-10	-1.038826333134599285e-09	3.213303894927995726e-10	-8.721283283412806409e-10	-8.349950238169533400e-10	-7.774182101179944996e-10	-9.091571040541396688e-10	-8.963901252611266317e-10	-9.210471584653672784e-10	-9.295155349768515316e-10	-9.125792113759771702e-10	-8.620807643351446705e-10	8.766535901772054902e-10	-9.903805100161217952e-10	-9.308566867830564117e-10	-5.147425953832741398e-10	-6.350762024616730332e-10	-7.915282840211782250e-10	-3.297982919268198068e-10	-9.447599405188323862e-10	-9.943584390188766771e-10	-7.421150408461732464e-10	-6.736610150240579288e-10	-2.690076539486439099e-10	-6.492789964607872365e-10	1.012982012934288610e-09	3.338855495108347671e-02	1.944083416862663692e-09	7.564461291206266643e-09	2.323150254170286354e-07	4.431562350385137643e-10	3.367925573515310276e-09	5.639769413967640060e-02	1.060153378925153267e-01	-2.138006997318427711e-10	3.247386528621719757e-09	-2.814723397211036926e-10	-8.187503539061785649e-10	-8.168586360054504723e-10	-6.288921363451054686e-10	-6.403411105778158144e-10	-6.661913677236159678e-10	-5.759838708328056304e-10	-6.494587811350385142e-10	-7.243014574549897945e-10	-8.401758167994822651e-10	-6.050521722842034716e-10	-5.954165394411461186e-10	-5.212023012752535230e-10	1.004026026138648927e-09	2.660904882665834567e-02	2.619942907039786825e-09	9.404333299772262028e-09	8.172607899838842116e-02	8.063175425426137865e-10	4.352744454190443813e-09	9.334164497899753912e-08	3.266255934437924807e-02	2.111219600355460811e-10	2.807660813667373789e-09	-1.094387045968403583e-10	2.045337976235831479e-09	2.068843414708621555e-07	4.041287626735287487e-09	1.245592456653461991e-08	9.304590948271029838e-02	1.605638648220309573e-09	5.817933784220614085e-09	4.594556735781515628e-08	5.003179638804018816e-08	7.747482031321128574e-10	3.439293667072318746e-09	3.762012394684344505e-10	3.789336858021817974e-09	5.124834238498176836e-08	7.289665028506046987e-09	2.278549357442014140e-08	4.194911308530452909e-01	3.666704520397418551e-09	1.324542084431342426e-08	7.818047866268931778e-02	4.442251062196137359e-08	1.819116388484094404e-09	5.423807750720265259e-09	-7.924530339721232066e-10	-7.638809961419318721e-10	6.196026336383843661e-10	-7.550781260384197565e-10	-5.836522612260415024e-10	-4.123941167792994517e-10	-7.879546711436439640e-10	-7.030483393675257252e-10	-6.593343887968681259e-10	-4.010901336470892282e-10	-6.713502395198280618e-10	-5.081745164539476316e-10	-9.618754410729572680e-11	1.732460516597713158e-09	7.255030887679209499e-09	2.586294171181887586e-09	5.300971974095659521e-09	9.497478574890662155e-09	1.678516178000552726e-09	7.006639820061382732e-09	2.079498410086644267e-02	1.463915550518895929e-02	1.019576973614470754e-08	3.704817716092666940e-02	-1.123511970408652729e-10	9.532079725951527308e-10	7.937118782117883805e-09	-1.143494622443957700e-09	2.512697736469580409e-09	1.353552789168003340e-08	-8.143626314293988066e-10	8.254046216818936916e-10	4.861273208705252791e-09	-8.683247081586928009e-10	-1.174326955891208112e-09	-8.589173531736336720e-10
3.233460913491181680e-10	3.043506504726231249e-10	2.364743239080749019e-10	4.004262185080336090e-10	3.997467960601240117e-10	3.896874799627704293e-10	3.581476155503184779e-10	3.585378066676266977e-10	3.367480539302687016e-10	2.859119042821347231e-10	4.483815636635625404e-10	3.745084810714168901e-10	5.184607688206231540e-10	4.156099714463118549e-10	3.170701052157626434e-10	5.154190241723584039e-10	4.515418190585826068e-10	4.161198645092632881e-10	5.466390245139910503e-10	4.522349039249134932e-10	3.807342970491446409e-10	3.136626942036397662e-10	6.553399937460238787e-10	5.008252418554512193e-10	6.299095096561399215e-10	1.891477245719322255e-09	3.894345149542292189e-02	4.001042627270758515e-09	1.520083813993022627e-08	1.356057474189832416e-05	1.888081921757750768e-09	6.246988118062851835e-09	6.306994823579951948e-02	9.719373583787921378e-02	3.151564643289794297e-09	3.929227670297395675e-09	5.896941426215076153e-10	4.848182233762708649e-10	5.883097300371637204e-10	8.322232320333439100e-10	7.780776697536842531e-10	7.509542387488173011e-10	6.922612478289028010e-10	7.146210812763980141e-10	6.798651510892178392e-10	5.593856687895899327e-10	8.784511393807114985e-10	7.412669566847258328e-10	7.425237356213498772e-10	2.210730678869402100e-09	2.046329769679539057e-02	4.299786150627664762e-09	1.370940742431653222e-08	8.858888330282563284e-02	2.203361286496755572e-09	6.658029506530999831e-09	3.446657953701497268e-08	3.259688934866293575e-02	2.836086943986382610e-09	3.612436269949572296e-09	1.123044626110632151e-09	3.286376617262579576e-09	9.341065130965393045e-08	5.533200396460545448e-09	1.640274400271807826e-08	7.964627336790648660e-02	3.049182884921450040e-09	8.884191474937203509e-09	4.181439341515170162e-08	3.646119517382365849e-08	3.692954832779169653e-09	4.297451901643346145e-09	1.681921643384128632e-09	4.995577716292841613e-09	3.478527496282822557e-08	9.335147713904452449e-09	3.052093669683638866e-08	4.329230046879894434e-01	5.368525771999472397e-09	1.991446953382797595e-08	6.889598198506875770e-02	3.643262522960538873e-08	5.372401627973037956e-09	6.461302826848337645e-09	4.307490908505810515e-10	4.807745999229120438e-10	5.243903988616274328e-10	6.355294425434945262e-10	6.597123798254781706e-10	6.631875631619043537e-10	5.599231280949320679e-10	6.005290048670468534e-10	5.841230579929902026e-10	5.335893749003623959e-10	7.956429475787617634e-10	6.632086481022295182e-10	1.110033996988702721e-09	3.902796201541327650e-09	9.696852908124776595e-09	4.667771607821871152e-09	9.603498635968015138e-09	1.691468848602602884e-08	3.431760698140173689e-09	1.413447126937955950e-08	1.053304408438104217e-02	3.168956545932485186e-02	1.113995118845464528e-07	3.544159040163239599e-02	1.373841162601295961e-09	4.087533111076445541e-09	1.036898342784534265e-08	5.482937618699398111e-09	1.177615086219887418e-08	2.177857657076783423e-08	3.126249072226286957e-09	8.261710490464642562e-09	1.165392415318749695e-08	8.245384042926885666e-09	3.455106857150072186e-09	3.426931795321156706e-09
-5.869467167187819188e-09	-5.987192791507179016e-09	1.042419914873000015e-11	-5.622588692237616899e-09	-5.168723003171564364e-09	-4.628160707372535985e-09	-5.636977858806390461e-09	-5.557932974370933874e-09	-5.583819179434952432e-09	-5.285097866754000280e-09	-5.522482910642069666e-09	-5.389613498429125951e-09	-3.519137689336084736e-09	-3.591175364353781619e-09	-5.187752811674396683e-09	-2.183553595862860594e-09	-5.605497487229750948e-09	-5.478976196616359454e-09	-3.090262408335469231e-09	-5.895915443617300523e-09	-5.967306496950022814e-09	-6.522492889800272003e-09	9.046268370154248097e-10	-3.592662831395049070e-09	-4.842495809936611832e-09	2.656663963106551305e-09	4.496270724806082641e-02	6.094769110580725046e-10	9.806827959675525322e-09	9.279853771507627578e-08	-2.250102459332629972e-09	3.404370197047896994e-09	5.459915318667407647e-02	9.651843444451486953e-02	-3.154338521969448497e-09	9.969070738947351640e-09	-7.220927882539024344e-10	-5.568129836283652036e-09	-5.547588831196431793e-09	-5.070233770473804731e-09	-4.948528417768552152e-09	-5.011479147055011907e-09	-4.308218124964475963e-09	-4.635059707140002010e-09	-5.208168545233319783e-09	-5.505236146380245561e-09	-4.839161964465413469e-09	-4.688899040310243264e-09	-4.669922428958333325e-09	-4.753152865962462604e-10	1.554792349671850309e-02	2.991731017214751730e-09	1.788301459633499109e-08	9.870131336771346964e-02	-1.181218174640426054e-09	6.407285326473355358e-09	3.834046930869279564e-07	2.938079596002991442e-02	-2.835531903683855698e-09	4.273232460137469080e-09	-3.223544060005813950e-09	3.728011912149115177e-09	7.820312371783016093e-07	6.406670862802770676e-09	2.495585117401780116e-08	7.861052499448481501e-02	6.995636071338298942e-10	8.925184494771576402e-09	1.629257348774625269e-07	2.185975158411129784e-07	-1.463970756479611477e-09	7.107983329402156703e-09	-2.228211740205799639e-09	9.511878576176958895e-09	2.599407200646153275e-07	1.421376024200955731e-08	4.697215388490274259e-08	4.340724763821576793e-01	5.489922933962573594e-09	2.156540618489190874e-08	7.347876845912622301e-02	1.028927158894065037e-07	8.884222469997817067e-10	1.055958397947473203e-08	-5.021673730344328778e-09	-5.798065039009132181e-09	2.364050861844751655e-10	-4.472407441864385316e-09	-4.798389529518798211e-09	-5.119486859298809480e-09	-4.723045697778475786e-09	-4.814647882603513115e-09	-4.906888521445432176e-09	5.870235976683504396e-10	-4.205680269662567449e-09	-3.029347106944815683e-09	-3.010121282248117525e-09	5.898902019871108171e-09	2.231311213698502232e-08	3.192773385853715338e-09	1.006052968821964993e-08	2.529777358718542043e-08	1.114772742047010082e-09	1.011208959655508418e-08	2.687643426820714165e-02	2.133635747418565626e-02	5.994357129794598443e-09	2.591306084095062329e-02	-3.749285464069267901e-09	3.750695890075469453e-09	7.124096532048704990e-09	-7.275856628976915948e-09	-1.425712339797904590e-09	1.517503674873342720e-08	-5.524142635986164483e-09	-3.712605527075257484e-09	3.933929191071652386e-10	-6.895505235883986284e-09	-6.347352712567434910e-09	-5.811606335712850049e-09
-1.515941497897671051e-10	-2.302793604661960698e-10	5.483961259533197559e-10	-4.786650906088000801e-11	-1.781838805685829325e-13	6.488960987860864988e-11	-9.826784458716730423e-11	-9.349792180086583448e-11	-1.278709221976098513e-10	-1.878595647614191512e-10	3.395848628376947573e-11	-1.105889842808176958e-10	8.083431900416012558e-10	1.646197026613463239e-10	2.596246871456815651e-11	4.518121998525294570e-10	9.410187758079931714e-11	5.065144324489429104e-11	4.323590251061496514e-10	-5.237853893074630746e-11	-1.436804696871621422e-10	-2.034966371236401715e-10	6.592418554438075058e-10	-1.278243098142437764e-11	3.253609150163564559e-10	1.606490760562025981e-09	4.075948282196019401e-02	5.373752417878220522e-09	1.996457659234112591e-08	8.975266638847192785e-06	2.278139178602011226e-09	8.618271683408702836e-09	6.782569838682826757e-02	9.312566040712974558e-02	3.195284654141846755e-09	5.028951126845557030e-09	7.211278821946890812e-10	2.166446164514719374e-10	1.394883242078624130e-10	4.658421417920497145e-10	4.311384545136126980e-10	3.818069232049203082e-10	5.524564787460428996e-10	4.531614753529585560e-10	2.987092926390746490e-10	1.089915218501317684e-10	7.079305739111770229e-10	4.695259331084233492e-10	5.188266697797851955e-10	2.439099926652459496e-09	1.566533565338972325e-02	5.900918630976776460e-09	1.891643284363229940e-08	9.542887018157769630e-02	3.021262312679472220e-09	1.112760205119502633e-08	2.427541482279070112e-07	2.902352348462710480e-02	3.395381132409926797e-09	4.781289006070808621e-09	1.118560052979011492e-09	3.197065902428271757e-09	2.168138129960627080e-07	7.720586236602770788e-09	2.282569733886619265e-08	8.636906264340647732e-02	4.367051846432638335e-09	1.454245740019203396e-08	1.636329148196263485e-07	5.308166599601882391e-08	4.632416296330581384e-09	5.648567946118285646e-09	1.848018303270582258e-09	5.315840553899660991e-09	3.941807439809211111e-08	1.395633100893512953e-08	4.391471660962666062e-08	4.157369455169744876e-01	7.933619434256137791e-09	2.837682215371454584e-08	8.021894113380956259e-02	5.610041401239189254e-08	7.226553098336643791e-09	9.573396811265536400e-09	4.188088406417700316e-11	1.304347322929332963e-10	9.200713400475311228e-10	2.225999797793540440e-10	2.840589427707889920e-10	3.579747261335923640e-10	1.521499482226387977e-10	1.882930587890951212e-10	1.563572758104739689e-10	3.139102039875275572e-10	5.451475371826487098e-10	3.290004482020405204e-10	1.150699354256150894e-09	1.486638103611229391e-09	1.825400447620532149e-08	7.733064303467854936e-09	1.828297356488792390e-08	4.417023196587252537e-08	5.679523943158773653e-09	2.433569135091910392e-08	2.774968731173088342e-05	4.343595340037127717e-02	2.171251436324506989e-07	3.237236025041375503e-02	1.253533038718600668e-09	1.643403002414145908e-09	3.954849672784842731e-09	3.440883330186920442e-09	4.823316860713610699e-09	6.512640104975361923e-09	2.614116272018567810e-09	4.175584898201656904e-09	4.899140351767603707e-09	3.469433909681266969e-09	2.791166875398051538e-09	2.416453990652586416e-09
-8.578451469224088681e-10	-9.485744415669287429e-10	4.168630582283116104e-10	-7.013476810022531487e-10	-6.212509086626964013e-10	-5.234869539632880241e-10	-8.085472912042041479e-10	-7.734042858861502130e-10	-8.107844583896570683e-10	-8.044823728204985406e-10	-6.690818069255737983e-10	-7.154964883956679387e-10	9.884672526038631890e-10	-7.865435568902941991e-10	-8.324883221287189579e-10	-4.748831323370296654e-10	-4.941657080179072085e-10	-4.921223389938877448e-10	8.073707700452749212e-11	-7.830930069315113754e-10	-8.499540582314349501e-10	-1.015056901138229115e-09	4.247931163046437467e-10	-1.992136117451653187e-10	-3.987233096153048753e-10	7.936918800436383018e-10	3.667459681064739324e-02	5.088655054862879178e-09	2.173524383091659739e-08	5.488302258342428420e-04	1.616180027453842975e-09	7.004994396182581717e-09	6.073782650106943765e-02	1.038233602787959897e-01	1.947293164324849538e-09	3.748388347868398998e-09	7.048111289302127551e-11	-5.407418781867736052e-10	-5.750832675679786031e-10	-2.427585787199174564e-10	-2.670602535470249472e-10	-3.077898257695270287e-10	-2.425354760672935429e-10	-3.254069982847167070e-10	-4.158400464902069503e-10	-5.787253223695395803e-10	-8.355382431101916936e-11	-2.270671406266772287e-10	-1.890990379025088796e-10	1.577050131524180169e-09	2.058174589679621219e-02	5.152581140095122996e-09	1.586488976672411353e-08	7.596336364524482188e-02	1.878038094696460442e-09	6.204954834293064040e-09	2.461641860541923205e-08	4.331850720930875698e-02	1.870350700570179395e-09	3.576741002224143605e-09	4.214067360520335620e-10	2.583842116901749496e-09	5.028226948955421309e-07	7.093087723360310949e-09	1.922800004186459203e-08	8.729353646879761675e-02	3.083762406084718716e-09	8.277638294426154535e-09	2.842148160957384947e-08	1.007350983530130442e-06	3.438564565676229799e-09	6.535088954358318382e-09	1.204781027698290834e-09	4.683229352235469634e-09	8.163453149614885616e-08	1.278285492558484966e-08	3.656647964467406481e-08	4.257213956436022295e-01	6.917854944398317565e-09	2.112070350360152862e-08	7.455403130185307703e-02	3.927219651110771675e-07	5.350883273399375574e-09	9.836928590763783413e-09	-6.432236626632755339e-10	-6.318982589443063624e-10	5.447175084658162573e-10	-4.246182339748438653e-10	-2.123591867241052092e-10	1.767428037926849945e-11	-5.410207675286447639e-10	-4.238613078087610409e-10	-3.919436266705449213e-10	-1.074102460711245244e-10	-2.074094329075080114e-10	-1.174182334969672439e-10	4.939669397948831114e-10	-2.977174773397555877e-10	2.026892239710016894e-08	5.929448766101055369e-09	1.316769822628214586e-08	3.295345878435784721e-08	3.559702609120370208e-09	1.188750529889888176e-08	2.685188656931914233e-02	1.012823397050266298e-02	7.474280055079660614e-08	3.380022523829678133e-02	4.999204568551989476e-10	1.339334781700266812e-09	5.871548690615128532e-09	2.862162251368775736e-09	6.254970022859517518e-09	1.494044284790510868e-08	1.499264488280152535e-09	4.231803665075191024e-09	6.140965639675931478e-09	5.227046910176431985e-09	1.880264361145618123e-09	1.747823908015055748e-09
-6.509624062047214938e-09	-6.655649838867092169e-09	1.081683730234789428e-09	-6.005804846878654615e-09	-6.105567881070041777e-09	-5.414799114773208007e-09	-6.140159236762206165e-09	-5.895456969263617943e-09	-5.920937032139511579e-09	-6.172992053067847490e-09	-5.949056395976265751e-09	-5.941222681201722441e-09	6.004299779912149582e-09	-7.082489700835467226e-09	-6.774194330172081079e-09	-4.714431224824379425e-09	-5.734397242942424208e-09	-6.432995946796834860e-09	-6.374162047204413327e-09	-6.432301090995180482e-09	-6.638974437393253838e-09	-5.430628415297612515e-09	-1.890557497687502615e-09	-3.900204020017225575e-09	-5.047567247386706618e-09	2.638980137937884666e-10	3.997894588178093483e-02	1.716167786932267892e-09	1.754609538757028224e-08	1.899159346813920818e-06	-2.502064869271888248e-09	3.681377822091514771e-09	6.547818813243705405e-02	9.508825333962207804e-02	-1.658021270722995664e-09	1.016755204595166635e-08	-3.054234170254311586e-09	-4.968137882287385835e-09	-5.762950314956580975e-09	-5.423699096478234204e-09	-5.275489222229622522e-09	-5.367469949380690971e-09	-3.317787967784598386e-09	-5.296244416873972534e-09	-5.450885404733519718e-09	-5.982213119400642305e-09	-4.945253926987467756e-09	-5.125671431678913293e-09	-4.752654883110093996e-09	-1.570938772962640480e-09	1.748472452745920835e-02	3.153943660860446236e-09	1.887322190140518390e-08	1.101571682318231576e-01	-1.445943264700586508e-09	6.318079704443699110e-09	4.482668600776226500e-07	1.854650247123364182e-02	-1.752708899820970095e-09	6.318524011956484487e-09	-3.646260711212770275e-09	-5.338360713639873112e-11	1.070948837355828596e-07	7.205138729709976133e-09	2.716659969697690380e-08	6.787017086562442680e-02	1.050365661749267240e-09	1.060114628631578114e-08	3.471314333037973355e-07	5.407586772374619129e-08	-7.355531112853051931e-10	6.296294180136337136e-09	-2.821082468675513010e-09	4.000134904623174720e-09	5.749789353360147332e-08	1.599131838526793940e-08	5.137804301027549799e-08	4.364383975893388889e-01	6.608781083529173378e-09	2.291983510394612944e-08	6.874168727109547516e-02	3.172832188998747466e-08	1.283316749021297961e-09	7.882974698079023960e-09	-5.922785319569287276e-09	-5.340056653828092645e-09	3.595563233907130192e-09	-5.424073570304147121e-09	-5.931539037652039804e-09	-6.202912055759447125e-09	-5.547720117260017228e-09	-6.115772102822516557e-09	-6.289755890765497438e-09	-6.989270053195848293e-10	-4.865618159536790509e-09	-4.574166612036971270e-09	-2.836014398528440901e-09	1.190097399792569628e-09	2.222380020260879549e-08	6.537361600162466904e-09	2.032246197241074390e-08	6.038875922836884234e-08	3.496695241153416535e-09	2.288066846997734410e-08	1.744916609164778518e-03	4.949362287106365277e-02	2.188180358396306211e-09	2.897439339928645219e-02	-4.320664466797892555e-09	-1.323844033498931818e-09	3.769755395960400406e-09	-6.112631983745159841e-09	-2.388685582340395984e-09	1.464897754647942962e-08	-4.797027727354802906e-09	-4.172104074072829539e-09	-5.281728713021262258e-10	-7.124888615606713740e-09	-5.187910226526138093e-09	-5.117557195115269554e-09
9.588469114966188956e-09	8.365488119804936469e-09	6.978174017773302815e-09	1.145371457979288046e-08	1.136141712877724846e-08	1.120106418596010907e-08	1.009977322231487449e-08	1.005696736016946665e-08	9.498426361277247272e-09	8.072216806000941276e-09	1.341954564250974917e-08	1.099416264329087084e-08	1.450939789425818090e-08	1.179962782328534294e-08	8.564517066111428582e-09	1.561601808101730326e-08	1.249004080974632450e-08	1.154240252866994700e-08	1.588534470148663745e-08	1.251334693538194662e-08	1.030741506072389210e-08	8.569338700729365783e-09	1.907641883905369088e-08	1.482074622066732201e-08	2.034814369998777669e-08	8.417962819561985432e-08	4.863346476764222881e-02	1.183514045114485870e-07	3.875945097798841885e-07	2.141155677048789077e-05	5.968618531563321436e-08	2.019925286568082825e-07	6.228780294428256509e-02	9.626609592484172695e-02	1.105624637111733422e-07	1.157399406361372780e-07	1.792948229929297018e-08	1.662084869646225455e-08	1.642693756921985047e-08	2.265750237280456826e-08	2.158158256995411702e-08	2.080567305545105108e-08	2.071771574909861319e-08	1.925476337258782681e-08	1.904898728593795437e-08	1.592347202432606622e-08	2.689829849031452690e-08	2.151900193042516003e-08	2.493669435988817452e-08	8.942728529362661701e-08	1.322547272093655552e-02	1.375432968916681073e-07	4.393600808126636430e-07	8.885475948270707414e-02	7.333014285065963242e-08	2.434113554740463025e-07	3.444536028930092201e-06	3.443070844340345715e-02	8.788927737434442368e-08	1.042727299811103282e-07	3.831029302731218797e-08	1.389772627033926353e-07	1.302254547899678186e-05	1.793128529614910848e-07	5.451756433374359426e-07	8.629535177933628232e-02	1.005074050253518827e-07	3.169807194025310581e-07	2.702254703865763871e-06	4.000021257070849390e-06	1.237520064230613032e-07	1.560364619469728690e-07	5.914131681858124436e-08	2.367469567479791358e-07	6.229657655503263848e-06	2.975165224645266488e-07	9.785466713956239220e-07	4.277043742333336285e-01	1.701122817609289993e-07	6.599470929710015821e-07	6.392472726071078692e-02	3.385402201252214711e-06	1.729086075785234307e-07	2.366908655052332609e-07	1.349167397182905195e-08	1.396583382959090816e-08	1.787719875077026549e-08	1.933157951936814680e-08	2.028156194120131065e-08	2.068822706634358354e-08	1.722838411558917701e-08	1.892162913778186972e-08	1.799591210150420933e-08	1.753441462596304200e-08	2.573240179437822324e-08	2.062862579461960912e-08	3.696165709302985712e-08	1.327105096496770452e-07	3.501071208431590270e-07	1.358805725572611828e-07	2.535626484203506077e-07	3.760187304142134051e-07	1.067835888407281762e-07	4.367971473652729207e-07	2.417014810389863169e-02	2.579591327286544569e-02	1.756408223655531823e-06	2.834453201066319122e-02	4.892718507942227067e-08	1.074948846920569803e-07	1.556552551649116487e-07	1.025845656045026110e-07	1.546993872177862547e-07	2.038434095540821380e-07	7.443594542533031987e-08	1.308526303677758774e-07	1.512810309613376805e-07	1.190664083914507576e-07	9.099882032561796926e-08	7.887719116029328603e-08
4.066574994660602904e-10	3.897933774822680461e-10	3.849865711524637572e-10	4.770174762947077419e-10	4.778492319555341103e-10	4.663778571286961136e-10	4.486658453213296429e-10	4.525246910800763099e-10	4.235680969884029254e-10	3.780030300649920374e-10	5.548979504029809754e-10	4.437134420688257389e-10	8.417030493629767737e-10	4.829227422873187213e-10	3.940576005250243995e-10	5.518468172974186608e-10	5.080436720771203598e-10	4.767863636132623128e-10	5.926144625778959701e-10	5.124927087187147373e-10	4.480974215239346101e-10	3.844757135395454603e-10	7.137101170338126551e-10	5.403594905487485021e-10	6.663007907043064153e-10	1.904362476657395521e-09	3.459801354567137999e-02	3.581545536340158290e-09	1.288525527074443282e-08	3.437040466681975787e-06	1.846749892227317785e-09	6.001352435025011825e-09	5.984512920917684636e-02	1.078341806437130151e-01	3.106741503031126043e-09	2.706788295402111801e-09	7.568070771402576569e-10	6.967942529886638755e-10	6.533342985001451353e-10	8.339748103926519751e-10	8.112364004529460841e-10	7.830152761438027010e-10	8.211946980108296500e-10	7.950772442600852249e-10	7.361738303700992726e-10	6.269982771836225804e-10	9.234519202935920656e-10	7.922931021910971317e-10	7.556554534238694569e-10	2.036983277877752604e-09	2.580040741486521599e-02	3.902899032285233532e-09	1.246088111746588557e-08	8.899250162380292761e-02	2.268504718251375453e-09	7.473789411549711457e-09	1.403676576423414036e-07	1.879042016711154547e-02	2.984178453726871607e-09	3.121578103643611177e-09	1.095725298171223659e-09	3.066889879407682255e-09	3.230342793581889638e-07	5.004831390350567584e-09	1.526704662659676369e-08	9.307905013118557280e-02	3.012391427683836938e-09	9.231300801061709484e-09	6.851516252473493264e-08	7.020235099103746327e-08	3.915778348451411794e-09	3.890341358405045944e-09	1.612174449742980507e-09	4.707249814041670270e-09	4.424124154305702873e-08	8.449503336811118878e-09	2.836101749370642834e-08	4.145006115326692608e-01	5.217854269180687038e-09	2.016772504656310579e-08	9.201303574270441876e-02	3.060214543018738903e-08	5.314703582081951650e-09	5.576369993016522971e-09	4.863986097063384821e-10	5.131117042145661021e-10	5.311849130815279620e-10	6.212493276047068513e-10	6.347348441556895242e-10	6.252684839354603508e-10	5.816003901023955691e-10	6.097041147015545816e-10	5.775325297108354114e-10	5.279072709144434401e-10	7.840047204619401678e-10	6.185958429325448939e-10	1.101622565727298468e-09	2.924438066163344175e-09	1.184759045930598431e-08	4.279138105587261742e-09	8.765988344965477008e-09	1.529019986180075213e-08	3.395493541249976486e-09	1.269252762884476555e-08	3.399863313947130595e-07	3.497067910304041405e-02	8.867461637681536663e-08	2.957108872925143933e-02	1.244232700532529972e-09	2.921144913429485298e-09	7.032807336471901781e-09	3.651658071296721485e-09	6.988923041257279988e-09	1.101804267816330716e-08	2.554695912557847240e-09	5.488742193435436021e-09	7.818089999874222056e-09	5.214198395225222288e-09	2.919440460658095779e-09	2.656303751154869427e-09
