-2.223696954090291955e-10	-3.189847514695962006e-10	1.864750278210711765e-10	-1.889765384441201546e-10	-2.007595403110073017e-10	-2.131910924281927838e-10	-2.149033328136699227e-10	-2.354405290122947523e-10	-2.371344745240334168e-10	-2.877398225180386030e-10	-2.258010509269322195e-10	-2.569902963049410365e-10	7.262824835707197941e-10	-3.201943870934214559e-10	-3.462256374044411051e-10	3.374631470290307609e-10	-1.946781661733776844e-10	-2.768643301200167913e-10	-2.029212766421266049e-10	-2.337929503002873822e-10	-2.511268346119099706e-10	-2.919141020206085129e-10	-1.340392515822713523e-10	3.811106270928209185e-11	1.266532911509973133e-10	9.499931842038762622e-10	3.972872770031991158e-02	2.620792586229824674e-09	7.810966425714443404e-09	2.053290801727911123e-08	9.220776355422407716e-10	2.540685933296473257e-09	7.125163066769298059e-02	1.535350435053333962e-01	5.832577085831320937e-10	8.146565961146407517e-10	3.645035624893378290e-10	2.106134264944199244e-10	2.658013570046939177e-10	4.785904843533735676e-10	4.858454233657733042e-10	4.698433636130962525e-10	3.597594922661678489e-10	3.697954017703578344e-10	3.944158881022255888e-10	2.169905561512839439e-10	2.838252066592083306e-10	1.916438417549634646e-10	2.434197455485895679e-10	1.114359000397707568e-09	1.571224718404239801e-02	3.649771929386434662e-09	1.389441776686614506e-08	3.236688256581557455e-02	1.258970741939557006e-09	3.158226904055618159e-09	1.881526001538593243e-02	6.751850484322520496e-02	6.702890698283170733e-10	9.282165182840747546e-10	6.256684043806687819e-10	1.847211139154666066e-09	2.577652202709272300e-07	5.256775245783028122e-09	1.855860802427375907e-08	1.740397584055997926e-01	1.921707559406908050e-09	4.328878655233446449e-09	1.254129250442306100e-07	2.212404652785127053e-08	9.946342403196957677e-10	1.242370040369407378e-09	1.130698183519634267e-09	2.768250922205921735e-09	3.516721303631586089e-08	8.071769867237621424e-09	2.932145763835775327e-08	2.607585761453258821e-01	3.220365520536879524e-09	7.104843363377388491e-09	4.514238576319675594e-02	9.165540682379866762e-09	1.370700454665228521e-09	1.565180714176653522e-09	2.236876745081424981e-11	-4.974281850771998237e-11	6.348899021410059629e-11	7.693333619017969526e-12	4.537510863639816001e-11	3.876697099965872512e-11	-8.489043627752645939e-11	-5.624482015610004013e-11	3.695090893661216127e-11	9.129300332495519972e-11	-3.870350738275163134e-11	-4.956123199236397425e-11	6.569539635001276514e-10	1.779395361689241453e-09	1.075101345243330226e-08	3.626468829535956793e-09	7.430454718010101287e-09	1.038889343298278834e-08	1.987666003973720231e-09	4.394895751510611795e-09	3.283551962190488227e-02	8.829474656660049603e-02	3.484879019401136687e-10	2.702157645784377177e-09	6.794827098696731348e-10	1.819878313466761350e-09	9.328599898344277436e-09	5.575077977560757534e-09	1.244093096900522137e-08	1.571730284305945088e-08	1.716379570359684568e-09	4.154314392649687609e-09	1.198886440234793940e-08	6.350794482183532080e-09	9.048147177705604133e-10	9.362949967954814429e-10
-1.914808800506325068e-09	-2.260906364715288612e-09	3.604934369980458382e-10	-1.951384175426416180e-09	-1.951729104069319121e-09	-1.965974027685156922e-09	-1.941021980198389461e-09	-2.070013140210599665e-09	-2.035738452505928534e-09	-1.852105553027824896e-09	-2.015177299206494356e-09	-2.088993657011648332e-09	3.139967748491900407e-09	-2.329853201774887190e-09	-2.350445021760209769e-09	-1.805493705165558545e-09	-1.728885668780009469e-09	-2.067250045544832814e-09	-1.466288685109378449e-09	-2.209309047822749994e-09	-2.287423622958651284e-09	-2.261914479543256301e-09	-7.432785018795883189e-10	2.470563678818198220e-10	-1.371367357831379985e-09	2.735044757093098736e-10	2.326328500879267999e-02	2.313887536021251287e-09	9.808484639163435040e-09	6.228590637628526384e-08	-2.186068091187904463e-10	2.387626076847447870e-09	6.346321493496959176e-02	1.754344922455589872e-01	-5.536416381679025062e-10	-3.742214376969061772e-10	-1.174337093541063177e-09	-1.349784477458434594e-09	-1.261783156209152201e-09	-9.800120483951137315e-10	-9.306803725496867651e-10	-9.382419752316414537e-10	-1.076489438799612100e-09	-1.057298038121946198e-09	-1.004208414307947675e-09	-1.234985078851223865e-09	-1.173239472249588493e-09	-1.281545889771318969e-09	-1.265418472328160392e-09	3.861079324208166015e-10	3.272966541294632103e-02	3.929655689798200072e-09	1.870667525073594580e-08	3.806922631018507669e-02	3.837857328882796027e-10	3.588877174240465439e-09	3.488693024923730790e-02	3.887823089570208168e-02	-6.150310929489935866e-10	-1.739118960429133865e-10	-5.433266931469708631e-10	1.608880773385656708e-09	4.467042143484244449e-07	5.824402076640740153e-09	2.045439316945624205e-08	1.587223088631299073e-01	1.652263061784424027e-09	6.040595227326160647e-09	9.085745582668064905e-07	3.887228637172458859e-08	-1.040298712102937118e-10	3.000955330067126767e-10	1.394991249746780000e-10	2.610170966939417953e-09	3.674614930068254964e-08	1.023424428956168474e-08	3.395659925986543879e-08	2.676338039711274597e-01	3.844866216885844383e-09	1.106562272573645764e-08	3.483740258365899956e-02	1.086850377019514751e-08	3.432575037562339764e-10	6.266067633168956268e-10	-1.113097801438270355e-09	-1.646315006470382751e-09	-7.899633062757470812e-10	-1.449209326071323172e-09	-1.329453210785537057e-09	-1.319581766571650620e-09	-1.665138487143969506e-09	-1.499772605534202964e-09	-1.251582286920869387e-09	-1.130820372925505206e-09	-1.347723061213605230e-09	-1.227137130330317412e-09	4.225497523238551326e-10	7.895895843370359066e-10	1.416373751125581486e-08	3.972406540325401923e-09	1.015906019857832089e-08	1.933503003498929362e-08	1.591672535677551464e-09	5.838920694788877689e-09	3.786102621513332683e-02	9.421876483055778573e-02	6.139549044841729894e-09	2.661139765710247737e-09	-2.417324037412916832e-10	-7.216685323219545207e-10	-6.055748160898676907e-10	1.129547818134897092e-10	1.540890979277886073e-09	1.026225195546079453e-08	-5.668855733169695526e-10	-2.498223578305377316e-10	3.798677746840657749e-09	-4.418612020250514966e-10	-9.515612726781616782e-10	-1.059612084696845034e-09
-1.566466393854825557e-09	-2.204204641844962962e-09	3.958038718834596400e-10	-1.826606277825829106e-09	-1.838969251823378293e-09	-1.853481345948841705e-09	-1.796862202879503823e-09	-2.165893812729531069e-09	-2.047141937198989412e-09	-1.927550850756638536e-09	-2.047987709058712315e-09	-2.131057003758079794e-09	7.269381858081311958e-09	-2.261315246656197171e-09	-2.478830143252372026e-09	-1.218054825194004288e-09	-1.502543417811329521e-09	-1.940330281028453989e-09	-1.825781897258610811e-09	-1.701241838668600420e-09	-1.967834321975026918e-09	-2.263250551404676536e-09	-8.089566439667456515e-10	-2.263728411250035495e-09	-5.901989513602277574e-10	2.664286557165669445e-09	2.842877771929920583e-02	6.823197978620370137e-09	2.002911490329490402e-08	5.519175677862974658e-08	1.861205784980626156e-09	7.168732762069772371e-09	6.413052725556046829e-02	1.718116876858006570e-01	1.805224024182734841e-10	1.348059892812623279e-09	1.272571413577650040e-10	-6.740408878268455861e-10	-5.716543696131523531e-10	3.628475158805067102e-11	1.081282121669734063e-10	9.477572990032534213e-11	-2.662876439572606917e-10	-2.571620439295097727e-10	-8.108216560852725217e-11	-7.027284953589584680e-10	-5.862374716376803361e-10	-7.206308678371376312e-10	-1.630737539481192265e-10	2.910477777298321516e-09	2.385184315549520456e-02	1.087815225752902400e-08	4.387806300029259806e-08	3.219792875696682322e-02	2.984862836217387229e-09	9.430320139000555265e-09	2.857231027790731182e-02	4.431509870160316861e-02	5.992013518375941127e-10	1.722645351664068612e-09	9.620193157963409431e-10	5.554068177921858628e-09	1.879603226543734614e-06	1.532454338932732526e-08	5.033060115723678175e-08	1.745880195862806461e-01	5.379283765374547980e-09	1.374338570596504250e-08	7.378117809796058975e-07	9.063813145241664829e-08	1.671729826388959211e-09	2.811721882493325010e-09	2.409685416474319704e-09	7.794207682583982074e-09	9.605313604036306240e-08	2.450501131556030165e-08	8.085574952199176532e-08	2.570571804533095528e-01	9.573692287160009286e-09	2.288802537892896127e-08	4.012737447641822469e-02	2.778536157094443042e-08	2.908623375111889901e-09	3.786550484602698026e-09	-1.125792797481648584e-09	-1.219829358424375986e-09	1.024278099868469305e-09	-1.052505534039955757e-09	-8.492011381157388494e-10	-8.498867255687841119e-10	-1.445546410982463476e-09	-1.264425968072943987e-09	-7.909419834881963353e-10	-8.602143609944144614e-10	-1.286589619382314833e-09	-1.176946027248148205e-09	7.662413697858712035e-10	5.146092297264928824e-09	3.405202973360382592e-08	9.787568815315680388e-09	1.936015243740932419e-08	2.810204268251735030e-08	5.727176788127681685e-09	1.442216635131184323e-08	4.369290903000082327e-02	9.122291895532561035e-02	2.034395186044426574e-08	5.075610715802694404e-09	7.783824089641951698e-10	1.711634983735097317e-09	4.783610634503164121e-09	6.157712399915009433e-09	9.859429878353196749e-09	2.459110697081760996e-08	2.045282208344799098e-09	4.587355813665028757e-09	2.033019760593077335e-08	4.793106103397694207e-09	2.202434831606411191e-10	3.609577955950367812e-10
-2.005305731200080022e-10	-3.627473272443472167e-10	2.226402102118872751e-10	-1.752192862336613897e-10	-1.760422788702598980e-10	-1.837264316948497668e-10	-2.467526510272232504e-10	-2.706481760163138347e-10	-2.620188842683923391e-10	-2.808637798558175961e-10	-2.466625921678356714e-10	-3.091226997050354028e-10	1.188041170347646853e-09	1.481197261327387698e-11	-3.883556153617326984e-10	2.909913572657818902e-10	-4.693072649556453709e-11	-2.585313363518014463e-10	-1.605745182749466978e-10	-2.561263161082034358e-10	-3.181184530878949594e-10	-3.848108809301852567e-10	1.625238062383993313e-10	-2.864803325361884381e-10	3.911102557791015205e-10	1.742463697280819243e-09	3.548820296824312104e-02	4.310755265587031067e-09	1.193562681278156865e-08	3.881379078950678925e-08	1.571609228181712667e-09	4.066765861927304122e-09	7.487814787363865354e-02	1.602078699825232322e-01	1.053958454690761415e-09	1.429728975184289500e-09	6.549612075187389836e-10	4.127803092179695223e-10	4.751533060647690085e-10	8.381316679578960788e-10	8.317850712872861169e-10	8.096919994072363133e-10	6.393177093502188730e-10	6.502470387250956291e-10	6.738712697604152440e-10	3.847367027078524455e-10	5.039251659700333657e-10	3.639061894334876486e-10	5.396354827772809678e-10	1.855986757512869895e-09	1.781207505042171207e-02	6.091615437936650959e-09	2.234159542086257622e-08	1.244937548205389717e-02	2.019238024220938075e-09	4.791576281575602138e-09	2.015821550397831063e-02	7.879778751623892075e-02	1.151154655368004440e-09	1.581229938386819413e-09	1.140071643328692078e-09	2.930849047208739173e-09	1.196990092645543810e-07	8.458789851874720342e-09	2.675777775841234237e-08	1.868614193019347558e-01	3.003760177651180482e-09	6.414089761425029424e-09	9.188562613470256395e-08	2.082121560779817660e-08	1.596951330848572828e-09	1.969204351082986139e-09	2.067443812853974389e-09	4.345470671176035945e-09	3.341491703971257902e-08	1.283033750688137652e-08	4.118511385054429007e-08	2.550734337578963173e-01	5.004996332153395125e-09	1.071153947013834547e-08	3.991678239928685840e-02	1.104142036210947606e-08	2.082523844991246802e-09	2.358382145960269236e-09	1.021852605672456857e-10	-1.308663862823356687e-10	3.131231633468382240e-10	1.291708148853987696e-10	1.692066927632763411e-10	1.702594468355117871e-10	-2.510975580313236398e-11	1.251440329642612048e-11	1.084358279658159579e-10	4.056314516682394767e-10	2.129644203585889148e-11	4.569868881473321150e-11	1.150043398395359298e-09	3.034150657914897659e-09	1.649893618426227397e-08	6.155033877669027273e-09	1.229049146144682958e-08	1.928386009612067437e-08	3.233295762620804440e-09	7.021142278734482149e-09	4.780935455911321241e-02	7.054664749047999395e-02	5.477238003819172693e-10	4.416261437130210615e-09	1.204714948521711195e-09	2.517759041747855034e-09	1.277683629755670861e-08	7.912067581282239479e-09	1.628808088308227148e-08	1.789533254234200993e-08	2.420248781713921678e-09	5.632018553727666796e-09	1.674542760892439476e-08	7.414103511275312317e-09	1.308526909078193354e-09	1.336005069824459433e-09
-1.217215989262977354e-10	-2.011250677708351211e-10	1.736045751158006698e-10	-8.173819734130807831e-11	-9.074599287450589972e-11	-1.023848874152274355e-10	-1.031043383750991833e-10	-1.499299332139277244e-10	-1.370456886512385724e-10	-1.504290033271865776e-10	-1.234681072479806703e-10	-1.614811785468466885e-10	9.261555443136885987e-10	9.188512013707410198e-12	-2.358754962967296949e-10	1.161308931323648946e-10	-1.065184793041185794e-10	-1.566538250690115504e-10	6.668967708512169839e-11	-1.583280198003683910e-10	-1.947638311634991267e-10	-2.518430989272174556e-10	5.744088883514491396e-11	-1.525785521014579890e-10	2.267767065320434645e-10	1.021204495614418815e-09	3.495420269319291645e-02	2.811875379023917477e-09	8.899265168629493878e-09	3.903673425625771025e-08	9.955444556396287313e-10	2.570464392678980489e-09	8.063462177831279276e-02	1.628315018137525272e-01	6.715852464900570663e-10	8.939664486033738514e-10	4.465989423300025786e-10	3.086785920091715998e-10	3.546542730675255347e-10	5.903614033853481690e-10	5.865032060450926588e-10	5.663918349538388252e-10	4.681860155198127510e-10	4.780554545111756733e-10	4.917900718965111283e-10	3.074793339309525953e-10	3.797497671073046431e-10	2.860114519274298561e-10	3.287396383664189406e-10	1.113251138731809252e-09	2.508029430041686103e-02	3.768701161343746035e-09	1.427446824150385307e-08	2.686862686850850085e-02	1.337401423861159852e-09	3.222498389602841690e-09	1.862501718297378608e-02	6.457331203476875114e-02	7.527729313824692327e-10	9.901233713222467701e-10	7.090402481344308624e-10	1.898662817851854018e-09	2.642240980335332491e-07	5.321738248635400691e-09	1.837669610932476448e-08	1.759862090393670697e-01	1.996511260297306490e-09	4.403786265945002108e-09	1.425006675985247531e-07	1.846461466450004996e-08	1.090139308094432448e-09	1.319582646894251257e-09	1.249419550210625283e-09	2.884875471880566536e-09	3.828810944836768921e-08	8.136439625880461759e-09	2.858262303147310480e-08	2.515278417454849813e-01	3.321253123684615783e-09	7.326676524786434274e-09	3.703436561361166807e-02	7.707241986629072250e-09	1.380271445957438767e-09	1.537048307893805945e-09	1.107815248439377717e-10	-2.351375250136266321e-11	4.131856705979119880e-10	1.059015874019883316e-10	1.306494674046118990e-10	1.264518502092054882e-10	1.566376116692605621e-11	3.978023079182997069e-11	9.215646925750359180e-11	9.660107441080668272e-11	5.599879824957250580e-11	1.711919660480884645e-11	6.647409154233890506e-10	1.758050088733761980e-09	9.407125471231453810e-09	3.833090278063869265e-09	8.029640163708280345e-09	1.162171460789447424e-08	2.009871883383956913e-09	4.330114382813573089e-09	3.509480328501896063e-02	8.678841131151955601e-02	5.884592701896844131e-10	2.771135421933399722e-09	8.201401036951494415e-10	1.831949051346732728e-09	1.533504692333674178e-08	5.806054053488644855e-09	1.750846190730410441e-08	2.444423561348324850e-08	1.789052848101890588e-09	4.135767036309650460e-09	1.874071960828980109e-08	6.111761785347153627e-09	1.026923366379827842e-09	1.019437322936067246e-09
-3.860158820027102730e-09	-4.349524603549307009e-09	1.211469463293549092e-09	-3.595511236392577530e-09	-3.828035200169062552e-09	-3.897332792407930666e-09	-3.790659178661921090e-09	-3.810000071096234732e-09	-3.985364161869914464e-09	-4.214563609624482052e-09	-3.957913939116204467e-09	-3.803040223145846740e-09	1.867527749135557143e-09	-4.465748855297455159e-09	-4.603328110285566862e-09	3.482077926453435120e-09	-3.628104535461955506e-09	-4.288749070750597228e-09	-3.908001068203114892e-09	-4.037389976459093501e-09	-3.767617569509753619e-09	-3.545934656731013707e-09	-6.060398435402362609e-10	-4.260502034663642295e-09	-2.455488126421052026e-09	8.132065785878503822e-10	2.054241813949019002e-02	4.231150451733880530e-09	1.814395061582588518e-08	1.047372111096494121e-07	-4.489082872568102190e-10	4.440406641476369635e-09	8.249549802745158311e-02	1.627072162110603792e-01	-1.930295466702820573e-09	-7.555604895114707860e-10	-1.179821201217470002e-09	-2.917917246393251968e-09	-2.750985115184924584e-09	-2.217999835088700006e-09	-2.164971103752569120e-09	-2.199362412163466413e-09	-2.177222742518845056e-09	-2.392389169800762042e-09	-2.253286267027839052e-09	-2.618056594109559287e-09	-2.675644964577334040e-09	-2.573083059339321698e-09	-2.375277870633424219e-09	6.331728457195244553e-10	3.309626913082805433e-02	8.035112724203337821e-09	4.272641769689361656e-08	2.637190400821970426e-02	9.507012602143070526e-10	7.567735180933559970e-09	1.984121944652472713e-02	6.388924633036975609e-02	-1.679867565538449415e-09	-6.347076586930043725e-10	-8.136924035274812710e-10	2.744055935726618529e-09	2.556294203377830086e-07	1.125541836780021446e-08	3.926911155438875309e-08	1.718265362363877446e-01	3.135664279875008403e-09	1.101041453694468081e-08	6.897529337535593584e-07	4.477030615331258772e-08	-9.011441367804094545e-10	4.935211142615479204e-11	2.377587508258161043e-10	4.493211785016634630e-09	4.957315278935290736e-08	1.929170664642375900e-08	6.500736947000547612e-08	2.691820751713502879e-01	7.648387776128382724e-09	2.230847602866254922e-08	2.492168794832633205e-02	2.058342048626905308e-08	2.465024188618406323e-10	1.013525938086255844e-09	-1.738229436807776314e-09	-3.724363016130992925e-09	-8.335771439633346874e-10	-2.962371644360672275e-09	-2.677311757327670726e-09	-2.756228130465511862e-09	-3.286750191529049842e-09	-3.151182430142065105e-09	-2.647819159925938016e-09	-1.199383911954788771e-09	-3.190142041505412360e-09	-2.651786869931533760e-09	-9.154845811904068470e-10	1.721582648832744532e-09	2.458728803940389617e-08	6.958768633959147644e-09	1.704909561225109746e-08	2.856522577244331553e-08	3.326950137049806762e-09	1.166166615405316094e-08	3.518987601177389624e-02	8.993462042020756997e-02	1.692069530499977436e-08	2.020874045912079121e-09	-5.417288040287806710e-10	-1.413259601299933787e-09	-7.508610729198869095e-10	5.301853447142079105e-10	3.796480209038577496e-09	1.913150655460305122e-08	-1.364957416212142583e-09	-3.637603155261794107e-10	1.103994061561505984e-08	6.433506475948799127e-11	-2.435443204655969510e-09	-2.393071396511826424e-09
-1.711778282924482835e-09	-2.265694363034416790e-09	3.160381441407642099e-10	-1.859502022568830633e-09	-1.975380905199688489e-09	-2.015546123114820372e-09	-1.993055655805667219e-09	-1.993746386047686690e-09	-2.061729875301750147e-09	-2.168173674204787750e-09	-2.140053813017555373e-09	-1.954682651645283882e-09	1.123852332429656355e-09	-2.404048057041375362e-09	-2.337382191035035883e-09	5.688377359311368606e-10	-1.864319027792897717e-09	-2.173989048493840965e-09	-1.966729531036153387e-09	-1.836021105473753525e-09	-1.996605336022730035e-09	-1.987733430793986576e-09	-1.815099602539389623e-09	3.083567204968391642e-12	-1.045169600365832514e-09	1.368290682512227723e-09	2.172319210759813407e-02	3.966819917945583018e-09	1.497620932933098091e-08	6.031303315661781412e-08	5.419806174255183150e-10	4.152410726598394555e-09	7.986647976295055407e-02	1.771848884200084018e-01	-8.865072945795033749e-10	2.494002165189212186e-10	-3.365153213070205681e-10	-1.064592166399937187e-09	-1.131844484684955768e-09	-8.782569542990937875e-10	-8.326416214769523980e-10	-8.635143150281025715e-10	-8.911902941497378136e-10	-9.538514761952005298e-10	-8.690454798778518303e-10	-1.159481986675668223e-09	-1.150855542330894959e-09	-1.309106831222380816e-09	-7.832164234792372410e-10	1.575904426536119759e-09	3.020639595299063826e-02	6.853733249901624104e-09	3.495796683615884764e-08	3.520175915515393744e-02	1.889561304462490758e-09	7.808994860042485315e-09	1.181058713654658913e-02	5.468239890148182680e-02	-4.269197365624888268e-10	4.682785713081992694e-10	3.869248035655334654e-10	4.239815918459432324e-09	7.875514189542664296e-06	9.479064935443606521e-09	3.754614490469700850e-08	1.668277681373025179e-01	3.462663399244526808e-09	1.031429779034407541e-08	1.289712086281459224e-06	4.834072314730283151e-08	3.022867175004574882e-10	1.065955674198754575e-09	1.481506744238197532e-09	5.753851156445595122e-09	7.690803515463880570e-08	1.591709410819115741e-08	6.187857624082482579e-08	2.525341995877384282e-01	6.104346228652626465e-09	1.588076301243020084e-08	4.778115599752797565e-02	1.852772107145156281e-08	1.301141424159728588e-09	1.911136274201300592e-09	-9.349384262147564959e-10	-1.816055854467751333e-09	1.905272178884134098e-10	-1.415087705283428612e-09	-1.264405488467138940e-09	-1.296304597412680558e-09	-1.605820869257120973e-09	-1.514778642686507221e-09	-1.228802017790017255e-09	-5.974465031425438924e-10	-1.588956009658590788e-09	-1.410836735211025865e-09	3.451885976175902193e-11	3.064167102725368712e-09	2.003608704468415060e-08	5.660015153413104131e-09	1.239446627096859731e-08	1.551935722422462571e-08	3.394660609831589717e-09	9.862392784853985869e-09	3.249519750719213201e-02	8.967627432174359037e-02	5.949820982446639962e-08	1.434475732196707981e-09	1.009922987261614648e-10	-3.680456215495977825e-10	6.415336103624878215e-10	3.886918834692289676e-10	2.139576902178689522e-09	8.937870445408139690e-09	-3.937431846958677113e-10	6.403580141021749551e-11	4.857562715476138108e-09	3.030761611279167115e-10	-1.048393210029970786e-09	-1.085576775043426873e-09
-1.931802459188864610e-10	-2.923125728048344914e-10	9.796722564488795100e-11	-1.727508199281835907e-10	-1.843418791672684688e-10	-1.940935598104093881e-10	-2.176557877940648040e-10	-2.387096283160099943e-10	-2.204972028972835377e-10	-2.680298907764765399e-10	-2.418662380775697671e-10	-2.620210971023833985e-10	3.179221141017020548e-10	-3.109262084217490094e-10	-3.488629165875124498e-10	2.939066030495901691e-11	-1.500409332165595245e-10	-2.387787275911940199e-10	-7.053046459173482846e-11	-1.270287904506718688e-10	-2.606740549249938062e-10	-2.662295518262637608e-10	-1.124453509663259376e-10	2.017328479033431702e-10	1.129884502018812730e-10	9.075955483957372550e-10	2.795844685855000331e-02	2.291310715708501289e-09	6.436419458421060342e-09	1.900011472169655032e-08	7.948975014732831632e-10	2.224886050779354414e-09	7.715185608032187892e-02	1.762362518311638704e-01	4.965941085036178079e-10	7.341951525958933666e-10	3.195660519317752645e-10	1.444446472657243998e-10	1.927148439404221910e-10	4.011342753038425751e-10	4.124868780704427618e-10	4.023669153211916842e-10	2.868826360196698820e-10	2.998587221963351033e-10	3.374139984703191496e-10	1.463386121291549555e-10	1.927751497199001112e-10	1.116232123066276888e-10	1.994429247397780655e-10	9.687155211860153255e-10	2.605444937530970034e-02	3.221482344927842893e-09	1.106188493226360053e-08	4.032153932091165488e-02	1.047597792367414550e-09	2.589476497864305847e-09	3.530651568330626933e-02	3.625368921747659096e-02	5.537204386884295783e-10	7.821999671716791498e-10	5.399431854493430383e-10	1.570629637568462918e-09	6.764469521802180718e-08	4.690542375992906816e-09	1.524649584615918840e-08	1.704698949949153552e-01	1.671787779592488757e-09	3.758360030963301211e-09	1.739015266563455207e-07	1.099750027676655939e-08	8.011039092963001855e-10	9.980455196880265371e-10	1.040879286020143700e-09	2.326306150649307847e-09	1.484118628207436764e-08	7.208481315783182126e-09	2.374705599157103499e-08	2.577828525035176788e-01	2.850796667496268187e-09	6.300147224041982936e-09	2.373740510450504659e-02	5.534300778560120470e-09	1.046365637912971608e-09	1.178899003659166641e-09	-5.735272205779051017e-11	-7.146340831887545798e-11	2.973010153287334351e-10	-8.778993471456635251e-12	2.198855995279878876e-11	1.731464325981263003e-11	-9.997637157318964105e-11	-7.466520566466111941e-11	6.026397914893704239e-12	3.949622578214805300e-12	-7.718436211555318595e-11	-1.130708327370672261e-10	5.042995055044794367e-10	1.447935174542765141e-09	6.793522019912208664e-09	3.117611169152227958e-09	5.950672841074272617e-09	8.674236025685487879e-09	1.872732944257219719e-09	4.279938436799696616e-09	1.045726167465627077e-02	1.182693519575014757e-01	1.849638894913280322e-10	2.677217467991747835e-09	6.567972219058329919e-10	1.605042650743326924e-09	6.782167936345197470e-09	4.879278880403363152e-09	8.624414981204007967e-09	8.338743753458529459e-09	1.573136274349258521e-09	3.696090561689747821e-09	7.491148707806674325e-09	4.147136136326647631e-09	6.819616302977792436e-10	7.325140145053962288e-10
-1.998757063025953204e-09	-4.194078011350099466e-09	1.984413982350807309e-09	-2.004581688992478298e-09	-2.027086645423647295e-09	-2.143492905788409855e-09	-2.661009379357050113e-09	-2.940958135775604051e-09	-2.804118125723782884e-09	-2.479172414169979610e-09	-2.837368703087481099e-09	-3.547645383121531832e-09	2.095632084584656374e-08	-3.966103870031378535e-09	-4.885385096402305219e-09	5.583284806327797535e-10	-9.244612894280863817e-10	-2.643232247557876291e-09	-1.634022190817963488e-09	-2.144312068919263642e-09	-3.369804647182885794e-09	-4.328056518733904378e-09	-5.947920307061263658e-10	6.965341587516158093e-10	4.091694427642412053e-09	2.012273527367973587e-08	3.110856183420001100e-02	4.723911347257229740e-08	1.211044042443822469e-07	3.175831246735052436e-07	1.921053475833141825e-08	4.926794383448776715e-08	7.341286526742937801e-02	1.671815780990801581e-01	1.085025507983163248e-08	1.671024080496738112e-08	6.938137307933309506e-09	3.968171692885072634e-09	4.427727655256495440e-09	8.385278757935862264e-09	8.170571197761347976e-09	7.899302603182439071e-09	6.860478208508725663e-09	6.714007505628316064e-09	6.724294791299672161e-09	3.667285306210055357e-09	5.429838673581623404e-09	3.821505935234630770e-09	6.067907510128495332e-09	2.171856025817187649e-08	2.447136395455412269e-02	6.627772977906314833e-08	2.094070101398524719e-07	4.184235697212614763e-02	2.619932754020002689e-08	6.455274934038754693e-08	1.251148423794106596e-02	4.776264958438834057e-02	1.302601556971216511e-08	1.845977689954984290e-08	1.321314420561158359e-08	3.417596299224209726e-08	2.256920692360737818e-06	9.576993662467228925e-08	2.867157642163313698e-07	1.747738513635586355e-01	3.840176162789319743e-08	8.576685949916217475e-08	3.722443301004819600e-06	3.085284744293729063e-07	1.846503871491019954e-08	2.345674933039069250e-08	2.122795459063287306e-08	4.697204340225568442e-08	3.431437600328800406e-07	1.448491051071633123e-07	4.378833659661250697e-07	2.440479191012498161e-01	6.087813214963121561e-08	1.301424320977576941e-07	4.578277806007417794e-02	1.394957356955565750e-07	2.458749917645272300e-08	2.819083935627987417e-08	1.083178525103990584e-09	-2.744698452413695621e-10	6.325179385142798588e-09	1.251210349683481378e-09	1.672901074825198140e-09	1.662922552876094239e-09	-1.826422803579860364e-10	2.222058246858764705e-10	1.198472648901292094e-09	2.552469684574146451e-09	3.969881279537498980e-10	3.217294007256784165e-10	1.266581498399054094e-08	3.169909898534063896e-08	1.493975624253461688e-07	6.610219585816704765e-08	1.224209042748478223e-07	1.805935403428684629e-07	4.014961318244953819e-08	8.743075254791300037e-08	4.231155710342931336e-02	9.478195199218433786e-02	5.784370612742345165e-08	4.915255521040963851e-08	1.154416357098187368e-08	2.059810427094564366e-08	1.019265426878805814e-07	6.133412348794035170e-08	1.336820598500019511e-07	2.521888826048240394e-07	2.198972353603026024e-08	4.749217530116140525e-08	1.830157606293409059e-07	7.267824508651127270e-08	1.347595086429869974e-08	1.262672843554235012e-08
-1.078691282750443323e-08	-1.407659849037120274e-08	1.370817030262392167e-10	-1.169853258324087673e-08	-1.141846972590786679e-08	-1.129610636699779961e-08	-1.228446393085917216e-08	-1.268451831050604849e-08	-1.230516413552329725e-08	-1.089387092148954353e-08	-1.295453354538265490e-08	-1.330906083634648465e-08	1.646464415926895292e-08	-6.723152980553186475e-09	-1.276491169764448621e-08	-3.197975026744430254e-09	-6.419586264721717381e-09	-1.163250936996547210e-08	-1.152404227988113918e-08	-1.380375108575248310e-08	-1.344819375633005467e-08	-1.480124710708134666e-08	-1.599050093158878953e-10	-1.396107137026032879e-08	-6.807913223055569396e-09	8.454943217192067620e-09	3.069121787830447409e-02	2.594369435450382134e-08	7.347972294281419308e-08	1.774028890282562099e-07	6.036796943302640703e-09	3.172382093804860505e-08	8.354649183793845524e-02	1.566152562244961244e-01	-2.102910980540917341e-09	3.633811625514728427e-09	6.153272536790245712e-10	-5.984599106295263755e-09	-5.980655980455065747e-09	-3.383625301931612706e-09	-3.105486318757644556e-09	-3.151385098045477163e-09	-4.576537975381088491e-09	-4.375455228933678323e-09	-3.264947994706356924e-09	-5.835401147446902372e-09	-6.393609126122509672e-09	-6.919384089388845014e-09	-4.829950508610639992e-09	1.071170248370815972e-08	2.354896419760146506e-02	4.508394092224745065e-08	1.717210185263996286e-07	4.098322781859831815e-02	1.324865466806162928e-08	4.938999296540480073e-08	1.000797813501561745e-02	6.832715917785531223e-02	-6.694980699512806119e-10	4.579405268797023615e-09	3.845569954559505948e-09	2.803747318534197258e-08	6.887328076938185710e-04	6.600617130654901945e-08	2.093812240023992002e-07	1.669512677738109185e-01	2.281821049669072715e-08	6.378708941693291594e-08	2.347549552509759823e-06	6.202418277613610809e-07	4.232240230901955515e-09	9.871339153882424413e-09	8.505926319208728494e-09	3.861449774328669799e-08	7.101527400055524892e-07	1.071438999642027905e-07	3.288504746685091157e-07	2.607126696430511203e-01	4.376637501958777592e-08	1.102985047148912162e-07	2.799215894290667944e-02	1.444242417872800907e-07	9.669973849897441849e-09	1.412732580173410905e-08	-4.402661877494890002e-09	-9.718108039445729859e-09	9.351506190581193525e-09	-8.684067666827687015e-09	-7.842276706739130319e-09	-7.653756508149691486e-09	-1.007064460327008370e-08	-9.589724683469826226e-09	-8.059734510705830189e-09	-6.103681890702295470e-09	-9.128167212160975544e-09	-8.223571020189811440e-09	1.962038333190717520e-10	1.731033752207274641e-08	1.261863626012510699e-07	3.828607176323565583e-08	7.396132925439177277e-08	1.088860117171399418e-07	2.393712266943111259e-08	6.466789234493318957e-08	4.521430370595033027e-02	8.471456320882737867e-02	5.495416045048064419e-08	2.220488717170339177e-08	2.315715354962931586e-09	4.321452555268395821e-09	2.006015451127166620e-08	2.200797765465228670e-08	3.964207889190864387e-08	1.598780077565919800e-07	4.670860895752260067e-09	1.532453587749573008e-08	5.557834429195249086e-08	1.919270214167787025e-08	-2.889472790184769992e-09	-2.346064624048338516e-09
