-1.328254076577713072e-08	-9.682197299493406770e-09	5.038074398443657435e-08	-3.540908829145463166e-09	5.333482066449266826e-09	2.620142411143101252e-10	-8.301303026012074089e-09	5.144630848302390990e-09	1.268427573597909821e-09	2.653291920994685739e-10	-9.286359806652926102e-09	-4.968423061228936524e-09	-6.593669733697562144e-09	-1.152979855612054012e-08	-1.277810814007014101e-08	-7.616257660876611520e-09	-8.317719340932159400e-09	-1.414840353433216932e-08	-7.525034693242396651e-09	-1.168724010634846013e-08	-1.463921519575979810e-08	-1.176648456122490118e-08	7.214492848076594197e-09	-1.485544846988107710e-08	-1.244935636472965458e-08	2.295805601422772242e-08	3.443498541290607867e-02	6.233094505655357558e-09	4.282772549428898253e-07	5.816024091151250630e-02	-4.057774333437027463e-09	2.546928067968955590e-07	3.521602467029502637e-02	6.348786622663794843e-02	-3.610701886358761587e-09	1.747469002623330497e-08	-6.011484005282152508e-09	1.037581719589251741e-09	2.131049996276523315e-08	1.028458069467509541e-08	4.160483417379443950e-08	4.230210879413788232e-08	2.176529322972869337e-09	2.296869415688263207e-08	2.011513844267009162e-08	1.370826376964873074e-08	-6.888716148536565277e-10	5.421846632837597522e-09	-1.195971795372787586e-08	-2.138382677166183196e-09	3.270073109734218664e-02	1.169862859151641095e-08	5.846959928451641353e-07	5.809219433349888106e-02	-1.114473630924860115e-09	1.466590259136974590e-07	1.778934783996613031e-07	1.568897065172710631e-02	-3.012128159517296367e-09	1.132049394345171989e-08	-4.486389887994852963e-09	1.224846655579312854e-08	2.447308084409854626e-06	2.758257162802540390e-08	2.862969299598825259e-06	1.303895163814652869e-01	3.731802313088682097e-09	1.567572929372524175e-07	1.108763493201727383e-07	7.501520289063044765e-07	1.142665084288970300e-09	1.837337237439283882e-08	-6.288324130858067586e-09	1.867157883562202828e-08	1.910998440747770220e-07	5.729556777611059729e-08	9.093591248437329910e-02	3.424120622961649429e-01	2.353876955803861568e-08	3.577639317290145192e-03	5.982147446744433272e-02	2.207668378704148639e-03	1.325130895723592360e-08	4.197055158401443200e-08	-1.232938154257895488e-08	-5.669013438382811931e-09	1.401345506821168295e-08	-8.189611973312214909e-09	-3.011656935904123314e-09	6.924548359256268442e-10	-1.000608405146105066e-08	-7.311096051477768189e-09	-6.811754595256454602e-09	8.893984421716202667e-09	-1.083643418588312688e-08	-6.663067902421395034e-09	-7.317571182289564670e-09	2.553411899435140240e-08	9.087645361367776720e-08	2.152094213806617451e-08	2.221085820756598544e-07	1.894163207728799538e-07	1.590330832834459194e-08	1.219521673475990594e-05	5.066716460740894323e-02	7.543099815382729592e-04	1.200312530609301397e-07	2.143198952134710636e-02	6.989699683137988016e-09	-3.445644188725322903e-09	-3.608001848494170759e-09	4.794687070855291405e-10	2.842333831449188532e-09	2.254656108422078937e-09	-4.072761848276075859e-09	3.281105472872375928e-09	2.590865365070771194e-10	-1.043426181637131391e-09	-3.132532060062900688e-09	-9.411333314295436495e-10
2.212472584258359322e-10	6.471553411402850077e-09	3.323196624387015664e-03	1.149210415962617596e-08	7.048986298499826290e-08	8.833144419566152169e-08	4.664933725170150936e-09	2.878687823479228446e-08	3.076526563265360633e-08	3.921320746664339928e-08	3.839868897941951017e-09	8.597271048501966348e-09	1.958659584730161740e-09	4.183682026198399156e-11	-4.091601743151453404e-10	9.554880343219466206e-10	3.328533355423269702e-10	6.076562758934495413e-11	2.185941200014055423e-09	4.339912934962610716e-10	-1.696288387565491864e-10	-2.232047231658841780e-10	1.930365381776728452e-09	1.245239896203233856e-09	4.817609334572010659e-10	4.773013579701068989e-09	2.786287926227633271e-02	1.509308775575444297e-08	4.795528188729056557e-07	7.780949639645642901e-02	6.515189210511730855e-09	1.603181850445757204e-07	3.283436344072843127e-02	6.320201187574170376e-02	8.276703100009581981e-09	2.262599912754346826e-08	2.657243039770805328e-09	1.375839972737519483e-08	4.724858926162449557e-08	6.356663335160140426e-09	8.843385916276222580e-08	1.039580187281552440e-07	5.997190933436340552e-09	3.242271112305382554e-08	4.962340552961764746e-08	1.908528112362903006e-08	7.583595222007990821e-09	5.137198058550660499e-09	9.771473627441643488e-10	9.893037943305755681e-09	3.516393358276135445e-02	1.881943408819695558e-08	6.842522885905293388e-07	5.370538909511474862e-02	8.687461162587926262e-09	1.605044344101208909e-07	5.119055283794299570e-07	2.036050587012190952e-02	7.961416869406767894e-09	1.934082951623233213e-08	2.788043872983089457e-09	1.532003148146400345e-08	1.149697806822182549e-06	2.795891365506251958e-08	2.462232620984987583e-06	1.152378663018107791e-01	1.216503160431432614e-08	1.366346341442014049e-07	1.250903966574479925e-07	7.143669043184634269e-07	1.128654316199070713e-08	2.472324816943932801e-08	4.945798770117511887e-09	2.408072031424546054e-08	1.589490038803271261e-07	4.528082221717015840e-08	7.957163718944100517e-02	3.304588577223953050e-01	2.329305134751442601e-08	1.016934440857038095e-02	6.855960748077485900e-02	4.354157537270563968e-03	2.021243552713626297e-08	4.345761970141345709e-08	4.099000265828411821e-10	3.185680539958848624e-09	6.468897031702806371e-09	4.714689239856278926e-09	8.294555630129871615e-09	8.551052575275603087e-09	2.677322649366054188e-09	7.087917885025231544e-09	6.729223441063968996e-09	6.045933542906440198e-09	3.800943332254076324e-09	5.403874315383191588e-09	3.159128478872581238e-09	9.866115731978611526e-09	7.995440160763012385e-08	2.464488260224171136e-08	1.875177337960411498e-07	1.564236322364997649e-07	1.434757565788545493e-08	5.707282210787374749e-06	5.373718233355163215e-02	3.295455956721084846e-05	2.189607172672623307e-08	2.360245652300058811e-02	3.279795856217324514e-09	6.218512565215524406e-09	6.985217566056042263e-09	7.856929448557561113e-09	9.006755486053616420e-09	8.168353548888016263e-09	6.090192256341202487e-09	9.567123714120198344e-09	7.858186583540778250e-09	6.713685100846580784e-09	6.696305257862946201e-09	6.952327216884820176e-09
-1.216718026140345509e-09	-6.147796782231922030e-10	3.058585848478374749e-03	2.843062469600975149e-10	8.582485954493306873e-09	1.138078890867188196e-08	-6.742355814037714055e-10	2.206091016101689445e-09	2.657285474567127532e-09	3.504216723148150968e-09	-7.844395671748629278e-10	-1.611640486853043772e-10	9.628419585800756164e-10	-8.865499646515462930e-10	-1.395328293567561131e-09	9.614175932825636823e-11	-8.714048190992580871e-10	-1.240979760893206743e-09	-7.089159361998369093e-10	-1.166454547439454806e-09	-1.310572632266582500e-09	-1.416240977851334546e-09	-1.038292404628863706e-09	-1.358375739887116589e-09	-1.182688949566355169e-09	1.796089626183851828e-09	3.288385143446620473e-02	7.437073794660904021e-10	6.099239057679913553e-08	5.090340850918227689e-02	-3.484509596005648294e-10	1.735145321691954255e-08	4.332268425092167252e-02	6.553551556965157843e-02	-2.217572618537492991e-10	2.850472861363269236e-09	-8.097502339302981311e-10	-2.930837858051037387e-12	1.690122713969361234e-09	5.968239395072633854e-10	3.503360235836974948e-09	4.755945241038326522e-09	1.090156009876668944e-10	1.315837634567364882e-09	1.659472484065675163e-09	6.981461857913520879e-10	-1.181622799622453120e-10	3.149680571444945027e-10	-1.101510189319857848e-09	-1.410046428578351978e-11	2.889920060643530464e-02	1.277637232293309663e-09	8.174409082801418845e-08	6.615667475766209837e-02	-8.097663269778028587e-11	1.133959754191395802e-08	1.948283554689866779e-08	1.676240441896409070e-02	-1.764433075227422323e-10	1.566718552231659773e-09	-6.984805887024358872e-10	1.090687230477148125e-09	3.455902436595613099e-07	2.682570451382395728e-09	3.976561603070829232e-07	1.238890577584468161e-01	4.385079567886154385e-10	1.402830072673922526e-08	1.322565959101494693e-08	8.830095003461404935e-08	2.445673177894573354e-10	2.131789113032524055e-09	-5.737398321064834587e-10	2.855574173426335187e-09	3.267276453019665527e-08	5.185866528687615973e-09	7.848165320735601969e-02	3.523147064350485302e-01	2.306600787229243023e-09	1.105589842473789046e-02	5.289943931793840426e-02	6.343440774803628911e-03	1.546354657666648414e-09	4.795139665273127288e-09	-1.172959269530362940e-09	-6.025791030045253573e-10	1.467945551407591442e-09	-7.350071478733101144e-10	-8.357074312463750464e-11	7.546564183479795243e-10	-9.383262235908445162e-10	-7.309969848312569843e-10	-6.634706903892778736e-10	-1.258757382088105442e-10	-9.824261743636891514e-10	-6.450487632203863007e-10	-7.066292086967954174e-10	1.125851002643501634e-09	6.529271309557261068e-09	1.906905707337213896e-09	1.144635567602895398e-08	9.352684679711304217e-09	1.087857528675174672e-09	1.730842158179698462e-07	4.319105612365806840e-02	2.822850914451695495e-07	6.823442532019842772e-09	2.430079390745611481e-02	1.244767928690634835e-09	-3.641363270576489585e-10	1.870403340607787047e-11	7.231127899317439180e-11	6.471341961568939683e-10	5.765466348748997292e-10	-2.021467881656256002e-10	3.876205568716481743e-10	1.929195814574829668e-10	-9.284397964659719966e-11	-2.522499255165425075e-10	-9.235890990469481770e-11
-1.850272833844205113e-09	-9.677102217372458691e-10	1.415100677316058790e-03	1.241713969413825386e-10	1.304527026121827439e-08	2.301256900388152576e-08	-1.145773241493742627e-09	2.770921880044759861e-09	3.384490972855131491e-09	5.702515652451933042e-09	-1.411990407897750839e-09	-2.112828175635436083e-10	-8.905517937676759644e-10	-1.777969213355851903e-09	-1.724174709485511179e-09	-8.382903730223864380e-10	-1.223147574492305401e-09	-1.436167374618100229e-09	-1.855545443941230471e-09	-1.911753832566176519e-09	-1.835346051397763241e-09	-1.952763808776962180e-09	-1.445905147113726473e-09	4.698389183646208638e-10	-1.776012839911888915e-09	2.804057690885006515e-09	3.375545680699541112e-02	5.523586097192297277e-10	4.984744199660654602e-08	6.043362805998105797e-02	-7.913735993066938525e-10	2.259138504092450991e-08	3.800316369285359347e-02	6.092581558631866845e-02	-6.654981167535378089e-10	1.617537299136173991e-09	-1.178814996897717147e-09	-4.198695558158164450e-10	-1.817216891338102220e-10	2.617509370750161492e-10	1.545030101720548309e-09	6.274187928722445501e-09	-3.943653279831905609e-11	5.625142759399118597e-10	1.873022589712683797e-10	-1.666028627620335311e-10	-6.255850023952280907e-10	-2.672172164102293983e-10	-1.754399781363096572e-09	-3.635663481449507908e-10	3.001795737964753005e-02	1.177169138826092028e-09	7.349753592658574707e-08	5.962024575507238189e-02	-5.065141366104292039e-10	1.120100705570738437e-08	1.448427488172793841e-08	1.881688216894809168e-02	-6.253038465048307177e-10	7.684043702352143710e-10	-5.738023308472465273e-10	1.701792301455991612e-09	3.592566332575985127e-07	2.853394284055982368e-09	2.237017664354512458e-07	1.220271180916486925e-01	1.621443077496103354e-10	1.577343267971279559e-08	1.376126490130064061e-08	4.788200752188635756e-08	-1.550457464752874693e-10	1.214946270338803415e-09	-1.019312550649389777e-09	2.793482835560840520e-09	2.104970387812949992e-08	6.003227008578044554e-09	7.649785464109157274e-02	3.518559825085583181e-01	2.193768598546311068e-09	1.053806744004481474e-02	5.352179881264086669e-02	1.149964264535158556e-02	1.213112640368210904e-09	3.444786395616176166e-09	-1.888019530916375948e-09	-1.021872184163804589e-09	4.735571311221896166e-09	-1.120326363259763817e-09	-1.208085690500547403e-09	-2.560392893353256548e-10	-1.413954618994667397e-09	-1.183004517250882628e-09	-1.380800805005604559e-09	-1.313044867023112455e-09	-1.492174389608495148e-09	-1.126401418249959079e-09	-9.689005803840017796e-10	1.141414670842720039e-09	9.307591101601729430e-09	2.999801654250231035e-09	1.819512635510673009e-08	1.584935551970555747e-08	1.073427300753118843e-09	4.906266350813815121e-07	4.644280235052207495e-02	6.980956208482941381e-04	1.340620767968787474e-08	2.392893991778815774e-02	1.595309126659877977e-09	-7.947239684784027374e-10	-1.919237575297254420e-10	-1.889370133834048284e-10	6.555297012096993445e-10	6.290411797024283041e-10	-6.115102989489901900e-10	1.437814963063828434e-10	-1.212290472275925968e-10	-3.715630487603788078e-10	-6.546530351800612799e-10	-5.057317815653476357e-10
2.247015103370948043e-10	2.864393135269860103e-09	1.128652675832184090e-07	3.143587011914610874e-09	5.028895786988922711e-09	1.241060170449144168e-08	1.516479531040791625e-09	3.670033201763345764e-09	3.025205151764837652e-09	6.746405214325480901e-10	1.660559133936821321e-09	2.654318358614363002e-09	1.599494331639444967e-09	1.868621179047374438e-10	-2.921150702542921152e-11	1.257906629303969218e-09	2.097825760336486077e-10	1.273025720887251252e-10	4.346704751762505327e-10	3.072876867569757791e-10	1.592550845501222117e-10	-8.460923478019474037e-11	1.754252570260583284e-09	2.401068386501809272e-10	3.961320102627732215e-10	5.577623160290317267e-09	4.352886958155492703e-02	7.110084303609652457e-09	1.276241391724523411e-07	5.169398245937691788e-02	3.083067492766472027e-09	5.139538659810280382e-08	3.613361687683477180e-02	6.250918232175735334e-02	4.266932968216859228e-09	1.539273456393071564e-08	1.661179239466449864e-09	6.374940915028294492e-09	1.480791529956657269e-08	7.853609230634920074e-09	2.187746318193191708e-08	1.974467994226191943e-08	4.654687739752169290e-09	1.529682386506813597e-08	1.465781156958935904e-08	1.191618774038291870e-08	4.967710731432901139e-09	7.319726682326786694e-09	6.381589763366449576e-10	5.266661940947120195e-09	2.048318362805220255e-02	9.012142568396746476e-09	1.787523214029658243e-07	7.200237145524736315e-02	3.897392201863834168e-09	3.252282070128410878e-08	6.382521815920405190e-08	1.983998347114546146e-02	4.289830647720086396e-09	1.152411258452631840e-08	1.510415006218414110e-09	9.267777474424477967e-09	1.854314381804668326e-05	1.330291306304593493e-08	5.377938115837250866e-07	1.186686135980342949e-01	5.558489525329543955e-09	3.976181242269436388e-08	5.037417003665586651e-08	1.682642908317205208e-07	5.684449179313192162e-09	1.287773376017515027e-08	2.622595647957588373e-09	1.473092570918783834e-08	2.589603863953777295e-07	2.137936679981711386e-08	7.699510001700710093e-02	3.591320519097226382e-01	1.108002797939786208e-08	8.479827974325606851e-03	5.486086861565608180e-02	8.440111157671064659e-05	1.041981888897377856e-08	2.542935945182564571e-08	4.099142643942372418e-10	2.014262784198522711e-09	3.579929512843148135e-09	2.633555308235312472e-09	4.591494456410743223e-09	4.389809774588473605e-09	1.535579853787042679e-09	3.790527050235967776e-09	3.641143795045957484e-09	3.464897490965496051e-09	2.157795295052962682e-09	3.423113312231837353e-09	1.350241879963553577e-09	8.727788737709065680e-09	2.900186255645762261e-08	1.155533649623305883e-08	6.172172002982676157e-08	6.029233545492405074e-08	6.641307440922491944e-09	7.411570684912641862e-07	5.694504704897011826e-02	5.001918466040608651e-07	1.444961338436507166e-08	1.862083826077273047e-02	1.975106774496814890e-09	3.284044080239386216e-09	3.888252192688025272e-09	4.199870831420576068e-09	5.345330497127104478e-09	4.957556631659246628e-09	3.177285677444522778e-09	4.850345310743257659e-09	4.231884941328252872e-09	3.614385361295656808e-09	3.568922435305125739e-09	4.084396433004211312e-09
-9.347922462473577241e-09	-6.966104322918188125e-09	5.177817004858789943e-03	6.332085379879727417e-10	7.001879638347864334e-08	9.977345380184725167e-08	-6.997506341107376459e-09	1.595289251041502559e-08	2.070364589959566014e-08	2.439907545325148225e-08	-8.139808841574152872e-09	-2.218635399812481758e-09	-8.063009417802113238e-10	-1.105345529456972239e-08	-1.208918897029511102e-08	-1.170640051485258147e-08	-1.102432509317460128e-08	-1.089732616638447310e-08	-5.615768188812694249e-09	-9.783165206959871574e-09	-9.708131737580741505e-09	-1.162291172055792562e-08	5.741811920882713712e-09	-1.270534121725824983e-08	-8.487401415641097721e-09	4.871059634005093275e-09	3.268350842722340943e-02	4.012059740459730419e-09	4.661988156856195117e-07	6.061735109320576936e-02	-4.681300402281254610e-09	1.338303058521764184e-07	4.875095819169451145e-02	5.659857712687531989e-02	-1.797757104748902947e-09	2.816772376265810830e-08	-6.434889562686049423e-09	-5.704541462233053184e-09	-9.996274184686356465e-10	-1.936129694308132899e-09	1.490839000818667481e-08	4.356348711633980734e-08	-4.156992158135378810e-09	2.041708473519263473e-09	1.838381385877099806e-09	-1.872987268853757834e-09	-4.919495333984871774e-09	-2.791297364892089962e-09	-8.633269936800001807e-09	-3.195653766101335092e-09	2.473940816909597426e-02	8.266498086806450366e-09	6.850339246686394777e-07	6.847094878629926551e-02	-2.040566651778101534e-09	1.088949275047286525e-07	3.762213412077600400e-07	1.490183756475206567e-02	-3.081850866733441852e-09	1.431967573173150298e-08	-7.889587494143753869e-09	2.994618221240625000e-09	4.571141730932976005e-07	1.909901847912597029e-08	3.367734943120795559e-06	1.229250360222212957e-01	2.047996391428412506e-09	1.136861422919973787e-07	1.190889153748148299e-07	2.258392378896220295e-07	-4.124164127340238736e-10	1.507228872581989881e-08	-2.280152610210103953e-09	7.098879500128945920e-09	1.065074526132904473e-07	4.039148580398296747e-08	9.015391251608831369e-02	3.283465550267364863e-01	1.961235357824162353e-08	6.581696494354425178e-03	6.590944682718624659e-02	2.725816197147417578e-03	1.076849003499875608e-08	4.473240561515049788e-08	-6.889806329575550261e-09	-7.457314176385999696e-09	-1.351358447794546336e-09	-8.289544519066993385e-09	-1.510625709356160766e-09	1.133177149353211484e-09	-9.603458859399653542e-09	-6.685606292627274364e-09	-4.950613343213538073e-09	-3.353465851912443563e-09	-9.441638536748211760e-09	-7.236414272614629027e-09	1.623301220531614323e-09	4.008970781329416373e-09	3.600192320789994117e-08	1.520184935005845539e-08	1.157168941409243679e-07	9.468487263378515276e-08	9.042378102581917484e-09	1.173530758647309405e-06	3.010463968198809695e-02	1.790099454185035271e-02	2.292173580657506698e-08	2.340366553505296085e-02	-5.233387029262543734e-09	-5.734568801936550178e-09	-5.379383913930226603e-09	-3.561836989975629820e-09	2.976699446509993602e-11	-1.082390111729258186e-09	-5.082069107486258475e-09	-1.939996322406516625e-09	-3.042682156492357351e-09	-4.923069754222956752e-09	-5.367887478931432888e-09	-4.166515107956701070e-09
-1.319654141894495814e-09	-9.811269744255011129e-10	1.654523779760346544e-03	-3.731962811861955963e-10	4.643874992707386247e-09	7.043421416015708163e-09	-1.022322120130108867e-09	5.104900580932069513e-10	1.047967713494660022e-09	2.412455557335247823e-09	-1.043694355504508833e-09	-4.550423764377458297e-10	3.048990493801489601e-10	-1.184306645761464074e-09	-1.289751086501961254e-09	-2.236781977678037106e-10	-1.358029817692160443e-09	-1.407238076080872149e-09	-1.243920466559767420e-09	-1.314220666801684162e-09	-1.118549217315712750e-09	-1.525924160314524636e-09	1.026978526482125832e-10	-1.501265366249638148e-09	-1.292515812421309593e-09	1.174799540286073523e-09	2.652350551844767992e-02	-8.206864952603617520e-11	2.893236309651862729e-08	7.463149418010947556e-02	-7.719831065578507885e-10	8.372338990535623754e-09	4.280274729573175369e-02	6.047736086384771642e-02	-4.318710791477128859e-10	1.144400798743975607e-09	-9.267982694078137391e-10	-6.865794868967364172e-10	-1.113277847125491788e-09	-2.444535461946124224e-10	5.222071640268179612e-10	1.887167452573808688e-09	-5.225358593012310096e-10	-7.884788378558435789e-10	-9.822900381264707562e-10	-1.092358653063672596e-09	-6.241740601933908134e-10	-3.497519438584795738e-10	-1.255135551699839510e-09	-7.084924062983073919e-10	3.615023341788877603e-02	2.391448185773912899e-10	4.082279936005017403e-08	5.540956118789849838e-02	-6.236603762755648348e-10	4.450089073467841475e-09	8.635689297210368715e-09	1.640123887343089906e-02	-6.038432515440803243e-10	6.759632700095764753e-10	-1.062186337008141968e-09	-3.400051864765225147e-10	2.696051899283728414e-07	1.214059968065236453e-09	2.169506048899735615e-07	1.246600215495052288e-01	-2.255787614184442152e-10	6.455052126637242941e-09	7.564155256867099384e-09	2.579644252510418577e-04	-2.109323984089772398e-10	1.839354892548658579e-09	-6.771186796236139488e-10	4.263021738391164650e-10	1.289215013645660454e-08	2.821394965744786811e-09	7.882208867458870283e-02	3.126923840437322299e-01	1.524277042345871893e-09	1.743155805965115185e-02	6.851653225694262495e-02	2.133249986104426843e-02	2.843550512508502306e-10	2.101995857828873138e-09	-1.175509733581337858e-09	-1.000792923823543942e-09	1.656049271431769754e-09	-1.025541144393211725e-09	-4.661401628529017763e-10	-1.604596841333694121e-10	-1.186790685177463582e-09	-8.379460001068401506e-10	-6.662657394724940633e-10	-8.480130403934862482e-10	-1.035292071033278832e-09	-8.584612251270321208e-10	1.171347767971668337e-11	-6.274562074016982005e-10	2.618824212885216934e-09	6.235990263616526086e-10	7.357864217307773446e-09	6.373848390661083088e-09	5.993641692067274355e-10	8.396565075900633186e-08	4.036541804584460602e-02	4.622019032658574940e-08	2.363192208039732605e-09	2.187012847102756327e-02	-8.204923130799353345e-10	-7.045223631229477459e-10	-5.770542335025172315e-10	-4.411764895010821345e-10	-4.383838025105726061e-11	-8.308239195188944377e-12	-6.688787998881615624e-10	-3.909552954544146595e-10	-4.635205589747283773e-10	-6.356595360744345671e-10	-7.152425806353940506e-10	-5.603326691402787957e-10
-3.351972880674837068e-09	1.886634993912253512e-09	1.055540271618369066e-03	1.134255454160891659e-08	1.479334891292961439e-07	3.099011848795004572e-07	1.825089181530534995e-09	3.596959108439619480e-08	4.540041176889128413e-08	5.982785994060049752e-08	9.552814045135846989e-10	8.524622928608646123e-09	4.301870260971923234e-09	-3.618680583668643890e-09	-4.055095283016114600e-09	-2.075044808471328636e-10	-3.163420352389043946e-09	-2.823996567443578455e-09	-2.252446015557678287e-09	-1.827646766233764031e-09	-4.092934022404735604e-09	-4.617507790564913890e-09	-1.455566386367293875e-09	-3.993932915640671174e-09	-2.966902932863104729e-09	3.863219584061033720e-09	3.344237437576032257e-02	1.459099742246625084e-08	5.192173863020409446e-07	5.676202429145878192e-02	3.995652300082253868e-09	1.836375351425008000e-07	4.441617501972323218e-02	6.386988590339223726e-02	6.168466403758284349e-09	3.207551536747938416e-08	-4.900029000672905820e-10	-2.374470823789494302e-10	2.998418203081915892e-08	9.146675318470686288e-10	8.956974826338248596e-08	8.275916350612574653e-08	3.754626352812834667e-09	9.969576391849393937e-09	2.651324589273481763e-08	-3.169213956698744219e-10	4.200584162391110635e-09	2.701782736253342445e-09	-2.357949478686107007e-09	5.605824991361589418e-09	2.938801688982968854e-02	1.922376959599332898e-08	7.021499393810672202e-07	7.383785937164022428e-02	6.381257164966639839e-09	1.344160021227624021e-07	4.052754699696913797e-07	7.402063033964176482e-03	5.706264035923812663e-09	2.317901594504946590e-08	-1.878154116489952565e-10	1.135488672007892599e-08	7.288620214703976318e-07	3.142351144834265558e-08	2.528393540774645168e-06	1.126715007348975117e-01	1.074927906037234488e-08	1.379095825094539362e-07	1.384528765817076083e-07	3.513215310452240886e-07	9.381508914897489602e-09	2.751152161177498698e-08	2.704131650237141470e-09	2.013013114061520272e-08	3.010357211943350241e-07	5.612664384213948467e-08	8.601891861993392341e-02	3.589589360618572478e-01	2.750771402088692460e-08	4.906522849024482630e-03	4.892270155065172460e-02	8.445568532137400460e-06	1.960116676661525007e-08	5.132646936130269751e-08	-2.939501052288659817e-09	-9.255461007477445677e-10	6.763872724005095047e-09	1.559411725026361033e-09	6.153533817272549779e-09	5.592675697963057030e-09	-6.872474782090577343e-10	5.516161585345228000e-09	4.486917870802872953e-09	3.523589639849580802e-09	3.055319548095418721e-10	3.455707653397922637e-09	-3.482897022345095577e-11	8.691222622102651124e-09	6.078177563292380920e-08	2.441882543003756087e-08	1.424467505806724236e-07	1.167249674409976925e-07	1.511329857304787844e-08	1.883495740846922889e-06	4.129126305745185743e-02	1.565653136631006692e-02	2.088835812735255155e-08	2.138152579648214258e-02	6.401891686700810380e-09	1.723737923916909192e-09	3.449263962756171177e-09	5.045400984681665035e-09	6.686723486858995326e-09	6.174888053108069695e-09	3.150536308002987542e-09	6.511652640419929117e-09	4.518436476011459987e-09	2.812525186651325019e-09	3.518400710587519742e-09	4.415819031456802556e-09
-1.182053355702394959e-10	-1.091620530203298023e-11	2.085329705155235334e-03	1.592158128855681447e-10	1.300961267117325708e-09	1.734096874779893520e-09	-1.681970587811274413e-11	4.446541415691356654e-10	4.614026675885383847e-10	1.014420348556158315e-09	-3.015356648743731836e-11	8.406404186832602853e-11	3.609707823194437440e-11	-1.309671394002756686e-10	-1.476602859963836770e-10	-1.308255972847245755e-11	-1.224542886043734090e-10	-1.309552593756969970e-10	-8.091042262256199741e-11	-1.169833797975264058e-10	-1.221637471256156666e-10	-1.529081547401236263e-10	1.331251068169188059e-10	-1.232020842190218256e-10	-1.149472867923694644e-10	3.475494035857951079e-11	3.958198420668710554e-02	2.604242220845218174e-10	7.788457299763352078e-09	6.212731096096240496e-02	4.188470893198246272e-11	3.950587750609054956e-09	3.770873695157539451e-02	6.215135970679239175e-02	7.122423606562621240e-11	3.576593993423390923e-10	-4.453623726286921750e-11	2.620652484963812592e-11	7.666222785156177822e-10	4.507839917072751215e-12	9.135567533550882965e-10	1.183430062910864473e-09	-4.365133129983266082e-13	2.837235789620134962e-10	4.112833722771946422e-10	1.649153639072654246e-10	6.404519964842630259e-12	-1.626175993308376261e-11	-1.033550376326637699e-10	4.917250592347555918e-11	2.490171913401008352e-02	3.557473156488442146e-10	9.995055639341125860e-09	6.591223385662949019e-02	8.812581058157054726e-11	2.056877791828023569e-09	2.809121883881819663e-09	1.690129104363971915e-02	5.972680463239657448e-11	2.853284309014462549e-10	-3.327778301705393110e-11	1.823611811625611343e-10	7.413512292623557656e-07	6.078631241023533924e-10	2.978799319396150503e-08	1.231150891785599139e-01	1.843353803680053929e-10	2.629014507252655908e-09	2.442772234344096606e-09	1.018757554278479584e-08	1.358636819674211580e-10	4.040069146982980648e-10	8.833746123566924313e-12	1.752017318856068841e-10	3.093360544036065096e-08	1.083237972057281034e-09	8.429102447266735576e-02	3.329947918983646171e-01	5.184485647495803971e-10	1.058177260004818446e-02	5.192891801998199969e-02	1.151105999080716778e-02	3.124821701542103401e-10	6.862708519926558766e-10	-1.133542314094980834e-10	-8.540738502585433298e-11	-2.967815822792865257e-11	-2.599692433464393229e-11	2.552036674736052117e-11	2.788364376159579251e-11	-6.869331826368094550e-11	1.807324570352820148e-11	-3.488877236819715834e-12	-1.757744018579622764e-11	-5.357214156983506655e-11	-2.024832074766694307e-11	-6.082335127572066783e-11	1.862379448277025347e-10	1.824689365146036046e-09	5.644808564729264807e-10	3.792294474017537032e-09	3.474096283558743374e-09	2.853501138285136749e-10	1.634138341913856658e-06	5.448310182930748979e-02	4.591118530773294554e-05	5.550282233841313642e-10	1.967586288328041985e-02	1.106234896776505717e-10	-8.433913976728794787e-12	4.529798333270688651e-11	5.800501318871664784e-11	1.103679795389898587e-10	9.900130222574325925e-11	1.561073504071228780e-11	8.002432401874337018e-11	4.724551194376177925e-11	2.002218290083457260e-11	2.007675243109826491e-11	3.149043912148359055e-11
-3.613739132411279488e-10	-2.411369060064989686e-10	6.239078745625695199e-03	-4.393287833239747980e-11	1.571577290050870150e-09	2.387724972432831771e-09	-2.441428265630533766e-10	2.488349876891136460e-10	4.931630266516126213e-10	1.122052465816341639e-09	-2.454869613716099536e-10	-8.051084473824190527e-11	-5.619152010971924024e-11	-2.691818003310457978e-10	-3.746173281767546448e-10	7.580058983886921427e-11	-3.661539364769637869e-10	-3.747671042198392460e-10	-3.610385989628483722e-10	-3.311525236400690274e-10	-3.692239756481025947e-10	-3.913263971976619824e-10	1.338929072384559761e-10	-3.992846785643673560e-10	-3.463034469135882817e-10	3.324997338025429441e-10	3.125201923146846139e-02	7.069762814009444883e-11	8.074922603199870103e-09	5.705611579257929833e-02	-1.743631882441937314e-10	1.946872685991332317e-09	3.944324899616007823e-02	6.807145190159737125e-02	-5.368960785571994327e-11	3.992540965582382720e-10	-2.417785929610565691e-10	-5.727244294938777926e-11	2.254070740402332938e-10	1.655321563835527414e-10	5.760444094870214696e-10	1.065452713100051409e-09	-2.061007465528630763e-11	3.291939412148672950e-10	3.220456526642253980e-10	2.393060777467455205e-10	-5.887180195614826622e-11	1.129292083273986160e-10	-3.397903068726760948e-10	-1.299819684667977672e-10	2.791591973195880691e-02	1.714351221142620703e-10	1.077734190352991480e-08	7.209192595369948164e-02	-1.071190449260550022e-10	1.610839805478394791e-09	5.770491846664353819e-09	7.581421732791175476e-03	-1.101746713554028492e-10	2.844781461113379793e-10	-2.715778268740811647e-10	8.547191563770438902e-11	1.016648710890254782e-07	4.480290518300132451e-10	3.516478209790780471e-08	1.214142255537071918e-01	3.978615132527177045e-12	2.097610247544462895e-09	3.167604889417674949e-09	6.742677934004022182e-07	4.129335338423235332e-12	5.453520443166253513e-10	-1.991826397412023827e-10	3.297200941829740470e-10	4.457870172283306934e-09	9.761455166331162927e-10	8.928782667226647929e-02	3.213309544296435449e-01	6.694924182685072404e-10	1.546721615518864730e-02	7.457088994750549205e-02	7.925578691152863203e-03	2.578322423187860166e-10	1.036806352752672343e-09	-3.217533107881917241e-10	-2.604531737199838527e-10	4.345217380298970191e-10	-2.453342683288433028e-10	-5.013181729836267797e-11	5.161606827070946386e-11	-2.983058801503739665e-10	-1.742049882794679206e-10	-1.168621937150415110e-10	-2.019235268970040385e-11	-2.478100596421827124e-10	-1.868476110423521679e-10	-2.224247709582277028e-10	4.619198856221346728e-11	1.275427751798236177e-09	3.050297276961881709e-10	2.413797998569121327e-09	2.162868093830812351e-09	1.705248341546089568e-10	9.199301555846270562e-09	3.182215369345138545e-02	4.600504889579532485e-03	1.372392445610448629e-09	2.392859642185988026e-02	-4.433516323444064558e-11	-1.016726293507506054e-10	-1.305454613666706198e-10	-7.907460976530469432e-11	9.537108354747489831e-12	-6.071651452545981057e-12	-1.485361931052508791e-10	-3.178370054082753422e-11	-5.357606464805189805e-11	-8.567672808998157930e-11	-1.352537777230065985e-10	-8.564070498215276489e-11
