-5.190531608178666785e-09	-6.537168452614837031e-09	4.742856279463415248e-09	-5.097870440254141928e-09	-5.506923749060430978e-09	-5.689736715432147469e-09	-5.371201000204864648e-09	-5.811285958355314196e-09	-5.956135270693001465e-09	-4.848492200357306820e-09	-5.648051053822947628e-09	-5.812596344407931539e-09	-1.429571919708248568e-09	-4.992312723795798881e-09	-3.940354886019506817e-09	7.129069662966849124e-10	3.695660122098853089e-09	1.111393853629484700e-09	-4.717626999406617695e-09	-3.220328956042143535e-09	-1.177383913598294154e-09	-5.669819796589368183e-09	-3.588172992528548350e-09	-4.977420099888936520e-09	-3.741701692228448449e-09	-2.678105062420172776e-10	6.674908242112233270e-02	1.378775359883163384e-08	8.082181614576351921e-08	1.325230289074056149e-07	1.665004631738913649e-10	1.344783520981368845e-08	7.054005679600064416e-02	1.258726512787668450e-01	4.977970643967456916e-10	8.547248456610906194e-09	-2.101984151096780998e-09	-5.038593181253096913e-09	3.870249610753464829e-09	-7.005565072161740572e-09	6.847020080114053465e-09	1.101201636814182845e-08	-4.575070146549561294e-09	-7.096620920353904478e-09	1.693487181900564381e-08	2.858132360603300148e-09	-3.223718389186818358e-09	-7.140729844085683399e-09	-3.294390720290929902e-09	5.763941676307453224e-10	6.273501332238842244e-03	2.089954257179350340e-08	1.112981038950405494e-06	1.108823730345746827e-01	2.085582891730369197e-09	1.594561887930306287e-08	6.523158461811074012e-03	6.955607207096577149e-02	1.406922876341498639e-10	6.462350974248479140e-09	-5.511941064342646166e-10	5.274622110914360714e-09	9.320923913117020419e-04	3.051906726215393939e-08	3.050707873168151396e-02	5.202522542183981441e-02	5.747755943943486501e-09	2.407423057032896700e-08	2.758229128151476906e-03	8.818201386391607010e-08	1.287006792414634977e-09	6.749693843936834840e-09	-4.479264157695299266e-10	7.412604540727862467e-09	1.130896990919319007e-04	5.196567053457442190e-08	8.036327587639721659e-02	1.626214618331265904e-01	1.088434023419602799e-08	3.576923698286470246e-08	6.068890835600887490e-02	9.506919129011475941e-03	5.230443950024891107e-09	1.346392719806634020e-08	-5.151051005458553096e-09	-5.064781766856878886e-09	-4.910623071371178809e-09	-5.852205989181318381e-09	-5.139127077643736357e-09	-6.007203261559770374e-09	-4.549596374667485975e-09	-5.537765999057469426e-09	-4.687451573928647733e-09	-2.788835565732902341e-09	-1.709537418135924664e-09	-2.176945986656193241e-09	-9.558753243850530156e-10	5.928360881472480525e-09	1.495096074974503614e-02	3.806103786237209953e-08	5.155577144158664010e-07	1.393179820020531358e-06	5.722481661083741665e-09	3.074973207354579425e-08	6.672237341314286863e-02	6.240990654355378642e-02	1.176717061612850179e-08	6.728303491109867989e-08	-1.029842548662812928e-09	-4.747195196361108021e-09	-2.218539215376326017e-10	-3.141712145124125732e-09	-1.524426131756277119e-09	-2.096075815036775761e-09	-4.272964765641493171e-09	-4.588006340696807841e-09	-4.095724959701057512e-09	-4.142353909341301309e-09	-3.795003445163141283e-09	-4.292366982874754058e-09
-5.630659101871535629e-09	-5.549751451489836901e-09	-5.823912832674017248e-09	-5.753427829260806284e-09	-3.304713637509857074e-09	-5.993036407159791149e-09	-6.652847482789192413e-09	-7.001600741233294741e-09	-5.802854310006287859e-09	-1.040617059348578108e-10	-7.002184052012805423e-09	-6.557737764583265179e-09	-5.582803356166196191e-10	-5.020758728946349194e-09	-5.284982132671558728e-09	-1.154676023777388758e-09	5.439005535605892719e-09	3.461153768186143699e-09	-5.068502866383762184e-09	-5.953057794372348500e-09	-5.880328018357907900e-09	-6.710713716552254863e-09	-4.314897688723386422e-09	-5.132969887952315256e-09	-5.735610691633477582e-09	-2.384155609079028947e-09	5.703224644572144064e-02	6.649097067873541674e-09	6.256409417629263689e-08	1.603789037170817366e-07	-3.331561065534978347e-09	6.005985152621400257e-09	5.891235709942187898e-02	1.452570928573587716e-01	-1.748136720293951444e-09	5.653307919372102532e-09	-4.036510190297669598e-09	-5.737846615027981357e-09	-1.582966471399694810e-09	-7.527052640501122301e-09	-2.348379168914970993e-09	4.555306888255068118e-11	-5.389345998496131645e-09	-7.794145481286893415e-09	5.802650538698535057e-09	-2.843766048370730446e-09	-4.674753774844129576e-09	-7.514562499648091851e-09	-5.128853019827145657e-09	-2.832045519266745183e-09	2.609451159772489121e-02	1.015140447319369283e-08	5.020846794868132730e-07	1.121592315926827760e-01	-1.962542287856455528e-09	6.765290548115932044e-09	1.533927623608657975e-02	4.545504095947996287e-02	-2.602271161754910558e-09	1.153484270323615625e-09	-1.928125210119109875e-09	1.853627630539957166e-09	9.710737416173243050e-05	1.745083248200247201e-08	4.877121459918784541e-02	3.626681767925370170e-02	6.278013188141860618e-10	1.132415297721610593e-08	1.927626402140436191e-06	6.828686223744346238e-08	-1.644931871577250085e-09	1.854286704644007850e-09	-3.244308879313964847e-09	1.066921839178141881e-09	6.133168314920841955e-07	3.174662390028700243e-08	5.095476617822370519e-02	1.832950358800613244e-01	3.912081945087607814e-09	2.071839426101361016e-08	7.203945340898602889e-02	8.203894879934215170e-07	1.109608161367076363e-09	6.314183710036494371e-09	-3.151949741286816070e-09	-6.501222144747024547e-09	-2.358031921101303972e-09	-6.230595560053428880e-09	-6.697802999383728002e-09	-5.781230317940162366e-09	-3.593192637113120896e-09	-6.973556213674275824e-09	-6.775759392702082407e-09	-6.251427956874775783e-09	-9.223385107323869781e-10	-6.699340627806539384e-09	-2.683909237636859984e-09	2.022287469206988309e-09	5.375245753645270612e-06	2.274513532783989639e-08	3.628501003061329426e-07	4.789777747986418922e-07	2.360057657438556066e-10	1.929537411278161819e-08	7.507674101608044492e-02	7.323883285568251467e-02	5.900838544466289106e-09	7.067698382042420732e-09	-2.045153974279120513e-09	-5.305808645377185224e-09	-6.333769626671431361e-09	-3.270611025692024735e-09	-1.676320917251485641e-09	-2.033908448288993015e-09	-4.569709259938262903e-09	-4.585645761085152513e-09	-3.982884078344305132e-09	-4.387092684201132811e-09	-4.225935378680043582e-09	-4.588767499583154009e-09
-2.337085065027227974e-09	-2.358239791785671196e-09	2.281577689309702209e-09	-2.430932583824749889e-09	-2.281228512817744611e-09	-2.276851375331273505e-09	-1.871175279291411661e-09	-2.461748969685669988e-09	-2.475523557148156167e-09	-2.255791567127171837e-09	-2.322755396312611773e-09	-2.374244839325009779e-09	-5.342057566086664964e-10	-1.898236291488034714e-09	-1.864091147994135276e-09	-2.803381894958172739e-10	1.452225501841588461e-09	9.654574098934857466e-10	-1.865574311564974195e-09	-1.927138298723276815e-09	-1.383795544426382324e-09	-2.370121540728529311e-09	-1.467013643884835100e-09	-1.885181369300903756e-09	-1.895279975259403516e-09	-6.755017029658467992e-10	5.884908534752213149e-02	2.731363928126135954e-09	1.305232947707814941e-08	1.713339222878677660e-08	-8.957269236550698982e-10	2.586734385876991994e-09	6.120169796024793607e-02	1.410471396687944801e-01	-3.139815731721288743e-11	1.954729592138056706e-09	-1.188175092630456446e-09	-1.916528878199890557e-09	-1.025260602801753605e-09	-2.691925936334164175e-09	-8.369351682801519174e-10	1.432492387767718472e-10	-1.755184772522702844e-09	-2.728527484538738604e-09	2.301320400117453230e-09	-1.273032834273300957e-09	-1.443431567954425785e-09	-2.276611242376781276e-09	-1.764728313757942201e-09	-6.577885620660463857e-10	1.983506138233929669e-02	4.916408248129912805e-09	1.525055640172342709e-07	1.094270605219631737e-01	-5.280577898629875746e-10	3.003883909408501360e-09	1.044493385957444634e-02	5.091151616159086957e-02	-5.588232778648465278e-10	7.723470991057828420e-10	-5.329660790072790221e-10	3.854377046213440406e-10	3.959728804467077953e-07	7.091687272299235347e-09	3.733574789434061098e-02	5.101995427237254743e-02	4.127747383381164293e-10	4.685338020580556861e-09	6.725166021104548946e-07	2.541716393967932081e-08	-2.483620135712497948e-10	1.069402048173348510e-09	-1.005399858792363930e-09	7.880994650617228659e-10	1.438137697602936259e-07	1.316243347829745902e-08	7.172952824400873062e-02	1.674006321185473045e-01	1.624030269126057821e-09	7.634154963899573755e-09	6.949466223409941912e-02	6.593975907516494484e-07	1.012178979400502835e-09	3.601879160516824469e-09	-5.831732188861339273e-10	-2.390962760612766375e-09	-2.118986122897887507e-09	-2.362999313532949851e-09	-2.046800090716696778e-09	-2.142849765059630195e-09	-1.412402371577997993e-09	-2.159840260854025290e-09	-2.429603793165663315e-09	-2.295070124472815518e-09	-1.702841264705090089e-09	9.114674442149578799e-10	-5.758365458048695493e-10	2.472988934979231635e-09	1.068109239396248947e-03	7.099531928351414877e-09	3.420038576381184322e-08	4.092966915308026789e-08	4.858569358004151266e-10	7.479078806790902003e-09	7.950701070169648166e-02	7.072572591805599551e-02	2.313709987724322347e-09	1.254791210385248802e-09	-1.064603138708531960e-09	-2.102822931652533990e-09	-5.650905175075540608e-10	-1.337611470431337496e-09	-9.773501633520872183e-10	-1.062297155998292006e-09	-1.954252313752715057e-09	-1.935809138844189684e-09	-1.476575246489753831e-09	-1.750389261831582606e-09	-1.763580108450181891e-09	-1.995369210838210553e-09
9.837344323019909940e-09	8.132699813907661629e-09	8.283695851523016281e-09	1.257116837820693046e-08	1.242472502319232832e-08	1.174934770806164585e-08	1.048256069224144048e-08	1.076255214588378268e-08	1.035611586372197999e-08	8.481275566301154991e-09	1.106919194137248192e-08	1.106285877531824824e-08	4.132945257102393697e-08	2.927435837720839451e-08	2.077425124989810404e-08	2.479240677383787722e-08	9.785852940634303124e-09	2.516001471273066501e-08	3.770174678279823759e-08	2.902104947571574060e-08	2.224085316938256802e-08	2.295451074093514087e-08	3.649232496180528710e-08	3.315337599387074376e-08	2.083465952629569111e-08	5.045585645783401917e-08	6.741343610413939869e-02	1.650037961312063970e-07	5.597521218035518715e-07	4.706862873880668402e-07	5.837790741647202668e-08	1.566300745641079790e-07	7.009597991613807089e-02	1.290361307488439857e-01	5.595245437138138014e-08	9.659261190842028551e-08	1.555576527362469444e-08	1.326169149627187134e-08	3.256546696855847655e-07	1.320617038660511294e-07	3.282552500706742889e-07	3.187877417835674906e-07	1.352189992797390475e-08	1.202417670805270525e-07	3.962056245676405923e-07	3.102705457263986770e-07	3.218942199559607067e-08	6.851240971537083382e-08	2.493023839640100544e-08	5.754805863752840588e-08	6.371149770743426109e-03	2.222904420289952903e-07	1.343509856568694129e-05	1.046733734479613626e-01	7.412273587201602485e-08	2.041529298072325588e-07	2.016992842353461726e-03	7.821406265287449144e-02	5.508058721891195884e-08	9.356803283880221372e-08	3.971145762028403463e-08	8.892029429907195398e-08	4.479886056106139464e-03	3.092976962193723784e-07	4.311893864119748648e-02	4.390106832472178561e-02	9.721418736184726339e-08	2.471591566095754727e-07	2.125111067166935252e-05	5.474056369703822804e-07	6.564791891925562206e-08	1.001817732377256204e-07	5.030884662373445026e-08	1.051697542196004143e-07	5.215135418651833986e-06	5.159532554552378175e-07	4.990469529312087371e-02	1.786824225316851755e-01	1.386600942786845027e-07	3.475309778075120173e-07	7.802759558384679550e-02	3.727159271718880072e-06	9.976893996006876810e-08	1.546567019782334609e-07	1.118570162698595772e-08	9.216856510677748284e-09	1.018328383796268203e-08	1.348343874173068941e-08	1.322337373272310988e-08	1.216011964329219087e-08	1.195878426080564692e-08	1.162094150384775951e-08	1.092383437138922475e-08	1.042323431224275317e-08	1.445720293236400909e-08	9.125922793731827482e-09	3.783176554613791168e-08	8.759436711264143696e-08	7.017059640398157216e-03	3.595484380128644835e-07	2.984140364513429268e-06	2.758686107855476226e-06	1.002266524353104509e-07	2.846013908121148681e-07	7.949690522796838688e-02	5.749071902957507418e-02	1.004350763061323285e-07	1.036823631238725045e-06	2.451471521753310227e-08	1.988778281082263201e-08	1.154672923743041287e-08	2.523794233086140444e-08	2.333716088512694100e-08	2.174585520013765457e-08	2.424380740254430836e-08	2.325649074793435798e-08	2.013323784022005460e-08	1.695988033704213802e-08	2.696949079388570833e-08	2.402310612084689219e-08
-2.888369918327899556e-09	-3.212687749463702520e-09	2.082954138152076821e-09	-2.518556272486207309e-09	-2.606064900472501184e-09	-2.761735146989777795e-09	-2.301693041940052076e-09	-2.860612811641223959e-09	-2.570810092469868587e-09	-3.014147473917625897e-09	-2.409783100462056971e-09	-2.925726587339547988e-09	-3.646032330695350368e-10	-2.114643990130185241e-09	-2.336906470859274951e-09	1.738479443418628145e-10	2.830574780357267859e-09	1.955429868490279761e-09	-1.867117743124859146e-09	-1.697040149542561894e-09	-8.586017373905054283e-10	-2.697731257825004036e-09	-1.275943281931996510e-09	-1.942126401078970548e-09	-1.809679414435329580e-09	-2.615679668872398025e-10	6.298116669024841907e-02	7.430851822317813097e-09	7.653399701744425112e-08	4.548105524437630209e-07	1.187676603016457443e-10	6.069086118064058493e-09	6.966932474566388256e-02	1.356592123609758338e-01	5.781125536098195726e-10	4.367927803718071753e-09	-7.122455570187145834e-10	-1.989818852681549256e-09	6.900042584278228382e-10	-2.195279454017887677e-09	1.972095453733981836e-09	2.944289275183243822e-09	-1.607108448668183139e-09	-2.456023146854788962e-09	3.993733584241331207e-09	-9.030210145483680689e-11	-1.199427067183458741e-09	-2.241068116754841724e-09	-1.541762143945243183e-09	-1.539455083380496788e-10	1.876823499812141360e-02	9.876344105404931197e-09	9.366687926796213796e-07	1.072941265949118733e-01	1.229002375101569433e-09	8.222808145526447902e-09	1.388154054905650093e-05	6.650346642381912976e-02	2.115326256927242993e-11	2.848032591198592458e-09	7.765398741308502594e-10	2.246017511461731061e-09	3.726064250162404098e-03	1.468596942710437284e-08	3.283563307569752759e-02	4.375429198999252617e-02	2.926922588173542007e-09	1.279742978203395149e-08	3.423526955549618250e-03	4.723479249622433159e-08	9.340301351778392938e-10	3.629731986629926401e-09	-2.205563200943046715e-10	3.603197111330631556e-09	2.111336075876358697e-03	2.528264870613055084e-08	6.878537481022313493e-02	1.706874196761662132e-01	5.019018614847392660e-09	1.743282630970430482e-08	6.603815033618042063e-02	7.910073142320371431e-07	2.910891115564812332e-09	7.042990740772260249e-09	-1.850088621351752318e-09	-1.982048259158155439e-09	-1.764490071687918160e-09	-2.730751994235276280e-09	-2.554181646536330979e-09	-2.874321723745881062e-09	-2.752953062225844257e-09	-2.212890845521853914e-09	-2.105957537350881127e-09	-3.010906723117872616e-09	-5.348178300005059976e-10	-3.064907672094869828e-10	-6.804581979901155038e-10	4.396462130662228092e-09	2.781317887081895084e-03	2.765455139811234844e-08	8.785548095776062250e-06	4.340414047836960859e-03	2.504205004239446262e-09	1.502964021657945965e-08	7.799768169274280682e-02	6.261816285040280872e-02	5.649133926110157365e-09	1.534088313340775598e-08	-9.725252426414449940e-10	-2.264670930684539938e-09	-6.425146083411213848e-10	-1.423854586769476697e-09	-3.401313240751827635e-10	-5.435910547536223177e-10	-2.269037138857448437e-09	-2.330932778783914127e-09	-1.801097397824380069e-09	-2.131357842285787337e-09	-1.995859965605197929e-09	-2.294236666689406863e-09
-2.496635072136345238e-09	-3.061627910885150567e-09	7.087981874451891659e-10	-1.848805659738137624e-09	-5.825468034507765889e-10	-2.336513798125414139e-09	-1.715455566574327139e-09	-2.478407950350780925e-09	-1.568696036957242494e-09	-7.823844576426355044e-10	-1.662047813743250589e-09	-2.012416490079991098e-09	4.199649285492475718e-09	1.603849670837475885e-10	-6.126953863787582738e-10	1.767165574895854285e-09	9.065254158336537329e-10	6.617471871589890517e-10	1.574803346700155279e-09	8.345689123164034461e-10	1.996873813865316688e-10	-9.081567202744275739e-10	1.921069629711460451e-09	7.023193601195414053e-10	-5.012918462955023390e-10	6.385649124602599581e-09	5.161825800208560966e-02	3.635705765341339249e-08	2.047189604927031658e-07	1.251145083344548050e-07	8.192911129691693510e-09	3.126702281597222101e-08	7.350756498742484768e-02	1.322753407981359930e-01	8.385883995515682704e-09	1.898445225635626348e-08	2.376367589752131971e-09	5.653064521664110160e-09	1.487983263406004959e-08	1.714759355736454887e-08	2.763742703433960081e-08	3.954098308135015040e-08	8.436259576822745266e-09	1.506849919539455942e-08	9.439475572252707525e-08	1.452289792167260118e-08	8.642044802222240516e-09	1.392681300613422536e-08	5.250086180073950934e-10	7.447882624900346387e-09	2.854828320628687716e-02	4.844374833510968545e-08	4.082739185036515641e-06	1.032732375481946741e-01	1.164600657913277522e-08	3.934877164026015476e-08	3.274833146420743800e-04	6.536254544832391378e-02	7.606712223028414570e-09	1.676369507111101242e-08	4.881466205340851815e-09	1.570846963104873540e-08	3.930481872668695951e-05	6.869367274269723626e-08	3.470247804305812145e-02	5.281326800843375024e-02	1.660538959769839037e-08	4.681542579926711738e-08	2.170859251125569598e-06	2.118937479902482061e-07	1.023404934887278861e-08	1.922237989392795697e-08	5.277664047521865113e-09	1.638110676142850901e-08	5.320189521151222386e-07	1.158229773140772362e-07	6.564668953687846642e-02	1.792341703836694833e-01	2.575374561738825812e-08	7.083064092031987748e-08	6.363823227178942721e-02	2.118683226512698900e-03	1.920428642610021491e-08	3.731926116941951862e-08	2.676120951815856609e-09	-2.261336026815719703e-09	-2.220745327152178336e-09	-2.132949195307792245e-09	-2.173358401049520491e-09	-2.505877441923247663e-09	-1.506937676676327888e-09	-2.551580596638513536e-09	-2.648265498453792443e-09	-2.205782221560321307e-09	-1.154409062110719972e-09	3.502554499488111949e-09	3.975500525874745498e-09	1.794131108819707884e-08	2.576531394300523616e-03	8.446533217395361675e-08	8.084001075258762002e-07	7.282941522642089971e-07	1.771017959939865502e-08	6.119771284503669307e-08	7.473119671458881841e-02	6.957654844855094833e-02	2.209217815012636667e-08	1.514787533085794033e-07	2.620274490050314123e-09	-4.794371624615775391e-10	-1.141887835405558637e-09	1.766642370713244571e-09	1.824032873563624693e-09	1.464859709647676683e-09	6.196469246134971472e-10	5.084785695915739115e-10	4.704543375650718183e-10	-4.639785255978247076e-10	1.237175303762969318e-09	3.039550048708327828e-10
-4.319076271467302776e-10	-4.402431360330904014e-10	4.896356208149317286e-10	-3.328638004438211705e-10	-3.232342224465502474e-10	-3.534901922334891955e-10	-3.501662664299520363e-10	-4.215544129411970637e-10	-4.364337646504520146e-10	-4.000667097664739062e-10	-3.586034102066547637e-10	-4.038230543920654898e-10	4.477266195327558141e-10	-5.345346314693171338e-11	-1.105850476551613149e-10	2.195864556427691640e-10	2.602573380570085021e-10	1.414942916224514168e-10	1.341380454893904144e-10	6.982882490186501735e-11	-1.919891502943217781e-11	-1.598468542892153800e-10	1.487054130773737033e-10	2.570057364526138832e-11	-1.586660804000168593e-10	5.502207355144550093e-10	5.274408130364303254e-02	3.596188631723357667e-09	2.043262578453132373e-08	3.483159458559542748e-08	7.157612572630799476e-10	3.057980293108843427e-09	7.664060477517306569e-02	1.446087218690509379e-01	8.205582125551243050e-10	2.249608932044181711e-09	2.691126987074636044e-11	-4.638452671974467142e-10	3.203680668990988681e-09	-1.377575396851327429e-10	4.497652806698048830e-09	4.754792783176117803e-09	-5.332778078622404300e-10	-2.978003809646705234e-10	2.632001860279754161e-09	2.200353336639191378e-09	-1.017371794348652324e-10	-4.866750793972895516e-10	-4.369079409945014725e-11	7.021715147934441016e-10	2.710646181676676023e-02	4.722658309599118935e-09	1.986811703370068402e-07	1.068340170037393594e-01	1.039102894613442817e-09	3.727473018518574079e-09	5.502502726171494718e-06	5.420997179566921370e-02	7.754617597546688914e-10	2.037736692600026750e-09	5.250604585829028428e-10	1.571318507521404878e-09	7.659695503163559864e-05	6.768584781591379282e-09	3.075146280851977915e-02	5.285018710243161860e-02	1.694530312016334091e-09	5.225972266726372215e-09	8.095551830615758233e-06	1.780992865105501254e-08	1.034826241695329655e-09	2.190229562360818858e-09	5.244126486735325168e-10	1.932856541678670591e-09	8.594245664142496638e-07	1.148649596676314220e-08	6.916411498561329807e-02	1.706526616438768240e-01	2.604894147915486417e-09	7.289078418318649333e-09	6.734313006335164442e-02	2.591302024643460204e-03	2.045691774350886084e-09	4.423160926720619779e-09	-7.893979426038690377e-11	-3.397404091347723092e-10	-1.842396709654002233e-10	-3.548575087270244844e-10	-2.626826138447622789e-10	-3.598342868409710499e-10	-1.692096779417286265e-10	-3.957720298372524885e-10	-3.008360486579681116e-10	-3.535643044240820792e-10	-2.658477525390333443e-10	2.806882843602043348e-10	3.755267867404414071e-10	1.549846233700521445e-09	2.950787745047952874e-03	8.390042536410792861e-09	7.280413937933630310e-08	8.854649388681042765e-08	1.709874943205757586e-09	6.198054547241692130e-09	6.808185436403789426e-02	7.337903802705227074e-02	2.367754004061721351e-09	1.214444617743414500e-08	2.079571576002423242e-10	-1.920606345292026760e-10	-2.767503983072457803e-10	3.470519880840623237e-11	8.392012801081582821e-11	3.964312906954866247e-11	-7.454308604780583691e-11	-7.065998197109168623e-11	-6.170232933677395686e-11	-1.820084419866418787e-10	1.658031009148279640e-11	-9.009468903080834990e-11
-1.402391124446279404e-09	-2.065100654660692534e-09	-1.433872310877430681e-09	-1.155209432847492464e-09	-1.596459516629369304e-09	-2.128049010768480818e-09	-2.005462217736377845e-09	-2.211149368926253438e-09	-2.370613935117638110e-09	-5.799123077276871584e-10	-2.325876980636109775e-09	-2.569742586982993151e-09	1.301836741996806222e-09	-7.808064082513394080e-10	-6.143210844813146172e-10	2.080372659733844487e-09	2.740457866139582915e-09	1.764015551878884206e-09	-2.219195921578445091e-10	1.540336943840787284e-11	4.079027426850421365e-10	-1.320489949743413994e-09	3.416378752079986398e-11	-6.581042568714835875e-10	-1.178856036282363647e-09	1.834574830063714841e-09	6.106209019553951456e-02	1.299425559405351852e-08	6.098433701026392528e-08	8.188404058177982194e-08	2.375145945669024964e-09	1.156597238835158995e-08	6.766376120565881225e-02	1.425166896726211829e-01	3.082652997701373877e-09	8.069951263096774439e-09	-6.380533332059946115e-10	-2.885438995759390768e-09	1.622636762888668279e-08	6.091950853241622077e-10	2.317464020178691379e-08	2.372068218818142115e-08	-3.231405303233194100e-09	-9.927501053951884967e-10	2.727361459552060470e-08	1.126828095507470155e-08	-2.299485691834289468e-09	-3.371260270888962693e-09	-7.253768965138979481e-10	2.069286187475663334e-09	2.156243450617729290e-02	1.892238375402459900e-08	1.019013235772629096e-06	1.072251063102227231e-01	3.583130892776968408e-09	1.316325931410758032e-08	1.303312195080341337e-02	5.081814909195334767e-02	2.517586720192251723e-09	6.752279374150031368e-09	1.123834889574032904e-09	5.688736937737807807e-09	4.380107161271460331e-06	2.771850392362206867e-08	3.293410337600451154e-02	5.249270194566609676e-02	6.246865592660401404e-09	1.960622638240462400e-08	2.052179450429982948e-05	5.112282411427317263e-08	3.484334976487688918e-09	7.041358237931884055e-09	1.748348262964584471e-09	7.442158417266577805e-09	3.518649617629348404e-06	4.599506783634088422e-08	7.783365978727715961e-02	1.732231387488915308e-01	1.014688362940084026e-08	2.785265513112596164e-08	5.081469271519571673e-02	1.227771154820675921e-06	7.234703543551012646e-09	1.424336730814724614e-08	-2.281976456312599602e-09	-2.461170825465208802e-09	-1.904176089153216979e-11	-2.216676223438248135e-09	-1.968332808199672283e-09	-2.247123394680716470e-09	-2.075862545742985175e-09	-1.646487012799241941e-09	-1.813866213205095263e-09	-2.254145162644370340e-09	-1.849712732603388206e-09	3.332063849201684947e-10	8.120263016232941786e-10	6.047886286046050310e-09	6.982515141045138421e-07	2.569681615702634861e-08	8.945820260508363480e-08	8.328480944787110904e-08	6.663053712063626458e-09	2.528689138104275265e-08	6.829201800258737076e-02	8.049619106971007965e-02	1.132129540736948521e-08	2.251637643066760421e-08	-3.450589068047983173e-11	-1.726379746319390289e-09	4.852200240684937279e-10	-6.102210090853575895e-10	-6.811980608565438977e-10	-8.431851642346446555e-10	-1.311310975310252901e-09	-1.275240207235787322e-09	-1.047834680614368188e-09	-1.748537668620512344e-09	-9.267755607537630081e-10	-1.381248420221056734e-09
-7.401220353848387402e-10	-6.417332279462928616e-10	-6.300837198137874389e-11	-8.422238907542586160e-10	-6.967173958316315949e-10	-7.185063975958290422e-10	-8.396421717963525229e-10	-8.370092975088932369e-10	-8.853852921025229122e-10	2.669520047673487645e-10	-8.134679362586894992e-10	-9.075564211600631063e-10	7.228171381214739355e-10	-1.683423885787374770e-10	-1.667264862749800675e-10	7.426798433596893639e-10	9.684948244433594774e-10	5.363904444364900968e-10	1.710384982277935825e-10	2.240807294712465438e-10	2.714291931961194626e-10	-3.875412160626977227e-10	2.145527241807973775e-10	-6.569547940538314718e-11	-3.232697893178633950e-10	1.108254711161921443e-09	5.940757910321056018e-02	6.112672967833488598e-09	2.231757589053953587e-08	1.896057435144960357e-08	1.450590628927767717e-09	5.775788546238113600e-09	6.827095791226525656e-02	1.385695201150761446e-01	1.437624923727990774e-09	3.375299888667357277e-09	-6.758055097809324009e-12	-8.418518272742018890e-10	6.135972854506326056e-09	1.713497082027342595e-10	1.018269229146455697e-08	1.053543740143507416e-08	-9.682541360241262739e-10	-1.634320821293830141e-10	1.233489676769824417e-08	6.550204028886173953e-09	-3.430701983573117894e-10	-1.104115449828828937e-09	-1.289308507156282764e-10	1.289697463750467978e-09	2.157088061949876540e-02	9.237243164303975261e-09	1.456224500927334918e-06	1.082616474889687153e-01	2.251285791457110134e-09	7.603401966994622789e-09	1.780733561493249954e-03	5.216780163082618965e-02	1.354411157629151138e-09	3.226234455314386564e-09	8.960697031814032196e-10	3.124657023469478182e-09	6.272740266580741975e-05	1.327302059951793808e-08	3.474875190491513721e-02	5.876043647427540983e-02	3.198182296316116113e-09	9.257117125221786450e-09	6.688371926540985128e-07	5.414534331592803572e-08	1.939609663375874855e-09	3.808658665156195384e-09	8.837851294782604029e-10	3.241090716474034200e-09	1.606975574338328933e-07	2.108733806172492939e-08	6.330074601471949447e-02	1.687915981654224407e-01	5.171300506770138588e-09	1.396497140483242103e-08	7.235591399670118773e-02	1.217597672808089995e-06	3.486141832730836087e-09	6.406476940779902696e-09	-3.916472820368153865e-10	-7.889013852170540562e-10	-6.519361211562910750e-10	-8.121874312873473831e-10	-5.683129411511115108e-10	-7.424024009228962460e-10	-8.224636287236388188e-10	-6.499344312534595945e-10	-7.064020096043324440e-10	-9.648352755247266672e-10	1.380088950430971298e-10	1.273771048373365932e-10	7.164798830360222754e-10	3.397651625674145839e-09	2.956980434787663016e-03	1.316667346412705440e-08	5.660896857554514051e-08	4.611261445282722168e-08	3.508406256622644485e-09	1.211308842550919699e-08	7.493021163450064304e-02	7.405956824970948149e-02	5.016394986034163184e-09	4.350455368024489853e-08	8.107638623075683120e-11	-5.651089554462230193e-10	2.230499426336764426e-10	-1.069692169462214603e-11	2.504586257169444122e-11	-6.338902260475924659e-11	-3.432394168463956249e-10	-3.176712161362026073e-10	-1.540497941455865775e-10	-4.550209502135193966e-10	-1.931790908460268922e-10	-3.640185367301336975e-10
2.211287994535624923e-10	7.892192156478915238e-11	7.877315456546406469e-10	4.739589316812348500e-10	4.406304571270304434e-10	3.498268240080161530e-10	2.784008212791128320e-10	2.631812876818569108e-10	2.704196395143826646e-10	1.728117141601026587e-10	3.920977438386548139e-10	3.105294427710424368e-10	2.174260414292325670e-09	1.166445198513378967e-09	1.008845871029609588e-09	1.839481000043348037e-09	1.825612897161531755e-09	1.637805703135193221e-09	1.599812626184057234e-09	1.421765460214443247e-09	1.260967759990770721e-09	8.307557504892402366e-10	1.637769922089777598e-09	1.314035164937598955e-09	8.695463691281884664e-10	2.736025569955983264e-09	6.167244791478944388e-02	1.167896336983944288e-08	6.147954334985649191e-08	6.494626627680561925e-08	3.308020085465471265e-09	9.933312574216532876e-09	7.283456024008128082e-02	1.284108007488011516e-01	3.149534202457937489e-09	6.700875994765917161e-09	1.394998681826338231e-09	2.352484017106640759e-09	9.811085177716516959e-09	9.218512645977601691e-09	1.180882920942688631e-08	1.349782654338894553e-08	3.212686774580866139e-09	8.274581906915521466e-09	3.814228247552857369e-08	8.865071591723399502e-09	3.028677625654333362e-09	5.456862633490380457e-09	1.160963878358033877e-09	3.151221839745950633e-09	1.706352900460117797e-02	1.567219647587495425e-08	6.392603541413798923e-06	1.169291887158209614e-01	4.165580939709085182e-09	1.167781121181442030e-08	1.737381688246996653e-06	6.478597316225276348e-02	3.179203416296915756e-09	6.179524550220753392e-09	2.206925410139080466e-09	5.249259862233102611e-09	5.488945397676176993e-03	2.174613111664876882e-08	3.798108827920672337e-02	4.506313243332089880e-02	5.613317809253041611e-09	1.435199778247547499e-08	3.375627844425929267e-07	7.034829118421594059e-08	3.959582033096508267e-09	6.875830124364028663e-09	2.667853046116945149e-09	6.372960137606774672e-09	6.884835308567977831e-07	3.459912161683447877e-08	7.288757148362369487e-02	1.604470012401811585e-01	8.330631924638218497e-09	2.196734195362266371e-08	6.585017595332490203e-02	6.141637736853815081e-03	6.056507602988483060e-09	1.046737056781637374e-08	5.805899106373645515e-10	2.669831231304451596e-10	4.390903747892606389e-10	4.672655829437664739e-10	4.666723014898477311e-10	4.239223974032023418e-10	5.193445869768053693e-10	3.636198314619861556e-10	2.885636390497953135e-10	2.531252834297245483e-10	5.393454348503451770e-10	9.270147358931996413e-10	2.014577318292035754e-09	5.145496040775881564e-09	2.616487857905258476e-07	2.132018037183806324e-08	8.920034678839898651e-08	7.712399885919063842e-08	5.928189594471475774e-09	1.828123046126915287e-08	7.818294999523260624e-02	6.625072883580057637e-02	8.327900073991750565e-09	3.926665435110293781e-08	1.303629476699420042e-09	7.069428149766923963e-10	7.563665073638844815e-10	1.159014943611348747e-09	1.090438244397456981e-09	9.770010855847573548e-10	9.753898127162597761e-10	9.086222371149572489e-10	8.316835825143678696e-10	6.180729680044714528e-10	1.145918161494504624e-09	9.381024810294463124e-10
