3.478834543805597054e-09	2.181718514322269719e-09	2.599243500843648217e-09	2.756945619368426930e-09	2.569951310362871774e-09	2.380599254110023475e-09	2.829055131681388698e-09	2.497382795033843324e-09	2.268673332935560938e-09	1.943686617308061231e-09	3.134052330277688033e-09	2.531637387049085600e-09	1.071769287580571498e-08	6.639841558795919522e-09	5.307034113844781739e-09	7.687871986015533668e-09	6.974548262853031313e-09	6.429066239471474406e-09	8.171574280315684154e-09	6.973365685836187773e-09	6.089709503285054642e-09	5.071977158874987072e-09	8.957593715686202552e-09	6.998406594999139588e-09	9.291909175623044189e-09	1.977472190261405526e-08	3.573723168968122310e-02	3.853458329800585463e-08	8.774602729041968758e-08	1.361747661928371999e-07	1.981656600873240212e-08	4.564502412405343830e-08	5.797978039089774632e-02	1.649476985346513547e-01	1.989978329727130480e-08	1.388834605822774749e-08	5.665548262607723119e-09	4.423717198555165732e-09	3.706877618558693690e-09	5.197933945322695725e-09	4.805350118097112642e-09	4.460931264516822681e-09	5.492327807440069317e-09	4.890376116652887999e-09	4.315615101357472168e-09	3.593964623840263510e-09	6.004109408376951199e-09	4.891088923517514892e-09	1.039364025341602326e-08	2.170385033420828311e-08	2.290128189073761811e-02	5.754225561887316009e-08	2.068184626242230227e-07	4.206956825353941332e-02	2.888642632544609061e-08	8.578643313998646876e-08	3.547043559183381180e-03	6.556057615088398127e-02	1.783684823306458367e-08	1.951384452846440683e-08	1.596695976242645265e-08	3.256486232140887178e-08	2.300380073776324817e-06	7.547462443118056516e-08	2.574593295613719114e-07	2.124701313996421037e-01	3.991994012738499726e-08	1.198458674629688800e-07	4.141218770371548133e-03	1.005437202684889451e-06	2.546665844700193034e-08	2.692950813875066278e-08	2.529831851581049190e-08	5.223541620291668636e-08	1.211687564815775285e-06	1.138884840929664478e-07	4.216264193425655126e-07	1.801097218580789139e-01	5.241608337506943917e-08	1.348860244235465320e-07	8.163376589706740349e-02	1.664197904621627587e-07	2.951557920262448122e-08	3.150758389781000757e-08	6.196806571596348619e-09	6.062316755103471122e-09	6.947380638813794886e-09	7.799055570462580145e-09	7.973988953392032527e-09	7.660858906467059757e-09	6.990078215964499138e-09	7.422910021052832639e-09	7.463821954026773310e-09	6.998364136601203838e-09	7.724874309907460814e-09	6.755940022982339133e-09	2.012185329004675507e-08	4.308300567238397262e-08	2.353808940883405811e-07	4.996595673255361688e-08	8.701702152942116283e-08	8.966070768635758058e-08	3.408630961635296802e-08	7.926101922167482236e-08	3.325358903435620544e-02	9.564006354729287507e-02	1.919302094302789887e-07	1.478993346930372888e-07	1.075595671403452192e-08	8.793726251376243699e-09	8.601775886610243358e-09	9.537308098653034223e-09	1.005074988254414301e-08	9.757117688310239330e-09	9.706966598972307275e-09	9.067108991035730608e-09	8.657421119992117897e-09	6.834478844592243677e-09	1.120791684675476463e-08	8.832299452212732564e-09
-5.441206020562819142e-11	-1.752740104290173352e-10	2.105998377500941048e-10	-7.483264908807480459e-11	-1.214312142217064058e-10	-1.381702521148642543e-10	-3.320482347519061248e-11	-1.500228167365553117e-10	-1.534237570188987142e-10	-1.726841232647315557e-10	-9.666908104370145756e-11	-9.716823625023282572e-11	6.631838491876760332e-10	2.405208687380822201e-10	1.371726282291323850e-10	4.268995181659784300e-10	3.142869698226938390e-10	2.627752660260600056e-10	4.101160200902783672e-10	2.915972984566438527e-10	2.095228321798938410e-10	1.113758173249662560e-10	3.830854067327622007e-10	2.460314894095404841e-10	3.467914457510493639e-10	1.230721312522908013e-09	1.849482678896420193e-02	2.658888214420194074e-09	7.050353631738492108e-09	2.007730164990583649e-08	1.155016525488220544e-09	3.090288536836134862e-09	4.763592683841662984e-02	1.903646441959002678e-01	8.672944738772733278e-10	5.714476920745089791e-10	2.870417769476258283e-10	4.119780383063767390e-11	-1.866929968354193456e-11	1.057174251893211220e-10	7.393429420926809428e-11	4.941512283969202701e-11	1.673662514442840581e-10	1.075860128820975198e-10	3.582737287755607562e-11	-3.518581444574263956e-11	1.944177579547025789e-10	6.828965755533558177e-11	4.209069371073908747e-10	1.278434708351199281e-09	4.133718322938675221e-02	3.615723347756341072e-09	1.274468534562185454e-08	4.493413080008688137e-02	1.571800100835668232e-09	4.528412541948110661e-09	1.754911723306934110e-02	3.633936345411466207e-02	8.038645065345429369e-10	1.044232927833270949e-09	7.918288936674985602e-10	2.047915584972719765e-09	1.801478335284275749e-07	4.931625130560446998e-09	1.644897808769208045e-08	2.068311139148620859e-01	2.436531341938974464e-09	7.031902244080889075e-09	7.715313707666995922e-05	2.057527994709130376e-07	1.300210700097059736e-09	1.589373737923279088e-09	1.358870550175551561e-09	3.059288041745747359e-09	3.690807717607728170e-08	7.358860655994781553e-09	2.612836027282690659e-08	1.777884355903437130e-01	3.428021935222098360e-09	8.698725348793234449e-09	7.650683277007473693e-02	9.139621920369135339e-09	1.572411906216994500e-09	1.793988599558701308e-09	1.425972218678657970e-10	1.653762762748205713e-10	6.063521559428006764e-10	3.119163528259959427e-10	3.456607775197096701e-10	3.605073025554138191e-10	2.174807845734650044e-10	2.828414681041621727e-10	3.362755586647057278e-10	2.572139372510304208e-10	2.216696116982495315e-10	1.885132078942802891e-10	7.919137937567548373e-10	1.904641925994755353e-09	7.518233667688980217e-09	3.391783304477071497e-09	6.252285124516179395e-09	7.022251911699362178e-09	2.119405407366081825e-09	4.864103154633594017e-09	4.526601510814366736e-02	9.687460878947601328e-02	1.191931421436224098e-08	5.498550809154532793e-09	5.368572557751986377e-10	3.056022390322830660e-10	3.901750456939903098e-10	3.728629066333858979e-10	5.041230277319769150e-10	5.832585883703000640e-10	3.867297551103394953e-10	3.431371895625539183e-10	4.136870422402302396e-10	1.992457555451087365e-10	4.157504180474913417e-10	2.815653138866759582e-10
-4.687575189095667358e-09	-5.616010825162404693e-09	2.159667643664354776e-09	-5.115557229106089000e-09	-4.731305475213715012e-09	-5.245352635153278366e-09	-4.623668657404642087e-09	-5.091835238041308232e-09	-5.436314467825049012e-09	-4.743339000449018009e-09	-5.167961050524643783e-09	-4.867394416731713782e-09	-1.400319263376432964e-09	-2.883770295071632219e-09	-3.826806781738356525e-09	-1.598559913319382866e-09	-2.530003001751975853e-09	-2.970622903544920895e-09	-1.930638576049031926e-09	-3.055395288677618536e-09	-3.646202244690189484e-09	-3.898245304918481277e-09	-3.210831453813529078e-09	-3.579960701091813814e-09	-3.469545723422699913e-09	-4.946050637825811650e-10	2.308075040509158585e-02	1.834643754064145497e-09	8.575918970291776026e-09	2.449217765199127165e-08	-1.287630468222737162e-09	4.720595872347314848e-09	4.858802321773499078e-02	1.850516616652738977e-01	-5.034645636573542241e-09	-3.148907617175168471e-09	-2.680867358389313801e-09	-4.302816956638931015e-09	-3.578835867887443608e-09	-4.084062628906152890e-09	-4.364220161428956928e-09	-4.442706451893166160e-09	-2.451273376182284488e-09	-4.119817140917315615e-09	-4.430343892314189536e-09	-4.799453343376228242e-09	-3.098634822947253669e-09	-3.864671855040849225e-09	-3.110897584606919198e-09	-4.518594395992873100e-10	3.350057374711655489e-02	4.893494584220878041e-09	2.168785658813630698e-08	3.933597350510134594e-02	-5.050915742235110530e-11	8.560728913111711988e-09	1.012603416978684681e-02	4.266111369870825148e-02	-3.792179362449855931e-09	-2.205884612062740602e-09	-1.891677243403772053e-09	1.737863277836729309e-09	6.822583798997255092e-07	9.002360875673757419e-09	2.858351766893064274e-08	2.167717603566729767e-01	2.556790339913881898e-09	1.524861329493850226e-08	6.338173238802039672e-03	1.656964217009578229e-07	-3.141409485816159561e-09	-1.198864426266347031e-09	-6.573609774616026419e-10	3.210039976753592917e-09	7.212836583111362107e-08	1.489741865064769526e-08	4.374624813108573340e-08	1.750513800801370146e-01	5.012984651013393884e-09	1.692241761092270661e-08	7.679940709500762686e-02	1.944562796282122066e-08	-1.725282249709034624e-09	-1.680109933798700508e-10	-3.808767744888179301e-09	-3.294971024178471267e-09	-2.700604067845571177e-10	-3.360817497975963912e-09	-3.160287072933922395e-09	-2.698929512276473004e-09	-3.725161624326997673e-09	-3.405420766069823714e-09	-3.038297426565975890e-09	-3.942340227515259503e-10	-4.315597955638923773e-09	-3.894133103039770701e-09	-1.725997405264511221e-09	9.643885918989282796e-10	-6.561157168698806973e-10	3.568701180427605409e-09	7.324688239270000166e-09	1.014790162893891639e-08	2.053922131487100811e-09	1.061854837067411361e-08	4.824432579008242766e-02	9.444979625351494767e-02	5.966472302474623923e-08	-2.251567448374354686e-09	-4.576120762523478020e-10	-3.557251201318163038e-09	-2.466382550041337837e-09	-1.605478875961977112e-09	1.011870687362614351e-09	3.453487357481831493e-09	-2.891278396036979623e-09	-1.539432104207870439e-09	6.851899043125257254e-10	-2.496631778266058168e-09	-3.602145722840962541e-09	-3.567370393791618226e-09
-1.052134175940168286e-08	-1.264276611578004283e-08	2.364720409361978269e-09	-8.111562822406398483e-09	-1.208397011650476912e-08	-1.193743605947647440e-08	-9.127605023097343293e-09	-1.211224721733428004e-08	-1.201887983230008078e-08	-1.251720475319620978e-08	-1.235609875148021073e-08	-8.311267317806882432e-09	5.894062082441531085e-09	-9.519445853136049906e-09	-9.941158690678904127e-09	-3.370679772367523878e-09	-7.890130138946727073e-09	-8.640400723563720690e-09	-7.362856967773733434e-09	-8.984300144550087582e-09	-9.654792834719329167e-09	-9.798152133659042847e-09	-8.985523078847756304e-09	-9.136679636994645190e-09	-8.467756853336106633e-09	-4.909952720820090129e-09	3.153812655374846341e-02	-4.563084517928390881e-09	9.147455263824392372e-10	2.529588090586990896e-08	-7.703617958022860005e-09	-4.607654115948847957e-10	5.744142898843036804e-02	1.729545672981540050e-01	-9.778040083967154723e-09	-4.931049128620911970e-09	5.892799865840719572e-10	-1.065056961335673747e-08	-1.112575981178186536e-08	-1.072002015015788232e-08	-1.088647604442885028e-08	-1.104311043493424814e-08	-9.436231734796183286e-09	-9.033186613590525000e-09	-1.087457702388415753e-08	-1.147347764550895401e-08	-4.283309278015064176e-09	-9.232344589778529384e-09	-9.012781049530445856e-09	-6.488782128142908159e-09	2.513707602995225721e-02	-1.276731435512227125e-09	9.063956572698384773e-09	1.903428493152232309e-02	-6.168993391993501367e-09	3.264286114164641329e-09	7.743794840847605977e-03	7.610259003149508206e-02	-1.011744224561036927e-08	-7.520839165534383240e-09	-6.982302959539383363e-09	-4.281984877053837800e-09	2.076340420497873272e-06	3.652938437380195420e-09	1.385453631050938600e-08	2.318750413630246698e-01	-3.231898453164197348e-09	1.002147425028134795e-08	2.672319733767141488e-03	7.276897266852658921e-08	-9.248570595453596386e-09	-6.271494725821836693e-09	-6.499772658631889220e-09	-4.594343939276596074e-09	6.118929014969101019e-08	8.997028593549358003e-09	1.782747127851071567e-08	1.732995400204226932e-01	-7.566510048754903938e-10	1.059514311199864111e-08	7.842618839305713629e-02	1.425768324863240588e-08	-8.290480993406973062e-09	-6.161452964109708744e-09	-9.804404988229778765e-09	-9.302803165725457773e-09	9.952347041387892760e-09	-9.076474760899503800e-09	-8.847625088919259399e-09	-8.321183145830829568e-09	-9.929310651124657624e-09	-8.699661634302081317e-09	-8.691321894094780680e-09	-8.662597538678075684e-09	-9.813592983554898701e-09	-9.243954483861417046e-09	-4.690694951875067061e-09	-2.053151762976695948e-09	1.714017416887118439e-08	-1.440888776386880377e-09	4.208567145136493978e-09	2.134201074923624040e-08	-3.708232945416814152e-09	6.622494523470344260e-09	4.872580747378470190e-02	7.504744232604391996e-02	-6.040428674393645578e-09	-2.162790860513628122e-09	3.243672661060970482e-09	-6.260224705720491569e-09	4.235281390767059541e-09	-8.775663420108921699e-09	8.255126525112782290e-09	1.720023546799428350e-08	-9.098718432374565903e-09	-8.618075175242256587e-09	4.588563842094114290e-09	-1.047195078840506882e-08	-7.896846321979972422e-09	-8.551664379523158799e-09
-7.001250589484313204e-09	-8.087858749686799477e-09	3.767065099332360183e-09	-7.283946917220347428e-09	-7.428490629785954580e-09	-7.642610837550252046e-09	-5.809615371588748324e-09	-7.927170880591299129e-09	-7.738010473124702955e-09	-7.870641054237137096e-09	-7.296923864589726086e-09	-6.922491421734445404e-09	-2.067160093923135161e-09	-5.318247574963927445e-09	-6.455861590413716790e-09	-2.871145255163797078e-09	-4.736526684785901254e-09	-5.110878797659405256e-09	-3.746597282526388829e-09	-5.727263999370727688e-09	-5.902677423346224560e-09	-5.900825740299629869e-09	-5.846509203810661499e-09	-6.146013083644824572e-09	-5.980849534680457831e-09	-4.008787247848499629e-09	3.000386713330467983e-02	-3.291438023142228187e-09	-3.901107951292552272e-10	3.346833339004755417e-09	-4.962545612627407775e-09	-5.164558825162879139e-10	6.189461758409062903e-02	1.785763096559990493e-01	-7.729610587455854331e-09	-5.541895743959252964e-09	-4.793146838548546306e-09	-5.356936121042342279e-09	-6.877023744131480553e-09	-6.493066774177097567e-09	-6.827426726514004037e-09	-6.929771294203712750e-09	-6.126900822471282668e-09	-5.502317395397560121e-09	-6.887402073082856168e-09	-7.262414446962882842e-09	-4.079270808396764955e-09	-5.945396369134563861e-09	-5.808644902197253327e-09	-4.234138446846799440e-09	3.350799216036095401e-02	-1.194508072023727694e-09	6.542444778757951703e-09	3.325433165576647393e-02	-3.822920784543665498e-09	2.698445375713232034e-09	6.100951923220876774e-03	6.125479593550139240e-02	-6.905457987386048255e-09	-5.436169884704044351e-09	-4.532153245008669462e-09	-2.504791890364875504e-09	1.729434803683535949e-06	1.415953964357334677e-09	7.991168655188935629e-09	2.232039430800980273e-01	-2.016808006416762582e-09	6.562577431238560924e-09	6.790516044734237766e-05	7.635396362737445543e-08	-6.617053506211087766e-09	-4.812774417784784222e-09	-3.906329060096860413e-09	-1.837974917721245428e-09	1.051893346798016149e-07	4.114055272930604523e-09	1.141245163968296409e-08	1.665728797120490379e-01	-4.938021346496558086e-10	6.035038829926683090e-09	7.770502879125928963e-02	6.732255294798288599e-09	-5.700284004516301216e-09	-4.414260283172386151e-09	-6.141407866551434411e-09	-6.045713645689430851e-09	3.173382038851067682e-09	-5.895020220906979890e-09	-6.184635608105139262e-09	-6.014878017508571788e-09	-6.327092900016107698e-09	-5.901546592068275025e-09	-5.728748714418570876e-09	-2.577491149735202853e-09	-6.858065556697419519e-09	-6.245797998108727076e-09	-4.741738963447368390e-09	-2.796097895921057054e-09	-5.565630265216476664e-09	-2.157012763138053656e-09	-5.665501181473086675e-10	3.369509564977635006e-09	-2.581246390751089303e-09	3.061973617132682963e-09	4.093861602392831478e-02	8.691720338789415967e-02	7.406321990838421681e-09	-7.607536563879999390e-09	2.115030158841768652e-09	-4.398782676527896898e-09	-3.543150804644903647e-09	-3.779361294609290900e-09	1.695448313453342874e-09	3.543951307574915920e-09	-5.858693943959208118e-09	-3.669248169239639695e-09	2.409596605269708138e-10	-4.172376744439024612e-09	-6.299002640928360556e-09	-6.170505363174983511e-09
-1.290621927458681801e-10	-1.946798237771366779e-10	6.584405594661365114e-11	-1.570942682271346509e-10	-1.862743364638425259e-10	-1.897540226341754383e-10	-1.473258190960604783e-10	-1.829624302494938556e-10	-1.848976835382631648e-10	-1.605086887748063687e-10	-1.716342091569723582e-10	-1.756658156198534728e-10	1.142929775769579278e-10	-1.268807782695496002e-10	-1.480485564994240099e-10	-4.607500119795243127e-11	-1.135456146974785370e-10	-1.237565436700665948e-10	-1.017777257568891902e-10	-1.289204314156955350e-10	-1.378237002554029085e-10	-1.444618583309799443e-10	-1.286686874483897993e-10	-1.383195436112303228e-10	-1.190976214783223051e-10	-3.593416072793514301e-11	1.478298322487487521e-02	7.761669641219805949e-12	2.001462968879525471e-10	1.194984573334846708e-09	-8.416532976760383711e-11	7.725917494200650490e-11	6.721117218085830014e-02	1.759235911606786551e-01	-1.361704274909566133e-10	-3.819932707299525154e-11	-8.495043840707176976e-11	-1.608876311369310219e-10	-1.387128688510445209e-10	-1.552666876100391660e-10	-1.661706709574014774e-10	-1.678512245280027520e-10	-7.914264551796773581e-11	-1.657016053379854776e-10	-1.682797823328679504e-10	-1.729731809133866863e-10	-6.093497185282897291e-11	-1.249113179863521498e-10	-1.174328792216996971e-10	-4.613057225425460902e-11	4.307573602556408199e-02	7.942870469903850199e-11	4.432451974776318514e-10	2.080727184445871347e-02	-5.648098966550014596e-11	1.420910992474207251e-10	1.006702244951615012e-02	6.324031928154925930e-02	-1.266329233583936496e-10	-8.734172281416109131e-11	-8.536984246035715700e-11	-1.584230065614896545e-11	2.051080529949147001e-09	1.944471771087693425e-10	6.198530856158698556e-10	2.263547805513851652e-01	8.084445145028108120e-12	2.937447423517901134e-10	5.572076484288832803e-04	1.666232485725257020e-09	-1.062573328584010466e-10	-5.827280130531517282e-11	-6.975604496734213208e-11	6.340032899788098839e-13	6.579040318778497466e-10	3.552572588698464109e-10	9.350460097050205714e-10	1.944634100006679966e-01	8.200495957584593327e-11	3.848264188729512987e-10	5.476279194801700334e-02	3.644190163528266210e-10	-8.037133157404757897e-11	-4.814242691296543885e-11	-1.318481239134042890e-10	-1.280663502682895466e-10	7.118402424452645690e-11	-1.293086619801722549e-10	-1.198912352267532712e-10	-1.088625144237272656e-10	-1.457381430597456010e-10	-1.268048805086213811e-10	-1.214229746884237308e-10	-7.180276814285049414e-11	-1.473012679266757440e-10	-1.400106397957679412e-10	-6.691481059945008932e-11	2.953840951358717025e-11	3.094485499960769455e-10	7.641069167167545488e-11	2.280758469026699637e-10	5.621783145750494609e-10	1.202145946715770665e-11	2.729417893239617279e-10	3.801049044145649036e-02	9.074321995641219940e-02	3.516582013841411311e-11	-9.474784431334376296e-11	-1.440853321669550978e-11	-8.141150984088091276e-11	-4.681015959454394203e-11	-8.731791998340996546e-11	9.398224036738166638e-11	1.510660347602035655e-10	-1.376899887956639822e-10	-9.154474577368525947e-11	3.388269776378865988e-11	-8.036433947831842824e-11	-1.366904745516240264e-10	-1.438747168258275761e-10
-3.859153293647496680e-10	-5.421288795486468754e-10	6.334004839053599395e-11	-4.447958062727673311e-10	-4.529431934599327544e-10	-4.898825269907678734e-10	-3.870500338724127970e-10	-5.124935647890830208e-10	-5.033363015145411287e-10	-5.351327109941233073e-10	-4.934580770478242382e-10	-3.989630748030450738e-10	-1.957822410405432393e-10	-3.251968745610338196e-10	-4.191497112299906314e-10	-9.578961437588544587e-11	-3.031303575629374398e-10	-3.536470967638471594e-10	-2.452675438510649940e-10	-3.812562048506177313e-10	-4.176384812350224464e-10	-4.169606224687707859e-10	-3.803640859486909807e-10	-3.891844016975233034e-10	-3.744977852599942469e-10	-2.275729639710060795e-10	1.761452077215249282e-02	-1.371263766937223079e-10	1.940295612954338368e-10	1.316856810522355454e-09	-3.013365421211282421e-10	3.672587044540905506e-11	6.271907621540123712e-02	1.895043000540752032e-01	-4.335473530295869921e-10	-2.798756554776034354e-10	-2.994082976043130775e-10	-4.190591604396558318e-10	-4.533780504336207833e-10	-4.471858534498192010e-10	-4.650560284597362851e-10	-4.689036535345783565e-10	-3.386562115097859447e-10	-3.519872187076601234e-10	-4.443819106529264332e-10	-4.887936337915100995e-10	-2.913960277339789262e-10	-3.454747081323738692e-10	-3.538693394718897388e-10	-2.359311973698484455e-10	3.879110417938595040e-02	2.173495584410528976e-11	7.207230067449890101e-10	3.928973538301210738e-02	-2.194978210351775814e-10	2.912324784501656297e-10	1.531417552338638942e-04	5.187030724121305392e-02	-4.084628201390738280e-10	-3.092778037821081053e-10	-2.385268562652760439e-10	-1.211573967100251039e-10	3.371960503758359634e-08	2.499559807674743684e-10	9.937245043234256775e-10	2.025341266364057979e-01	-8.678006713501231911e-11	5.538765958420246627e-10	7.098784164419487050e-03	3.776078482674369120e-09	-3.735878180830383545e-10	-2.624618424461499005e-10	-2.251082474399513775e-10	-1.036072902830886359e-10	2.111244054823821088e-09	5.527104291823092167e-10	1.519735445432475504e-09	1.822611441108807073e-01	3.981563595922314850e-11	6.379263812691806359e-10	7.381746349258878903e-02	6.727250598303301906e-10	-3.107322572698149680e-10	-2.224133082437738561e-10	-3.795134915632112998e-10	-3.574270921259369317e-10	2.293070288612878778e-10	-3.892717724521751336e-10	-3.994517475676874447e-10	-3.802698044753408761e-10	-4.211572304610643600e-10	-3.847905552075501757e-10	-3.770548224921114189e-10	-2.288916624623201241e-10	-4.336801658856296666e-10	-3.978373441204302702e-10	-2.436449562407359145e-10	-1.505594756651120285e-10	8.233268546608372749e-10	-3.121798034685951210e-13	2.916593425461168404e-10	9.186359202167218024e-10	-1.068973210805127058e-10	3.893713552377998040e-10	3.763238322619019693e-02	9.671388890670458427e-02	-7.039219846437439209e-11	-4.246784071842580927e-10	-8.444612774364238562e-11	-8.946901479031391113e-11	-1.636438686798346457e-10	-2.406678434944779556e-10	9.445501361991377213e-11	1.388357104773070473e-10	-3.790309472741268207e-10	-2.626756960441507795e-10	-1.931903293542633778e-11	-2.092862781424009183e-10	-3.961457935534812478e-10	-3.962623717375957523e-10
-5.355273102678892875e-10	-7.293141307539109500e-10	1.714447123656033464e-10	-6.104579382649645778e-10	-5.535318009426625795e-10	-6.953736624344922356e-10	-5.688399470840415749e-10	-6.899902255563732419e-10	-7.003504722941240013e-10	-7.199972031189306482e-10	-7.154946971163267130e-10	-5.537925816695809584e-10	-1.254085762293641187e-10	-3.940044033452073094e-10	-5.067940053999957161e-10	-1.787237763415128247e-10	-3.551478426944395188e-10	-4.112151255395520255e-10	-3.063076780936935239e-10	-4.350442199914455153e-10	-4.819329333607695154e-10	-5.359057940594583654e-10	-4.570145311397448414e-10	-4.849252933065717882e-10	-4.658771722677903598e-10	-1.033818071614637027e-10	2.264297802207581450e-02	1.537740255524313244e-10	1.104732253298974606e-09	5.974672771033273635e-09	-2.202165135147787031e-10	4.741451346983677641e-10	6.022561824811060310e-02	1.894002968138734089e-01	-6.829499127079221631e-10	-4.779057547612115358e-10	-1.465605587823582104e-10	-5.667707493157294477e-10	-5.446309120354531877e-10	-5.608580516206110812e-10	-5.704452760929474083e-10	-5.858211452966146453e-10	-4.513961039877613844e-10	-4.792122356205608957e-10	-5.860699987034294661e-10	-6.360800938902807004e-10	-4.354202600034117085e-10	-5.717202423900364306e-10	-4.384282445330600015e-10	-1.202380082831247727e-10	3.545642703385408490e-02	5.018636863980142702e-10	2.781035874995894364e-09	5.086716249492557324e-02	-7.391741399939018215e-11	9.070198584880760024e-10	1.498257326599049429e-02	3.367368154667583352e-02	-5.190706702895524372e-10	-3.306777232914092671e-10	-2.605736465649695374e-10	1.385064100362330737e-10	5.233608642751180285e-08	9.178608924596406872e-10	3.212515522397340110e-09	1.864344264440626620e-01	1.930138910439809781e-10	1.435636195044212312e-09	3.451764705704445796e-02	7.152249520448960467e-09	-4.497194450620705815e-10	-2.427542163813637302e-10	-8.955420108287777699e-11	2.827230915438833386e-10	7.663262297061991542e-09	1.476874395521499040e-09	4.810546150758494959e-09	2.004281881878767768e-01	5.799406634822929724e-10	2.217956900090076562e-09	4.128827116668817854e-02	1.380354098581241071e-09	-2.968887059181702899e-10	-1.531789773588223729e-10	-5.296535944998620079e-10	-4.133954163968126330e-10	2.303632097254447684e-10	-4.468800426577210034e-10	-4.154110328104193399e-10	-3.448049926239025026e-10	-5.127477106333499093e-10	-4.431954520657730758e-10	-3.870600185828358570e-10	-2.764958151870545874e-10	-5.851132930117685737e-10	-5.324763576256276033e-10	-3.083851353841092761e-10	1.168871860639849639e-11	-1.678319910122282330e-10	4.371664488860806469e-10	1.100253994107177965e-09	1.799961411337363830e-09	2.867926948174322019e-10	1.678306796512829650e-09	8.863443599145938087e-03	1.212192092355313527e-01	6.329280726305226186e-09	-2.402384356962667149e-10	-1.393338013231891221e-10	-4.668017522255759882e-10	-3.691801249496009188e-10	-2.540948801906897635e-10	8.587814325738876265e-11	4.596967159981224719e-10	-4.197824324555943618e-10	-2.256987637695773024e-10	2.310751265201438701e-10	-3.203835211750245867e-10	-5.226532275156390949e-10	-5.055042583856348343e-10
9.523114040425756596e-11	2.076636713498429502e-11	1.236762375567938031e-10	6.401106505526870083e-11	5.267482352603928370e-11	4.092416395075345232e-11	6.664904289105478865e-11	4.285476420771638974e-11	3.361325883894544181e-11	4.000831026569492306e-11	6.587012193323789772e-11	3.995723435808679379e-11	5.405537491932065108e-10	2.742956164768070948e-10	2.114675671290767449e-10	3.513722128427312022e-10	3.135134679318441920e-10	2.882581582899106017e-10	3.711686595260982474e-10	3.111475480670332816e-10	2.682863502188137108e-10	1.895365319101026705e-10	3.580058356863375967e-10	2.711326426793993533e-10	3.398184324112221354e-10	8.955514628873819416e-10	2.735964759397088719e-02	1.623731087671690302e-09	3.540243499433544284e-09	5.158015866755990729e-09	8.738273598534298993e-10	2.101616632244949269e-09	5.654378205857184952e-02	1.810365784490021723e-01	5.675109314742072272e-10	6.485008132841332387e-10	2.782138580600697064e-10	1.419889649379129696e-10	1.184875525803187223e-10	1.909379415914715250e-10	1.730860954987364735e-10	1.593922374630168008e-10	2.128627899779185399e-10	1.785099355909349156e-10	1.513044486810775807e-10	1.043825908122240124e-10	2.350868984847435735e-10	1.652401587090528268e-10	3.861699577468857418e-10	9.060993465684248956e-10	3.224351323421707077e-02	2.447354766318770598e-09	8.378405956910109851e-09	3.795575043364043943e-02	1.262202986807829910e-09	3.732164065002819731e-09	3.638461629183192911e-03	4.597699378251949437e-02	6.227185294622577038e-10	7.932711476226293040e-10	6.262441763859640578e-10	1.449617001923631965e-09	5.761441048216629149e-07	3.177214249511886658e-09	9.680022102908984198e-09	2.280749273592420634e-01	1.740575121715101693e-09	4.917885958728976250e-09	2.437187489184739891e-05	3.364088616681257090e-08	8.691215408113049777e-10	1.068979399084533138e-09	9.151450334904649665e-10	1.944607419698214375e-09	2.771780456267728753e-08	4.490459845294920756e-09	1.479436825693206876e-08	1.634310045293946301e-01	2.262058540707569524e-09	5.332629866840675115e-09	7.709821014723347576e-02	5.372336378833711819e-09	1.065786337505670704e-09	1.200503658646693753e-09	2.067833361700935587e-10	2.070435212630132169e-10	3.500250290385315447e-10	2.979968389236414545e-10	3.134087806904373694e-10	3.184397707906997737e-10	2.585023234518863024e-10	2.899232701213338051e-10	3.138177934012875658e-10	2.697406286324196105e-10	2.483107599986981914e-10	2.290069521529930684e-10	5.832942847711251422e-10	1.170140950630524778e-09	2.673940466607970326e-09	1.922874653893636164e-09	2.922749110265543205e-09	2.262223526204975461e-09	1.516681776000226720e-09	3.267873740386289541e-09	4.947910195231305236e-02	9.713688617799168257e-02	6.543332865435823504e-09	1.926201423637025415e-09	3.959953607376155503e-10	2.558908471507511453e-10	1.673442997038111680e-10	3.391646968471250404e-10	3.050246578016546885e-10	2.576198391711151330e-10	3.405029117503335115e-10	3.196304154346265944e-10	2.809430418234980616e-10	2.185539121917495331e-10	3.180011558660016608e-10	2.548236179732652769e-10
-3.262437685208960384e-09	-4.175985286511961417e-09	1.317126821577093333e-09	-3.290772291562732636e-09	-4.035850153454509644e-09	-3.884847138821227053e-09	-3.614460478127531115e-09	-3.453043846614813270e-09	-3.977277905850719500e-09	-3.959834017909205962e-09	-3.839430197376904717e-09	-3.797834096093683779e-09	-5.697750355288622470e-10	-2.455760436960771031e-09	-3.202910752782735966e-09	-1.602758067414190433e-09	-2.488263389809711911e-09	-2.739749958894813499e-09	-2.205554515621326430e-09	-2.869686325398383325e-09	-3.122820733626153756e-09	-3.179527525055495255e-09	-2.976033671490801687e-09	-3.104268078594850717e-09	-3.198153870585740899e-09	-1.896996968744423696e-09	2.529900402355059544e-02	-1.663433970690260939e-09	1.705672245989939086e-10	6.179100277738022812e-09	-2.392259388568116177e-09	-5.853442227969979932e-11	6.964652922821711056e-02	1.717373074285070689e-01	-3.841630076505907660e-09	-3.227092707030728635e-09	9.123154973048120116e-10	-3.538486221101814465e-09	-3.601894950997096108e-09	-3.461479738546285912e-09	-3.574334736083662128e-09	-3.622832630304830863e-09	-3.248655970629880113e-09	-2.850013848375049338e-09	-3.540911033159995960e-09	-3.781365394511143705e-09	-3.026369807502499310e-09	-3.233541466032610291e-09	-3.043441223036785215e-09	-1.963067799050437650e-09	3.347513573537233555e-02	-2.981106089120264479e-10	5.759116387122362425e-09	3.916149179887193355e-02	-1.641905554412217574e-09	2.555152215110478506e-09	1.835854815145383095e-04	6.505952627741397321e-02	-3.539285508366223725e-09	-2.770598549901868958e-09	-2.400905777856002398e-09	-8.599767890268138743e-10	8.672545600798020027e-06	8.841391037889190266e-10	5.844980117785420293e-09	2.197842923058194731e-01	-7.730574105844028522e-10	4.221873705714343130e-09	1.204802064692918776e-05	9.542260560826045346e-07	-3.262046280465259620e-09	-2.295595436047205947e-09	-2.054687112339480820e-09	-7.283376047317981337e-10	4.796813012981951026e-08	2.271562005505066245e-09	8.379743848209736146e-09	1.791408520539290172e-01	5.834540311386871365e-11	4.296383367430615225e-09	6.035436168384306771e-02	7.210252434269357347e-09	-2.817900810446132883e-09	-2.070223605079974451e-09	-3.185779500234063141e-09	-2.497231991855150677e-09	-1.094928669636680698e-09	-2.878365722032495901e-09	-2.430044256896007615e-09	-1.920445224336080903e-09	-3.101747521230224450e-09	-2.796740132518183418e-09	-2.341679637967767133e-09	-8.407928571367897596e-10	-3.551210394145840462e-09	-3.168233505265707089e-09	-2.629667882873248404e-09	-1.593560552175357620e-09	-7.827371386221901788e-10	-1.185450875622888038e-09	-2.538193789393903495e-10	7.583243846690926156e-10	-1.064939230702608172e-09	2.121193679022678711e-09	4.813029425046057297e-02	8.800605640027708843e-02	2.489266396190522794e-09	-3.872231347370457345e-09	-1.594757358758235645e-09	-2.786530948697032736e-09	-2.804111599384631227e-09	-1.557109162221802983e-09	-1.841581679521923367e-10	3.157917157267275623e-09	-2.577144571873153334e-09	-1.476205711048610587e-09	-5.111546474058467982e-10	-1.148781819508929008e-09	-3.187129123628179751e-09	-2.912872187406175144e-09
