-4.942261066239052803e-09	-5.474888206853486004e-09	-1.011764106380995005e-09	-4.816278536728162721e-09	-4.333539850863262916e-09	-3.975643431583315832e-09	-4.987250100503091817e-09	-4.945132953520032327e-09	-4.800359232545008758e-09	-4.452585580839876991e-09	-5.071553425207912036e-09	-4.753290184283897056e-09	8.597253529449206146e-10	-5.270170892102797594e-09	-5.016986713796659013e-09	-4.412090302857222357e-09	-3.666258137597009405e-09	-4.284616720611158989e-09	-3.582305717725612487e-09	-2.821065494453844437e-09	-5.642540344119859587e-09	-4.757417750613350292e-09	-4.750924113805502596e-09	-9.700891971605464796e-10	-3.979517916438546332e-09	2.582599185116525081e-09	2.653623078657402212e-02	1.054432618005714832e-09	8.625413718222101339e-09	1.322183695754700170e-08	-1.182586082814258136e-09	3.350302743007926188e-09	4.569924020359415751e-02	8.819973057585822618e-02	-2.632061080001033935e-09	7.095083115680723103e-09	-3.458891405206122436e-09	-5.534689268951564598e-09	-5.315339744681310441e-09	-4.350308898041339815e-09	-4.817648672966532591e-09	-5.063806123183744347e-09	-3.222445451698238990e-09	-3.893474657864987566e-09	-4.792184800458246654e-09	-5.242283400723400118e-09	-3.246238197455813288e-09	-2.588816634783765643e-09	-3.809309831190620838e-09	-3.543265443747477412e-10	2.983084582736338780e-02	4.733811722701894919e-09	2.947771340017440172e-08	3.232655611275460361e-02	5.004291667490448678e-10	8.307023862748985411e-09	5.239097674693395622e-03	5.558657762027712640e-02	-2.138608547973216703e-09	4.070710492821316416e-09	-1.861949980169394678e-09	5.618194913496131144e-09	1.998126858427104816e-03	8.715074858096436050e-09	3.703203815605800785e-08	1.570716906688395809e-01	2.659596030059477278e-09	1.106215917649911341e-08	8.886564407188348496e-07	1.096640475548076461e-06	-4.207609517514088418e-10	7.863623750196053530e-09	-8.588727469125512592e-10	1.078720851351915161e-08	1.198807829731451264e-06	1.676568339011060351e-08	6.727758762590013295e-08	4.190017514126566089e-01	7.334451011903943320e-09	1.813214514113994499e-08	8.661130596793756298e-02	3.218722119883774771e-07	1.998959701690617171e-09	1.203561155432363051e-08	-4.583385634268051372e-09	-4.561924145096876558e-09	2.336030844348218681e-09	-4.518749112587241353e-09	-3.671509871035638307e-09	-3.283636547913204655e-09	-4.521058141412076803e-09	-4.235185384505682811e-09	-3.659538453538789794e-09	-1.780415541757056654e-09	-4.289666598451932607e-09	-3.422447140154623200e-09	-2.261274523698782221e-09	3.717072741030017367e-09	1.949630671414508444e-08	2.987741527311728207e-09	9.717737699054299789e-09	1.541852025820863010e-08	2.755406346911880183e-09	8.554629192598260919e-09	1.882820571723909514e-02	1.615547223236763960e-02	6.448242317442668288e-08	1.691144723819483497e-02	-2.208679592506095765e-09	3.371863129943476331e-09	8.807988248356280206e-09	-6.538523621973137479e-09	3.365708332562141239e-09	1.436742042845319547e-08	-4.455642814091009942e-09	-3.418594357877032959e-09	5.124293541756851741e-09	-8.079817573216442028e-10	-5.526789561559053685e-09	-5.290157947019389109e-09
-3.427906210861039882e-09	-3.562771783455387116e-09	3.539872194684450609e-10	-3.252851033529103454e-09	-3.111728404581011714e-09	-2.811681296905714564e-09	-3.362078882182743531e-09	-3.297668961737829298e-09	-3.202370330611513945e-09	-3.284458349869822389e-09	-3.346485688140178404e-09	-3.218862794335720542e-09	5.355093678946422759e-09	-3.836688820585066946e-09	-3.937255184899964565e-09	-1.541200457519246667e-09	-3.750017054016962899e-09	-3.788597812071198931e-09	-3.529198613202952090e-09	-3.229427225291479865e-09	-3.873533364429010003e-09	-3.801599626401310202e-09	-3.007319288243009911e-09	1.028176203342223227e-10	-2.887232681716478883e-09	6.684682213799982369e-10	2.799913125874959469e-02	5.253183587081324141e-10	8.607207554092080421e-09	4.880732320257701703e-08	-1.151758054748293780e-09	1.694399366764790070e-09	2.424337152109546853e-02	1.006446308970996295e-01	-1.162487024352597237e-09	3.294975357067081562e-09	2.531361918486648673e-10	-3.541639633456923840e-09	-3.831981130253968544e-09	-3.158526581254009858e-09	-3.323250098487585560e-09	-3.386994129814784850e-09	-2.397240649400892197e-09	-2.887411086183028578e-09	-3.320478090097482476e-09	-3.583106021813294983e-09	-2.069040423156801147e-09	-2.752811932003911875e-09	-2.787441952367211253e-09	-1.174502613088818006e-09	2.926969970462810905e-02	2.213381102007518544e-09	1.868066200557728690e-08	3.625248992762619693e-02	-5.018851386013288558e-10	2.794976301958492229e-09	2.948343592637325122e-02	3.577887552083495321e-02	-1.156502211349343347e-09	1.608550756031243325e-09	-1.969244663999047883e-09	6.467967669449093898e-10	5.184922669480702073e-07	4.311033487437416576e-09	2.125496105595341978e-08	1.548546735741921643e-01	8.054760468308859670e-10	4.902966135284767188e-09	2.479109124136843011e-07	1.171010593384431047e-07	-2.751797199959703572e-10	3.092831726434035973e-09	-1.307105383183551767e-09	1.846790251461834592e-09	3.704064831710689380e-07	8.737306240411380176e-09	3.821760586909568224e-08	4.086673501788072871e-01	3.554265891399852706e-09	9.737643576751688322e-09	1.057425415810070435e-01	2.496269935485910430e-07	1.450260417913775970e-09	6.457453760829662225e-09	-3.199303109765444566e-09	-3.171995538318459058e-09	1.662407650770599108e-09	-2.966687428750365993e-09	-2.433721924921019907e-09	-2.130112129193753236e-09	-3.001320549333134747e-09	-2.753707977460245423e-09	-2.378481053517316891e-09	-2.305073970755257968e-09	-2.754699375835199526e-09	-2.492800184822376004e-09	-2.257964610247006458e-09	-8.214994443399857808e-10	4.654483118387728703e-09	5.590148291011512444e-10	3.170557120443292967e-09	4.503635339284936993e-09	1.898384698980803587e-10	1.934618507157328752e-09	1.291311480976349046e-08	2.641736892824638958e-02	3.915073733630592484e-08	2.064482655356459154e-02	-2.214534832972859837e-09	-1.799428479200378472e-09	-2.090369622184059620e-09	-3.454090079431488645e-09	-8.512649725250357462e-10	6.721152646113459751e-09	-2.814030556958881710e-09	-3.208097141812238358e-09	2.979795567163270842e-09	-4.112943729898607443e-09	-2.700984182158245659e-09	-2.812352046592878982e-09
2.704736328932312879e-08	2.436740051635024988e-08	2.485312787211903076e-08	2.973360945321408191e-08	2.986343779030847870e-08	2.886544071551637694e-08	2.863388549067600532e-08	2.793276338324720708e-08	2.716695099022345500e-08	2.435720269071980223e-08	3.140020710358529337e-08	2.836669462622181774e-08	5.489757538779782860e-08	3.228736168563228405e-08	2.661892542563729945e-08	3.701083475340007870e-08	3.424660534690346060e-08	3.205757767721413971e-08	3.966765850117191003e-08	3.408918174028179835e-08	3.023285736681517580e-08	2.619431110205371185e-08	4.584727672075181161e-08	3.672990567825832859e-08	4.514076609231426150e-08	1.083304700530610180e-07	2.798915660603179534e-02	1.901528218584100105e-07	5.601651341535075660e-07	1.125571366816702569e-06	1.176705246288031826e-07	2.659634811748828247e-07	4.852638454700692466e-02	8.778489091001491496e-02	1.171647607798819687e-07	1.608683814313681123e-07	4.644599347182301958e-08	3.527072792032019097e-08	3.309818445035701087e-08	4.275590450253444186e-08	4.143681492861652303e-08	3.939519831339397821e-08	4.349337103581449877e-08	4.061831170459581739e-08	3.770235967962412571e-08	3.247200904620826191e-08	4.879732962434569492e-08	4.196393528358191934e-08	5.151314118372228805e-08	1.174124495077890326e-07	3.047287454099690401e-02	2.593733551751215405e-07	1.049363311127896748e-06	5.204703919926323419e-02	1.527308531627094861e-07	3.764967722178205639e-07	6.276314081553313433e-03	3.774193548472463272e-02	1.174676466231741729e-07	1.612786534603531785e-07	7.416935405997736502e-08	1.744727123753651826e-07	2.376098042600230219e-05	3.561330926734267615e-07	1.459541072740284432e-06	1.554839682454524086e-01	2.075228879697979969e-07	4.989680015041178809e-07	5.571347080740981567e-05	2.580469036139175158e-06	1.477620088056112883e-07	1.997181464104232127e-07	1.032365235150856620e-07	2.412648480438805829e-07	3.352270386405725405e-06	5.304454022820400399e-07	2.357139306797015989e-06	3.918801689795800569e-01	3.045164104042594742e-07	7.116639369397914644e-07	1.185056479651150907e-01	2.827578625626992959e-06	2.115618177676951530e-07	2.952308995560245172e-07	3.377434711227847547e-08	3.585730345855218695e-08	4.074249085442915209e-08	4.496907438976689017e-08	4.738329360252670173e-08	4.644202154868377298e-08	4.215262564111512494e-08	4.366527009464331995e-08	4.453129582873069766e-08	4.112788890329712413e-08	4.778112678427955510e-08	4.469128141753370774e-08	7.032151189012002992e-08	1.551065139444401686e-07	4.954815789498154659e-07	2.478319510959225104e-07	4.959577731838818765e-07	6.381319629127108040e-07	2.219912897946520677e-07	5.516378279354567686e-07	2.445201446052895110e-05	3.513339400933990220e-02	4.497254036226835572e-07	8.023402873048665271e-03	8.314327094361370075e-08	1.737063349398634977e-07	4.579698491124500813e-07	2.681311363454642381e-07	5.744621058612593251e-07	8.503789472804102709e-07	1.850251915165111973e-07	3.738539349414807796e-07	5.213709958719240945e-07	3.798591209094861676e-07	1.493831573070422655e-07	1.832576455200485255e-07
-6.964752249631474347e-10	-1.081494436134201686e-09	1.066770080834976762e-09	-3.690386282939073617e-10	-1.715070685939508332e-10	-2.097471230374181220e-11	-5.419667328671201407e-10	-5.757832777890003846e-10	-4.990658428320111202e-10	-6.885772446402413103e-10	-2.332934216937876126e-10	-1.220752561307334998e-10	3.971273822146932117e-09	-6.462163507852488033e-10	-1.193869989724121091e-09	2.548759543537329337e-09	-4.332651176181509205e-10	-5.972984958702318595e-10	6.048467462049452213e-10	-3.338003394653699987e-10	-6.763971809833234763e-10	-1.291661772665586929e-09	3.132368678941696359e-09	3.829097643999372430e-10	1.425356521446122368e-09	8.114564037108311774e-09	3.266201025813670472e-02	1.432437497961617050e-08	3.391001557982811773e-08	4.913154191443478216e-08	8.283678326027770631e-09	1.994192624308033770e-08	4.385794760870872361e-02	8.068110950749930732e-02	8.259909869794752405e-09	2.992124790622603461e-08	1.169013508884055393e-09	-3.777666662809709776e-10	-6.517803575502304263e-10	3.263471511412014167e-10	1.488870287389918687e-10	-3.809888196584321528e-11	5.078132014276432342e-10	6.864971031644537898e-11	-1.878340480661997263e-10	-6.997992469659300215e-10	9.546876631535928504e-10	7.721410254564126186e-10	1.893789198208522096e-09	8.739894386397958075e-09	2.115939864559111469e-02	2.260750962094382155e-08	8.153794940307812340e-08	5.396600153052504012e-02	1.217330823868219627e-08	3.293583084502829488e-08	2.851966332553653935e-03	5.544330337294104544e-02	8.253465008925057637e-09	2.336977430849953160e-08	4.713944374107372968e-09	1.571823751077815028e-08	6.024840201877267563e-03	3.275120976574612389e-08	1.142109804996424047e-07	1.611130389321659417e-01	1.737566528076694273e-08	4.088080019883690441e-08	2.170472905609702027e-06	4.835905175697814088e-07	1.214210265089803618e-08	3.027452372400140663e-08	8.348719793874281746e-09	2.754458146653393017e-08	1.247090864384771694e-05	5.067725809080648536e-08	1.842779713735041857e-07	3.746873471007274303e-01	2.710084364725603965e-08	5.676772395810682299e-08	1.225185515167028089e-01	7.642868163960910961e-07	1.817312251332308149e-08	4.225355227858889664e-08	4.828645177609256333e-11	4.717098387269286381e-10	3.961043262905168583e-09	1.363748784891654680e-09	1.550412694362713106e-09	1.482960039109504075e-09	9.986678516415678045e-10	1.219505680314831609e-09	1.556950699236648263e-09	2.766101819680187194e-09	1.665443055330466773e-09	2.451965360035887822e-09	4.277349565236171176e-09	1.319281265397013615e-08	5.098626392436698110e-08	2.070160813532219521e-08	3.894316175140840187e-08	5.509566260909620821e-08	1.824744259237254442e-08	4.245059470511578346e-08	8.196591915463007083e-03	3.010451235094791997e-02	3.330957033716845307e-08	6.715739834762949820e-03	5.161524210862541463e-09	1.762213540897015903e-08	6.610835898254575195e-08	2.174756769423750260e-08	4.411264465797882477e-08	1.096080765982728129e-07	1.325637156130309869e-08	2.818696156559665558e-08	4.447608799664222470e-08	2.833480891653821133e-08	9.166000731449052239e-09	1.554891281181781804e-08
-1.298716599832445872e-09	-1.457826783666752531e-09	1.239458644822489202e-10	-1.228309476415637840e-09	-1.079677708399890731e-09	-1.039430735445975941e-09	-1.277473035790616655e-09	-1.259970489857992170e-09	-1.214159416016597583e-09	-1.219801438454745211e-09	-1.243928857705781642e-09	-1.133594935208251169e-09	1.165150128680664101e-09	-1.453737981527078275e-09	-1.501657251069638329e-09	-2.837891987997540682e-10	-1.380517513004574527e-09	-1.404302256247283741e-09	-5.580057789530283360e-10	-1.385749224569869243e-09	-1.462492149023717027e-09	-1.551210988581150669e-09	1.346961273412216229e-10	-2.725724595243111969e-10	-9.409434650739080581e-10	-3.665039827848089181e-10	2.741063968861631381e-02	1.236199368483548412e-09	4.415819622700302697e-09	4.640762798600572192e-09	2.257546052929737356e-10	1.979535744643774606e-09	4.692547492394987668e-02	8.699592634579590700e-02	2.095684542526876820e-10	3.355296053997789715e-09	-4.883991994754822323e-10	-9.952139971063540436e-10	-1.329518600836225568e-09	-1.197018371721699358e-09	-1.228797434321583876e-09	-1.268496125274751058e-09	-9.035861590276917229e-10	-1.190848778594050234e-09	-1.290525273503785815e-09	-1.343155415667829115e-09	-9.375326849881508814e-10	-6.684323906713502629e-10	-8.808655056131131080e-10	-1.134545004017069711e-10	2.128900411810543541e-02	2.568754296192602176e-09	1.152754707500211248e-08	4.426109172743469822e-02	7.881293961425058328e-10	3.491550727442290285e-09	7.360403108303850001e-03	6.091301824180908597e-02	1.537489492814206412e-10	2.420258473456643523e-09	-3.875732427982252939e-10	4.981097033194157831e-10	1.251430507598065220e-02	4.219159793128786919e-09	1.537067004136246159e-08	1.435089736220503120e-01	1.737235475688777885e-09	5.048006225059093638e-09	6.133190586225316420e-07	1.322832862314392584e-07	7.854827793607125720e-10	3.628193983267605790e-09	1.314158999447117215e-10	1.907748033582524058e-09	8.647755005541049461e-07	7.320711855348613341e-09	2.682432989659681034e-08	4.241087413831167163e-01	3.390355027322532424e-09	7.459176331858120905e-09	8.680925757285776201e-02	4.964169613830268511e-07	2.076332775018313427e-09	6.839761642951711950e-09	-1.182773861656209013e-09	-1.154730127056101384e-09	9.921573935440668837e-10	-9.013228780588061982e-10	-9.929620348951003866e-10	-9.081471629601477919e-10	-9.924893803599353198e-10	-9.337685266765665967e-10	-8.879923920075327583e-10	6.228014825460489865e-11	-8.666571116686009662e-10	-6.578346578431605382e-10	-4.041178408278497918e-10	-1.490037669070210235e-09	9.724436639173028973e-09	1.946309299712326287e-09	4.346609507188460490e-09	6.383613984750631424e-09	1.573321453958320153e-09	3.595711563291547394e-09	1.444372110591036866e-02	1.440310636578573736e-02	3.498113171289814341e-09	9.054086152757810993e-03	-3.748054133484853285e-10	2.433710244970537399e-10	4.850396405492863297e-09	1.405831305637260374e-09	6.244435383745998756e-09	1.234410049705460356e-08	4.989103555069723967e-10	2.750616662956746108e-09	5.680684876089859028e-09	2.767512748072967100e-09	1.583524403440674698e-10	1.017975003232337380e-09
2.622318040547127401e-10	2.312516267630098514e-10	2.401417668582750126e-10	2.861712108666472280e-10	2.891442846950488630e-10	2.800426958682686460e-10	2.749128162929361467e-10	2.666739984323891385e-10	2.582779371147995410e-10	2.262229335765617684e-10	3.192543029822450514e-10	2.677245822636064889e-10	5.393071073217649740e-10	3.032349619838752038e-10	2.400594746494135433e-10	3.478507491159074738e-10	3.108359665799123849e-10	2.877763009742917606e-10	3.654363566305373665e-10	3.123421404864127010e-10	2.683242474537562190e-10	2.326771006986924744e-10	4.573738162650354656e-10	3.533277803589014095e-10	4.710742653005713604e-10	1.246874726700782925e-09	2.147732570542868966e-02	1.961218918702634338e-09	5.987631717291873687e-09	9.580015128990108207e-09	1.270602817636020055e-09	2.997598348508578425e-09	3.525263837567853276e-02	1.064173460421746625e-01	1.645244502670158854e-09	1.896132005767128008e-09	4.877842717555794303e-10	3.320316306429389655e-10	3.154638573813895728e-10	4.107905362513093963e-10	3.985592431730127097e-10	3.776548037110648202e-10	4.124172817167128486e-10	3.776731775923923410e-10	3.557027095428619923e-10	3.090505860406876676e-10	5.064541169902714883e-10	4.005154521343426248e-10	5.277607892660583061e-10	1.308710892055692049e-09	3.588872427055465886e-02	2.809536642634370200e-09	1.323236774517242793e-08	3.809232102373225071e-02	1.610271166556171766e-09	4.006893462904665102e-09	1.798325293866217048e-02	3.657206722167096608e-02	1.552879302095220473e-09	1.771902014262149552e-09	8.382838928114771803e-10	2.407424044570673071e-09	2.069478612925466514e-05	3.758778294281129254e-09	1.758630795489632111e-08	1.563907387006196192e-01	2.204668756238822840e-09	5.263985235984279279e-09	1.818677227983219040e-07	4.770788649519751972e-08	2.009512311515632049e-09	2.413199042146167832e-09	1.287710447330957236e-09	4.760398868996143900e-09	8.700375720241439723e-06	5.652685670970458007e-09	2.966705645220428333e-08	3.924514841622980255e-01	3.376987572587058309e-09	8.428139037211604014e-09	1.107736501340469137e-01	1.366274085226848195e-06	3.539982096702871581e-09	5.183481204552251543e-09	3.521982858143626683e-10	3.943316220092727878e-10	4.715256048744404859e-10	4.761276992295051233e-10	5.122867114363563496e-10	5.011126557299684630e-10	4.443570896778751039e-10	4.660120438728141491e-10	4.746413069676130229e-10	4.381924897163943971e-10	5.629451853036382130e-10	4.719500039209241039e-10	7.788391673875285977e-10	1.996793975217293433e-09	5.902146657633210389e-09	2.324824473865134278e-09	4.351801654054039804e-09	4.883043189546686482e-09	2.251610723773043894e-09	5.558878727987687188e-09	1.584114763706010030e-08	2.502981189885045143e-02	4.105236641651482663e-08	2.363932341257016928e-02	1.002240043127701229e-09	3.030681484801996557e-09	9.467625927736415471e-09	3.501694105071931334e-09	9.722677018662872191e-09	1.355348992281835919e-08	2.306074351826728108e-09	5.278055696068856962e-09	1.037761588188072978e-08	7.803335162776640598e-09	2.125587162106846456e-09	2.265949858044173022e-09
-3.262886119124629058e-10	-3.667364100779731469e-10	6.840541191096013395e-11	-3.129301035522192501e-10	-2.942189408472444745e-10	-2.741442046781813117e-10	-3.244747036529224530e-10	-3.246691976505756876e-10	-3.160266282719184479e-10	-3.032053579232464809e-10	-3.138096984883170210e-10	-2.918282641341378262e-10	3.670223651613240312e-10	-3.689660738532727532e-10	-3.790021301817088961e-10	1.471486898404860612e-10	-3.553728317340222094e-10	-3.654406325204578376e-10	-2.963178414976187299e-10	-2.959999237877238385e-10	-3.729281411446128374e-10	-3.364458938944251098e-10	-1.540354071292729075e-10	-2.575833344912979563e-10	-2.282404699088411082e-10	-1.595782899406293003e-11	3.001023273122388133e-02	2.860585070413466646e-10	1.088876856872238756e-09	1.852566358232609157e-09	4.430961221187939514e-11	4.745809454004775294e-10	5.222991083231274395e-02	8.133333666938938333e-02	3.892389238569133710e-11	1.022717445241385006e-09	-1.157599334950023039e-10	-3.310479592030944258e-10	-3.433490724561365377e-10	-2.802344745555413323e-10	-2.954488290144030376e-10	-3.075473619736650018e-10	-2.070464522600770283e-10	-2.655967791560159063e-10	-3.085341844075039160e-10	-3.341884848990356619e-10	-1.293098096953439237e-10	-2.203814238040453983e-10	-2.177597625015638961e-10	-6.231175375688338737e-13	2.609388908543869637e-02	6.018700657564516977e-10	2.720266036105186476e-09	4.564496885277991023e-02	1.893541362413361287e-10	8.975419967150900127e-10	4.989683863465227236e-03	5.160952829904902339e-02	4.220737886477111241e-11	7.064072181056397303e-10	-9.675056622057889576e-11	1.482607251411242879e-10	7.840458706060059204e-08	1.020760380007224736e-09	3.769750897418150118e-09	1.552005400639075716e-01	4.200462475372549174e-10	1.235965929287995901e-09	8.173429337708146567e-08	1.292710520109482086e-08	1.976560248001370003e-10	9.465206639936904478e-10	1.509962737407460184e-11	3.293005140232141670e-10	3.194125538377398536e-08	1.777598923725429666e-09	6.497677898801016173e-09	3.961022688457800922e-01	8.463087338697344104e-10	1.880457394564338876e-09	1.084362707545904747e-01	1.932242547328971355e-08	5.133546348985159605e-10	1.641216947804133780e-09	-2.905752181481366339e-10	-3.118343811674503716e-10	4.659411847714077601e-10	-2.219717933661082826e-10	-2.258467960781272987e-10	-2.040659045974690540e-10	-2.407003802220330538e-10	-2.402292407025644392e-10	-2.268552062083502179e-10	-1.930796958648057810e-10	-2.226110559304064610e-10	-1.755287142815480413e-10	-1.161110064881144708e-10	3.165624666037756262e-11	1.797932186717734766e-09	5.999697403707462043e-10	1.523929049182740423e-09	2.533963972114560997e-09	5.024571657049070080e-10	1.457789823320340629e-09	4.080060090454910859e-03	3.088808201176864929e-02	-7.463367342984574858e-11	1.338096947366717616e-02	-1.231021706764736484e-10	-4.027994472672812411e-11	5.252349292258449680e-10	1.739058731819808068e-10	1.003350237371057770e-09	3.058742116333022380e-09	4.098243307309854446e-11	4.141718213529564817e-10	1.069894990519407606e-09	3.256721133338931053e-10	-6.345268497681866748e-11	8.175811436008082686e-11
-1.702465191225903063e-10	-1.834521057384819489e-10	1.317103211892112590e-11	-1.657944627677487525e-10	-1.587694172795780556e-10	-1.428103298354212944e-10	-1.683609646731031935e-10	-1.699926448560957194e-10	-1.677443093943893828e-10	-1.583958096894202679e-10	-1.695545226609398096e-10	-1.588642322434920079e-10	1.275798386021831277e-10	-1.921905576037363970e-10	-1.859175926232298447e-10	-7.119261669366076742e-12	-1.849786717454860637e-10	-1.840535483617563062e-10	-1.656458028410924572e-10	-1.347114210338864673e-10	-1.917814817154643174e-10	-1.994659186353813323e-10	-5.244289320840612436e-11	-7.723400772070666796e-11	-1.415224588087773981e-10	-5.256810948327272454e-11	2.249563227842495128e-02	1.132017126099058212e-11	2.481143956445155269e-10	7.372945641678487682e-10	-5.788653023764222403e-11	6.619648802659807342e-11	3.853336006306940648e-02	9.574939141773242124e-02	-8.768137902784897642e-11	2.558983768658129030e-10	-3.418065431635348816e-11	-1.823127752885635797e-10	-1.837134889914101130e-10	-1.573985061740694818e-10	-1.670754917601363003e-10	-1.701184523880215472e-10	-1.405725866648958339e-10	-1.440937878726011117e-10	-1.668502162233378796e-10	-1.762123675056754458e-10	-1.043590085520207893e-10	-1.239961890004729684e-10	-1.392280739441579480e-10	-5.074446965320042395e-11	2.792273642814377399e-02	1.108751948767854970e-10	7.275195421326482268e-10	3.836161269525829864e-02	-1.933365685834898478e-11	1.561734780087633517e-10	1.129460878867148688e-02	4.910761077878308262e-02	-8.265703174221433964e-11	1.053288638087263772e-10	-9.469427346985594850e-11	6.380795651329685430e-11	5.635781334084619641e-03	2.302336672261745666e-10	9.543871576827941491e-10	1.566747744782548690e-01	4.731300826937545777e-11	2.558147524723284240e-10	1.165840584578361432e-08	3.370501488257625981e-07	-2.003563210937002887e-11	2.884985124374909722e-10	-6.789085394483838764e-11	1.563549759670461697e-10	1.513356493364183950e-08	4.536867471124769456e-10	1.700950547003150256e-09	3.875199809321874245e-01	1.911691967992597500e-10	4.571292216494928969e-10	1.155873758573376930e-01	4.662387028295114313e-06	9.183892814249507398e-11	6.703947181875792766e-10	-1.581644741311653422e-10	-1.655077503931855044e-10	1.037548337322816142e-10	-1.516231899791219439e-10	-1.281024871162531492e-10	-1.155298171155251349e-10	-1.520386319014776558e-10	-1.423640640625407030e-10	-1.273291370432147335e-10	-1.058970340159373126e-10	-1.461866939154513679e-10	-1.186387377716116317e-10	-9.986666914558886362e-11	2.139457722698360003e-11	3.908264974459952844e-10	8.141477289076246586e-11	3.032134595018075601e-10	5.287248169026218615e-10	6.444188645738038426e-11	2.012585508661818308e-10	1.143820811325622737e-02	2.408074410349292024e-02	1.117143253134666209e-09	1.559315348787129914e-02	-1.107032840227635568e-10	-3.270314629903648760e-11	1.493297167818776176e-10	-2.168229743804145267e-10	9.600340513441436710e-12	3.639951972318539917e-10	-1.652591615940590989e-10	-1.442986998996253108e-10	2.862433617038369584e-11	1.323679857021302111e-10	-1.801205211173647322e-10	-1.870494192793128596e-10
-1.153125859094269212e-08	-1.263582089094819294e-08	1.784518596767493893e-09	-1.159928199193022023e-08	-1.095251785306866623e-08	-8.152688709132762485e-09	-1.192709270315767560e-08	-1.180301992347362680e-08	-1.156169694503098353e-08	-1.142710780686610363e-08	-1.159091214384152650e-08	-1.109886568528777475e-08	1.222086104905404809e-08	-1.368364817865002899e-08	-1.400649547798587073e-08	-3.899325627969762723e-09	-1.085803284948707695e-08	-1.276320208030079771e-08	-1.167663021918479715e-08	-1.081558128735605092e-08	-1.294017544389223657e-08	-1.423874408235010032e-08	-6.674872987370545458e-09	-1.517340400685246581e-10	-9.616037996821553947e-09	3.656665569815660591e-10	3.219110044890025751e-02	2.429976658118198361e-09	2.627198893595965554e-08	7.189246037884146174e-08	-3.267643623630925941e-09	8.117484747522902436e-09	3.367270166292318789e-02	9.147502499542879695e-02	-2.782503803769463942e-10	2.225929050105514427e-08	1.852152446490290874e-09	-1.199231145871764817e-08	-1.288846506215975470e-08	-1.107527150817061755e-08	-1.150235698509484462e-08	-1.187851511314298769e-08	-4.462155130831193932e-09	-1.052650935542315375e-08	-1.188885948339694622e-08	-1.267908282530452415e-08	-9.266328982087641115e-09	-1.015718218832568377e-08	-9.369433338747390025e-09	-3.796160446714563086e-09	2.099507240534451841e-02	9.924776766674196282e-09	6.901296102185931453e-08	4.142016414816266506e-02	-5.981945862540751188e-10	1.356001889203144794e-08	2.520450337259375409e-02	4.337286160015868530e-02	-1.589297975823160368e-09	1.246490231506493400e-08	-6.181141316742660464e-09	3.352315532498563976e-09	2.681390592302306601e-05	1.933112163371460649e-08	9.288426170313963233e-08	1.578211626224459152e-01	5.425249685588624411e-09	2.514432568475818106e-08	4.270153649491280062e-06	7.564285993646313300e-07	2.148378911730307038e-09	1.901264632895977621e-08	-3.922955710180104913e-09	7.201419862229286422e-09	8.673773052983546435e-07	3.705232325143036848e-08	1.622460533172957787e-07	4.029221906748650661e-01	1.558890033889698492e-08	4.205061085650176171e-08	1.013654005491287508e-01	5.549651191510260555e-07	8.045705297740647222e-09	2.862593763188621880e-08	-1.191502001490141976e-08	-2.875867917436734119e-09	5.812631466308559433e-09	-1.056505261921614930e-08	-1.177543613610671790e-08	-1.151246795234937846e-08	-1.089407995719682005e-08	-1.162849757373678536e-08	-1.167943248014283005e-08	-1.068368411153921104e-08	-9.459725138270210892e-09	-9.707930179132904172e-09	-6.762133742979644575e-09	4.810817791114015641e-10	4.433083487162253381e-08	7.328649586246111229e-09	2.831396041092799746e-08	4.086977050071589768e-08	7.362230090872208922e-09	2.735565665302375954e-08	4.631329497419609728e-06	3.710816777264643734e-02	7.623219404285178683e-08	1.241333940630864191e-02	-7.400246217291511726e-09	-5.791618285671493656e-09	3.004833088804742798e-09	-8.778021967883537776e-09	-2.814590969582734816e-09	2.966617645629155551e-08	-7.003626242295882327e-09	-8.536846287522812193e-09	4.191230801787570451e-09	-1.286288443909019529e-08	-6.430118957018492871e-09	-7.032418846376455137e-09
-1.513973854588414524e-10	-1.674320085826874329e-10	6.150425291595631749e-11	-1.426605532384369871e-10	-1.338845614169821314e-10	-1.033865141186169972e-10	-1.475070735889365953e-10	-1.465582113163420328e-10	-1.421314883135715661e-10	-1.347718576996269544e-10	-1.400660241621823491e-10	-1.336122488003466376e-10	1.462591314202723650e-10	-1.662163848671793985e-10	-1.615849585807730774e-10	-7.737281129989103603e-11	-9.308392370275370039e-11	-1.434137813914070580e-10	8.633365918722544575e-12	-1.560472985538118677e-10	-1.676157580970834799e-10	-1.808177490349254412e-10	1.016888786082069294e-10	-1.440060661764665689e-10	-1.010294806297612764e-10	1.434856545028715534e-10	3.721602528045762914e-02	1.928791621254202052e-10	6.388526001954288881e-10	1.418252833419979412e-09	5.784987739168501851e-11	3.053053050381231268e-10	3.896153461885987213e-02	8.028212656061387009e-02	5.945406580476365573e-11	5.673034021102972267e-10	7.291103022151683241e-11	-1.343378539760569084e-10	-1.632976450264830906e-10	-1.284884501393127093e-10	-1.338176154469784268e-10	-1.400548733258166584e-10	-9.883447652969921423e-11	-1.250590236177502596e-10	-1.401811607087675608e-10	-1.573313250843553588e-10	-9.362815836093569830e-11	-1.197130491331418687e-10	-9.515966126766025516e-11	4.013810467269287883e-11	1.793375910396051084e-02	3.924211876811676931e-10	1.777090576411378253e-09	3.924971311502219867e-02	1.640065862445348723e-10	6.464663786424862337e-10	1.883969711948977948e-04	6.743774344950213828e-02	5.336533828730765617e-11	3.886740105316125800e-10	-2.678034092111185924e-11	1.863362337007805032e-10	2.631016924744592646e-06	6.149468647679629390e-10	2.297382663699261344e-09	1.680495286686758127e-01	2.769451370501259445e-10	7.870055138587629300e-10	7.112748583476285246e-08	6.092953669715255700e-07	1.773509857202171703e-10	7.182420658091785670e-10	3.263400026275972809e-11	3.168365789260914486e-10	4.094331856883432638e-08	1.029371546563372691e-09	3.815124734372400754e-09	3.702316483833222871e-01	5.023755931484023122e-10	1.113847923237585407e-09	1.333370787013753722e-01	1.122072196439297928e-07	3.479071260798278395e-10	1.067131489028927220e-09	-1.279734076491880507e-10	-8.704544351993852539e-11	1.185923791209123613e-10	-1.163598039337753023e-10	-8.792094718346367333e-11	-6.461706523368057583e-11	-1.183226711531619599e-10	-1.155145516891488227e-10	-9.106776244137093697e-11	-2.316458628957076652e-11	-1.027119433920461582e-10	-6.985837342776942542e-11	-4.003592750613810949e-11	9.563646908128984603e-11	1.101816815831368219e-09	3.298609151994380831e-10	7.493579012151158479e-10	1.090724912722318074e-09	2.959497204628457998e-10	7.567678254498613417e-10	1.149628805256015796e-02	2.189807703042557369e-02	3.888446736801915752e-10	1.371459059705230389e-02	-1.460780930570758554e-11	2.201673365478809729e-10	7.209584075269944698e-10	1.720147065909250325e-10	5.083178924761604775e-10	1.882360909602848070e-09	1.295221144874332119e-10	2.673325408290554063e-10	7.029167188395340055e-10	1.291592667072912769e-10	6.415979403609288732e-11	1.827002234084501083e-10
