-4.393925787640346748e-10	-3.975932946341018931e-10	3.576781584488266065e-11	-3.963508319343154444e-10	-3.291968143302870606e-10	-2.719388146897252124e-10	-3.926133607060643389e-10	-3.858018772763326788e-10	-3.789832845176855856e-10	-3.849676872747383006e-10	-3.518280938958272646e-10	-3.549605964324195119e-10	2.645375883160211367e-11	-2.252919482903685886e-10	-3.731335413635917655e-10	-1.890165125822055035e-10	-2.853755448347589447e-10	-3.659239121141062547e-10	-3.451508169554161976e-10	-4.098512350380304630e-10	-4.463965098739443884e-10	-4.118976546066612893e-10	1.250777896743903814e-10	3.656996176762585692e-11	-1.944120462060460723e-10	2.809324291059956533e-10	5.440907847805959846e-02	1.137431636579648426e-09	3.874939578277954774e-09	3.762772524404521324e-08	3.069390692852009935e-10	1.640719052136502474e-09	4.337250046671659726e-02	8.275439933760307676e-02	5.033520452801062418e-10	2.793793851594617395e-09	1.124679838031457482e-10	-2.566960666373991624e-10	-2.985359205553961608e-10	-2.025909816738135844e-10	-1.981232027065627998e-10	-2.078669349158732210e-10	-1.784197695005400994e-10	-2.076477891735239439e-10	-2.439411291355415167e-10	-3.175422090556664103e-10	-1.315390065185960515e-10	-1.771226013164241401e-10	-1.428201876810690728e-10	3.079156253183109479e-10	1.054051272463688016e-02	1.572000073599884082e-09	5.400925863419443103e-09	8.354441779330086526e-02	6.034595307585367996e-10	2.941361947803328480e-09	7.557547520346333801e-05	3.566432367850241869e-02	5.103273781350934401e-10	2.292716988306311249e-09	4.215300344855744688e-11	6.034828087796247441e-10	4.422037161778881777e-08	2.518104867957356268e-09	7.962074693149322674e-09	1.657571454096734564e-01	1.067524649144362600e-09	3.820255393395325921e-09	1.543408324597462878e-07	2.576785205836581637e-08	8.943550841955689489e-10	2.894475631123027435e-09	2.923167739211153431e-10	1.072799018173572836e-09	1.654818613264779815e-08	4.120615137893478738e-09	1.273450486827489932e-08	3.367635240988652301e-01	1.911207479009329211e-09	5.706009730476357664e-09	7.338279220058031849e-02	1.344836177229711272e-08	1.481464465656982728e-09	3.630344589981067979e-09	-2.439454374896070067e-10	-6.579391072171429110e-11	2.210110762451932087e-09	1.473320695906438143e-10	6.580889656314819736e-10	1.214474064695012778e-09	-8.719364921197266196e-11	2.980525089935573891e-10	9.344307664896962873e-10	1.347216065434699308e-09	6.967024430280231249e-11	4.387379592934189994e-10	6.878673996629830408e-11	5.867458198456399879e-10	4.667898718118344913e-09	1.696576744212694481e-09	3.445669212475171047e-09	6.113050196848947439e-09	1.066420221849746117e-09	3.419328666176539277e-09	3.938901486324516976e-02	7.427597229025932613e-02	4.109126115318930774e-10	7.032964999584827997e-05	1.014385772986579029e-10	4.749880226395563925e-10	4.836600417259701422e-09	1.207666374345571830e-09	3.518211534108678465e-09	8.997807690110520243e-09	3.984046368177864802e-10	1.876600907587816050e-09	3.058229550902138020e-09	2.327087356329054230e-09	3.838715679956322944e-10	6.406339967546679390e-10
-3.960510794758839143e-09	-1.026198118894024628e-08	-8.296945652975823441e-09	-2.530629950021974427e-09	-3.306364005836917873e-09	-3.953105652966007119e-09	-4.215451325820249216e-09	-4.085016530852014718e-09	-4.057102649938258409e-09	-5.929680053964908034e-09	-2.641689864787607649e-09	-2.419095446478344146e-09	2.288832978929174045e-09	-2.825537533128157302e-09	-5.462649776823810292e-09	1.472544829171920008e-09	-1.615400521331769746e-09	-2.787264071731561458e-09	2.329466496884577191e-09	-2.686725245413525890e-09	-4.591235790257160961e-09	-6.651180444090897072e-09	5.411847332434315178e-09	2.063230811914355474e-09	5.774998888000911493e-09	2.690753647999142209e-08	4.098372682324596256e-02	8.485466130952860520e-08	2.844950683883551195e-07	4.683152467398947558e-05	3.165616879646163558e-08	1.018466905056969858e-07	3.637526783088160243e-02	9.904831321551710310e-02	3.632701645372352483e-08	1.179286658519345805e-07	-3.815006014179748859e-10	-5.944289184875142818e-09	-2.296252593787211243e-09	4.728256256405648624e-09	2.778700550074000508e-09	2.127825304556935341e-09	8.071732584667471779e-10	2.101747014783018630e-10	1.051789971968272354e-09	-2.062481936814345123e-09	3.212870028057639529e-09	2.963866558772004060e-09	9.306337374975274260e-09	3.340796851640228546e-08	2.451232953838016967e-02	9.977675155190938770e-08	2.976224988438054305e-07	8.384492347442978888e-02	4.316853822990927202e-08	1.400200611813168144e-07	1.256137647060950532e-02	1.320001856795405965e-02	3.862193134871346660e-08	1.104527779159747868e-07	1.916858560877862436e-08	4.825561157398532927e-08	1.214314335130002168e-06	1.479338433780911746e-07	4.267153046420412438e-07	1.611137203536931184e-01	6.601152753588869567e-08	1.846787557923493673e-07	2.580544892954328208e-06	1.371709716414395856e-06	5.756548486455763052e-08	1.370959543157407334e-07	3.377298700085716415e-08	7.347425883228705279e-08	4.114216993604711063e-07	2.359736154546417570e-07	6.898491736514174818e-07	3.345003908098538870e-01	1.138914770200478607e-07	3.142926097415839943e-07	6.296836415009199328e-02	4.813179160013952043e-07	8.072050764914904097e-08	1.542141324675249533e-07	1.259765791523039629e-09	3.442785577947412952e-09	1.195645068110027402e-07	1.540651012996571744e-08	5.718186836155130164e-08	1.328782786682454511e-07	6.124974754621595869e-09	2.728467657048452016e-08	8.685661923772369014e-08	1.337341682647659811e-07	1.660215298948997665e-08	1.842864131869329147e-08	1.745213854496075618e-08	4.563957901923433005e-08	2.098638002214686968e-07	1.159041564385702213e-07	2.337074658612403191e-07	4.982958467844894385e-07	6.694530005320498286e-08	1.843917902910610681e-07	4.964686060124053751e-02	7.830188308562903432e-02	2.537645049234751796e-07	2.881716411996377864e-03	2.174572196797905336e-08	7.627000409645492924e-09	2.479056923847796362e-07	3.080019481557708189e-08	2.421570963005326299e-07	6.941157871367454636e-07	7.541032827030545219e-09	9.254237671436418497e-08	2.676881187701599816e-07	1.572776687301354131e-07	1.717076120216112715e-08	2.266271289778160117e-09
-9.101582739301733544e-09	-9.198274480875425945e-09	6.388295426402385616e-09	-8.402689324534968837e-09	-7.534323474541301844e-09	-6.558550219578144101e-09	-8.832685540110829394e-09	-9.051155117259031755e-09	-9.369516031228242048e-09	-9.805788965100024902e-09	-7.597639351237830744e-09	-7.955236666426418223e-09	1.144837613938092427e-08	-8.071420079841823394e-09	-9.691837213264479127e-09	-3.605823546005200051e-09	-7.297120115888387760e-09	-8.129885995272107660e-09	-6.887949992437587257e-09	-8.733481534932857160e-09	-9.984467169846279198e-09	-8.193251088335987343e-09	5.708833495136182033e-09	8.375910407673305593e-10	-2.677899047182570859e-09	1.224395123546581178e-08	4.356012265272912742e-02	3.773207021066676121e-08	9.983285610743082826e-08	1.884830297951906733e-07	1.418954642051200893e-08	5.599091643794147244e-08	3.266217732973412252e-02	9.970734790358140587e-02	1.736482778105927625e-08	7.186040966042033694e-08	3.651370960964876936e-10	-5.565964098716023104e-09	-6.087484230723921359e-09	-2.643908527762440967e-09	-3.013330209491292898e-09	-3.343919540160108031e-09	-1.993694919974585253e-09	-3.434240001162327233e-09	-4.435065559109725090e-09	-6.528573030395115208e-09	-1.485542881058196057e-09	-2.623794383464647820e-09	-9.314084047804036278e-10	1.339839952457589522e-08	1.811070440368708206e-02	5.596559649534064887e-08	1.734397656890673819e-07	8.641965812844036587e-02	2.282618349423957309e-08	9.024481078258001075e-08	4.652124703601166582e-03	1.775209641187099063e-02	1.768367104405475508e-08	5.930547090321827543e-08	4.524667262973632871e-09	2.343794172010568766e-08	1.894714967468633917e-06	8.636083814126709236e-08	2.504701348800690340e-07	1.678217434019446397e-01	3.737255963834806519e-08	1.165688834129014192e-07	2.826109658631060321e-06	1.242408021168005531e-06	3.031639159416645502e-08	8.028716203020828018e-08	1.335373527351996832e-08	3.820607446994951142e-08	4.430322779557354566e-07	1.402102205761071431e-07	4.026997352157786963e-07	3.214327197266245717e-01	6.447391649307615451e-08	1.753759095398553197e-07	7.467076355830412626e-02	4.358957706035022272e-07	4.689378788861829234e-08	9.834546783983214628e-08	-4.394467598720712744e-09	1.372304825094724582e-09	4.086346020572990441e-08	8.588637097118852310e-09	2.204320607660770825e-08	3.832266447960615221e-08	1.129341150673545984e-09	1.218269945889037505e-08	2.826148052016996549e-08	3.671670730450647815e-08	4.548490459939112329e-09	1.217023078976197885e-08	6.997456769978175907e-09	1.904234842232896103e-08	1.534595021590925000e-07	5.679672173928357617e-08	1.044961563127863395e-07	1.818243073965428709e-07	3.800010708389086489e-08	1.083582513800259447e-07	5.843861646929175008e-02	6.944123959118402023e-02	7.604725523893735144e-09	5.319676042489805690e-03	5.965614282640042132e-09	1.498214753375395900e-08	1.218878491573295085e-07	3.973563968570243314e-08	1.163631552857202017e-07	3.435731231309633092e-07	1.345095949690362752e-08	6.227213607493934117e-08	1.132227355638269907e-07	7.551785482888317667e-08	1.179336526631132331e-08	1.492724780277946401e-08
-6.390509557815747282e-10	-6.870057969277552455e-10	2.317719411170219333e-10	-5.789385421271814666e-10	-5.249041547375432616e-10	-4.406307639259258303e-10	-6.090163823882883243e-10	-5.893618622974843628e-10	-5.914764620408206868e-10	-5.977446248479539376e-10	-5.655759487000870906e-10	-5.628008923207165179e-10	4.098461570193434216e-10	-5.590417230865385067e-10	-7.372255243297640535e-10	-4.224086685501188172e-10	-3.254187210729303214e-10	-4.930903912377723689e-10	1.955368616369690299e-10	-6.539907501602402537e-10	-7.064438417645194900e-10	-6.926685008707994853e-10	3.577920706499439627e-10	-6.396976740859078894e-10	-3.540495331322845233e-10	3.040042742527107685e-10	4.893113458774873276e-02	1.068078976789316343e-09	3.369289804030882550e-09	3.083999232057712879e-09	2.470857364162886637e-10	1.921038044131054308e-09	4.418947330532352336e-02	9.219512415133780669e-02	3.949115076439677652e-10	1.802860178146493070e-09	1.326677101069415822e-10	-4.400866851016980256e-10	-4.714733231381537030e-10	-3.458799140537608858e-10	-3.464303643453390551e-10	-3.615079402837451812e-10	-2.778700765593219117e-10	-3.628219172027623719e-10	-4.132680986058884330e-10	-4.984784744777990688e-10	-2.727084040418687974e-10	-3.667478598740471007e-10	-3.279693717537393154e-10	2.262053379292921331e-10	1.491401234543286540e-02	1.765503019663191457e-09	6.340651192315806426e-09	6.782705964439093849e-02	5.901205809920763007e-10	3.431209535330183080e-09	4.454404125290475067e-05	4.326375141094524618e-02	3.737493045726401687e-10	1.479518452145153949e-09	-7.035287973212688037e-11	6.907894489300106313e-10	1.193514042222936103e-07	2.958373356926962055e-09	9.578483312078433414e-09	1.859021119202570183e-01	1.130053310510548593e-09	4.367882573752839949e-09	1.128777218765811825e-07	2.680533677475909875e-08	7.851702527527273826e-10	2.054308325637848065e-09	3.058334857888580917e-10	1.307114460606282095e-09	2.357784242303226561e-08	4.902335453938044817e-09	1.517201094527295511e-08	3.167757859422997702e-01	2.159071357500290308e-09	6.616443585498443010e-09	7.840753656736963728e-02	1.261098729900766664e-08	1.308615610505488482e-09	2.561341032231270491e-09	-4.430277425689000023e-10	-2.259927871040656536e-10	1.080863032093461970e-09	5.967114928750210253e-11	4.640539933042021721e-10	9.022219508499674883e-10	-2.209252642729985918e-10	1.453951192340874249e-10	5.987300022885312972e-10	8.800832627783822901e-10	-1.115239047355908176e-10	1.489283789014963061e-10	3.052065439868800565e-11	7.316692704683306091e-10	5.881239868097474551e-09	1.876012364026805162e-09	3.780423071935486297e-09	6.454275954201527147e-09	1.166595233125587902e-09	3.964603910502253712e-09	5.366986063489972980e-02	5.387918124189126912e-02	5.616713589914005271e-10	2.474117528334251074e-09	3.548267350024298946e-11	2.998568622702104348e-10	4.912888604405569678e-09	1.049263293032667390e-09	4.263246272706081945e-09	1.145339858669462256e-08	3.034678200236044729e-10	1.776344701724442798e-09	4.502330252038505328e-09	2.630183018754750230e-09	2.138694395290966436e-10	2.460906115956796916e-10
-4.685711063441075831e-11	-7.058462717713275909e-11	7.008274649312276630e-11	-7.436527021549270590e-12	2.143840244829939846e-12	2.306056971016948607e-11	-2.938600986934030044e-11	-2.415001382680159876e-11	-2.936868382698974723e-11	-4.687542822353738040e-11	1.969453636726436215e-12	-6.135210521113728946e-12	2.507319887621081817e-10	-3.049301433861096336e-11	-5.729597557282415254e-11	1.499010631336643676e-10	-1.624077126307313196e-11	-2.470200563516462758e-11	1.209156536114794891e-10	-1.571787212566271744e-11	-4.621380979210817032e-11	-7.572744357051518982e-11	2.660226877126109112e-10	1.804398370192398549e-11	8.914385692252605589e-11	4.109951850454609499e-10	5.019830847340717161e-02	1.362071835495101964e-09	5.240786479384144687e-09	4.834013123466357649e-03	5.313491082039815060e-10	1.900857579456123333e-09	4.664302317305892009e-02	8.836279215596207215e-02	6.561045735678835414e-10	1.645543335841297437e-09	1.282262386286170624e-10	3.707507601009069601e-11	4.362093728604530330e-11	1.344591258108986212e-10	1.254506489046957882e-10	1.157009257943798084e-10	1.242163946418100426e-10	1.104295296686999995e-10	9.088185859082214095e-11	3.720284727961003386e-11	1.644672043498300260e-10	1.245465928991497940e-10	1.364606023073479117e-10	4.856311865873691209e-10	1.753140070140779203e-02	1.515500952596424074e-09	4.747596027142231935e-09	7.116068222804483590e-02	7.229954403784201785e-10	2.680597565859688642e-09	2.104614679665219155e-06	4.016698022424634168e-02	6.784280502632730829e-10	1.501719133304263236e-09	2.796210290022099220e-10	7.200835034978442052e-10	2.895964613390755004e-08	2.259412065779011563e-09	6.931158675536702772e-09	1.723614170991763783e-01	1.076131986703851376e-09	3.389594726828063708e-09	4.136651182686155450e-08	1.074236102335061926e-08	9.679892415657838402e-10	1.854523889867258069e-09	4.977284055048726078e-10	1.106291894221281187e-09	1.241077570958353332e-08	3.535896005166006928e-09	1.103339867268757313e-08	3.260088553145973900e-01	1.848305243216622189e-09	6.043742824517504441e-09	6.809388695044210627e-02	6.807931275866036259e-09	1.323992863357638827e-09	2.156744090181093369e-09	5.712586093355776023e-11	2.056146901796594748e-10	1.663917780761002456e-09	5.652251823056521739e-10	1.207995217871607593e-09	1.940552287811814406e-09	2.723419382809144981e-10	7.104621676016458494e-10	1.403835056470635084e-09	1.628185593336065877e-09	3.955680273058443339e-10	6.240397713402760491e-10	2.808383089172481368e-10	6.780992105164191566e-10	4.201888437285842083e-09	1.812749437630608507e-09	3.866267746792287712e-09	8.401612491384424513e-09	1.107078717197528579e-09	3.561509586912663830e-09	4.722005288844795950e-02	6.339558152045055017e-02	4.028243233337997462e-10	4.020656810394698452e-03	3.497030823440239000e-10	5.615689552370362077e-10	7.050758409712773433e-09	1.470284666890337048e-09	5.666485609439526435e-09	9.282946315786400098e-09	6.748718015179484115e-10	2.470548199707653443e-09	6.239659935437249491e-09	3.296205474993346096e-09	6.767472751713190566e-10	7.651195656734835959e-10
-3.677854866288722508e-10	-4.039589418792090803e-10	1.539698503782630410e-10	-3.271654793930021950e-10	-3.038301531108576119e-10	-2.493133906495911859e-10	-3.464449885121226699e-10	-3.354706717825126645e-10	-3.346027207563156680e-10	-3.340225962826567916e-10	-3.170963700508219581e-10	-3.009581661001090698e-10	9.206266293473265384e-11	-2.588215359516077619e-10	-4.218929432324306976e-10	-9.897957568356096242e-11	-3.147859169431114753e-10	-3.357317742947612004e-10	3.292991675981390897e-10	-3.518733113879581511e-10	-3.801970903743403826e-10	-4.095900516918530773e-10	-2.501491115122966515e-10	-3.294723824575319685e-11	-1.908401736044645073e-10	2.145126556448119014e-10	3.607557251898211442e-02	8.437315347740768684e-10	2.945079938439642960e-09	2.605215245519226936e-08	2.025457754993541613e-10	1.205816901614055736e-09	5.333750706309984407e-02	8.992397002696368713e-02	2.869753056390687275e-10	1.861506895851236512e-09	9.602498683070629309e-11	-2.505101852238546091e-10	-2.745248772417375274e-10	-1.926571589438386547e-10	-1.940505377966102510e-10	-2.030785760035114497e-10	-1.843610421556609844e-10	-2.009581397972285981e-10	-2.295616799237078854e-10	-2.828195407069921791e-10	-1.534000093933403887e-10	-1.800079565610360163e-10	-1.584995049793438919e-10	2.161739839807006234e-10	2.774805948775900533e-02	1.189034029812582939e-09	4.159486446862995882e-09	6.914367095661395901e-02	4.286438180901244809e-10	2.198141580399441824e-09	1.073846881654881525e-03	3.489210562052985631e-02	2.895192545819901084e-10	1.411408781219014345e-09	-2.173496894062796897e-11	4.279433904517417661e-10	2.805241149163317975e-08	1.927813338739055153e-09	6.091239942419337328e-09	1.718932722786548628e-01	7.619055545779697197e-10	2.706088514302076089e-09	7.600913887369079484e-08	3.603019246262377373e-08	5.919365969264075441e-10	1.980789763505521030e-09	1.682977394711401792e-10	6.757369327652930760e-10	6.313486643720041117e-09	3.209539711056967472e-09	9.863981380128700242e-09	3.480590876121168464e-01	1.423617447986285156e-09	4.152436322017837134e-09	4.994091137833221727e-02	9.635390308346080585e-09	9.515917834452941959e-10	2.296114661519681251e-09	-2.420349312678153621e-10	-1.169773297890199749e-10	1.051483598862428633e-09	2.114052202169132039e-11	3.355862738671681665e-10	7.039019941019995068e-10	-1.371111127710225979e-10	9.190769281360270904e-11	4.814494084898463256e-10	6.620907216971406673e-10	-5.202693199218075202e-11	1.361147817869614331e-10	3.055011046581881909e-11	3.483124973810984942e-10	2.701152915137375036e-09	1.236669859516861824e-09	2.478703431414195858e-09	4.365204508536180875e-09	7.937090788022784332e-10	2.458234908032440746e-09	4.567713681920695240e-02	6.864577133697363776e-02	2.645954997537250765e-10	3.588822532049000969e-03	6.292196712041497490e-12	3.108148630748221117e-10	2.709930047451508628e-09	8.853275669499027162e-10	2.382225343470166058e-09	7.716851119177771622e-09	2.496602897370767066e-10	1.269741949190410833e-09	1.915489415254857189e-09	1.524130883949264419e-09	2.224361637845126443e-10	4.283890083220279290e-10
-6.214303286183379048e-10	-6.486587099222516956e-10	1.317539414818949821e-10	-6.147629718800887335e-10	-5.373973755574722898e-10	-4.351402838144003081e-10	-6.237547483223322438e-10	-6.110533784559827416e-10	-6.175829877491722078e-10	-6.048423565582102656e-10	-6.013834476112601851e-10	-5.966401425884435814e-10	-2.375430037982588075e-10	-5.855693967442924759e-10	-5.978455983908936213e-10	-2.495405247081465474e-10	-4.007727143602998211e-10	-5.131606824190911943e-10	1.916633715432186602e-10	-6.484426177986055975e-10	-6.845172653129049998e-10	-6.708177103289572181e-10	4.574617102411950434e-11	-6.446694592943460556e-10	-4.468419214289462380e-10	1.829314937745903701e-12	4.144498303777402470e-02	6.441646594819605155e-10	3.722699552135651548e-09	5.742800623971825176e-06	-1.001239171918541177e-10	8.725048054672693002e-10	4.923770263370405575e-02	9.900732081678166596e-02	3.421087685271535398e-11	1.363201253373389148e-09	1.587230017166163846e-10	-5.206672725158138541e-10	-5.487948275184120814e-10	-4.581326534145714447e-10	-4.582971351541832258e-10	-4.676241891770735112e-10	-4.308781467371017475e-10	-4.345582837520987408e-10	-5.045330037636673812e-10	-5.453586934726599518e-10	-3.696294259470227643e-10	-3.945682250891939714e-10	-3.954887122341692242e-10	-4.635886098621600162e-11	2.109195094134509035e-02	8.040137967990342331e-10	3.340852774143211443e-09	8.276497427860611544e-02	7.007798357760008260e-11	1.323964821884759783e-09	2.987075991895885572e-07	2.417344362899569513e-02	4.239227471191549124e-11	1.104743171547896990e-09	-2.405281286005548388e-10	2.078719523305721765e-10	2.822927616763190272e-08	1.507497057333713730e-09	5.086338309150596512e-09	1.657880680847886035e-01	4.271488564813707055e-10	2.021595743038524911e-09	4.404505572462000644e-08	1.220518856252603455e-08	2.561435660865368025e-10	1.292621365595288810e-09	-7.039448255807515021e-11	3.712438922227920507e-10	5.448937299440466466e-09	2.690385447596271920e-09	8.479405154696897253e-09	3.268232621961503770e-01	1.092958530308027362e-09	3.586320780483129973e-09	7.705834441143172286e-02	7.625565849515189116e-09	6.726397770086249965e-10	1.875116084240024779e-09	-4.812706702740448545e-10	-3.752579299702442832e-10	-6.545568346372823624e-10	-3.476361518793399940e-10	-1.614223491892634500e-10	4.406143983679483509e-10	-4.460714694465162100e-10	-3.499279222718882989e-10	-7.987206178908867253e-11	4.359281572817617079e-10	-3.700576263886717738e-10	-2.861698715826276521e-10	-2.335758387889718194e-10	8.904265920679395154e-11	2.523146878240687419e-09	9.857280630357391053e-10	2.436547514604906302e-09	5.431168377991288035e-09	4.786937982612342990e-10	2.049042367676897784e-09	3.464642432592366511e-02	7.178612281600822709e-02	5.580233010382039198e-10	6.171225328272337066e-03	-2.333983552058368162e-10	-3.048469678027287399e-10	4.486503867936279176e-11	-6.047685686772772067e-10	4.515484163679791771e-10	2.704341439855450595e-09	-3.758213866556628639e-10	-3.605609966652445754e-10	1.126547945490917475e-09	-6.493996323116951179e-11	-3.082955231036464464e-10	-5.203409831771070611e-10
-4.537822575368148979e-10	-5.007818887124915611e-10	3.775206698922376542e-11	-4.358837933835512523e-10	-3.934119063191975117e-10	-3.245133218374064230e-10	-4.587689883710687962e-10	-4.448774827294357814e-10	-4.458062323850228798e-10	-4.852750249974038621e-10	-4.271982151808603453e-10	-4.385000456390198010e-10	-8.154431658717536683e-11	-3.589831168209265582e-10	-5.571493035294206157e-10	-1.731936390396683370e-10	-3.159163066680798726e-10	-4.166754549095582134e-10	3.952350888751172073e-10	-4.804698436963122023e-10	-5.137115579278980881e-10	-5.547443145715025338e-10	1.206670136596223676e-10	-4.737365062176587711e-10	-2.619741051011061949e-10	2.482906355319898512e-10	4.468147873538984294e-02	8.979044864321005800e-10	3.463878376143780822e-09	2.656155241307376442e-08	1.812939523168696623e-10	1.585142842960456462e-09	4.879048903458253067e-02	9.917360350140372316e-02	4.226582116044564412e-10	1.473668623130911493e-09	-2.675588054573607297e-10	-3.437075499574910226e-10	-3.514655793731019765e-10	-2.550985576172654801e-10	-2.547011699722262219e-10	-2.643789941015585441e-10	-2.794397719480349800e-10	-2.235059027926351835e-10	-2.905501809196185838e-10	-3.734028287939394051e-10	-1.783832926031049028e-10	-2.318400402238938760e-10	-2.148424169530865525e-10	2.363199164565166320e-10	1.911896013931324578e-02	1.319942165041245832e-09	5.101739993221081796e-09	8.438137718555088762e-02	3.662403150285867167e-10	2.154639888723494095e-09	1.793683199098058956e-02	1.098238042811489935e-02	3.980247264397631670e-10	1.288885318942847171e-09	-3.242008108811920603e-11	5.144197120084572054e-10	1.994961057139103365e-08	2.194072179163761186e-09	7.606862403986721735e-09	1.697613811730727396e-01	8.133469330761599615e-10	3.299067615523983853e-09	9.328192042060588520e-08	1.128633557516233912e-08	6.614510965068760008e-10	1.430907722548387700e-09	2.466598896622552079e-10	9.936427020496887544e-10	9.158309536875869939e-09	3.660939326018349256e-09	1.232039858745090263e-08	3.351051418102853341e-01	1.633875571656008205e-09	5.771868559752745417e-09	4.692593145186876868e-02	7.495397477693803836e-09	1.080769783276919872e-09	1.852323908346440846e-09	-3.278540528244096581e-10	-1.629174043047147184e-10	5.476419788625289196e-09	-3.365591611031889842e-11	6.154333011573644685e-10	2.417715110246442472e-09	-2.198601437917799601e-10	8.390781422505174252e-11	1.103360302853971529e-09	2.064247539641736478e-09	-7.075825461729835353e-11	-1.001629334438614975e-10	6.700878610959231944e-12	4.222754410191866737e-10	3.153617234520709531e-09	1.350220523673665600e-09	2.835410173622953854e-09	4.823345798164419014e-09	9.229910122132499272e-10	3.655187615809244332e-09	2.287887748183235759e-02	8.993196399902193827e-02	9.111131933978199285e-09	1.033129653054506297e-02	2.996387905199037832e-11	-5.888255047829198451e-10	4.411383880298844677e-09	4.486930917069881009e-10	4.476558492178626841e-09	1.268199646001172300e-08	1.232360870222102668e-10	1.486807800151296379e-09	5.711405567892082144e-09	1.487887687500601779e-09	2.126190893408239992e-10	-1.826690499522004525e-11
-1.168215039652997273e-10	-1.284688845108313056e-10	1.708403682763159894e-12	-9.954696383013320090e-11	-8.860657415609065336e-11	-7.604362632269388697e-11	-1.103227013400365550e-10	-1.068597551324831604e-10	-1.065800753500454450e-10	-1.091055128051471504e-10	-9.596901727134600214e-11	-9.435111800123434897e-11	5.518961894421191378e-11	-1.130564449641795168e-10	-1.384321021701080311e-10	-7.742300096048051218e-11	-6.042063349283696850e-11	-8.219512112240431844e-11	4.712576353749720559e-11	-1.118002753611115786e-10	-1.287798579371255644e-10	-1.307246332622472163e-10	1.215571059973467808e-10	-5.033443142768128378e-11	-2.869837944768022854e-11	1.810964879857861052e-10	4.648721603764132543e-02	5.881077535651336079e-10	1.976738953560019937e-09	8.879518045141580645e-08	1.908145360905408046e-10	7.744132885214510416e-10	4.008550335496961770e-02	9.707238224007941341e-02	2.322277732390206197e-10	9.030747800977414795e-10	5.441592488574972765e-12	-8.471265716792634947e-11	-8.606766663152794724e-11	-3.602060539500155688e-11	-4.346350114770442294e-11	-4.834276287007334209e-11	-3.877005507683708340e-11	-5.250759700879976428e-11	-6.046519349468649544e-11	-8.838959220797941885e-11	-2.250152726883878740e-11	-3.654508791376017265e-11	-2.911307980356475592e-12	2.014439696191354746e-10	1.844955710626219533e-02	7.406591627972484348e-10	2.317663488329781799e-09	8.749409508939628988e-02	2.931381765799743929e-10	1.132691829784429524e-09	3.639257007088091572e-07	1.950566627862675151e-02	2.437379874789185344e-10	7.778381465015251130e-10	8.161319140678400903e-11	3.351568371938038282e-10	1.365629402803523818e-08	1.154275244912057965e-09	3.412323635729437043e-09	1.664585529993539148e-01	4.832753868233240603e-10	1.467758704145310697e-09	1.846307864627198371e-08	6.852352844664079448e-09	3.753907890875938697e-10	9.125599011370762494e-10	1.851739171593155786e-10	5.059518382855954119e-10	3.882270156967648068e-09	1.844670321783676210e-09	5.417506858965629578e-09	3.235418267777362411e-01	8.777291203324708091e-10	2.467635958554607929e-09	6.576539774854837928e-02	3.600278886516780199e-09	5.576614612177443878e-10	1.063012882495697215e-09	-5.613316844376993687e-11	8.696671639670660541e-12	2.367032064209516677e-10	9.353559329782399152e-11	1.917211997512672609e-10	2.542651921505017979e-10	7.101320807607117162e-12	1.050418101017469679e-10	1.960813310495271378e-10	1.607647679221134832e-10	5.233042057460220025e-11	1.283312837741918702e-10	8.481583473321600657e-11	2.479556563327571463e-10	1.900046769328683535e-09	8.478905886859062378e-10	1.715466015323004520e-09	3.419605491230033610e-09	5.128627023463188567e-10	1.494285875807142519e-09	5.671283454871972607e-02	7.285578302297469888e-02	7.846453383894288095e-11	5.570634918694012012e-03	6.548638000800928200e-11	-2.036897308748134922e-12	1.204780505416680370e-09	-2.319439012416682854e-11	1.321233677137032413e-09	4.148195769027234133e-09	-1.782689838634907166e-11	3.453219848155331965e-10	1.991412855741835273e-09	7.821470930401172553e-10	4.072743644026773820e-11	-1.053653669130617421e-10
-1.157872624085021262e-09	-1.198142046061274660e-09	2.772576950852393092e-10	-1.140969631290413798e-09	-1.030450771036373153e-09	-8.711183374909927002e-10	-1.142172604337268807e-09	-1.121669527546011228e-09	-1.134448973170041390e-09	-1.084466171004099014e-09	-1.087386564936051914e-09	-1.063640638219709023e-09	4.829041481085210796e-10	-1.273646845698134800e-09	-1.284010494178253786e-09	-2.558185568301219845e-10	-1.242631438882447232e-09	-1.264647842291188828e-09	-4.495344131469506833e-10	-1.216332918307880520e-09	-1.121413545297985747e-09	-9.525094668976524625e-10	-5.311513140897875523e-10	-4.208183858315479118e-10	-9.106850081156088288e-10	-8.858509379010184643e-11	4.536517026226137561e-02	3.824390958024733229e-10	3.871824310402697934e-09	3.156393829637777616e-06	-4.813148852945786736e-10	6.438288087470508235e-10	5.116284158171231777e-02	8.676417193433141883e-02	-1.831820033669429360e-10	2.563601507639339053e-09	1.306970075049273659e-10	-1.054242512591728794e-09	-1.074162932829419845e-09	-9.411472355851566533e-10	-9.455835300284084472e-10	-9.493079570894962694e-10	-6.201871918161050195e-10	-8.503178040916071665e-10	-1.029023362105651017e-09	-1.092261120200147863e-09	-7.573424786699374954e-10	-7.578333514713084208e-10	-8.490691912376714272e-10	-3.690127039742951145e-10	2.009038681166506329e-02	5.927882275409224765e-10	3.579215830429032328e-09	8.242735518932421679e-02	-3.242501297128100280e-10	9.043353049167163274e-10	4.600925577149076762e-08	3.369510925276753693e-02	-2.144793352418611774e-10	1.688746755373660959e-09	-6.497169072663009346e-10	1.041147927746578135e-10	5.972950753837208110e-08	1.487687668461197995e-09	5.593642680886548272e-09	1.656845648753628719e-01	8.417069285547688836e-11	1.624213154828071969e-09	1.748739089010044492e-08	6.472005961500538618e-08	1.347502202017919489e-10	2.430832135849097248e-09	-4.845626668687828918e-10	1.675167598577002331e-11	8.557457073249166185e-09	2.951658353203910820e-09	9.628738398373290483e-09	3.395736033845463409e-01	1.020477242311023398e-09	3.773820325120615137e-09	4.735017589147313272e-02	1.501938840919831633e-08	5.736080934818953154e-10	2.794268793906201103e-09	-9.725335256783960884e-10	-8.715950188407986164e-10	-5.619284687042110762e-10	-9.912036670980039745e-10	-1.244775388008291624e-09	-4.165698066582207461e-10	-9.842961979462892422e-10	-1.103587201383475547e-09	-1.391318247995431979e-09	6.716812121691350699e-10	-8.670145292365490049e-10	-8.603968386244923529e-10	-6.222106053027542786e-10	-3.290856908213153635e-10	2.166967428475777386e-09	7.981350053856983721e-10	2.350340676837971106e-09	5.031844679332122410e-09	2.875944382141872286e-10	2.163359424723793315e-09	5.896535601215219247e-02	6.844376194052981255e-02	2.373865706920799397e-09	4.741234157736197029e-04	-6.811997299770904282e-10	-4.512249210194927801e-10	-3.846288368493584824e-10	-6.858443597680780628e-10	-8.708609018162232625e-11	1.514063790387259048e-09	-7.008438862724956415e-10	-6.279039383991332148e-10	1.240343073838810502e-11	-4.107420623619661027e-10	-6.383656830814067319e-10	-6.199417693197098696e-10
