-4.353875763110058065e-09	-3.644874109327490535e-09	9.159099181374115751e-09	-3.236403439989212047e-09	-4.577008406119712545e-09	-5.224190044849318736e-09	-3.627027203458050029e-09	-2.808781649066934481e-09	-3.801215783711249267e-09	-5.180343323449595263e-09	-3.677117273104860328e-09	-3.342488772913152072e-09	-1.402203941578596601e-09	-4.297231411251956398e-09	-4.354390863472969086e-09	8.692469911453409568e-10	-4.424117395882623941e-09	-4.387287575796744612e-09	-4.071461428213810051e-09	-4.126491192086892739e-09	-4.555160143233059431e-09	-4.881978995929657020e-09	3.754023322482953558e-09	-4.730824027335968025e-09	-3.955573271917149173e-09	-3.073687387496637362e-10	3.658427628788862157e-02	2.334651333341886942e-10	1.196314952029208674e-07	5.075431418109087323e-02	-2.068646105269391431e-09	1.474028449043348350e-07	3.386277115380315755e-02	6.580641188439383116e-02	-8.919859320374041683e-10	2.366452921478426125e-09	-2.929895027198285884e-09	-9.806329798905141597e-10	-1.168036256177080903e-09	1.672668990877255669e-09	-1.625322186872989447e-09	-1.577125909091330197e-09	-9.528275019818409036e-11	9.754115316457087061e-09	-2.463425132739970598e-10	1.649264870691891637e-09	-9.085571412949968389e-10	6.443274335295926137e-10	-3.967190784118852376e-09	-1.499601757433267301e-09	3.062043073736869445e-02	1.398341046294819680e-09	1.573127320348556517e-07	5.996222154907540625e-02	-1.331813330774431638e-09	6.978946942496383891e-08	4.250737648003757812e-08	1.767498888267202140e-02	-1.729314014412068037e-09	9.647073018072643606e-10	-3.398623638468577333e-09	7.955282824959835135e-10	3.081710282328174335e-06	4.637261390395225614e-09	7.671383168163212316e-07	1.297655773124714862e-01	-1.593064123721968316e-10	7.323066501413604502e-08	2.414801014956415324e-08	2.549669667528304081e-07	-8.555753817510755465e-10	2.965410928888742617e-09	-2.629440144207679772e-09	2.478773449003068666e-09	6.224985446446326855e-08	1.060201619029214855e-08	8.656741964410447077e-02	3.557668172514660276e-01	4.987693331291290061e-09	2.191664738609343189e-04	6.203812857271472775e-02	1.146640854056593878e-03	2.172553199132437770e-09	1.036020249774810979e-08	-3.882406430167083511e-09	-3.190350836570702192e-09	4.229998229936367526e-10	-2.866169968865853809e-09	-1.645382957642086624e-09	-9.386251867234815225e-10	-3.336552502932906580e-09	-1.632907694631667091e-09	-2.278979863069152457e-09	-5.554278214476164751e-11	-2.882244539801587625e-09	-2.484801171533736353e-09	-2.741011630329614363e-09	1.902021484855406256e-09	2.099879620459162616e-08	4.108660775353247889e-09	4.093473323912677118e-08	3.425990107207993816e-08	2.760915277317705646e-09	7.126883317124276513e-06	4.801724575151959662e-02	2.943525082959033527e-03	6.565945511449054699e-09	1.825811158033049247e-02	1.258867151844686735e-09	-1.385584703213846008e-09	-2.081570237758952771e-09	-1.328395784108493712e-09	-6.554211694784819982e-10	-7.248071274536537700e-10	-2.016223717405160391e-09	3.554424511953140693e-11	-1.123160526515944377e-09	-1.324792225695553449e-09	-1.869198523314911975e-09	-1.410406582168889236e-09
-1.099020781704560703e-09	-9.477354256462338881e-10	4.899380864290157561e-09	-3.607451565075521724e-10	1.616566018790684292e-12	-6.049024409624868488e-10	-7.809125827104540016e-10	1.681439091433242422e-10	-1.560755585332615889e-11	-1.242410134491445312e-10	-8.186870307442327989e-10	-5.366277284415052411e-10	4.414249456093521277e-10	-1.233096825463516274e-09	-1.232043545070511967e-09	-5.098659385613213907e-10	-1.206152360299175081e-09	-1.263838226246731069e-09	-1.090046699420041708e-09	-1.192867450262823664e-09	-1.034333821395517947e-09	-1.269172452331128378e-09	1.733157264923266959e-09	-1.252424488669281510e-09	-1.057571696573835711e-09	1.656080287060683779e-10	3.062296287658835409e-02	4.741229817387913965e-10	4.075134442680841678e-08	7.015060086060780076e-02	-4.383613223155518256e-10	1.452240649222829882e-08	3.050740424185008695e-02	6.618433329341162630e-02	-7.621257498217632042e-11	1.313466013703233447e-09	-6.810932633785082843e-10	-1.737407304321327041e-10	1.720280158077428427e-09	9.852100965320506414e-10	3.371402833943230936e-09	4.169219268958640879e-09	1.734427906606137527e-10	2.347069710902603761e-09	1.535649249002104545e-09	1.356179840527001809e-09	-1.108924054220770404e-10	5.203293831783860103e-10	-1.005955200515934084e-09	-5.211786357224991199e-10	3.615743141952577899e-02	8.126728886983786746e-10	5.703649665186231674e-08	5.359021028547304027e-02	-1.740547325225522240e-10	1.321698792860030862e-08	3.339428991038243278e-08	2.172270243886334148e-02	-3.700019593538049633e-10	8.112567758371928629e-10	-9.221693633929903107e-10	1.577668935512450232e-10	1.212026848755252886e-06	1.858435963117952722e-09	2.017645783204000176e-07	1.152145495595438829e-01	2.122594603094145571e-10	1.242817423237309611e-08	1.068628713270296046e-08	9.659966932369356979e-08	-4.773671959271970025e-11	1.330092264566531265e-09	-6.119120217085527347e-10	8.255553565440660777e-10	1.893424441532487196e-08	3.745709660433261507e-09	7.622082552082241891e-02	3.453847084576098236e-01	1.880163384536871431e-09	6.159909424038521181e-03	6.978794069639146502e-02	4.456662685984993759e-03	8.089908098189788692e-10	3.085295538987164976e-09	-1.130103197519450409e-09	-5.717925460998796356e-10	1.261251044671078417e-09	-6.654181513074110636e-10	-5.181163242400288799e-10	-2.923283540900327483e-10	-8.516782203683189500e-10	-6.294715058817450468e-10	-7.396322342854115810e-10	-8.110255408881267893e-10	-8.111336216360743980e-10	-5.891261118000960273e-10	9.840400602407094590e-11	1.595268396357916856e-09	9.364540529226746693e-09	1.813826225403584076e-09	1.803435269528354799e-08	1.495282861411588339e-08	9.594860112233142775e-10	3.180055916286511982e-07	5.260700014219732434e-02	7.416520166269586871e-04	3.021432585738661342e-09	2.048901344667931890e-02	8.943825573257845293e-10	-3.622591681252656818e-10	1.468392876428481394e-11	5.405593360864563070e-11	5.902141946390091216e-10	4.615009792839256471e-10	-2.501771046160457511e-10	4.069013647555214883e-10	2.112173431901238122e-10	-1.125844225911941172e-11	-3.345566495661795938e-10	-4.010405142998192563e-11
-6.282191762295906149e-10	-3.361682976600072880e-10	1.187895395837790138e-08	-1.021648177043292290e-10	-2.732701752904661599e-10	-7.179291714758063752e-10	-4.080672506339174832e-10	3.349660741918233163e-11	-6.402082221614947875e-11	-3.433850571215227832e-10	-4.412430932640978460e-10	-2.616522690342519017e-10	-4.703058437449452243e-10	-6.370904384791577353e-10	-6.840093764772507985e-10	1.363485167383919463e-10	-4.712695165455335982e-10	-6.084982488183057810e-10	-5.182570701434791341e-10	-3.910719103069967662e-10	-6.405326084702634649e-10	-7.047825582185370448e-10	-1.020743398425221763e-11	-1.959383692004964114e-10	-5.912201852600092831e-10	8.658446270520566419e-10	3.623031474815251174e-02	5.215742379814443408e-10	2.269596995124728883e-08	4.349187820565211804e-02	-1.392772854465218262e-10	7.214397531387529907e-09	4.031422155744206898e-02	6.873889141967851057e-02	1.069556781797788666e-11	1.541359931817482523e-09	-1.898999695530050196e-10	4.798602997625054114e-10	4.050631911278657579e-09	1.309678848641731607e-09	5.896762888283424520e-09	6.423011243819014589e-09	3.690974869733879459e-10	3.844076642321494125e-09	3.111803518653590995e-09	2.891916028357120015e-09	2.561985230626131893e-10	8.384054532533492224e-10	-5.436950622652013420e-10	5.866106772214480121e-11	2.897088293577461393e-02	8.128096254792301824e-10	2.841826900287961405e-08	6.512302938610026182e-02	-5.671700380061295995e-12	4.737403564448734432e-09	8.835675209586782957e-09	1.949875998733711577e-02	-5.114493055132451020e-12	8.243197776624815309e-10	-1.189806278588685762e-10	5.276965714906190342e-10	1.121936598420381599e-06	1.606238297999301875e-09	1.034468308750369734e-07	1.241897589664292811e-01	3.013996817002457968e-10	6.261566367245793459e-09	7.114851547981722496e-09	3.658200054156525480e-08	1.981123604727772959e-10	1.098657233303534037e-09	-2.176955635023654358e-10	1.372251078043323850e-09	1.782188563551727498e-08	2.915982661961945808e-09	7.451922308369017534e-02	3.663991995409666136e-01	1.154134578174719641e-09	7.055676014241673254e-03	5.625729304450985402e-02	5.130005987400721931e-03	8.841544481670837375e-10	2.437108191881371923e-09	-5.819119336951845665e-10	-2.722090086720039906e-10	1.988104533329161987e-09	-4.257020794694179720e-11	1.250118902217736034e-09	1.442601495535955861e-09	-3.556935439363344081e-10	4.352692121251861574e-10	6.846076951192668773e-10	9.529110202154178544e-10	-2.669391121862703875e-10	5.046515212792224181e-11	-2.372849923477744593e-10	4.121909345455382123e-10	3.763709502529033450e-09	1.225268637430138216e-09	5.989192535584864148e-09	5.612628228280961170e-09	6.819736615532437117e-10	4.943377609894836318e-08	4.232967572662735267e-02	2.268075644601592544e-06	2.386173806510386857e-09	2.174742997239821618e-02	5.319681212015169334e-10	6.602338001068400185e-11	2.828291355894062196e-10	2.724629795467191865e-10	6.725469352918080346e-10	6.195631949388292118e-10	7.298772196291807623e-11	4.925532227271807644e-10	3.848611847977560546e-10	2.236660305060578388e-10	1.738905233201134992e-11	1.616686538290888539e-10
-1.750659444366827145e-10	-9.364716336840230012e-11	2.041300368173747094e-09	-4.077854503596549688e-11	2.381750104434570195e-11	6.707315799056490145e-10	-1.066138211246494196e-10	-9.096886052269576328e-11	-1.250524952291436052e-10	-2.263596300425022852e-10	-1.028252070098271780e-10	-6.774370655441004797e-11	5.181476668882500507e-11	-1.724078835249490842e-10	-1.729517041403490877e-10	2.590779059621611899e-11	-1.719101785748486401e-10	-1.663175156480209634e-10	-1.110965660575900764e-10	-1.353770284160840414e-10	-1.629619711804232966e-10	-1.898511727418058801e-10	1.556370510390007667e-10	-1.776152609746545147e-10	-1.555497895000717513e-10	2.141224607008429697e-10	3.608140703774917468e-02	3.136402753943081568e-10	7.967308578544165995e-09	5.315181157262485051e-02	2.115242753802104822e-11	3.348322671069015112e-09	3.678944137220298283e-02	6.286799264155840117e-02	1.218827939289911139e-10	6.575234885593771332e-10	-8.253822183942319000e-11	1.307906415478882712e-10	7.962237964290120146e-11	3.055469761353946869e-10	5.547312814725307147e-10	4.174469272213874271e-10	1.421628591918212253e-10	2.952616320069841786e-10	5.575033753660448763e-12	3.123777410586770062e-11	1.464291078342951285e-10	2.697436108449266808e-10	-1.421827216840935216e-10	1.342882240262767280e-10	2.944943687924426665e-02	4.348216291563573831e-10	1.111898320855139791e-08	6.114021310650312457e-02	7.339768313545497417e-11	1.962693809040878483e-09	3.584846388302401971e-09	2.015863725688790339e-02	8.856023325569758091e-11	4.583081827623241620e-10	-4.162587028232216156e-11	3.904663644318855686e-10	4.319546416159752769e-07	7.494384394368036658e-10	3.240927878656775030e-08	1.208678273153756533e-01	1.936776420236074433e-10	2.788393579484087398e-09	3.415519931011089030e-09	6.463657528729514633e-09	1.731667035723607988e-10	5.327497995149547140e-10	-2.402821926363333998e-11	5.971978885437744585e-10	4.933811351560970840e-09	1.384039844641862581e-09	7.229820064438399752e-02	3.643759478463248769e-01	6.256418119605401855e-10	6.587792816185305406e-03	5.710821355072832201e-02	1.193770740343355098e-02	4.563730294988809578e-10	1.129819011184618246e-09	-1.560264150707769157e-10	-3.988275159067231154e-11	4.852502265421154255e-10	1.395125212211360573e-11	1.611092938591048459e-10	4.447389933925414943e-10	-6.942182652378342863e-11	5.187734028220192365e-12	2.188967755577177337e-11	1.869570897375832646e-10	-3.421201302010051742e-11	2.110947775402232986e-11	-1.803456971164516760e-11	3.211348080573488876e-10	1.512936353621474915e-09	5.493223331449200712e-10	2.778120429477642443e-09	2.754275225487010292e-09	3.431575591697676283e-10	3.206760950555137381e-08	4.248401177430097264e-02	3.779497360852379379e-03	9.236489703363516679e-10	2.092129582525684151e-02	2.497920042170555703e-10	7.211951097444057235e-11	1.790608316608787113e-10	1.794243997960860392e-10	3.035356810813044620e-10	2.817103982147880307e-10	6.881865138325695139e-11	2.552092964253053009e-10	2.093731920711196747e-10	1.592031841180659765e-10	9.789215189397600766e-11	1.574137625285024335e-10
-6.237985502173740173e-09	-5.037170521406547145e-09	1.058661557610308198e-08	-4.540959338306907241e-09	-5.162853364479577466e-09	-1.794627307204126682e-09	-5.328456923057671845e-09	-4.777471391259084112e-09	-5.275833328948984847e-09	-6.857130631921577364e-09	-5.433237117603663285e-09	-4.711476829356185571e-09	6.215625365726168523e-10	-5.437760935793296581e-09	-6.333309434859808589e-09	-4.885810629101014547e-09	-5.486517161381341534e-09	-5.115424002920039519e-09	-4.856918519453418323e-09	-3.274197289347334902e-09	-6.555298068277857302e-09	-6.828585870658872000e-09	1.638561710434562171e-09	-6.904177209277858313e-09	-5.878541080038732424e-09	1.587747045452109203e-09	4.497227924132845417e-02	1.745930421204237244e-09	1.961529589521641648e-07	4.589836463367313185e-02	-2.501759319889923894e-09	8.945689176982428600e-08	3.414552760334657600e-02	6.471761548268015196e-02	-6.225881905181516429e-10	8.040700962348129487e-09	-3.851991019583263561e-09	-1.098998305269119104e-09	-3.299857149647765339e-10	1.584890391688621572e-09	2.752376080060567274e-09	5.852179838502738219e-09	-7.131678996164884435e-10	2.205226079277728384e-09	1.311680710011542501e-09	6.691057185502657210e-10	-1.400924360928520517e-09	5.205159468313088143e-10	-5.738700029690737821e-09	-1.266654368462144674e-09	1.860751529357326101e-02	4.166074493110744848e-09	2.795977701110263254e-07	7.371890387597457295e-02	-1.377617104005598698e-09	4.461117655426797148e-08	5.878328037987527909e-08	2.170178220751530981e-02	-2.160502269560648099e-09	4.696812860675134433e-09	-4.769643540138553305e-09	3.431756156076916450e-09	1.563089680332700694e-03	9.861122951736233982e-09	1.009130274789057697e-06	1.155087558244243112e-01	6.573284337927761159e-10	5.652711753870823765e-08	4.667551627922948509e-08	2.929673914084197204e-07	-5.620932141587552707e-10	7.340280785896392770e-09	-2.937590246398533433e-09	9.423426187684757636e-09	5.705098398495060614e-07	1.873412217090715469e-08	7.519415743425238163e-02	3.716461342285475311e-01	9.170760260216370803e-09	4.152986286484004058e-03	5.560414701641093471e-02	7.212065933792050987e-04	4.811533409938484564e-09	2.218887241986896771e-08	-5.523769109232763728e-09	-4.118612323870839346e-09	1.145124406847766960e-09	-3.778247045528774613e-09	-4.827499613098992716e-10	5.216856554601332417e-10	-4.837353809095001404e-09	-2.285960857112941075e-09	-1.938162906793432073e-09	-2.175493398758306335e-11	-4.400540738755788189e-09	-2.956740780168276689e-09	-3.990310112104741134e-09	2.477264840745904572e-09	3.418893790648585140e-08	8.614630127772614801e-09	7.172288170615498817e-08	6.429859468193702282e-08	3.473592688647647364e-09	1.134245940762079432e-06	5.644172771621587537e-02	3.734748860499277432e-06	1.035149706033616270e-08	1.539815918672235787e-02	1.545981101766766602e-09	-2.147662007300544528e-09	-2.447788608119618800e-09	-1.454593413026988177e-09	-1.873129289305905266e-10	-3.589933914045055031e-10	-2.274174544579512762e-09	-6.062868307859342076e-10	-1.377760643644106101e-09	-2.001847784323707912e-09	-2.731029746295884546e-09	-1.683642290151257063e-09
-2.461287348350735831e-10	-1.953334424674546491e-10	3.889510332958368618e-10	-4.504738536883921304e-11	5.543668746289861854e-10	6.098214304931631479e-10	-1.666247097372010815e-10	2.169940471326585562e-10	1.943622448649027024e-10	2.137525843064206608e-10	-1.907795275682365856e-10	-8.707329479178130630e-11	-2.160955540769970615e-10	-2.505152951114373159e-10	-2.853688736237202716e-10	-8.045076178513828931e-11	-1.992085774100468217e-10	-2.210055131783919769e-10	-2.503469429464076076e-10	-2.160718305301254947e-10	-2.089112768187533147e-10	-2.551417205134874821e-10	1.399432586507327940e-10	-1.419167698956172474e-10	-2.352009751030742266e-10	2.801184770596786813e-10	3.673655823632120121e-02	4.232658027808914005e-11	9.160114983771091158e-09	5.340504737586090900e-02	-1.196863638054677708e-10	3.743104538402782468e-09	4.609495773432472493e-02	5.877398143441006639e-02	-4.518333000850858243e-11	4.093620382242940258e-10	-1.705968539742295926e-10	-9.530898405870610663e-11	-1.883442998048844755e-10	-1.586154630508145924e-11	2.580532695466364627e-10	4.934122087695992134e-10	-6.948740771702672142e-11	-1.254378450960547446e-10	-2.328989100213688630e-10	-2.034738733329677804e-10	-8.605500889841076213e-11	-9.361415144549380532e-12	-2.274772811343791353e-10	-1.345304247948337007e-10	2.664052496094395164e-02	1.255554770969709749e-10	1.375996084146874741e-08	6.767447658901212804e-02	-7.611942196061877795e-11	2.678160160315506613e-09	5.885582106060254080e-09	1.606055733280000938e-02	-1.074785237754133561e-10	2.095123732889396958e-10	-1.931611618934818785e-10	-8.880393369565737827e-12	3.621263390682692890e-08	3.339016896370643587e-10	8.753936831390643854e-08	1.230133123299440023e-01	3.125544156946418428e-12	2.809854102445980759e-09	2.127201335257103148e-09	5.162392443654254515e-09	-4.993122777599245297e-11	2.429331876750898273e-10	-1.440958917048075758e-10	1.005112361360946948e-10	2.731441519909500215e-09	6.734355921861881111e-10	8.709706445200432468e-02	3.397332343356889717e-01	3.741880507139728043e-10	2.845322392888359822e-03	7.187021365621810987e-02	1.404033719144739912e-03	1.698211701466741200e-10	9.465292356412827734e-10	-2.254981786505026063e-10	-1.628336777728745683e-10	7.347059929304059821e-10	-1.465506446010861829e-10	-2.174408973694835853e-12	-3.178711605098445651e-11	-1.948863483556703931e-10	-4.884571405051686893e-11	-3.123151139762434866e-11	-1.053286560479474072e-10	-1.924923766886252240e-10	-1.051387995435647271e-10	-1.402311308845165685e-10	-3.729959440172456971e-11	8.240447273542747616e-10	2.785914045634601567e-10	1.749009131564939685e-09	1.456466201915891814e-09	2.049324778660900628e-10	3.835096430236522433e-08	2.598377779356715253e-02	2.165431910245452576e-02	1.014549281456587381e-09	2.101240302733718354e-02	1.215892628685245899e-10	-1.019369542044102348e-10	-1.113923249137662472e-10	-6.295682286333552265e-11	-2.276381304861092773e-11	-2.813148593776987999e-11	-1.168562923842379600e-10	-1.628920944458646832e-11	-5.487035908885128308e-11	-8.298566323308216434e-11	-1.168034949580358427e-10	-6.468928141617483550e-11
-2.488213578902960663e-09	-2.220390366120612899e-09	-1.398274344790899898e-09	-1.713503000658028642e-09	-1.613342130297928444e-09	-1.130480847538546110e-09	-2.070923156888076777e-09	-1.764244790719263669e-09	-1.901975345698221011e-09	-2.040161235250089719e-09	-2.002913846013277772e-09	-1.749784534811338888e-09	1.005557882299229014e-09	-2.162513322725213234e-09	-2.126926123310141788e-09	-7.917099420720915862e-11	-2.505315840414283345e-09	-2.537781985154211644e-09	-1.525775565290096450e-09	-2.458379888358249629e-09	-2.207073117710114826e-09	-2.601343089466682276e-09	-4.474749798586125117e-10	-2.590379173074673895e-09	-2.304406757609933117e-09	2.000723459518006614e-09	2.919360475513095229e-02	5.026007112503810622e-10	7.603533788351053741e-08	6.738695718359613562e-02	-1.082643654838765069e-09	2.060088771857015768e-08	4.047278277922859713e-02	6.281800148838402598e-02	-3.542411417510785121e-10	2.107001164898045835e-09	-1.680989255684503220e-09	-1.143038388635087964e-09	-4.913518848251401036e-10	2.105014101448440264e-10	-4.043425105986532900e-10	-1.224442612824401798e-09	-4.048610451261305037e-10	-9.366798910615385510e-13	-4.848113755296936125e-10	-6.579858582865804398e-10	-6.159841665920820945e-10	7.287817423654724088e-11	-2.254609766390681296e-09	-1.232650403951108020e-09	3.550684236950167605e-02	1.227120674387302984e-09	1.051248726161837084e-07	5.586481697618049524e-02	-7.888073686632147717e-10	1.126062811806205078e-08	2.134931640415789588e-08	1.837345012592590809e-02	-8.163613041394169905e-10	1.822896274252219662e-09	-1.734562807485678195e-09	-3.063481327486542518e-10	5.583362793554091482e-06	3.170497905708937455e-09	5.410009031341174833e-07	1.218284875641349602e-01	3.813818334807834643e-11	1.620915894105777719e-08	1.832578875714956964e-08	2.068242704716718224e-03	-1.006614633830355849e-11	4.015708556043594073e-09	-1.247468236568857148e-09	1.569762634942236549e-09	5.330614334027813258e-08	6.275153328257705685e-09	7.589735193806304570e-02	3.290467075892265503e-01	3.546361178850158593e-09	1.304455432440870810e-02	6.966955016145949531e-02	2.031119726849515278e-02	1.182895250692188723e-09	5.349807342953742746e-09	-2.148880789076816114e-09	-1.998299523047987209e-09	-5.788486350335657908e-10	-1.382302779484180976e-09	-1.979744890359533689e-10	2.384772032806964071e-10	-1.835005147404134315e-09	-9.595785111833717083e-10	-6.302512953412542399e-10	-8.123421483182629966e-10	-1.574648464993540363e-09	-1.014339500915779804e-09	-1.352800512974842700e-09	3.531549227203908210e-10	9.133075315049832232e-09	2.296381791233470012e-09	1.835283726691849136e-08	1.523377432948426578e-08	1.316506172087813932e-09	1.700543224899505369e-07	3.969107074607127611e-02	7.207460025063706901e-08	5.789567193385436409e-09	1.881968899099968270e-02	-2.377894976589668313e-11	-1.063882003655257223e-09	-6.479145461672079585e-10	-4.241818556844000563e-10	2.213099785132236518e-10	2.998002798900722410e-10	-9.056200093504361214e-10	-2.231451977198317100e-10	-4.695270717905320156e-10	-7.448499773372819107e-10	-8.908885535706707647e-10	-5.464546088865167415e-10
-7.547286872615333769e-10	-6.345708050993278271e-10	1.953482017938932744e-09	-4.682748025916892669e-10	-2.311414332318579852e-10	-1.617302224299491267e-10	-5.992212528877978541e-10	-1.834268083164278096e-10	-3.569371214207635610e-10	-4.265996816169843728e-10	-6.193503373256373999e-10	-4.805376552477118222e-10	5.372021039423090022e-10	-7.618870578761555397e-10	-7.348859495921333535e-10	-2.319038502608169049e-10	-6.273412060314826623e-10	-4.241251266454091762e-10	-2.196548667670352924e-10	-3.507853146734546345e-10	-7.102822332359408540e-10	-6.815408287774458541e-10	-7.095616286381770930e-10	-8.025089623190886031e-10	-7.019906044476015274e-10	1.521018716899398954e-10	3.543139972859369463e-02	3.339849029877769715e-10	3.150585798507057322e-08	5.026382367812407687e-02	-2.418285313218513157e-10	3.144928233939237388e-08	4.293162438631561995e-02	6.576991381003936821e-02	-7.517740183568976591e-11	1.389214509899214488e-09	-4.607833203322276204e-10	-1.488808252539678533e-10	5.033585155199258956e-11	3.651100531747889937e-10	2.045656342474179907e-10	2.228224317947736152e-10	4.604977048398516161e-11	2.411060578055354881e-09	9.469975540984797388e-11	1.788981026654935315e-10	-5.169652014294109512e-11	2.722218521553673966e-10	-6.714216996639434705e-10	-1.750149948688867738e-10	2.906786539718145268e-02	5.887141720087133976e-10	4.206403810697099437e-08	7.517815413709709460e-02	-9.345927134733039154e-11	1.678022448281971590e-08	2.043717876271858967e-08	7.959047161118334296e-03	-1.696289652573142820e-10	7.518262970061475075e-10	-3.844894279781007950e-10	2.173217749210728325e-10	1.214359853640940169e-07	1.345777137163074858e-09	1.852283607885299747e-07	1.115848507611452572e-01	1.853093348467990565e-10	1.655753700162496298e-08	7.290506617283235420e-09	2.213607070859897081e-08	3.156594094671598799e-11	1.077782872094597851e-09	-3.737890349496514818e-10	1.015792505768121320e-09	2.462300410501062457e-08	2.748528414546812031e-09	8.408190667235128368e-02	3.677660409453855084e-01	1.274445133374004679e-09	1.193007727865113502e-03	5.412826103611295681e-02	4.799539395175726545e-07	6.863328470735266294e-10	2.666332740519007071e-09	-6.875628563253166893e-10	-5.447311371484797660e-10	2.969456624420311243e-11	-4.287919460514733804e-10	-1.482456153608803807e-10	-5.120386693672059700e-11	-5.505461863197427723e-10	-1.207607210062395278e-10	-2.532109526057251604e-10	-8.267053320246234358e-11	-4.415018349173613804e-10	-2.883160340220142399e-10	-4.702665509257506667e-10	3.364636120735301897e-10	3.131105046590842551e-09	1.258176817185162476e-09	6.509236134023917779e-09	5.546314463932754602e-09	5.515974429618801481e-10	6.323190787878429507e-07	3.649363919048573268e-02	1.984699405517564852e-02	1.804774909593767173e-09	1.830181957481350624e-02	2.563669508801252635e-10	-1.531789944854094443e-10	-3.188121205924215764e-10	-1.173957140571642007e-10	-3.286845409233078335e-11	-5.129070511065786158e-11	-2.349644430279164100e-10	1.195961824657413933e-10	-1.191482344110930724e-10	-2.100964333110385018e-10	-2.229484265943852590e-10	-1.400056170922758356e-10
-5.293199695986066982e-09	-4.423865192176181314e-09	-1.449989945123052771e-09	-3.469990160428225838e-09	-1.537062342519313537e-09	2.066266112525854297e-09	-4.294326622907894543e-09	-3.170724229810010686e-09	-4.110124868803114994e-09	-3.583647453004204325e-09	-4.312072632481557048e-09	-3.652133678239015748e-09	2.459058162704420337e-09	-5.974103652087522008e-09	-6.135846688594582505e-09	-2.385278589953688621e-10	-5.369476464087343735e-09	-5.438545629789150188e-09	2.909680508492250049e-10	-3.947492815543930201e-09	-5.030917878056273109e-09	-5.685225186318858606e-09	-2.901788414033895889e-09	-5.567149509968770459e-09	-4.966695119025969184e-09	5.902663187531208643e-09	4.178770688933530764e-02	3.402488867778118051e-09	1.967375764043654773e-07	5.486628610146030566e-02	-1.610434771991706098e-09	9.201133131208462955e-08	3.642944639444895688e-02	6.448441322198131265e-02	1.895948188184751737e-10	9.610521848305687388e-09	-3.373093882354238636e-09	-6.762607560617896644e-10	2.874385626410346965e-09	1.626892764471829221e-09	5.604561782555177455e-09	6.316862298309325908e-09	-4.371372900915973556e-10	3.640344460776916858e-09	2.521971200732468948e-09	9.595567413627410765e-10	-7.272313579817273227e-10	6.220313307923644788e-10	-4.817753979165767861e-09	-1.199399308100638467e-09	2.386018102581510467e-02	5.609027208739235501e-09	2.556499591506243218e-07	6.848260654850285567e-02	-5.207991379512510483e-10	5.099259207678030178e-08	7.624570928219508449e-08	1.778383334033028021e-02	-9.580509004773498974e-10	5.786932279020810283e-09	-3.853011169111017990e-09	2.201098803595166213e-09	1.878775031465226104e-03	1.166042704034328127e-08	8.496797389550426429e-07	1.193423079712061241e-01	1.684874506166598567e-09	6.896366557680697457e-08	6.128573817659568848e-08	1.873737471956793839e-07	6.534884514676450610e-10	8.127804722560817515e-09	-2.238388307187146974e-09	1.154498124060419766e-08	1.627039169616423720e-06	2.162693905843461872e-08	8.076132719653496272e-02	3.469098822969886586e-01	9.607787498332379895e-09	6.469706137523545050e-03	5.391107350624538275e-02	1.283427535232344388e-02	4.996752174973814778e-09	1.683667193539102520e-08	-4.833520408750980891e-09	-4.299726478573798797e-09	5.018167380904090794e-09	-2.410151157628822454e-09	-5.779442582309212577e-10	-3.767154635287674943e-10	-3.758249203683136321e-09	-1.192307376952033730e-09	-1.349150263795711966e-09	-2.453914267244085304e-09	-3.275302185682310025e-09	-1.803185893941387765e-09	-3.749775584440686453e-09	2.319146451123422843e-10	3.402474289429682232e-08	9.002777743120210543e-09	6.203054291342413178e-08	5.691319403133799934e-08	5.701050372512442068e-09	3.936828954934882062e-06	5.174597039732492521e-02	2.401270212509153124e-03	2.035002829070092588e-08	1.604334080761274026e-02	2.200577355594452281e-09	-1.259946220930130366e-09	-1.428627485659125349e-09	-5.047400991233178877e-10	6.138135258226002651e-10	4.610241037994179737e-10	-1.782246979627580656e-09	1.418794274140766797e-10	-7.383614192874719348e-10	-1.301834527293863280e-09	-1.455913960754741151e-09	-8.383757991695942714e-10
-2.727296415459155278e-09	-2.129028126986972060e-09	5.881592549289755981e-04	-6.518531654671121114e-10	1.233861059270233516e-08	2.031752241997343094e-08	-1.952496622165326682e-09	1.767581830488663869e-09	3.839077022910843513e-09	8.558984079929234003e-09	-2.149013229045153905e-09	-9.450379246525442686e-10	1.512219188425801144e-09	-2.208384719990528900e-09	-2.549941924273231855e-09	-2.568233316122589881e-09	-2.507673021575326286e-09	-2.600977204675406992e-09	1.444712579134969240e-09	-2.884407093938731776e-09	-2.922726832210009090e-09	-3.037288597014185629e-09	-2.480410557012376378e-09	-2.985103708108918858e-09	-2.615969180883513351e-09	-3.588251881400861170e-10	3.525345880026904688e-02	-3.356047539887003518e-10	5.275529175795519226e-08	4.907466356750010694e-02	-1.619930428769807751e-09	1.311051647004517163e-08	3.736733198960714292e-02	7.081159027079239610e-02	-1.580320091268089557e-09	3.788624075668058928e-09	-1.948851177179889653e-09	-3.752828045801880604e-10	4.994068062114589074e-08	4.613939891604486389e-09	1.109635098187999288e-07	1.421452963039100696e-07	1.463348577838602650e-10	2.595903961980070251e-08	3.447179521062052275e-08	2.928824568180306994e-08	-4.352262521608847038e-10	3.086431064505632353e-09	-2.628365167467899109e-09	-1.635673641444495247e-09	3.007594279835219125e-02	3.213014885644351672e-10	6.941894936523312390e-08	7.127724136833742119e-02	-1.251372534153904676e-09	1.032195644153561785e-08	3.632851673113744438e-08	8.291552337171629802e-03	-1.538142764082972722e-09	1.030660609729921047e-09	-2.272798570400161741e-09	-3.403134242840972473e-10	1.446416149607920735e-04	2.065697216069466480e-09	2.356024587826954362e-07	1.224385813608760004e-01	-6.191556183273178512e-10	1.378004475768397040e-08	1.935281282666456198e-08	3.113498582191773413e-06	-8.830984659034212989e-10	2.694261751558612897e-09	-1.606603322975914931e-09	6.830685227740482293e-10	4.309548838467724672e-08	5.753138520914695775e-09	8.514227511362131018e-02	3.353922750718885126e-01	3.629659707296483218e-09	1.109177516492763048e-02	7.929393673372496509e-02	6.824468628022655782e-03	5.131656022383457131e-10	6.007487603732340216e-09	-2.504009297021969577e-09	-2.185684168952168142e-09	6.981856464195015735e-10	-2.332351360433349557e-09	-3.127025206391641784e-09	-1.039423077032543096e-09	-2.422971311642801172e-09	-3.151444973960518480e-09	-3.266163466562027446e-09	-9.843181318363723018e-10	-2.368675952603434433e-09	-2.194260858257194488e-09	-1.017472694569691664e-09	-4.696371457026137711e-10	8.446608646678072063e-09	1.039593876463968567e-09	1.280902285046755781e-08	1.102842666191130560e-08	3.288214629829222678e-10	6.153616320779480911e-08	2.792833200427971216e-02	8.197742710034898114e-03	8.292778828914706298e-09	2.080193601771230041e-02	6.111735850131915818e-10	-1.409973950388792321e-09	-7.336992066298557250e-10	-7.555695345404158711e-10	3.900650803342626324e-10	4.447927165234385090e-10	-1.428755218205621440e-09	-4.450580572956736116e-10	-6.653519246560814379e-10	-8.188993288649742465e-10	-1.236585538611637470e-09	-6.755678004352283135e-10
