-9.263619058899237111e-10	-1.233994752075126972e-09	-3.017933677529562849e-11	-9.807959394639891062e-10	-7.636926321256860573e-10	-9.892748438798785545e-10	-9.223442496069967218e-10	-1.147672603826474058e-09	-1.071121461082031246e-09	-1.022895595606409184e-09	-1.108776779899937510e-09	-1.029718621779648990e-09	6.217192617744119238e-10	-1.595323661602423326e-10	-3.249031317306181475e-10	2.334972370182781028e-10	1.686506535837517912e-10	1.438750146176252635e-10	1.325483849037726725e-10	1.201298474499273313e-11	-9.238973112191490329e-11	-4.066438657547110146e-10	-6.693893913029028311e-11	-2.878801116469981973e-10	-5.160461434955033082e-10	8.118383546007870993e-10	1.615570324182440121e-02	1.770981763607175214e-09	4.493810847362499541e-09	1.289772758373992535e-08	5.110001866394891282e-10	2.462767642379374691e-09	5.086748379371408557e-02	1.579341984709659308e-01	5.189374966110487315e-11	2.740094614916769685e-10	-3.912592520064345436e-10	-7.739451222875812972e-10	-6.583576723478227676e-10	-6.050181878914672435e-10	-7.888127744197907485e-10	-7.937471359936066953e-10	-6.489126171625945923e-10	-3.731943074288297819e-10	-7.128951660604041433e-10	-9.757907162275945299e-10	-8.003369578412429093e-10	-8.685901982398083131e-10	-4.202559887528354694e-10	7.969997826117449158e-10	2.522268583183976884e-02	2.959495945736256088e-09	8.281719433317608398e-09	3.508533855806958424e-02	1.056637014223134947e-09	3.760780372994102348e-09	7.799197159383433435e-03	7.341742000256991363e-02	-1.350746442311532028e-11	2.674084140202768717e-10	9.117940197689027263e-11	1.919716507569438987e-09	1.312425878930397278e-06	4.726661520216053828e-09	1.158792420788825895e-08	2.071094817464123328e-01	2.030372995190611047e-09	5.421477859532750651e-09	9.259751219155921849e-07	4.203278796532755780e-07	5.540217415320409740e-10	9.112731656092843165e-10	6.295133418703896994e-10	2.694953071600725915e-09	2.333032326431147110e-08	8.091060775841347130e-09	1.914776425597451605e-08	2.870128138237340587e-01	3.603500766246627576e-09	8.027519026770634804e-09	8.928832812398859731e-02	1.359778658778903096e-08	1.064343644921920428e-09	1.327065394522330813e-09	-6.548539632173965705e-10	-6.800240624760101568e-10	1.624630601376431991e-10	-7.272664311410798677e-10	-6.536473839575559167e-10	-5.160886130999875946e-10	-7.837088243939276741e-10	-7.572120823108996217e-10	-6.034166033708640034e-10	-4.265746910895137704e-10	-7.165406953056990536e-10	-6.571513403604214354e-10	2.801312728922832460e-10	1.207069370000366581e-09	5.813414664404943727e-09	2.373874914379375763e-09	3.708451683579336643e-09	5.998405389583448913e-09	1.949596183017778535e-09	4.974250756754137420e-09	1.051173056272966186e-02	3.959279409964074764e-02	1.975337716079492806e-09	1.929177785786003260e-09	1.920525753866843362e-10	-4.116162705124712713e-10	2.272131935574115770e-11	-7.927406731539119600e-10	-1.180903529287676036e-09	1.107388195606328354e-08	-7.084452758475277432e-11	-1.019895498525124329e-09	7.236081532577815000e-09	-6.267731206531918971e-10	-8.895232874487673629e-11	-2.324974892952966445e-10
-3.263471324243248968e-09	-3.693846933357975464e-09	4.427115009641843163e-11	-3.134011358500836341e-09	-2.709217843624190288e-09	-3.164765844643063315e-09	-2.516092625824466791e-09	-3.369356530132958618e-09	-3.357002395822610757e-09	-3.365867399998449117e-09	-3.161018793841241575e-09	-3.127545042288701894e-09	4.024215854271355136e-10	-1.133053971538145901e-09	-1.607637744655592214e-09	-4.646083994073184923e-10	-5.748890980385748450e-10	-5.928343153683870565e-10	-7.213018312268652530e-10	-1.073608053628964779e-09	-1.297135643306619494e-09	-1.797987201188713185e-09	-1.236931812526628336e-09	-1.586911362675248835e-09	-1.814813908842939043e-09	1.358025200085832431e-09	1.651268592151651851e-02	2.614433913323183928e-09	8.783410184691322113e-09	5.174509461443881298e-08	1.835268458271543298e-11	4.336770120660199548e-09	4.275451210550397507e-02	1.639430718126971831e-01	-1.628789436668330013e-09	-4.568025209283958502e-10	2.897431999847286028e-10	-1.836595333853307070e-09	-3.384198521627438545e-09	-2.636034846930453454e-09	-2.897778333737379542e-09	-3.030701343288020251e-09	-6.574752705721543259e-10	-3.123257934877632515e-09	-3.115866079968500369e-09	-3.328330221464467823e-09	-2.985371119111123321e-09	-3.001012500724421755e-09	-1.720762916790718040e-09	1.149829051786306724e-09	2.982832245999933116e-02	5.012732648951015802e-09	1.650321796047353404e-08	5.581120130809467950e-02	1.461516949935015858e-09	8.036001347054000775e-09	1.234776046382591967e-02	5.251717255493267705e-02	-1.402294752926230194e-09	-4.871167757658652033e-10	-4.958815224028071644e-10	3.927787034110807999e-09	1.718730890550720902e-06	8.443530539307763592e-09	2.261611134453323322e-08	1.989744648633495760e-01	3.602939675766613899e-09	1.185430227341511181e-08	3.123610120253724817e-06	4.323403662416720753e-07	-3.579198772907643155e-10	8.199469036870409385e-10	7.791857694960822435e-10	7.073441324775865008e-09	1.238359468348184283e-07	1.512713268318413417e-08	3.807832117323158344e-08	2.901385899403232105e-01	6.371080245145610714e-09	1.593298657807834412e-08	9.345306870732034144e-02	2.464133984995135390e-08	5.595847372537742903e-10	1.471280209426502048e-09	-2.513046466158652555e-09	-2.073837146794877648e-09	2.236174108939074276e-10	-2.587790670543859363e-09	-2.374487402577666155e-09	-1.882063086278820817e-09	-2.545862176206406534e-09	-2.510604887580276330e-09	-2.228188547838008671e-09	-1.507672319323085866e-09	-2.334251299197588773e-09	-2.506326976393302854e-09	-3.241560418485304325e-10	1.867790867985865012e-09	1.369705520753591769e-08	3.129087283181652906e-09	5.777671454341281268e-09	9.828451569154116083e-09	2.507973862773828801e-09	7.091663918269031078e-09	6.140539724621753270e-08	4.371343428379066698e-02	1.181638939168942370e-08	3.959162779102836788e-09	4.857102114850532646e-11	1.072870334446029085e-10	8.374001529119947062e-10	1.612932663395121457e-09	3.743990690137224286e-09	2.190241317928323099e-08	-1.256945933403601516e-10	1.092956737460382714e-09	1.516627299180102146e-08	1.545299334899230649e-09	-1.363190504803682330e-09	-1.167583110618297669e-09
-7.886099978320962329e-10	-1.046881482199883721e-09	3.962490140204454890e-10	-9.057238976955193297e-10	-8.778992406504871448e-10	-9.954024695470767770e-10	-5.623540291893282471e-10	-1.013438935867795262e-09	-1.023740540847974020e-09	-9.668590839046330263e-10	-8.968728230422562197e-10	-9.265080258661467439e-10	5.829804020015873585e-10	-1.310560225207696770e-10	-2.500749683626751883e-10	2.057008474295220139e-10	1.483645475927644640e-10	1.236765197989028940e-10	1.279632182978024169e-10	9.549995243480738353e-12	-6.357996188642161933e-11	-3.214272727101971863e-10	-6.342144926291240619e-11	-2.393003580845817024e-10	-4.118441604222812542e-10	6.959257570032043888e-10	5.762949784539758528e-03	1.437550030792497956e-09	3.918620831991809178e-09	1.656884562023129071e-08	3.162562566817465046e-10	1.826537302062799178e-09	5.292619668125158466e-02	1.641684338528811293e-01	-9.355224058088317141e-12	2.521363229696519306e-10	1.528980509578092677e-11	-6.102101713222862982e-10	-8.355061182530736727e-10	-6.340355654862041570e-10	-7.139450475545525756e-10	-7.445517484811112288e-10	-1.731686057712216865e-10	-7.645114724211022452e-10	-7.960681789582198692e-10	-8.683333294422434718e-10	-7.112427351234884493e-10	-7.549986795719200656e-10	-4.055522155867637764e-10	5.444597770620384621e-10	4.166118151406471987e-02	2.291978430824228421e-09	6.489186361545136081e-09	4.541544083258511333e-02	6.919560950957015224e-10	2.644073987677480058e-09	1.447954248404475890e-02	5.289354044146011430e-02	-3.296938970061002325e-11	1.947005461533317323e-10	6.445576587626075306e-12	1.313776671437256547e-09	2.155307120058589669e-07	3.684374870554669007e-09	9.033378056715897057e-09	1.820743726030331355e-01	1.472528932491884150e-09	3.960122444927501552e-09	3.423910287992944425e-07	4.243793038462500557e-08	3.638961150687434827e-10	6.152292209491752708e-10	4.891288126732467541e-10	2.534926313256764708e-09	4.103010164410195833e-08	6.320655616749464637e-09	1.512679616676331218e-08	3.046392691841242062e-01	2.738237754046617139e-09	6.226387708654636204e-09	8.222148398989638507e-02	7.518906887931811526e-09	6.795336412766608502e-10	8.653835829819243670e-10	-6.051962626470957566e-10	-4.387289280726856480e-10	-2.197860127393956528e-10	-5.857349303571153179e-10	-4.929349040237516234e-10	-2.456292760487808357e-10	-6.621971500434471134e-10	-5.972538610899709408e-10	-4.239076266584373696e-10	-4.335173293368435799e-10	-6.006319559745640825e-10	-5.138661344200225753e-10	1.586313889268413481e-10	8.910314184713261713e-10	4.962889692982100338e-09	2.081021816199391866e-09	3.640809045979375796e-09	6.603819621956806595e-09	1.414722517187558319e-09	3.588326846346090514e-09	1.202281767105410121e-07	5.375671303200506984e-02	1.513414662885543803e-09	1.565095607588497602e-09	1.241934499988762696e-11	-4.410046586014675443e-10	-2.973737607455987118e-10	-8.411629641271818611e-10	-7.572719142187901178e-10	7.979565285540310207e-09	-3.097453020099825502e-10	-1.088416801558629198e-09	7.945052357893786555e-09	-1.115737716362835657e-09	-2.144858756908781830e-10	-3.823185449304772382e-10
-1.777408013012437101e-09	-2.010530458359308003e-09	8.316226501349888300e-10	-1.732762056436616966e-09	-1.714554581879058398e-09	-1.897058242615120008e-09	-1.242841655636015504e-09	-1.913686910094920137e-09	-1.905645714924669871e-09	-1.806623405944106193e-09	-1.813152073153079120e-09	-1.798350263546578048e-09	-6.934111819319979570e-11	-7.837294208723467861e-10	-9.966615888551096535e-10	-3.477900902215569493e-10	-3.970802912252334035e-10	-3.867716093052286031e-10	-4.299468588712607907e-10	-6.455227081731591429e-10	-7.748879768565874200e-10	-1.137353641650472120e-09	-8.341984995624496954e-10	-1.020163541617653402e-09	-1.087289009496108258e-09	7.068349352945554901e-10	2.199008110137951749e-02	1.199444636861150397e-09	4.497961450324143227e-09	3.749842432264778556e-08	-1.627141836572556819e-10	1.905849715120241106e-09	5.068298501576465331e-02	1.491782437077322776e-01	-9.492811268188597389e-10	-1.694962957635063911e-10	5.449951964234108248e-10	-1.349590698772327388e-09	-1.666259727555982828e-09	-1.482965757515725810e-09	-1.579205530923142157e-09	-1.604852758898460935e-09	-1.135619387855491688e-09	-1.135989289463007648e-09	-1.273418857136724258e-09	-1.806932430280159201e-09	-1.601066193145269203e-09	-1.716278828509858478e-09	-9.096299887973996903e-10	4.665178769452287439e-10	1.940750672438890795e-02	2.283235434007860651e-09	8.066519610349534366e-09	4.754736881920926250e-02	5.070719484855110757e-10	3.618608822423151876e-09	1.377866890572646170e-02	8.071143375926825847e-02	-8.486751665181949702e-10	-3.498471796870130926e-10	-3.195228858957312705e-10	1.446852996749606757e-09	1.371387451411883976e-07	4.083095782215791364e-09	1.111310235098631893e-08	1.919907939444218392e-01	1.575195143285035059e-09	5.409356317200904939e-09	6.251760016645223772e-07	3.126605263874133196e-08	-4.419171413834887206e-10	5.748303776942167300e-11	3.072630564724980646e-10	2.572225832217672621e-09	2.716573894769586048e-08	7.367934069407679483e-09	1.858562532624806853e-08	2.890755349357290727e-01	3.118524848107812351e-09	7.919240016942645878e-09	8.620932476827782021e-02	9.528395736057619920e-09	9.869605464396812259e-11	4.927215155907864116e-10	-1.591930826389620371e-09	-1.255990870050088134e-09	4.908526073280554132e-10	-1.426145663272232188e-09	-1.310092233832978127e-09	-1.071310437861093940e-09	-1.432767511046615787e-09	-1.382293036502986724e-09	-1.221523467934723453e-09	-1.085929742520360258e-09	-1.429838228797106996e-09	-1.256016554238676850e-09	4.748915091962783268e-11	6.841461009096779797e-10	6.116986724785142915e-09	1.929912158096624441e-09	3.864722831727316757e-09	7.812109334417163016e-09	1.466951450290960194e-09	4.740468775126128387e-09	1.561220066471036797e-07	4.942695259030088079e-02	1.485782003833750062e-08	1.922737406499750664e-09	-4.978713533916777825e-10	-2.425166108332907899e-10	-5.102672808168959847e-10	4.429368996448742166e-10	1.178161548128518000e-09	7.915136504662079835e-09	-1.360423341188466926e-10	2.360285204291940702e-10	5.939136561748923485e-09	-2.000895705960970403e-11	-9.014473342673240929e-10	-7.905338108092523759e-10
-2.757106661558120224e-09	-3.575579940166562653e-09	1.420347975797922135e-09	-2.833220434180583551e-09	-3.088237077041240190e-09	-3.023587507903888936e-09	-2.656804918557041907e-09	-3.200544199954998364e-09	-3.229942977114598140e-09	-2.955910577354809246e-09	-3.104757819429668218e-09	-3.354803516391705407e-09	2.353342050144377236e-09	4.278292361131192195e-11	-5.515562605158408862e-10	8.872785333481305004e-10	7.117813786663432561e-10	6.372898541599480993e-10	8.011622142875959657e-10	2.703988724397703526e-10	-4.311006801713364482e-11	-9.517501361466762580e-10	4.107806638145648840e-11	-5.522581953537721583e-10	-1.298957210487361178e-09	3.150809239698479148e-09	2.188905753705813403e-02	5.124032723142928422e-09	1.256379460913985599e-08	2.226829679145574036e-08	2.059166561356572496e-09	8.414687625942729154e-09	6.169232560617873146e-02	1.426867038703814594e-01	-1.473063591545490344e-10	9.839166445354095583e-10	-2.717243028851017458e-10	-7.883774994845106068e-10	-2.825007692346081289e-09	-2.225747587861836456e-09	-2.395170633366836258e-09	-2.474139673317695165e-09	-1.107928005940633628e-09	-2.409420931437084397e-09	-2.486127032207468136e-09	-2.964702481063876063e-09	-1.252929714909798029e-09	-2.086936019878507315e-09	-1.059775890700060869e-09	2.972830969198710492e-09	2.752175832250310095e-02	9.219050706859798213e-09	2.604557606035166752e-08	5.529396322877528497e-02	4.809868870183208707e-09	1.675128809935883222e-08	1.681934212619487718e-03	6.618879998004276177e-02	3.457095619928680166e-11	1.359112192748254965e-09	6.848688345063004717e-10	7.143607729717690211e-09	6.052634637299143709e-06	1.424770951203721629e-08	3.551399854174596993e-08	1.844573586713580959e-01	7.361248381817360278e-09	1.991862641739396177e-08	2.560723325203844104e-06	3.691139812906802672e-06	1.944798496346008725e-09	3.783917396497835880e-09	2.451212732253448664e-09	1.138655244829888166e-08	1.537853529579009342e-07	2.411119126383325130e-08	5.865276245436499609e-08	3.017436247570446928e-01	1.162253071419050861e-08	2.626780669762657426e-08	9.030703060525011039e-02	4.357539390968976865e-08	3.420795281746119626e-09	4.732844257092234243e-09	-8.430097736382342692e-10	-2.292985208032696830e-09	8.568945441884073025e-10	-2.099818996252868501e-09	-1.926963354928174550e-09	-1.525382654566013796e-09	-2.113606210383894083e-09	-2.063737531155504426e-09	-1.734574052836226531e-09	-1.250165991219250326e-09	-2.071434137822380436e-09	-1.556332994041521365e-09	9.124548871750293727e-10	3.738725078468819178e-09	1.509086978842950095e-08	6.332955900308794333e-09	9.618903283050024274e-09	1.480758519606895428e-08	6.183986848417629227e-09	1.400335766189642430e-08	2.174627061044792496e-07	4.652425633132905441e-02	2.334697832262609819e-08	8.634958799705599140e-09	1.647781060212785427e-09	1.316313545666887020e-09	1.026281850254651757e-08	2.881089535441887867e-09	8.632028724457712412e-09	3.105461962450739649e-08	1.445989092863538153e-09	3.027184418715410560e-09	2.235087021884605401e-08	6.367073266864431996e-09	1.445431522896685915e-11	1.283517634653350593e-11
-4.525641817293096877e-09	-5.330348660751264178e-09	1.534373277157240050e-09	-4.696103741930325696e-09	-4.337839527241064963e-09	-4.835851173791932046e-09	-4.474152017320135205e-09	-5.069136808092253696e-09	-4.940133551257306543e-09	-4.984712447739031457e-09	-5.043041147727177280e-09	-4.610751990228279928e-09	-5.222911578988935810e-10	-2.164238891456131302e-09	-2.783759263133374970e-09	-1.319397113158985763e-09	-1.415266533410326146e-09	-1.414653829433836820e-09	-1.704823850212056952e-09	-2.095903602159709105e-09	-2.310266124873798016e-09	-3.092015528137964309e-09	-2.348746678045291435e-09	-2.830386555789032120e-09	-3.436890233140854520e-09	2.871772384942473492e-10	1.614793131405278109e-02	1.267270297694366599e-09	7.132581116283035192e-09	2.582666373800061175e-08	-1.349196375137661813e-09	3.325816574741857758e-09	4.372443577749231952e-02	1.603649577028757045e-01	-2.203709152361432494e-09	-1.585550790451427174e-09	-4.921122184999513178e-10	-4.570315918078721668e-09	-4.631812725750056768e-09	-4.294892631091332236e-09	-4.442105946905648880e-09	-4.503958989260040283e-09	-7.136358087304281793e-10	-1.696201974259047180e-09	-4.346099715624921498e-09	-4.909630657946611165e-09	-4.452801680928231691e-09	-4.628073975963399216e-09	-3.262545868696942046e-09	-2.016373110046026589e-10	2.877828940309766839e-02	4.114891924336791232e-09	1.609899344449394785e-08	4.604503990545789210e-02	-1.581158172171192216e-10	5.515564206785815469e-09	1.411442546421863911e-02	6.537251441761393611e-02	-2.486278109339347676e-09	-1.751028458747039816e-09	-2.014364732065247311e-09	2.207153325446579509e-09	6.815582472957609461e-07	8.125734027352496143e-09	2.352020461500919938e-08	2.019399561899120343e-01	1.818419382888559927e-09	8.647896303650295876e-09	5.969691216118500861e-07	1.031693014783076107e-06	-1.148598616919197240e-09	-1.840173257956459820e-10	-8.145101149600934036e-10	5.330578564093119014e-09	9.987105432007219651e-08	1.526118342614258901e-08	3.942320427532718655e-08	2.646642148206465039e-01	5.341989853469357647e-09	1.489061895549283422e-08	1.107140028625963613e-01	2.830387291530851981e-08	-2.188666363040930605e-10	4.885968663222995375e-10	-2.489147446941036718e-09	-4.379885865571930816e-09	-7.415306036933986659e-10	-4.129911553810880988e-09	-3.790778795002469674e-09	-2.991707765172557395e-09	-4.167054754120630271e-09	-4.127363314897875543e-09	-3.419704263367716188e-09	-3.119903099108387918e-09	-3.898376604945959885e-09	-3.207222388923455567e-09	-1.378281631227249973e-09	3.541466667260594250e-10	9.228155934011105883e-09	2.758890670709160199e-09	5.258140311644180841e-09	9.920836137037217726e-09	1.373088070049020115e-09	6.427843134676241933e-09	9.381280697905032986e-08	4.813163456633393761e-02	1.882238497013552248e-08	8.224290344404785363e-09	-6.793928560607713182e-10	-1.769390728801836299e-09	-5.072465976466465411e-09	-1.063317723273104241e-09	-2.629296900960679553e-09	1.072235457970100319e-08	-1.175947705802362992e-09	-1.833245910276151385e-09	7.740074040832340500e-09	-3.821963085441269729e-09	-2.121444198248734733e-09	-2.267784958737313313e-09
-3.032783377359972949e-09	-4.126447675746816745e-09	1.300126940679228352e-09	-3.669878367003280280e-09	-3.519946756609637378e-09	-3.664358341626658531e-09	-3.458776040347924223e-09	-3.798826448825760776e-09	-3.839970372920309165e-09	-3.853659340031714998e-09	-3.703799780183411814e-09	-3.816331651331623373e-09	4.214122789875474413e-10	-1.633982193646678062e-09	-2.023935789970826172e-09	-8.365733965585679858e-10	-9.047053149209759072e-10	-9.027435921644530002e-10	-1.060250808501828697e-09	-1.347594212968414798e-09	-1.540883055474523966e-09	-2.321161519903279451e-09	-1.818770560586060493e-09	-2.208189695793881618e-09	-2.563429078240741669e-09	-4.180915518646149533e-10	2.261016653340823523e-02	5.966740380208831932e-10	4.020831571634462387e-09	3.375359845419626499e-09	-8.094777786145976017e-10	2.783312643609069406e-09	5.714627133309684720e-02	1.553229925316093607e-01	-1.798840141512875256e-09	-8.480902802987149999e-10	-2.909105441520644224e-09	-2.601959553200147384e-09	-3.251869318905434631e-09	-3.253721412763297012e-09	-3.441476798971995035e-09	-3.507446821556156089e-09	7.094339239301059942e-10	-3.174589488169071590e-09	-3.652273842065326460e-09	-3.563016473459523430e-09	-2.269527140475280400e-09	-1.596351818958050435e-09	-2.470603849308288530e-09	-1.632348687962903866e-10	1.978188854363884322e-02	3.082028557055240485e-09	1.200793189899464851e-08	6.323517385405860725e-02	7.350214690587628074e-10	7.625993802558399758e-09	2.055823173018654984e-04	6.079089967078482593e-02	-1.904054731147522884e-09	-1.343997605186351894e-09	-1.403067607324542520e-09	1.814141208574031734e-09	9.317483555112721347e-07	6.200758469415043521e-09	1.804449993915894015e-08	1.866476100889246925e-01	2.524214462859746110e-09	1.046278850443482582e-08	5.977011937552476508e-06	1.493285299903083440e-07	-1.074550937113555141e-09	-4.511197524995415590e-10	-5.445213812893302908e-10	3.791312725484419147e-09	5.992278965667391478e-08	1.172333294589038432e-08	3.055325659012686627e-08	2.565922349084784337e-01	4.546044714781493379e-09	1.241867699855062059e-08	1.203545261013885675e-01	2.040666518813411844e-08	-2.307338294793497121e-10	2.728033460627002744e-10	-1.800678730134507176e-09	-1.970801913619657458e-09	-1.541481054706454881e-09	-3.177394609629040914e-09	-2.996677822612558813e-09	-2.608083557782223820e-09	-3.206998207272550888e-09	-3.148270643027765886e-09	-2.811858586327386294e-09	-1.442838827683436557e-09	-3.126377982824143721e-09	-2.828635931004523721e-09	-3.092300377322854349e-10	8.140940773998088290e-10	1.863091921247020492e-08	3.731375168885504595e-09	8.566695979539752654e-09	1.984089462047919031e-08	3.376164053415773374e-09	1.387863265240638348e-08	1.101296737716307212e-04	5.719529450442158158e-02	1.252760579885531255e-08	4.338536265393447632e-09	-5.070146620685306264e-10	-1.194320772647349555e-09	-3.321039635482774109e-09	-5.551843921660534493e-10	-8.848547726921957371e-10	8.604228525622159884e-09	-4.221595048476642837e-10	-5.733132580850875353e-10	8.845037923304764526e-09	-2.198292384358320472e-09	-1.797148045665977401e-09	-1.891927429725459197e-09
-3.539975824784818398e-09	-5.123570201579712705e-09	1.686516901874287175e-09	-4.246202513071754532e-09	-4.478114025640151765e-09	-4.641453265016778842e-09	-3.991402362205991284e-09	-4.686700445769875788e-09	-4.640362874201505987e-09	-4.854766864853450242e-09	-4.431156381595129957e-09	-4.600281326298022331e-09	1.328798355418194202e-09	-1.656599772441348983e-09	-2.220640098615730126e-09	-4.331079964899329481e-10	-5.817108938576004045e-10	-6.331926800672923924e-10	-4.813679395634783738e-10	-1.074539831655975428e-09	-1.464968574996170690e-09	-2.458466622516561282e-09	-1.394112630314848090e-09	-2.069510490552535693e-09	-2.603479819175117102e-09	1.844937468882157364e-09	2.376621608990520107e-02	2.899226704128401268e-09	8.608211279751316326e-09	1.179263279916642746e-08	4.633209774892494127e-10	6.677597267251426700e-09	5.388014827323745620e-02	1.479593239652726155e-01	-1.388231148583526641e-09	-4.454939285391220699e-10	-2.398633979284118984e-09	-1.003925608100548833e-09	-4.339737699253192639e-09	-3.683015806565381192e-09	-3.778098898868951356e-09	-3.891069858527000278e-09	-1.448062670531502798e-09	-3.918644619861280911e-09	-3.980780376461204724e-09	-4.432183507849101292e-09	-2.230336931350417997e-09	-3.366055616772893999e-09	-2.078222585395762622e-09	1.731324168736298538e-09	1.929018009309836634e-02	7.361108626675443582e-09	2.330250706481753726e-08	5.447364799883379349e-02	3.451514960836356915e-09	1.590157844239795326e-08	1.604520979466830463e-03	7.221904919107924314e-02	-1.372822133046562856e-09	-3.800590332886676110e-10	-1.243431106743240259e-10	5.992401478931505246e-09	4.896129540838149710e-06	1.250836213675172877e-08	3.278361717337622718e-08	1.897155678172089410e-01	6.305370474057205448e-09	1.998130564258239124e-08	6.860488705572356896e-06	3.698647222401136517e-07	1.189403227314551590e-10	1.278984289089879171e-09	2.056522681044345916e-09	1.008387553955696259e-08	1.676504435173193520e-07	2.216495556424501813e-08	5.501737177042657089e-08	2.760629111855009699e-01	9.956619234871895260e-09	2.392114461415283135e-08	1.096441077597291869e-01	3.656870986156923499e-08	1.433476097879453114e-09	2.349387474438345100e-09	-3.838251623592882809e-09	-3.163270966024185291e-09	1.485112094584863878e-09	-3.408101651916026946e-09	-3.064490036986799616e-09	-2.258457134786636859e-09	-3.391557093033901498e-09	-3.230447491590003195e-09	-2.573013904097552893e-09	-2.227634246960364986e-09	-3.064880015466534449e-09	-2.948753199186438878e-09	1.452253384288871337e-10	4.444091987764239659e-09	3.462458288444103219e-08	7.218208677403720300e-09	1.390118277648040496e-08	2.991179315769561148e-08	6.681913825772782854e-09	2.178929285151207191e-08	5.512889755497219456e-03	4.585877796658113098e-02	1.836446432356368795e-08	4.685758332112065863e-09	3.562928163529069295e-10	-6.421846183883480265e-10	9.687207341191706111e-09	-7.781840702448717551e-10	-3.406550104104565758e-09	2.172803475388039498e-08	5.878125419248698646e-10	-1.224587382121766578e-09	1.631644654125152068e-08	-4.468304024305855267e-09	-1.152841812141876993e-09	-1.299652364471942624e-09
-7.923904571201632243e-09	-8.759259999975174039e-09	4.780421825638476399e-09	-8.067978110506981630e-09	-7.670187984027013894e-09	-7.441994220015673463e-09	-6.208253448157308572e-09	-8.231013697784865362e-09	-8.483971025366222152e-09	-8.021945449763582466e-09	-7.937464070277217737e-09	-7.638401095968228170e-09	1.747581639287265350e-09	-3.108309203586524178e-09	-3.936518419653108536e-09	-1.423158115493660204e-09	-1.645175701224339362e-09	-1.661581359528218183e-09	-1.867229027001170834e-09	-2.574939565103150486e-09	-2.968066238186140847e-09	-4.491843725766687259e-09	-3.362950513486624444e-09	-4.153987632122255973e-09	-5.173680686414802189e-09	1.628230327749281354e-10	3.123470673538016398e-02	3.186030641096104439e-09	1.298492931113346965e-08	1.463827015156300843e-08	-1.146017719187173779e-09	7.303159064041462392e-09	5.426433444407528089e-02	1.452314299779189910e-01	-3.384559592729366160e-09	-4.843762538991602286e-10	-5.921699593989999535e-09	-6.507282759080806900e-09	-6.412263407907436572e-09	-6.756243408210095222e-09	-7.112441252454695157e-09	-7.202000142340174138e-09	3.420580956052206831e-09	-6.008373686200245873e-09	-7.585834597765635727e-09	-7.502768955671832921e-09	-2.570602738487964750e-11	-7.592031915661485007e-09	-4.785471845850612434e-09	1.274922043506938465e-09	1.081518461385963872e-02	8.674731530021776232e-09	3.052576079900688831e-08	5.968409727107795021e-02	1.376342241849214037e-09	1.371295869259627378e-08	6.630279606137968150e-03	7.496701908864862596e-02	-3.368751837378998304e-09	-1.852108606692315185e-09	-2.609302305249118579e-09	6.264359244806549249e-09	8.165838848300707833e-06	1.610995548398538038e-08	4.509790168155853896e-08	1.946912006098702741e-01	5.303809699368156039e-09	2.042752351255164986e-08	5.002979887996098666e-06	5.361879574007663197e-07	-1.207858613257212896e-09	6.223185081917144818e-10	-9.858691897446472136e-10	1.127766723087555523e-08	1.929453513912811138e-07	2.937279998102522136e-08	7.504243195987112256e-08	2.852173469706646425e-01	1.112366490052388981e-08	2.936622055220260301e-08	9.540211374662488364e-02	4.441725573612086348e-08	4.516465415674781336e-10	1.789220503624762835e-09	-4.580315809386127665e-09	-4.786918073024486786e-09	1.162219077611002489e-09	-6.592793622935614296e-09	-6.210549121664332093e-09	-5.415489597563097540e-09	-6.701415688813649538e-09	-6.591212386120404771e-09	-5.292264373140821237e-09	-5.164574212338304782e-09	-6.422450374549103436e-09	-5.892122746418245253e-09	1.117584106590621755e-09	6.961807555723056087e-10	2.178582126308734470e-08	5.210577520621958061e-09	1.019082587849472102e-08	1.688140733022937162e-08	3.632003621384750251e-09	1.236253596942316998e-08	8.518276194195918429e-08	4.184799241459045971e-02	2.676679606482053819e-08	1.460492053698296747e-08	2.412819806837710986e-09	1.141919278507323982e-12	4.965776892557982209e-10	3.671214178823746471e-09	7.243644389971211151e-09	3.025898899701108507e-08	4.314375521267676978e-10	2.814509148586418820e-09	2.700013603402654160e-08	2.485959619070196391e-09	-2.802878620417387270e-09	-2.640484872627932072e-09
-3.294230415812867488e-09	-3.816431054480283319e-09	3.160901977068745027e-10	-3.096241693233573435e-09	-2.794054341625713253e-09	-2.861849046095121973e-09	-2.826310867005081628e-09	-3.316624977663121220e-09	-3.365699766708678202e-09	-3.474112452988961790e-09	-3.294345181408928400e-09	-3.432526049097485482e-09	3.989446087182458499e-09	8.672662372957798441e-10	-5.704421814540140368e-11	1.833435115276428130e-09	1.529540287926972395e-09	1.381082431634724186e-09	1.664116660068871935e-09	9.662410034895456555e-10	5.333060556862000803e-10	-4.792170988332068744e-10	9.934215372307454130e-10	1.659438633671622981e-10	-3.805373015104075814e-10	5.698544647863273244e-09	2.215559530161180860e-02	8.801570151319819071e-09	2.089681561911244735e-08	7.494790939514856395e-08	3.574484433017045261e-09	1.213959192214358575e-08	3.450006823841425541e-02	1.764037421095094871e-01	3.028222015253723067e-10	2.372594393474277983e-09	1.477725846629654398e-09	-2.671605954137988790e-09	-2.828266091479494778e-09	-2.095928929199704214e-09	-2.283809231022611005e-09	-2.383228034966383260e-09	-1.268229586377867405e-09	-2.164365035257103815e-09	-2.561219485519317692e-09	-2.707844311475499545e-09	-7.070482434526894835e-10	-1.056299902616614777e-09	-9.532883685115611511e-11	5.493109571865147333e-09	2.313179171463078040e-02	1.376628569624015548e-08	3.663771460688437800e-08	7.210884577534795725e-02	5.644168164557471974e-09	1.675552160484787163e-08	1.799406742295957262e-02	4.083204353226375927e-02	7.962496513835335118e-10	2.481775535460740582e-09	2.507570719198037806e-09	1.181910637010189159e-08	4.261874149298462504e-05	2.086664145392997466e-08	5.065713622847484091e-08	1.892660304104341606e-01	9.489776477513861846e-09	2.321446718605026930e-08	1.181643528081567127e-06	1.395676315728784383e-06	3.139468865793162320e-09	5.418720770764014202e-09	5.413439992803981834e-09	1.651196929305027767e-08	1.814582330949507068e-07	3.436990422449124493e-08	8.162988234041255495e-08	2.451372391518471527e-01	1.630039057781138215e-08	3.585537521964242234e-08	1.288071288893680999e-01	7.968798441585488870e-08	5.767617306111904733e-09	7.836558489021050946e-09	-1.342075917148977059e-09	-1.970480905387460293e-09	2.441163957621370738e-09	-1.811108952345295307e-09	-1.611203540463251987e-09	-1.057872869524317746e-09	-1.939797706141158390e-09	-1.888897554897343916e-09	-1.423038907023862248e-09	-1.223164646117774802e-09	-1.989909505961464260e-09	-1.681156981765734066e-09	2.010526149045592492e-09	7.622003825085353793e-09	2.603577172306861875e-08	9.083813720298713440e-09	1.331037829736593720e-08	1.947753248788833112e-08	7.242700260850025833e-09	1.458098763891588422e-08	7.836222835512056531e-08	4.961713493092568400e-02	3.554891266831625601e-08	1.098315748746943668e-08	2.615763030878850580e-09	3.458222006029663068e-09	1.662871509498727197e-08	6.086188759296050592e-09	1.555425139340267767e-08	4.915696251938961417e-08	2.331308939685047384e-09	5.347479243707053498e-09	3.344036907908114878e-08	1.265298410829735188e-08	8.540949700276274259e-10	9.159243030638152634e-10
