8.624495815722388323e-11	4.405219018328820840e-11	7.854700330793889332e-11	1.657325600670130910e-10	1.702388200735152526e-10	1.707656381232352525e-10	1.223562637411469521e-10	1.325177170197038223e-10	1.275742924234809578e-10	6.967967928130958689e-11	1.801311601243203089e-10	1.447262162893819905e-10	4.076370754182183289e-10	1.432883038183493865e-10	5.323840845172242818e-11	2.490266358726514235e-10	1.967342476288074808e-10	1.460882850608400340e-10	2.784363243523081082e-10	1.580065601434080027e-10	9.590791896209525195e-11	3.973106695471023633e-11	3.557423337904324161e-10	2.792013361056626281e-10	3.455564509956273617e-10	1.188265132328095379e-09	5.590778737468556775e-02	2.970877663551377021e-09	9.431487479885738658e-09	1.984615220438101393e-07	1.342901270335764043e-09	4.289469039664136071e-09	4.556227598354324615e-02	7.797863616468886372e-02	1.640025969874752664e-09	2.740089695353948290e-09	3.713729254386994591e-10	2.683654231501428720e-10	2.586249818545655971e-10	5.016376784226675307e-10	4.437389078666301288e-10	4.198431143610183729e-10	4.107758281254045078e-10	3.851069360452776087e-10	3.881465970224857857e-10	2.728056436120607247e-10	5.582149775822782837e-10	4.460266291708387452e-10	4.719207660297944253e-10	1.402891335075060182e-09	1.068530542074519474e-02	3.610277231077440315e-09	1.156449511528737390e-08	9.574486556318521913e-02	1.815421751578099993e-09	6.414382339525046140e-09	2.009232905780803020e-05	3.237052706104270178e-02	1.741884357421845711e-09	2.780382390881650833e-09	7.739428612328889618e-10	1.993484304292301567e-09	6.873147621971676121e-08	5.194026832553151530e-09	1.639396566832995599e-08	1.581501050409974962e-01	2.611622440942862065e-09	8.298041035182030376e-09	2.087922258172059295e-07	4.668872877491325476e-08	2.482937843802260180e-09	3.753149805756167436e-09	1.243714740247081393e-09	2.995693927272534837e-09	3.318972686347121648e-08	8.084953285059459744e-09	2.597838740143059943e-08	3.370703493677771889e-01	4.208710519869699901e-09	1.356430373935422516e-08	6.815917251598474502e-02	2.773395455048487669e-08	3.694534307376327883e-09	5.262080632944737963e-09	2.508451306877547561e-10	5.584321780413513869e-10	6.577333142428457936e-09	9.122572815029716558e-10	1.866335273194459247e-09	4.390165505576362580e-09	6.205883406053349832e-10	1.181522919221083153e-09	2.742043964583495492e-09	5.157174459916234213e-09	8.514287817829580001e-10	9.062106358163016905e-10	8.112157614031084740e-10	2.116665674578528894e-09	1.198851885435277361e-08	4.005248407959872083e-09	8.072776779091068342e-09	1.494538995723606372e-08	2.599609177102979349e-09	8.196013327570007910e-09	4.611793298705854638e-02	6.168247543868742022e-02	5.215315479495951894e-08	1.054953551740583223e-02	8.323241652940453580e-10	9.021227853321728643e-10	8.536319507015310909e-09	1.763196386712806495e-09	7.039633513805597582e-09	1.696617329862939002e-08	1.179902521293779016e-09	3.350042893982821704e-09	8.042234093626974060e-09	4.871484675865849296e-09	1.239220233055697598e-09	1.107779476307112988e-09
1.344759378788939491e-09	1.235393387841130376e-09	1.354932826820048464e-09	1.636248434905839723e-09	1.646246694637252183e-09	1.612448089508253452e-09	1.488587871751764378e-09	1.534285607779847825e-09	1.468584866368024559e-09	1.303226174255546421e-09	1.761881909541835772e-09	1.529186628772711971e-09	2.701750472637500876e-09	1.544763661950991209e-09	1.293647300380770615e-09	1.825318392724327747e-09	1.679326165169721960e-09	1.577838848762958061e-09	1.925846594845423677e-09	1.671328208846367746e-09	1.471997324632357363e-09	1.263763168088351323e-09	2.264924262065836043e-09	1.770311956809475150e-09	2.112884609697045833e-09	4.340317567901516706e-09	4.243330976760949919e-02	1.112884865727873658e-08	3.728407819597682510e-08	1.589368354288394472e-05	5.388368646357483764e-09	1.586906305681544789e-08	3.919217720772872476e-02	9.362291603885879165e-02	7.599067575599183532e-09	8.194113547300116644e-09	2.560496934994291723e-09	2.141877956844791996e-09	2.196041766912871402e-09	2.811579841444264003e-09	2.764823121245842998e-09	2.679658207030680009e-09	2.699833687511645368e-09	2.676343874073029847e-09	2.505134003076261584e-09	2.124661024410519971e-09	3.125620327869646200e-09	2.647246461797649465e-09	2.425411562150166381e-09	4.882516728206260415e-09	2.486342482376942623e-02	1.267153154946001449e-08	3.861606147439197508e-08	9.655531685491192118e-02	6.578758676012135848e-09	2.017909908880406580e-08	1.131497354256586450e-02	1.031302991360544610e-02	7.502758121894658590e-09	9.484808539723795869e-09	3.324487591151920741e-09	6.561696611131396332e-09	1.542612412246161256e-07	1.778412926267530010e-08	5.417574232466389586e-08	1.535262757713067305e-01	8.975517761565470317e-09	2.544910737506152322e-08	2.019040429272145413e-07	1.350535861896371971e-07	9.980216126851748543e-09	1.185083000951854444e-08	4.713422985638628933e-09	8.934026478698750232e-09	5.875865333701993289e-08	2.713913768814759196e-08	8.648856609025096519e-08	3.343820822264451653e-01	1.450641697735124549e-08	4.715119343519091877e-08	5.855162341792567032e-02	5.969212234580359153e-08	1.317587912839002431e-08	1.497029672657171273e-08	2.063290120422340567e-09	3.207589657405384040e-09	2.286737534051321305e-08	5.582494705081289100e-09	9.356817813965715947e-09	1.636425236207488516e-08	3.774901811439870667e-09	6.433938310686695497e-09	1.143879014498793483e-08	1.521921537534850036e-08	5.142074381477167431e-09	5.763388275863876988e-09	3.394772877197087184e-09	6.392780736043970165e-09	3.382094891235592188e-08	1.496450768228651504e-08	3.209177119182469637e-08	7.120675279199814352e-08	9.226902962517679711e-09	2.777499082983229123e-08	5.607092565512707127e-02	6.629171642767077433e-02	9.413506218158490039e-08	1.286453920880030292e-02	3.842314031574182715e-09	5.446413530758840007e-09	1.825235331475611999e-08	1.023100933061277863e-08	2.118173299415752897e-08	3.662517613647529371e-08	6.742915815297551534e-09	1.318851036241216448e-08	2.076255455291956192e-08	1.505730028974883524e-08	7.419548750159825046e-09	7.539767592283814783e-09
-4.831979666020276572e-09	-4.767915241178457444e-09	-1.029211750884979594e-09	-4.731173711295572559e-09	-4.150956615591690793e-09	-3.358869393905475747e-09	-4.892386770655231044e-09	-4.715414667574694734e-09	-4.710227829627477380e-09	-4.398166520713277562e-09	-4.680677467676073408e-09	-4.368149624050481795e-09	5.448082277056224974e-09	-4.780129581998351629e-09	-5.281561339437579927e-09	-3.408966818251655719e-09	-4.807884085678300971e-09	-4.964761834812518410e-09	-5.050102957460756645e-09	-5.403755321801417599e-09	-5.574851303596948610e-09	-5.346681630638578066e-09	-3.065132024563777170e-09	9.658408693358099448e-10	-4.471393980523947109e-09	-1.325337629211037288e-09	4.518075516571522232e-02	-3.505033208030722609e-10	5.709426791691765269e-09	3.427156932968331751e-08	-2.417089109210188037e-09	1.981576037514499105e-09	3.540997377766565146e-02	9.417318560705820185e-02	-2.051822937220836427e-09	8.700166820597130160e-09	-2.058694535567029507e-09	-3.469513470765419064e-09	-4.260248066866524791e-09	-4.130276497450528489e-09	-3.945581655805323158e-09	-3.936515867944042562e-09	-3.090113482849844404e-09	-3.905792612481044141e-09	-4.390075834502504171e-09	-4.600661163393607219e-09	-3.873795527679452474e-09	-4.007502477600884178e-09	-4.245315805385946555e-09	-1.625468253599828848e-09	1.808040939804609823e-02	1.827949305951940941e-09	1.431843835392158173e-08	9.931115041419229239e-02	-1.142703838429552875e-09	7.546667949279699937e-09	3.863620348495289385e-03	1.480625295224376366e-02	-1.944058682841549367e-09	4.562538750648228626e-09	-3.731586743525703391e-09	-3.883517980465271251e-10	2.827515085718081513e-07	5.419815402009837737e-09	2.236993960338210833e-08	1.600903488011111708e-01	5.342350262178871471e-10	1.022338995903705012e-08	5.137477138033487253e-07	2.175914107769590077e-07	-4.674477730949223866e-10	7.091999639254334690e-09	-2.889119615483572773e-09	7.424250386542140773e-10	6.205519009018559288e-08	1.140981794468708838e-08	3.868757463526246016e-08	3.214015517527175625e-01	3.725991374998997351e-09	1.540458576987533109e-08	7.039594748704686156e-02	6.681878118240942926e-08	1.450144307602993630e-09	9.397634374206797994e-09	-4.661795276769817765e-09	-3.608200504371892484e-09	5.378511376217555158e-10	-4.216371403911719354e-09	-3.864335472390363993e-09	-1.127823500465518449e-09	-4.353751212366956227e-09	-4.160853159812235970e-09	-3.449229143227061096e-09	-1.705361728303346784e-10	-4.447267205505881273e-09	-3.720356690406363749e-09	-1.115299919350912739e-09	-1.093095063689544820e-09	1.556640116526697797e-08	1.610057345831241844e-09	5.626588498388308931e-09	9.696258114527112170e-09	7.189249244984147923e-10	7.318675058951671532e-09	6.461143858804421769e-02	5.793278215559817534e-02	6.894943969530381316e-09	1.474141304736840269e-02	-3.015132795161308337e-09	-3.050499578681349977e-09	1.498451365187251472e-09	-3.966765913660460866e-09	-2.904941057755003556e-09	1.314803452420133182e-08	-3.425540628232855444e-09	-3.774390799367716455e-09	-2.955384973151120344e-09	-5.557803532349203472e-09	-3.682194057614267568e-09	-3.506407860786413505e-09
-6.702072238504151963e-11	-9.155125199019281300e-11	-5.516085658424062297e-11	-3.598282090072512525e-11	-3.218518871350535096e-11	-2.795628453465864499e-11	-6.009078269968214181e-11	-5.452915870889825359e-11	-5.299057011217635601e-11	-7.912950169889488246e-11	-3.498506442020142520e-11	-3.653824211895054670e-11	1.269370769683708260e-10	-3.920946244469529499e-11	-8.845952839134706707e-11	4.593962131716054968e-11	1.625314057322732275e-11	-1.455165886360766427e-11	1.377193522779055742e-10	-3.399115668955942571e-11	-6.422601716063754649e-11	-8.928441603455621069e-11	1.436015814818684843e-10	6.085192733443532336e-12	7.187529698186550697e-11	4.333060140997544281e-10	5.070538389502280557e-02	1.053425484523748900e-09	2.652366979860047866e-09	3.488269697982660237e-09	4.663347833910819031e-10	1.452050424155609167e-09	4.668604125905807117e-02	8.680405231979668179e-02	6.056043798777275347e-10	1.741731908498768695e-09	-2.995904340931691923e-11	1.460756273459021849e-11	6.378984927412699613e-12	8.882068257313539335e-11	7.754834802719693205e-11	6.969319460891580143e-11	3.407792318415573350e-11	2.806399296653956111e-11	5.778545058511470298e-11	-7.379173214193324528e-12	1.165557741152437716e-10	6.392102730700971508e-11	1.148729775808399764e-10	4.800743110418444727e-10	1.481447108660709049e-02	1.466805651413721236e-09	4.342824312767942031e-09	8.050664706567613182e-02	6.616495424247021254e-10	2.253993673191893529e-09	8.386561848243123844e-06	3.964418321642840248e-02	5.729148775440998970e-10	1.432004854153800886e-09	2.635082996276142265e-10	7.400717184111042470e-10	6.517339056523453135e-08	2.186027893565987261e-09	6.268611975067741684e-09	1.789134540872490409e-01	9.945292013045347886e-10	2.856187590260427947e-09	6.110120929809506381e-08	1.647867782241342622e-08	8.560836306464898775e-10	1.821016284758342161e-09	5.010700006413415710e-10	1.146929717694524468e-09	1.269085678090628584e-08	3.457850234337489043e-09	9.846622098406687091e-09	3.170026294898352637e-01	1.642993762487576254e-09	4.351363332520841087e-09	7.386515316027754408e-02	8.643268636825751284e-09	1.213163433359163256e-09	2.180122695724590598e-09	2.323353259905896628e-11	1.706500792942660137e-10	1.149412421385315241e-09	3.565873868570227912e-10	8.279241780782342160e-10	1.378385855969918770e-09	1.543222618647347899e-10	4.603227772261648929e-10	1.040426974848785761e-09	1.224994428676907045e-09	3.346338659002374245e-10	4.093501953455016869e-10	2.787042224946904011e-10	5.477641708966428400e-10	4.117714831782610254e-09	1.547110450144466458e-09	2.878212634983304169e-09	5.108070046219782260e-09	9.892492572766814201e-10	2.644601033498208420e-09	5.941294986696663005e-02	4.382517335809400089e-02	7.513190056928960499e-09	7.811185075363891346e-03	2.524989225937407749e-10	4.254841225716667979e-10	4.479395126143141021e-09	8.867359372626888389e-10	3.709566046930888224e-09	9.936425091674339736e-09	3.166218956843651943e-10	1.656261948021474993e-09	3.843321086950142912e-09	2.439886722426454718e-09	4.365696795533298046e-10	2.776806175536148250e-10
-1.563434114173415450e-09	-1.813855859554638869e-09	-5.625616331614476899e-10	-1.235165349708264102e-09	-1.067274809338076735e-09	-8.590919773676595263e-10	-1.468364804629788581e-09	-1.384409931335275144e-09	-1.354768271604408835e-09	-1.561094575816731919e-09	-1.281380817165573098e-09	-1.102209093532392234e-09	1.250995391376862251e-09	-1.462057488302515990e-09	-1.848792735546920102e-09	1.758528859297655639e-09	-9.689528822360535090e-10	-1.190176872851961416e-09	3.493993714192685736e-10	-8.019638622434916854e-10	-1.508419262834876028e-09	-1.610521248857884351e-09	9.961070930676200319e-10	-1.031069006081580062e-09	-1.966306826893867626e-10	3.474029121040103163e-09	5.090918369564387952e-02	1.183787825833956042e-08	4.433100741467532302e-08	8.761717459155743404e-03	3.841411290805261186e-09	1.333352272321601060e-08	4.716833211890723854e-02	8.244413260842453628e-02	3.641233007335799949e-09	1.797363173202635485e-08	-2.357767861452659630e-12	-1.451770438718553238e-09	-1.248915302238553620e-09	-1.422249904328234181e-10	-3.708240437697277036e-10	-4.632075167195960382e-10	-5.795709566487733200e-10	-7.108493360236749020e-10	-5.311615824015155888e-10	-1.144958210434749620e-09	-3.588759634623392473e-10	-1.291767666884137696e-10	2.499691539505411975e-10	3.874364411203416113e-09	1.869988680212680832e-02	1.352819139036708992e-08	4.139677675111558956e-08	8.124801115908118765e-02	5.882304733461460547e-09	2.112917243531002309e-08	4.847655289321793170e-05	3.743582558586022735e-02	4.261345489837863028e-09	1.595491321930206278e-08	1.711079897483791456e-09	5.916076928255833305e-09	2.501760099192395505e-07	2.061109750963722791e-08	5.896097646618160257e-08	1.643787428821176233e-01	9.282462470563945952e-09	2.664686878498399332e-08	5.620837919946515749e-07	1.085584398629621457e-07	6.785209617982959310e-09	1.912547194622226441e-08	3.735065410145616908e-09	9.100987580115746965e-09	9.793337554466085087e-08	3.326668730426067229e-08	9.434445772040401415e-08	3.246199844538458223e-01	1.649267418828891872e-08	4.200182101107532671e-08	6.526178286472597567e-02	6.787877209089250027e-08	1.006153986350131054e-08	2.202067380319103221e-08	-7.387135534635941532e-10	-9.033433474321166755e-11	5.565264997917723161e-09	1.194768421467131368e-09	5.321301451618720768e-09	1.113633686506983475e-08	-5.800955219328114974e-11	1.960224334914918328e-09	7.538221868999924894e-09	8.077273691542837284e-09	8.011323665282730426e-10	1.450741513622376933e-09	1.911049992375699621e-09	5.749785430128246046e-09	3.690733362066078266e-08	1.596327242227387241e-08	3.367148411469406421e-08	8.280069050949910759e-08	9.182581955061222190e-09	2.379893477414775303e-08	5.391703730465251948e-02	5.106015920185669188e-02	2.869405717076410899e-08	1.404460566903016801e-02	8.862938545103876135e-10	2.186055627005707067e-09	3.010354938907520866e-08	5.407159258732477420e-09	2.462868823718189914e-08	7.889536492181688029e-08	1.158656911781357123e-09	1.115054249799661965e-08	2.552148588518652044e-08	1.511789406200629193e-08	1.788267039061530421e-09	1.208089103498312903e-09
8.131902911676747988e-09	7.457975758095285179e-09	8.230179242208259699e-09	9.774422362921853396e-09	9.828426726189660602e-09	9.626844317173209965e-09	8.985354255833499681e-09	9.217261989760959742e-09	8.867932096777402199e-09	7.816830885996724406e-09	1.047950315940022423e-08	9.334629272636514444e-09	1.675620592935164947e-08	9.597354516702646347e-09	8.062770524708596704e-09	1.136209782497274565e-08	1.046171494683839553e-08	9.833484444870768015e-09	1.198711840735141360e-08	1.041621179072643194e-08	9.196596918170580677e-09	7.895187922392908347e-09	1.405058070579035022e-08	1.108681774952554666e-08	1.277140757820263768e-08	2.621828282859349740e-08	3.767932295116845076e-02	6.319346695173589271e-08	1.848345090397948712e-07	3.120641619931081188e-06	3.284824038643822291e-08	9.291025548420041673e-08	5.561198951936652951e-02	8.501977826887639755e-02	4.541672275320140315e-08	5.431523879538148370e-08	1.573277034751020761e-08	1.317480507392286609e-08	1.359029008133563175e-08	1.723480234235394360e-08	1.697030487683679748e-08	1.644397703818553979e-08	1.664006674068323584e-08	1.644828227360309015e-08	1.548269618405863761e-08	1.315661998895172204e-08	1.909387028119279688e-08	1.653797464918817677e-08	1.461332811596656635e-08	2.914519238453989083e-08	2.778575246784364960e-02	7.682842277273755696e-08	2.344240396140673260e-07	8.151832073018258629e-02	4.148612195401652440e-08	1.336261735739022505e-07	8.018206491556975840e-04	3.170925862864290568e-02	4.323469814008529928e-08	5.622501294753519918e-08	1.999632902505834958e-08	3.940333936890778080e-08	1.667169233584034077e-06	1.074011238733574139e-07	3.286014516254574268e-07	1.647158248351191789e-01	5.545235542788213091e-08	1.595378327002581070e-07	2.157039131069787066e-06	1.623386485870081125e-06	5.897433781031324257e-08	7.771121441686763116e-08	2.792746158918387310e-08	5.241658193056175890e-08	3.557746550300443252e-07	1.637212410850031326e-07	5.216966876670655170e-07	3.477735959257879927e-01	8.655604968965297168e-08	2.646973175692323882e-07	4.512717617901221973e-02	5.260270827278137041e-07	7.928988451950912276e-08	1.010558009917596875e-07	1.232780185122444252e-08	1.878342509748817180e-08	8.531332286243471385e-08	3.155899164052376568e-08	4.646943556716051671e-08	7.209425963623086182e-08	2.230840871606798329e-08	3.480448529927739092e-08	5.256686253148286567e-08	7.111828510316119166e-08	2.859533417743725875e-08	3.483991628606738443e-08	2.028917748014101400e-08	3.724880765918692658e-08	1.828437896185000649e-07	8.177141433724229451e-08	1.531798224653022918e-07	2.592592885976811828e-07	5.726094825921447760e-08	1.663714131136969056e-07	5.221204834334008948e-02	5.677194258288126294e-02	4.790189295058161436e-07	1.325720544381361887e-02	2.270695687465857145e-08	3.000498575224145856e-08	9.362751293626385772e-08	5.280483956915124255e-08	1.005284037856480242e-07	1.753465523460033285e-07	3.918032629630173560e-08	6.473222460414870353e-08	1.072733091185456686e-07	7.614062098550033942e-08	4.184191674398404196e-08	4.573084533761289473e-08
-1.281656152009813546e-08	-1.229053448227587150e-08	6.426691411244051246e-10	-1.266885932193673618e-08	-1.133832481763623147e-08	-9.632264741790942816e-09	-1.253040106693206122e-08	-1.274380481404576385e-08	-1.283396774532334725e-08	-1.285855479985349628e-08	-1.219466516867745300e-08	-1.215282779430080439e-08	3.878631551684455248e-09	-1.288333737684555894e-08	-1.372710941613394731e-08	-7.061811097960122955e-09	-7.481781830124998437e-09	-9.682499549303345049e-09	-6.036745593922686366e-10	-1.323092075331184080e-08	-1.381412572145376879e-08	-1.172741237898449930e-08	-3.384843928790077540e-09	-1.316323245072279270e-08	-1.079101347384880386e-08	-2.520792832738340814e-09	4.315094557504723510e-02	6.966095226167401956e-09	6.175320663161856217e-08	1.044806700746028164e-03	-5.144952974223336361e-09	8.819772120668706423e-09	5.118437014169986005e-02	9.311352663152774878e-02	-1.773048952954347388e-09	1.684630161215991992e-08	-7.017340504867633898e-09	-9.100608719797753259e-09	-1.076802555251749267e-08	-9.802706232649383724e-09	-9.653664556261844649e-09	-9.675351839291979324e-09	-6.270124020089901685e-09	-7.976656669234561277e-09	-1.117605225192435585e-08	-1.129099280206292824e-08	-8.486834059688625267e-09	-8.222516526086358202e-09	-9.915589658959894636e-09	-3.076673419796460857e-09	2.107718892761660870e-02	8.075477435402209710e-09	4.503418657662899254e-08	9.438322107856611520e-02	-2.496027026495576044e-09	1.596946817418198176e-08	2.485509760185825055e-06	2.157226085016588149e-02	-2.657480330214601081e-09	1.658895497516255155e-08	-8.008752261050825656e-09	-7.860016798705276100e-11	4.510313082385792864e-07	1.832688783233046664e-08	6.785522866938156509e-08	1.580975771325154600e-01	2.792793291374553945e-09	2.554261951359092352e-08	7.216923389351326951e-07	2.133468236784607161e-07	3.718244762266696544e-10	1.817581399082345386e-08	-5.843252902522884484e-09	2.263364454089035114e-09	8.333056419679641907e-08	3.596935637273067139e-08	1.155514389374669236e-07	3.273206481953721547e-01	1.301251205511229011e-08	4.563519878214180107e-08	7.239613652567442048e-02	1.294774936592746250e-07	6.375523150765111972e-09	2.758406855738446488e-08	-1.123854287442152120e-08	-9.203419948473812513e-09	7.573840785540571277e-09	-9.608294803670460524e-09	-7.602195032351996729e-09	-4.604338854612242349e-09	-1.084613529561985210e-08	-9.912008229707267557e-09	-7.901480270028728456e-09	-5.228873308696130109e-09	-9.150884264078558452e-09	-8.633800869407026948e-09	-2.823360124210890476e-09	-4.198238915169492199e-09	3.748213425373345158e-08	1.123836033011839403e-08	3.334319979678834589e-08	8.853880148508112020e-08	3.465712295568844255e-09	2.348319470177370033e-08	4.109102374397394924e-02	5.992538871978515813e-02	4.759861161195305452e-08	1.563847509314546594e-02	-3.473934598271809219e-09	-4.518014821473817228e-09	1.217331400006611494e-08	-4.341403067451928591e-09	2.201724992153727081e-09	6.245143020474997151e-08	-7.047107768172314110e-09	-3.492884998754033953e-09	-2.999945213168914585e-09	-5.727809045235071991e-09	-5.915280069137606278e-09	-6.249317013551991515e-09
-1.079881239303612762e-10	-1.414682961696993103e-10	-6.067304755789300148e-11	-7.302338132128700893e-11	-7.014759220226002308e-11	-5.124005254800546258e-11	-1.003236473582392192e-10	-9.366804772607574961e-11	-9.855881450707011054e-11	-1.342080887416740503e-10	-8.123857125274727640e-11	-8.705028579204711345e-11	1.960666514202615569e-10	-7.690735553059214828e-11	-1.248728206106725013e-10	6.224615852125791544e-11	-2.398402631095256139e-11	-6.286560147346393840e-11	1.578057195035024733e-10	-6.664151241206860009e-11	-1.025275356800717096e-10	-1.238164415311781913e-10	2.048342937942320912e-10	5.680882164600662283e-11	7.249149912323140883e-11	5.209275965532217666e-10	4.644469708884781112e-02	1.401715769887287305e-09	4.459765963205714053e-09	4.116856034136028137e-08	5.888421232113515451e-10	2.238725223171780206e-09	5.139124623595372338e-02	9.348103684839471905e-02	4.625335471329117590e-10	1.578167860032349711e-09	5.440838650204195851e-11	-6.357879055974751235e-13	1.213180998958321497e-11	1.275442041336030880e-10	1.173760265147078172e-10	1.052353366490816852e-10	9.691577832475142404e-11	7.306945803061661372e-11	7.220806244562290895e-11	4.856523406800373928e-13	1.455019738505618903e-10	9.933882497160611090e-11	1.324163786356964527e-10	6.631428902699312625e-10	1.903403439948440218e-02	1.842227897863422989e-09	6.285170830282541629e-09	9.724925503888161293e-02	7.901341857803955567e-10	2.939256365854991129e-09	1.677694732472321745e-02	8.299135730244223616e-03	7.104344382090800706e-10	1.666607780026313579e-09	3.231471990334472634e-10	1.034930170007046540e-09	2.500181947692358147e-08	2.736752520790444014e-09	9.040872754234750809e-09	1.620720874302297165e-01	1.261939083242048305e-09	4.257236633053224717e-09	1.096156080696209080e-07	1.476835949220181176e-08	1.091280751907488636e-09	1.846972477541829910e-09	6.335822501379827131e-10	1.704122806927115853e-09	1.103625952096018302e-08	4.380518850084476783e-09	1.460726460434524230e-08	3.362897811006405058e-01	2.173712794181836561e-09	7.419485412109692732e-09	4.189637032434795350e-02	1.005172340589942478e-08	1.647568542913460645e-09	2.407472761988524461e-09	2.966698956543485574e-11	2.007156469016001780e-10	5.522898877988819114e-09	2.929363448302511923e-10	7.815007691658460040e-10	3.089238057627622859e-09	1.586109680383502891e-10	3.774113665358583724e-10	1.239413564962721682e-09	2.564298682590171992e-09	1.914021758181702324e-11	1.936432682430215692e-10	3.238187373618107781e-10	9.889699450506579998e-10	4.008109137707571112e-09	1.859976362849701668e-09	3.535951617024911911e-09	5.572370648727999767e-09	1.306339740956940165e-09	4.218794611374647752e-09	3.012514064104263381e-02	7.720601393603065965e-02	5.201093773158150762e-08	1.973383800970723162e-02	3.248017346422279243e-10	-5.679160638667235785e-11	4.653159079858467044e-09	9.704521066150973012e-10	4.601200898735271936e-09	1.104742725387385651e-08	5.486571521375030145e-10	2.072897560678016823e-09	5.970662327517379907e-09	2.136775413309950154e-09	3.931148099378720389e-10	4.724832402402569508e-10
-2.856903441611103762e-09	-2.952315134043312616e-09	-2.754830652126804076e-10	-2.709663763934640225e-09	-2.465987340727765312e-09	-2.206421484408300146e-09	-2.821718304496821328e-09	-2.750994480030827295e-09	-2.756209727766216721e-09	-2.679315552579685200e-09	-2.697580031733633287e-09	-2.600370213100646502e-09	3.003892798655814669e-09	-3.153558097710891630e-09	-3.222996950789437184e-09	-1.932446169401641926e-09	-1.958939692851956546e-09	-2.566606256869946058e-09	-2.104671741911316433e-09	-2.992166543100748059e-09	-3.153832025359858184e-09	-3.351212038277026666e-09	2.512174731338129042e-09	-2.865151979953874244e-09	-2.048029582738030900e-09	5.442707335215998296e-10	4.850940485335745317e-02	3.707738533210250451e-09	2.053848228710012652e-08	1.055207368646366223e-05	-7.135584578577678358e-11	6.412178140123892285e-09	4.241398373625778623e-02	9.149921413851727636e-02	-1.096244819592197783e-09	5.169094804802101365e-09	-1.709135123387244358e-09	-2.078503994536555435e-09	-2.222102457144967718e-09	-1.849423335479527435e-09	-1.845792474303548103e-09	-1.859991245801181880e-09	-1.104955648677678727e-09	-1.694528430796858007e-09	-2.241006879325709720e-09	-2.369131481518825658e-09	-1.877147194331788086e-09	-1.711981162976919952e-09	-1.888671893958625639e-09	3.682903930034165042e-10	1.812428130906175786e-02	4.667164220642331824e-09	2.019259417025480412e-08	9.974429043527673067e-02	7.502633444685672312e-10	8.854564888422084474e-09	1.253800487169300006e-06	1.673393468681555127e-02	1.234669784837294205e-10	4.932969762632584544e-09	-1.037379493001976367e-09	1.642883782118744663e-09	8.742928091726928137e-08	8.405983883580454049e-09	3.022483927799490233e-08	1.588772744765503953e-01	2.506731483419979963e-09	1.216400353228374267e-08	1.164424906710624964e-07	5.718655223800067802e-08	1.503431112722136656e-09	5.662406253944467967e-09	-3.559239149908677857e-10	2.999835355209941687e-09	3.412612745334544836e-08	1.459280295858463882e-08	4.959679672747492686e-08	3.244763684786314828e-01	6.590679970257182347e-09	2.651743602603539910e-08	6.027146660785084181e-02	3.130457515175809047e-08	3.433873851374413775e-09	7.273957775510275818e-09	-2.311524261075734582e-09	-1.030953802249604750e-09	1.816440853843528059e-08	-3.548592052578311400e-10	3.127498815170979473e-09	7.326510107393450532e-09	-1.612688876995018184e-09	5.381583071118256337e-10	4.108414208667942070e-09	5.912765011488765400e-09	-1.546142861729593839e-09	6.133453254191360252e-11	-5.424237726340217441e-10	1.494729804453563998e-09	1.845273307666020482e-08	6.111322968409117588e-09	1.550062679761748934e-08	3.502203241399012351e-08	3.060109998895211880e-09	1.503463864954614925e-08	6.351155987574880202e-02	6.058478161055767114e-02	1.100021562921648954e-07	1.524085399322349342e-02	-9.200629998337752126e-10	-1.721170360381058651e-09	1.624742378542249277e-08	-3.642042220499951615e-09	4.204438711049685427e-09	3.738390906004762136e-08	-1.789358009412863002e-09	-1.272662292445358159e-09	7.544168326460151520e-09	-2.502525447777286531e-09	-2.644674147704997118e-09	-2.728299685057915383e-09
-1.103479747461533993e-08	-8.839745688616007963e-09	6.396044610034834056e-09	-1.047524825566021997e-08	-1.031299611214713722e-08	-9.551654947005884240e-09	-1.035091097616190306e-08	-1.075801791404993918e-08	-1.093781458751060891e-08	-1.114049266292300950e-08	-9.869145206603082258e-09	-9.968158337790273522e-09	3.650980973021863782e-09	-1.119227689889684132e-08	-1.119322633643363236e-08	-1.393709432749004777e-09	-9.794943138919808431e-09	-1.112365522793067998e-08	-9.080968699191244341e-09	-1.015620638095677834e-08	-1.067934821810809305e-08	-1.148571302821087956e-08	-3.488481749400464117e-09	2.477760803553528806e-09	-8.725660602684135763e-09	-5.461188769622799580e-10	4.667837211895807525e-02	3.380303921207599828e-09	4.087632111908501847e-08	3.595424665304693883e-04	-4.612069984674526363e-09	5.548108448192861934e-09	5.307086377644743003e-02	8.198479865247267073e-02	-2.350821181549412932e-09	1.046619729104500149e-08	-3.563955543227234148e-09	-9.447713866882324748e-09	-9.044644767626152793e-09	-8.033035412570029720e-09	-7.512920567803091839e-09	-7.549697096028182276e-09	-7.373044475780992282e-09	-6.564263274820241291e-09	-8.109678918840401355e-09	-8.763406064912296296e-09	-7.341520032258481032e-09	-7.285323781617110501e-09	-8.236201610995581029e-09	-3.089742647354724109e-09	2.047240325398926031e-02	4.521103889469888679e-09	3.084350203740403016e-08	9.409249572678546336e-02	-3.310164793862594016e-09	7.104426756753569712e-09	1.612078545685685859e-07	3.055039382334643824e-02	-2.893236325950671126e-09	9.780496442377405742e-09	-6.571470444844789558e-09	-6.218893060964128222e-10	5.205832334863752073e-07	1.196743813793909333e-08	4.682511156564943239e-08	1.579960204821879710e-01	3.164198509138831852e-10	1.328644506302172477e-08	1.352075403569450319e-07	4.872433387636302181e-07	-5.266857972738024207e-11	1.403173175702259552e-08	-5.361597629061336702e-09	9.926501043201560042e-10	7.407531741355103012e-08	2.475515998844449235e-08	8.060781776428821849e-08	3.405127853416785033e-01	9.272334420230325768e-09	3.359426587148069843e-08	4.206184338790724259e-02	1.335045603168813737e-07	3.760641154646856980e-09	1.768317057341565758e-08	-9.360592898896545539e-09	-8.120850048200058036e-09	8.885368506834394351e-09	-8.596798903607959576e-09	-7.164345800144911996e-09	-5.254994909921555588e-09	-9.185458439811550803e-09	-8.936199690247317780e-09	-7.207986549922866835e-09	-4.925379731979846085e-09	-8.707296701027227722e-09	-7.639935615067834595e-09	-3.791741472144869518e-09	-4.806288451237886827e-09	1.998697011442388348e-08	6.776194865263409468e-09	2.101505197069595546e-08	5.246431278469915674e-08	2.359335220861435453e-09	1.761546585081535161e-08	6.575336767274110594e-02	5.589341117473230897e-02	2.518144320160415264e-08	1.057214596606116316e-02	-3.164559027497671631e-09	-4.052981818098939229e-09	-6.597131467394494890e-09	-5.238704833560112899e-09	-4.015212010076337493e-09	-6.457478249507865770e-10	-5.850726123852584400e-09	-5.676503477409301945e-09	-5.263028899399633793e-09	-6.553827443315438404e-09	-6.006371108349520727e-09	-5.537237647740774403e-09
