-2.272266608623083214e-10	-2.557937019807583645e-10	1.412706016825959023e-10	-1.986769027709350589e-10	-1.948054186959615158e-10	-1.745182224634885323e-10	-2.161994829354242125e-10	-2.139977921459360919e-10	-2.196910284522448618e-10	-2.095133072249412064e-10	-1.776153731235766355e-10	-1.890103475728334327e-10	2.632881066630872190e-10	-1.150019991022803019e-10	-2.084426933632586440e-10	-6.985476678129225890e-11	-1.016009940743873269e-10	-1.925881705924444818e-10	-1.503469996980732634e-10	-1.676012172795227528e-10	-2.089256647666405306e-10	-2.057095607450980693e-10	4.214930321595042962e-11	-7.179760686793809019e-11	-6.365147669583892995e-11	1.664770736573598771e-10	3.202777144326695441e-02	1.273002484788944096e-09	4.567784117491748778e-09	4.648154260500798505e-07	4.500906085082568708e-10	1.749504904560732187e-09	5.812068520481520478e-02	1.046280877200933407e-01	6.973187025095803925e-10	1.888679981231442028e-09	-9.698879239401113818e-12	-1.838807285879698501e-10	-1.474551497971632734e-10	-4.698666886834908772e-11	-6.172341162513746259e-11	-7.246372196565303524e-11	-5.171532708094859976e-11	-8.432985841270195626e-11	-9.743531509171303489e-11	-1.496325586054793493e-10	2.634904546592687367e-12	-3.922512343193269274e-11	-1.257979338720869105e-11	3.659520264585439861e-10	2.833238857480409323e-02	1.495788740444848048e-09	4.745022393722141856e-09	8.710709508290803704e-02	6.124242974632148703e-10	2.109031755339893649e-09	3.361602688365614693e-08	2.537972021885471358e-02	5.874595753618458421e-10	1.449616568520150131e-09	1.698251584633337751e-10	5.627032980587155127e-10	8.935556644443026983e-08	2.063051282519773029e-09	5.838377905578664464e-09	8.957950763099800651e-02	9.701089944777322680e-10	2.765737085027036963e-09	2.555840446361770272e-08	5.196521869927337578e-08	9.277025548394384729e-10	1.977851358350448839e-09	3.933930334238830286e-10	1.083470025790309647e-09	1.408616069068168415e-08	3.669068792397714749e-09	1.095024831851605935e-08	4.265916551436060300e-01	1.916836643027140341e-09	5.636202861132209210e-09	7.608853724985642497e-02	1.100208286979669750e-08	1.316412457445731828e-09	2.349625445871982118e-09	-1.617817209554470061e-10	-1.195527776275145774e-10	2.767244611499566896e-10	-1.221092885573645927e-10	-9.558607139358174089e-11	-3.983872861521467331e-11	-1.321339239131907846e-10	-1.378556610875961768e-10	-1.344301012464174097e-10	6.949855746675675183e-11	-4.994402626724133289e-11	4.255853323396076543e-11	1.993731586480561044e-10	1.022794170433731256e-10	4.340235530186845665e-09	1.694501028208769674e-09	3.597069829139014310e-09	7.604276764071067994e-09	1.170749612822097508e-09	3.710108163958164898e-09	9.813858840145890314e-03	3.472427365373809138e-02	6.747326645850214232e-09	2.760561527574002458e-02	2.231503026044002518e-10	-2.110910541709052783e-10	3.936200777688022200e-09	3.432569102421948117e-10	2.894467475945812225e-09	8.224923626761871631e-09	1.650320774675103601e-10	1.339637112524235821e-09	4.517739683598781165e-09	2.646860648964666312e-09	3.602836224932155448e-10	1.519409190753097168e-10
3.160954035602301856e-10	2.929847868337728957e-10	1.809222507416556177e-10	4.231925335147910427e-10	4.218506372415394484e-10	4.125732836334736976e-10	3.629206659304579263e-10	3.684646173524326651e-10	3.567535878709294894e-10	2.938206609386842160e-10	4.337880879760968489e-10	4.132738282525802958e-10	3.692319065284679374e-10	3.751273465770067452e-10	2.860385059373160258e-10	5.054379531704572793e-10	4.412151431347269875e-10	4.030540608326689152e-10	5.386394955002495082e-10	4.393148041042382122e-10	3.607767560793371497e-10	2.774294066339877449e-10	5.591552279404924420e-10	4.988848660645849615e-10	6.222419498319108146e-10	1.889790146756191367e-09	3.576174591134998609e-02	4.440872884572569431e-09	1.564167596150518282e-08	4.777102978525198454e-03	1.991922429424984728e-09	6.060771627822470997e-09	5.663786810377356706e-02	1.062168617703645873e-01	2.325651400709612356e-09	4.841084981445732472e-09	5.814605504746878780e-10	2.259053645365681633e-10	4.937059024200309090e-10	8.433125715978008160e-10	7.672541122704874485e-10	7.432424407783642613e-10	5.548831042516950170e-10	7.586059592794299650e-10	6.999747445142334870e-10	5.333290633403586014e-10	8.718877941070573658e-10	7.789705976941275786e-10	7.850376104591460515e-10	2.153047778119291305e-09	2.350020230314902106e-02	4.724243577276864387e-09	1.346011214781125820e-08	7.811029507460053034e-02	2.454099625810341612e-09	7.631803363327758489e-09	2.857888864043837487e-07	3.882682500541551757e-02	2.349103494279899616e-09	4.373835909794730626e-09	1.159156481112708462e-09	2.897793757755414780e-09	5.580841125814681790e-08	6.285908554083376073e-09	1.664244842799097639e-08	8.213880080767373137e-02	3.315642225847978647e-09	8.993018578294705453e-09	4.704069520831415077e-08	3.585132788079748997e-08	3.041879521862628529e-09	5.032993665970878943e-09	1.784277915416349866e-09	4.365162488207173266e-09	2.433097788927862673e-08	1.034424475900475030e-08	3.002934976807605557e-08	4.196631345806228763e-01	5.679357709070447157e-09	1.855551869681204059e-08	7.903816417118900151e-02	2.506090677751250472e-08	4.238768535588878174e-09	6.599369592943731243e-09	4.380113110966914252e-10	3.161885993996573226e-10	5.792169282189501343e-10	6.552411044833491564e-10	6.856414267073617490e-10	6.920553590210250203e-10	5.554679594373884090e-10	6.109737226074622368e-10	6.074752922172716558e-10	5.598295518763750339e-10	7.032423400746434599e-10	7.292447404397315689e-10	1.283711098181735258e-09	3.226240273441482850e-09	1.322481948584794855e-08	5.336682143387670057e-09	1.080819626293252924e-08	2.362924717523355278e-08	3.481844754894321710e-09	1.176032511318866710e-08	2.049080774104702907e-02	2.512681827500624215e-02	1.028624844627154216e-08	2.971045060516970884e-02	1.277249528044291588e-09	3.386157746253132723e-09	1.554735953506841203e-08	5.793427732862434874e-09	1.867871489356432124e-08	4.024635848081034813e-08	2.844717568685583336e-09	1.153984178897822561e-08	1.941504012984199315e-08	1.225395571107143450e-08	2.606699980778570949e-09	3.137818023680739585e-09
-3.113593385121593774e-09	-3.409004223040496621e-09	1.274778537063833211e-09	-3.041512114528853419e-09	-2.912311234891828007e-09	-2.691686392975462636e-09	-3.091223538687731780e-09	-3.000716114378376785e-09	-3.072422142639365463e-09	-2.984086181414261840e-09	-3.012394018581787151e-09	-3.019442706476847047e-09	1.634550818372539142e-09	-3.365680875152516154e-09	-2.953560349447530610e-09	3.702809654277733982e-10	-3.176797619637400598e-09	-3.354237497454484240e-09	-2.002100020376373827e-09	-3.340540167805749423e-09	-3.393284821511439777e-09	-3.030879128292189914e-09	-2.485436404711152731e-09	-7.925157533879480090e-10	-2.674633573211694864e-09	4.322406896459065358e-12	3.247021831961183908e-02	4.563215104758561589e-10	6.469841732522893132e-09	1.480333130091058788e-07	-1.309578090911205734e-09	1.759101567974965927e-09	5.289264279748458891e-02	1.107531577354251145e-01	-6.735700738261877021e-10	2.273490156731283378e-09	-3.063153865977809857e-10	-2.382247827411994403e-09	-2.943746438342163537e-09	-2.748660301998440226e-09	-2.710337636410716293e-09	-2.761422395634635074e-09	-2.242041798445167627e-09	-2.328094166085272354e-09	-2.859417242025588867e-09	-2.992983560147369129e-09	-2.425983896776795549e-09	-2.542049621398486849e-09	-2.473030189845550809e-09	-8.774425298126105263e-10	2.675322178293158826e-02	1.416344221587343541e-09	8.975076990736421551e-09	7.728689305178489122e-02	-7.386043977841535069e-10	3.224961410772317313e-09	2.037387351606785903e-07	3.628917328723624269e-02	-9.735985668490705933e-10	1.746948754763618237e-09	-1.790352746756462870e-09	3.077158177521560100e-10	5.999084942592836337e-07	3.283884913280672952e-09	1.229822879236761159e-08	9.110739762207058223e-02	3.468685977848492807e-10	4.804846502941175218e-09	9.858175592097801058e-08	1.092047826588833393e-07	-1.895054801260972754e-10	3.001714129393920176e-09	-1.324433099256443316e-09	1.760712879465505688e-09	9.312228136838817325e-08	7.384468284180205231e-09	2.386673561050432325e-08	4.172050591257639995e-01	2.982100489565023540e-09	1.070702243750159962e-08	8.081655304858453848e-02	5.937274368910093362e-08	1.230299660386159670e-09	5.083878196793693542e-09	-2.872955195168638730e-09	-2.668643057883686923e-09	1.321989908444981010e-09	-3.134511247158581811e-09	-2.788621686974910868e-09	-2.366166842210424184e-09	-3.073748244143664578e-09	-3.027091603117059150e-09	-2.905923714868122943e-09	-1.889980264721221071e-09	-2.876165963347014502e-09	-2.575949546352912954e-09	-1.647642754441270183e-09	-3.332958247415391869e-10	9.677600882958536727e-09	1.681404243386673130e-09	5.021365264612583654e-09	1.191696655583720698e-08	6.071679421399445840e-10	5.191063077194174132e-09	2.264396832361813966e-02	1.635364314806336816e-02	6.162680029054649597e-09	3.542676193376174260e-02	-2.409751049681663058e-09	-1.476978796112616354e-09	6.832876461624555046e-10	-2.218311898496023674e-09	-1.764679753430723601e-09	5.661411393305799177e-09	-2.120471863092685035e-09	-2.144507267270266041e-09	-1.620450790488537550e-09	-3.100792241033794253e-09	-2.051703203143234261e-09	-2.148058282182875367e-09
-9.247761024268958649e-11	-1.375452621961704813e-10	1.587448903517088000e-10	-6.784426526178835139e-11	-6.194281679522372239e-11	-5.064782441864801010e-11	-8.934918167405552828e-11	-8.687772273225926381e-11	-1.012607326792571351e-10	-1.215911031898702240e-10	-3.859309473560554900e-11	-7.399927273915025153e-11	4.541219051995396797e-10	-7.724368776561481194e-11	-1.037805113962422288e-10	8.846201245540773285e-11	-5.196398585887027718e-11	-6.442466503681162491e-11	4.621133169402490378e-11	-6.232515306094142633e-11	-9.402742216550286117e-11	-8.238446057156593834e-11	1.526501320615498465e-10	1.234107663033965166e-10	9.515968871679586565e-11	1.096089163347925297e-09	3.799675255374891647e-02	1.821966330425771218e-09	6.965157354577513646e-09	9.779309821505441564e-07	7.484071223662680109e-10	2.925997189194841543e-09	5.964532591791183586e-02	1.019033923628160088e-01	1.358189241147261632e-09	2.048018849524926363e-09	1.581297718509110587e-10	-3.334844124897367236e-11	6.051332906669565239e-12	1.277774625587065745e-10	1.101103749153457916e-10	9.526368298421884387e-11	1.166131003179986825e-10	9.441610780612598733e-11	6.318915629369103975e-11	-4.777078693631604252e-13	1.996705900837147995e-10	1.247345177718036447e-10	1.599102495204171686e-10	1.015655012912305952e-09	2.058348648840350320e-02	2.037019402854885545e-09	6.877742328410276850e-09	8.387173729304236991e-02	9.484881316922862596e-10	3.366624716714954806e-09	3.345149537605291148e-08	3.661354018282279160e-02	1.152602213601875520e-09	1.719225571097668033e-09	3.965771478317593446e-10	1.635414512605605769e-09	6.519306772433516749e-08	2.646249553222001143e-09	8.121037984966620293e-09	7.734996522981692213e-02	1.405614505046260880e-09	4.528136649495922552e-09	4.098727769016214827e-08	2.994519964270800859e-08	1.583184340376891202e-09	2.178423268924136117e-09	7.140989482778557919e-10	2.573321659332635969e-09	2.185915991577907278e-08	4.751428217050553038e-09	1.562574253581111974e-08	4.312464161049517908e-01	2.633835549034387717e-09	9.825021656297851844e-09	7.083919380153864964e-02	1.991279713007553025e-08	2.332681253104176234e-09	3.214258699518537480e-09	-1.113411884598587743e-11	4.538378259231635988e-11	4.132543747824080653e-10	3.078029690717545198e-11	6.404602826622045048e-11	9.100293590792084974e-11	1.109576469799756402e-11	2.790606821497946120e-11	2.159962033574096428e-11	1.218732382925033009e-10	1.397596004831936442e-10	1.154161143608022049e-10	5.162619541000527810e-10	1.911827986231061083e-09	5.728547640787161889e-09	2.226859304778715131e-09	4.747676141049382892e-09	8.785719394541713017e-09	1.635971566103613340e-09	7.116334954991619647e-09	1.258202621917627918e-02	3.320368005760841734e-02	1.724864649855511328e-08	3.416311085521159252e-02	5.272304280434130360e-10	1.230506344036060455e-09	6.405480066971904149e-09	3.322050647770881343e-10	3.431709960619138236e-09	1.219428681009013305e-08	4.478231071866438715e-10	1.737706769518978420e-09	5.204706096589071845e-09	8.026319972584420690e-10	8.105095680131612551e-10	4.106148725869128842e-10
-1.669045825508283930e-10	-1.861852258443854089e-10	8.263832650083132796e-11	-1.601620024043033152e-10	-1.489726597873563062e-10	-1.314145074282767550e-10	-1.654729517291956687e-10	-1.631512806498114427e-10	-1.649778638793986337e-10	-1.559000245737804884e-10	-1.560367145988525406e-10	-1.531486761608707518e-10	1.908306792073031837e-10	-1.831700590765799556e-10	-1.779577529827033307e-10	-8.569185616056848981e-11	-1.602540158953288309e-10	-1.611480526685759361e-10	-1.473788898508635020e-10	-1.663551773513194348e-10	-1.748990242976873522e-10	-1.803300582440625676e-10	6.284007080743047468e-11	-8.043309803386713173e-11	-1.009369333201456345e-10	8.832257311749598221e-11	4.415329133861673611e-02	2.591684443433477848e-10	8.388717030615303225e-10	2.624221384481682971e-09	5.428146764056027745e-11	3.955743617069123652e-10	5.110082255931765877e-02	1.012571920662208580e-01	5.454488081042999767e-11	7.053441232881372506e-10	-6.240390609631819504e-11	-1.137634400765217145e-10	-1.324007314896821516e-10	-1.098007420624942191e-10	-1.049646251513020546e-10	-1.091998640618066323e-10	-6.880765834306214531e-11	-1.101232640241381260e-10	-1.197039404054485329e-10	-1.364991317848301700e-10	-9.247201357612346146e-11	-9.143838521609608952e-11	-9.051209265682507755e-11	7.591989362546090157e-11	1.562247551326986783e-02	4.209397608746816269e-10	1.405250870665028635e-09	9.392276568111623813e-02	1.178603125561645200e-10	5.494065035462484892e-10	1.931991626165697749e-08	3.308104007008687980e-02	5.999628703042991496e-11	4.497475859051576555e-10	-1.490634934985997163e-11	1.805945140865920598e-10	7.420196097574952195e-08	6.565761262195960532e-10	1.858356207059522904e-09	7.783984308386883433e-02	2.426254729708005089e-10	7.358334519604813260e-10	8.922849448529551512e-09	1.231256131334004589e-08	1.539695486651751538e-10	6.168573679969986355e-10	4.569437853720395071e-11	3.584633718115521558e-10	1.657221032478515710e-08	1.139461482165998168e-09	3.266632891613720777e-09	4.313472882514284845e-01	5.289329088340961537e-10	1.367450658927865681e-09	7.615169309487089533e-02	4.834113375373995454e-09	2.933657309943209285e-10	7.951446993817766412e-10	-1.465372745196110103e-10	-1.093238500198043482e-10	7.510386044364742262e-11	-1.180199687189912862e-10	-1.280454949660684345e-10	-1.362323141924575886e-10	-1.283231231656276688e-10	-1.335578666593831200e-10	-1.341890811910657032e-10	5.748423935932773879e-11	-1.051636738812254103e-10	-6.447279182899968626e-11	-1.863733050397454145e-11	1.573075643166548328e-10	1.345919703493457264e-09	4.419798604051189994e-10	8.859999851260207351e-10	1.734080111360786912e-09	2.700774123763711514e-10	7.411464700289653436e-10	2.850382267926992660e-02	2.339951300336871876e-02	-1.276583406807859760e-12	2.362008920181312213e-02	-7.627371237629393736e-13	3.286185294816437177e-10	1.280775047568662308e-09	3.398910525149571174e-10	6.837714689291511495e-10	2.560169364207621176e-09	1.366982040742026771e-10	4.946305980032448987e-10	5.372837510226379999e-10	2.704748879681023922e-10	5.217088653300880759e-11	1.762585545381110250e-10
4.177539932318023459e-09	2.841516327759936497e-09	5.479288898470859101e-09	5.841668288266502182e-09	5.971292302624420614e-09	6.316362528356910964e-09	4.535878553926307291e-09	4.565862662060735259e-09	4.197978099553922411e-09	2.631700912144313166e-09	6.928252641074434524e-09	5.263982416370830138e-09	8.732133304963438880e-09	5.588367293723905836e-09	3.221212416708950999e-09	1.181174323236528544e-08	7.118986577304448450e-09	6.312699216271477357e-09	1.100626885331282188e-08	7.006280928046769870e-09	4.881525035176260303e-09	3.345996478862665804e-09	1.374455728084484736e-08	8.287937633696088455e-09	1.555274136955022830e-08	6.335069096910940992e-08	3.993141885828921378e-02	1.054726184034941482e-07	3.205303578535343984e-07	1.661995281193320853e-05	5.048887241516555121e-08	1.635538636267606952e-07	6.507101170789869604e-02	9.722511070368565489e-02	8.294900999827225829e-08	1.320898356673977970e-07	1.414652477395345889e-08	4.262504240428462994e-09	1.006948477173962225e-08	1.792364498629798300e-08	1.632259012617370190e-08	1.569283153822564849e-08	1.540311850346828434e-08	1.491567699251917934e-08	1.435844171161583308e-08	9.127897720189463302e-09	1.790811130542101221e-08	1.561490801372074425e-08	1.955397894204653268e-08	6.946262998191309293e-08	1.562264483282089014e-02	1.245165033028474714e-07	3.649705906243912780e-07	9.118165218326303167e-02	6.523874109768132796e-08	2.208259057520487051e-07	7.766519159024199551e-06	3.262837596454896266e-02	7.155076343268081805e-08	1.150210484172865961e-07	3.245573274938734993e-08	9.988109904454524560e-08	3.184340248903340354e-06	1.673450655216540201e-07	4.571346731206398075e-07	8.498588752857519357e-02	9.303962449858453423e-08	2.931851372484704267e-07	4.296447067229102735e-06	1.212006401818882475e-06	9.281578536026836767e-08	1.340373731792094614e-07	4.832784434664269910e-08	1.337787263052115490e-07	7.208281707053767013e-07	2.802957723135449197e-07	8.278422985938181168e-07	4.129127032405985886e-01	1.561119304601804530e-07	5.616125714206098999e-07	8.294262505941037145e-02	1.012034296351380087e-06	1.354562218259154362e-07	1.917188058042015667e-07	7.626415503432988168e-09	7.878996891461479030e-09	1.584426999422243079e-08	1.246244681307169650e-08	1.373241675108722781e-08	1.498725298398633429e-08	1.051455642936948049e-08	1.186311000894990273e-08	1.183834594212488004e-08	1.212122211293570963e-08	1.671655253305668965e-08	1.513802073502561435e-08	3.031940632864956316e-08	1.183216290817915229e-07	3.622872784479871722e-07	1.559148339563753517e-07	3.396019476977456854e-07	7.911019835216720578e-07	1.138826403820013168e-07	5.457473541843250203e-07	3.938118503290485893e-04	4.680713107430679865e-02	7.029716166208635432e-07	3.024984481657060423e-02	4.289928340925724314e-08	1.926115191970293993e-07	3.900217476283633770e-07	2.105482930310610335e-07	4.463474808426616623e-07	9.789810103417801300e-07	1.120949274079540684e-07	3.581643982235316686e-07	4.338776347044519027e-07	2.830961920278054357e-07	1.009652529965853810e-07	1.038499302383594035e-07
-4.315787186364006784e-10	-4.995871623205461168e-10	9.781434064548079503e-11	-3.677801717578991413e-10	-3.421221880370157637e-10	-2.987701806949850208e-10	-4.239794273941561417e-10	-4.117377495524901427e-10	-4.254791156440089624e-10	-4.234596796619138871e-10	-3.565626692987005709e-10	-3.578190558741753691e-10	3.836786613819945751e-10	-3.986007623450122376e-10	-4.341739098180742971e-10	-7.275953208215078722e-11	-3.217904617320748582e-10	-3.268875437236458065e-10	-1.491442452493303339e-10	-3.926866935303421327e-10	-4.373299009741851840e-10	-4.896008159988671766e-10	6.728948669396225239e-11	9.919453247108142776e-11	-1.339065411727407409e-10	6.265517213961618455e-10	3.592471803243688089e-02	2.684614072731924479e-09	9.840474205738657866e-09	8.530199541035209473e-06	9.395343280044042482e-10	3.621229381422714717e-09	5.730960251914195280e-02	1.088123830708066231e-01	1.034434919066143395e-09	2.452241186121753698e-09	-1.475291700907459322e-10	-3.938289708488458543e-10	-3.292608966405821686e-10	-1.449026748795265574e-10	-1.847440661586098482e-10	-2.017526826525843034e-10	-1.766666584273475789e-10	-2.583365752675229314e-10	-2.582136650951760429e-10	-3.293784310704549373e-10	-8.593594721804767457e-11	-1.359958469417309765e-10	-1.666609071422308722e-11	9.919078705508189119e-10	2.057237471159821182e-02	2.951720347039941546e-09	8.843406575528939311e-09	7.135877883148079859e-02	1.133656710647689676e-09	3.585010780822650527e-09	2.549039661117674464e-08	4.709141758032368841e-02	9.341429248057345072e-10	2.148320109736811969e-09	3.480927094844219534e-10	1.646819772817824583e-09	4.750798300099301992e-07	3.967461492517481271e-09	1.040790003381272229e-08	8.570539474046647010e-02	1.799992391865552639e-09	4.644908873679873399e-09	2.288690332282322237e-08	1.663013065729518840e-06	1.789480574003484230e-09	4.095812116781344364e-09	8.161044799996098867e-10	2.857765893935286369e-09	5.929615500705293580e-08	7.175967819244694137e-09	2.010932945704140961e-08	4.239731558201519923e-01	3.853930088202417762e-09	1.105938140479575905e-08	7.635250219041110620e-02	2.261845326173984041e-07	2.742138692136388278e-09	5.748098075732371486e-09	-2.958821908748928049e-10	-3.026957147532709843e-10	3.110893288944267080e-10	-1.765443957513559926e-10	-6.424447441325563445e-11	6.631755027668881729e-11	-2.426794294718976302e-10	-1.803273778513376635e-10	-1.498640431299267849e-10	2.325897720983568792e-11	-8.616379285744147185e-11	3.430823942530507748e-11	3.704589479805682023e-10	-5.327208836484274726e-11	1.217380053272585704e-08	3.186221809084172698e-09	6.739614706238918680e-09	1.602602642209525067e-08	2.014031504365892345e-09	5.818612443331723595e-09	2.917712852434727749e-02	1.121229931046754773e-02	1.355259999576356029e-08	3.249903343886901413e-02	3.456227793525304437e-10	3.089628644457080080e-10	6.819226191611150158e-09	-2.553963238370211620e-10	3.854388259281532083e-09	1.365167414613597626e-08	-1.575852042216273991e-10	1.649496147760736421e-09	5.312464016783331373e-09	3.517846244867759389e-09	2.817075374446402582e-10	-3.534370954389501708e-10
-8.552487814112529491e-09	-9.363462679222453318e-09	3.939079537130323126e-09	-8.550593203966590076e-09	-7.852838302815576209e-09	-5.971551849279241852e-09	-8.655181757268083278e-09	-8.688470347555583674e-09	-8.804624211240386361e-09	-8.924947734140014045e-09	-8.247388334682338780e-09	-8.395664089972316084e-09	4.322313850070902328e-09	-9.197512492320957277e-09	-8.384912827128905871e-09	-5.281884547252941630e-09	-7.598335141370993867e-09	-8.531493271438489587e-09	-8.533075543156868272e-09	-8.592880510671952936e-09	-8.928853818874468051e-09	-7.559777830704353574e-09	-3.342644249313249073e-09	-5.848672178892631828e-09	-6.551836878534107068e-09	-5.110792805090704772e-10	3.908027884992026912e-02	9.300042960576998207e-10	1.730020463028208806e-08	4.202289265594438940e-07	-3.699937164602332125e-09	4.538574534352545480e-09	6.232779043130027424e-02	9.948621576314507775e-02	-1.624281099150327352e-09	1.173007126944525119e-08	-5.669563908855187263e-09	-5.733773728149355031e-09	-7.220678420968881120e-09	-7.249443498214282514e-09	-7.007544706573240604e-09	-7.106512960159987951e-09	-2.660623985436765559e-09	-6.260960833455073069e-09	-7.813525599491627045e-09	-7.956041300941490523e-09	-6.304830033907439874e-09	-6.763692407005850636e-09	-6.097959657101150131e-09	-2.726222289592042160e-09	1.762162103729552828e-02	3.420190127601897437e-09	2.395724655407277502e-08	1.047819374657052577e-01	-2.296575167503709258e-09	8.202120901533116483e-09	6.976602786002734207e-07	2.251872805407384437e-02	-2.290547595152869030e-09	5.144105877526410452e-09	-4.511860104971779205e-09	-6.002935815857224250e-10	1.879710840733866134e-07	8.555304668339907589e-09	3.462216636143180797e-08	6.651344831131374147e-02	9.183821222552830424e-10	1.379937631305750343e-08	5.196700944597521370e-07	7.692497184014680395e-08	-7.207475862706017538e-10	6.298491574250670646e-09	-3.174205955699138653e-09	4.026068553572702551e-09	9.060895282968035122e-08	1.940899569438989126e-08	6.532764828850079299e-08	4.347112963330603264e-01	7.779676933888147513e-09	2.905468581265111225e-08	7.098125720545099548e-02	4.200917912220482811e-08	1.632920690394992138e-09	8.312173102222744327e-09	-8.293098229284111170e-09	-5.412935989180199335e-09	5.613734949024752545e-10	-8.159787874874104507e-09	-8.536423627626544215e-09	-8.353318819734070505e-09	-8.020369551694780109e-09	-8.845268529462392021e-09	-8.763784674469410317e-09	-1.699837152526243005e-09	-7.338488567706282753e-09	-5.760901686579155400e-09	-3.901561479625418181e-09	1.122548464444503037e-09	2.455251619950371432e-08	7.177265502723348013e-09	2.178722619622554950e-08	5.892136126565836572e-08	3.780879519640548881e-09	2.673266993528158665e-08	3.180726740070335783e-03	5.194476297727498165e-02	3.056366946564777856e-08	2.684984715288600554e-02	-4.638992044329730829e-09	-4.041515542267760631e-09	6.216280756053114363e-09	-7.320922040835956973e-09	-5.020166711537545611e-09	1.790130228422859530e-08	-5.700899411165595182e-09	-6.161230166470048885e-09	-3.907292533845468325e-09	-1.043202717577639704e-08	-5.154895395718802079e-09	-6.108170821851656565e-09
-6.481410230919772571e-09	-7.370055815432452665e-09	1.536770076683419544e-09	-6.642677559927816029e-09	-6.265875208326507163e-09	-5.699079211671456284e-09	-6.973426460831344565e-09	-6.589263303790248965e-09	-6.786333833644822037e-09	-6.334848172867752687e-09	-6.632363462184476613e-09	-6.360281868435478591e-09	3.848686148380801692e-09	-7.542620667877539378e-09	-6.756983911423309220e-09	-3.279229206264013176e-09	-6.711872282716964190e-09	-6.757690135245249063e-09	-5.265386304408499825e-09	-7.419252729733606440e-09	-7.451394333869092137e-09	-6.600220320849546709e-09	-1.748751709341526753e-09	-2.987740631763769073e-09	-6.059596956198621748e-09	-6.703433242354381575e-11	4.771799634528365447e-02	-4.517461467625284882e-11	1.106800628916637310e-08	2.266687255639229162e-07	-3.396809188233081299e-09	1.753361764996951774e-09	5.921299459706048235e-02	1.008518884432861307e-01	-3.321388257230129417e-09	8.188392205644122534e-09	-6.034113055325961297e-09	-6.197028990696838766e-09	-6.239138574773215599e-09	-5.760233184972149752e-09	-5.536628091979404441e-09	-5.704002864443359553e-09	-4.095130463125268353e-09	-4.509393709278739514e-09	-6.042563151466025061e-09	-6.740612354697132985e-09	-4.718229720748852962e-09	-5.178394239515587534e-09	-5.421602258190541696e-09	-2.737311391335896399e-09	1.338336359949222551e-02	1.878039245719102959e-09	1.617141757324040323e-08	8.406900308725615001e-02	-2.309932502075914877e-09	4.020710739197776102e-09	2.706975055793935224e-07	3.829569713648096202e-02	-3.588982189673690672e-09	2.952342253652112063e-09	-4.401375454505062760e-09	-2.993122521783162611e-10	6.107063049223284922e-07	5.843003719187846584e-09	2.393317613237235337e-08	8.461315478871189733e-02	-8.153755283549751860e-11	7.573003624682577014e-09	2.303561803428241109e-07	3.198673375407571027e-07	-1.984286991135116392e-09	6.491029581384031013e-09	-2.868173386253368585e-09	4.482487142091494720e-09	2.854141745716932541e-07	1.340301126404568438e-08	4.471890810715645938e-08	4.253892183033076146e-01	4.721106514406173171e-09	1.759255425494374597e-08	6.645562665461782204e-02	1.338579822602750077e-07	-3.707567863874971140e-11	9.145196968387645243e-09	-6.176953473794913784e-09	-4.408272857933760360e-09	1.834603216169028928e-09	-6.809761761781552908e-09	-6.787907578312638360e-09	-6.408414807867707800e-09	-6.693496326216310115e-09	-7.161698044079240102e-09	-7.029454428566238791e-09	-2.362738620765138453e-09	-6.472263850920276202e-09	-5.488714448827199685e-09	-5.155228030840679274e-09	1.184941673856085738e-10	1.259412247969541702e-08	2.479870990049637148e-09	7.835678435402342441e-09	1.904641798895596573e-08	8.699197231339644410e-10	8.394130477508089777e-09	2.554434424468606316e-02	2.868463510059098692e-02	3.682694759912038870e-08	2.578005562547019264e-02	-3.157250628981250298e-09	2.540978572441952236e-09	8.011546463194248157e-09	-6.938458475603496887e-09	-3.732407728826727389e-09	1.137083081898212453e-08	-5.710518831696314795e-09	-4.780636354964592267e-09	-3.701729088086104318e-09	-8.188734969767937915e-09	-5.809158019932159295e-09	-5.733582779372940788e-09
1.061955795499433688e-08	9.036374846928941622e-09	4.162026105964918869e-09	1.364786121049314137e-08	1.370482454731244763e-08	1.339423975391685921e-08	1.190277938454001414e-08	1.176743441044545472e-08	1.120750450345416004e-08	8.886598323245791648e-09	1.616585423502473013e-08	1.318180616900958201e-08	2.045731316216783231e-08	1.372639362028093472e-08	9.694256844289284648e-09	1.925616482293641816e-08	1.526894284562527509e-08	1.368310342784578202e-08	2.054658882190552262e-08	1.527105205226389981e-08	1.203384927104927615e-08	9.931818361083766942e-09	2.490218560911202626e-08	1.883053379703628329e-08	2.731209991484144700e-08	9.249171391153311303e-08	3.373168245847606855e-02	1.609886611839675368e-07	5.165646313863700341e-07	2.372508659286013118e-05	8.162537808340788959e-08	2.603624635129867351e-07	5.712102189908022098e-02	1.119567730126491134e-01	1.319627476184882485e-07	1.743894100463481795e-07	1.916224331971165073e-08	1.099631717813647311e-08	2.099609899102042505e-08	3.224352021344441464e-08	2.898341612274426812e-08	2.802512675255368623e-08	2.515285743925649419e-08	2.387594687806323249e-08	2.605832378507540003e-08	2.021089858475528852e-08	4.013585778357019510e-08	3.015918970854735804e-08	3.176228014591597697e-08	9.727548586915064670e-08	2.570742061704111431e-02	1.875341825679804462e-07	5.874105822422783532e-07	8.468540504430066562e-02	1.055465967240044051e-07	3.584338446868475111e-07	1.544614839060699969e-05	2.241675837382009484e-02	1.198906074486014356e-07	1.720893657927643939e-07	5.211926081633797064e-08	1.551905245819116582e-07	1.725392571759612410e-05	2.420757152319116670e-07	7.118732213028897363e-07	9.131579864681477199e-02	1.430186929204792662e-07	4.395878518964009068e-07	5.774747885628411959e-06	4.565694588354930975e-06	1.606233104775975764e-07	2.205395034899317300e-07	8.166958779348392149e-08	2.502888152967288657e-07	2.446420672545954677e-06	4.174681528388643851e-07	1.349049685998723891e-06	4.119062010319476941e-01	2.455871037113414360e-07	8.823870968861383437e-07	9.476375028648745258e-02	1.432714960738097432e-06	2.153041725480538174e-07	2.876155928645086416e-07	1.548327642271381962e-08	1.590958713114808874e-08	2.203616070203164445e-08	2.248680188046083539e-08	2.378672283506896148e-08	2.438028485805363847e-08	2.020533380172407449e-08	2.183840907686350990e-08	2.148460450470423716e-08	2.077149157118451722e-08	2.925661426297377087e-08	2.524215041618156881e-08	4.837017640752067881e-08	1.473275677514926849e-07	6.523166594295415887e-07	2.033583899352242659e-07	4.176736959317540467e-07	7.700592484516197827e-07	1.606274887113651588e-07	6.200747558757347745e-07	3.018822818495699967e-05	3.848127280751524604e-02	1.171279891653558676e-06	2.779338130291321776e-02	6.050367653745743950e-08	1.964192448938134041e-07	8.407943712010256682e-07	1.340271907307229232e-07	6.813171167361718815e-07	1.699222496949140697e-06	8.059336596919109889e-08	3.887017795559200329e-07	9.578370614032620487e-07	4.231638644315366841e-07	1.165630438934670089e-07	7.112223624183738493e-08
