3.356755875234931521e-09	6.127019033461750682e-09	6.119134444106309096e-09	5.427329200309321157e-09	6.022313419991708749e-09	6.018258224143934769e-09	4.918900157068530982e-09	5.215831621502622333e-09	4.818080166144708970e-09	4.157310099739077476e-09	5.497950257974185404e-09	5.754648928790265069e-09	9.236956453126809329e-09	4.149742909515956777e-09	2.812254285612825901e-09	5.753289652895409233e-09	4.014463337222111816e-09	3.596058454396074537e-09	4.946252373484859774e-09	3.961502352491373235e-09	3.254294424876379204e-09	2.710329860969291363e-09	6.334660132931830510e-09	4.867477597816089211e-09	4.924056782359221864e-09	4.572939167559040468e-04	3.604030445334025640e-02	3.606022748002919784e-08	3.483466006913413240e-07	1.981409946229269539e-02	2.233178793102382373e-08	9.422620106430418772e-08	5.504850598827239899e-02	5.064935870316387978e-02	3.430628022082381161e-08	1.037520463371660075e-02	8.666498051547460130e-09	1.471562945605161967e-08	1.089081071548762910e-08	1.337094360194149346e-08	1.457742929890206329e-08	1.375762876580735016e-08	1.317880258956311152e-08	1.376619402723238350e-08	1.250282847802883169e-08	1.061000699428452372e-08	1.505856608812548982e-08	1.526820099448380647e-08	6.200318953872085412e-09	2.349946770466864052e-07	1.535801040677623949e-02	4.492665296625404306e-08	4.194112139637710026e-07	7.111455779062331173e-02	2.656576058115157891e-08	8.895538103344063294e-08	3.199519067772332320e-07	1.777842531403919096e-02	3.148269000441826797e-08	1.742630985526489376e-07	9.109922770833957750e-09	6.376117399964344830e-07	2.944212153205748590e-06	6.441954797727014083e-08	7.612911980599558121e-07	1.504780045434014613e-01	3.729963026508230695e-08	1.160858715357068278e-07	3.126971688453955645e-07	1.252710672859403372e-02	4.039479409591796388e-08	2.304577812946836468e-07	1.432840347210989891e-08	1.253341100274097090e-05	3.062414177242306238e-06	1.049393451967072736e-07	2.000279856497987950e-06	3.335512223903285833e-01	7.508192370082973569e-08	4.361208470988996387e-07	7.618732355730326034e-02	2.354125831643146156e-03	6.602176651662947413e-08	4.797746138209237577e-07	3.632252381114372756e-09	6.059846539443439186e-09	4.621872077313242145e-09	5.378194859878471610e-09	5.814255819331454566e-09	5.593953728450025631e-09	5.189258673096494785e-09	5.320879098170702955e-09	4.840356389558202286e-09	4.653161443966684131e-09	6.726065538458287232e-09	6.957829901493088841e-09	6.167198285653981890e-09	8.747156144642096223e-09	5.941092951908180681e-09	7.890225975636884731e-09	7.919949640418597006e-09	7.325901486616212484e-09	8.528402181289490026e-09	8.773718450622188812e-09	7.248990334612067751e-09	6.048193207749875181e-09	1.240071862538923287e-08	1.147738397366068245e-08	1.248644959705336047e-08	1.700629303071130689e-04	5.931856375460870022e-05	8.555762936766028394e-08	1.277349340892099839e-06	1.480070537421987742e-01	5.245472704469543173e-08	1.759530574909100502e-07	4.825421945251699527e-07	1.425320244689617266e-06	4.983587334548274239e-08	2.079541636205009400e-07
-1.152300792042382640e-08	-9.124596170950117648e-09	2.250162964237291796e-09	-1.137059177000837350e-08	-8.289360336648488188e-09	2.223731329069730827e-09	-1.193171116071340537e-08	-1.109829037406082312e-08	-1.008327648931802332e-08	-1.076503151670671827e-08	-1.283260746211475616e-08	-1.144779262327464831e-08	-1.103057031776844256e-09	-1.073092950455590663e-08	-1.287174793759006167e-08	8.132170633743773715e-09	-1.264769358366316150e-08	-1.317428954111739365e-08	-1.270240214322154621e-08	-1.203430414532208413e-08	-1.315278911038805110e-08	-1.055212588132196023e-08	-1.261996751688536464e-08	-8.905667276761497532e-09	-1.060698457299130595e-08	5.882975632817130434e-04	3.846151585242107984e-02	-6.736083201385171584e-10	2.174126083923717572e-07	1.895366865475124965e-02	-6.686999888979727198e-09	-4.748088676028399205e-09	4.638373866178766014e-02	5.703075272143363905e-02	-6.938550103790449095e-09	1.221872493713791440e-02	-1.220154510831425497e-09	-4.105594224949286164e-09	-7.641922256374348830e-09	-6.847247623885250021e-09	-4.026900057960710773e-09	-2.803565701469209193e-09	-6.433042951619248294e-09	-5.410836257696379116e-09	-4.897051440458725379e-09	-7.754358781773648977e-09	-9.116125367782601216e-09	-6.401348967861368148e-09	-9.800012181946429751e-09	1.643912982905787307e-07	1.237933826703118897e-02	2.077539729798363642e-09	2.185351640657540597e-07	7.973321421905597839e-02	-4.860440751388008293e-09	-1.612625473790064770e-09	9.856979229650083560e-07	1.839041438838755552e-02	-1.083894629525460684e-08	5.702310229705027889e-08	-7.502801941349230986e-09	3.551661220137140305e-07	4.848748595406049850e-07	9.994153670366235745e-09	4.443246434196153098e-07	1.617800320648366541e-01	-1.416307692338428932e-09	2.456832715316148307e-09	2.176063998604264320e-07	2.865993656985661778e-06	-9.167381180140840446e-09	8.854319052895587788e-08	-5.595036841571865812e-09	2.153542371735811034e-06	9.251193037196140732e-07	2.673654536341315677e-08	1.936725238187388136e-06	3.015191779771323466e-01	1.228359652294263161e-08	2.236268053880935445e-08	9.033746627547173391e-02	1.248606635773387083e-02	-7.349553265312488245e-09	3.456513015068805920e-07	-1.130486837449477293e-08	-5.935508104123716753e-09	-3.286404443424571652e-09	-1.136898412804999797e-08	-8.876712959897410578e-09	-6.500136840418873756e-09	-1.153917650132870350e-08	-1.088025503996232859e-08	-1.008575753431307200e-08	-7.507215557965142853e-09	-1.280758734323965759e-08	-6.161558508799031100e-09	-7.347453243682893728e-09	-7.521439761553776268e-09	-1.110769573563282474e-08	-1.035858365698490908e-08	-1.063467568443882665e-08	-1.064034000122298042e-08	-4.910321269890912381e-09	-9.062451658419933884e-09	-1.083622169926158224e-08	-1.023002609349491733e-08	1.778361737071540362e-08	-8.708237007641675221e-09	-2.040544977636581128e-09	7.433042792695753322e-07	5.739206650562846216e-07	1.717684141619620429e-08	8.767030507047342261e-07	1.497224132653524331e-01	3.274044612018774050e-09	3.901352682882349641e-09	3.615268826059499541e-07	1.532840471618624499e-06	-7.719495415430684009e-09	1.000267590493032060e-07
-8.043177440744574327e-09	-7.355962165802264204e-09	8.841641573661135561e-09	-8.059511161880063467e-09	-6.777427279890215881e-09	-3.591624225430371064e-09	-8.396297557429520464e-09	-7.975593549439049179e-09	-7.783850026174478355e-09	-7.978692662295992136e-09	-8.883650571748534374e-09	-7.998689963704664487e-09	-9.533945949278163418e-10	-7.952633959405027111e-09	-9.112720114749755673e-09	2.737241837234024951e-09	-8.762504763301556164e-09	-8.775616530881840695e-09	-8.165631102982546933e-09	-7.448156987459473241e-09	-9.246823594962218641e-09	-8.466734529939362593e-09	-6.412430798289498647e-09	-1.976440161879959993e-09	-7.399079826553785160e-09	3.722385240665978345e-06	3.848619686400579776e-02	-1.411684697379388503e-09	7.929411929749261224e-08	3.003543513815375848e-02	-4.485504639702196637e-09	-6.287883644281160824e-10	4.856803745660966815e-02	5.243612046317202430e-02	-2.306457159268014723e-09	7.387552080905660130e-03	-2.441686924843377822e-09	-2.805777341195351614e-09	-5.130544778211574036e-09	-4.892132848056001710e-09	-2.888219694851118001e-09	-2.123604475556154231e-09	-4.481497653390670777e-09	-3.892368164270884819e-09	-4.069760857478955243e-09	-5.335866906386071259e-09	-6.466349788629340843e-09	-4.742865396668363781e-09	-6.771402367476882840e-09	1.420275391001464010e-07	1.300140195276583074e-02	4.597206547932394464e-10	8.725995975459248170e-08	7.236260668272502528e-02	-3.430079525655619282e-09	1.375864983197323864e-09	1.190032841717885071e-07	2.022065152512894648e-02	-5.996182175508706294e-09	3.180820023536047263e-08	-5.383359735905379028e-09	2.842465743994445722e-07	1.138628336910265305e-06	5.424762952578085706e-09	1.632744897523234245e-07	1.561504867058977619e-01	-8.107057360982144162e-10	5.214331781308085836e-09	1.155631148007703673e-07	3.901703573389667199e-03	-4.964520445452202635e-09	5.380629937908786000e-08	-3.315169552058520122e-09	4.125539301827413104e-07	4.049410778345486486e-07	1.565871955514791940e-08	3.831218332217666565e-07	2.996423389488523381e-01	9.074461339949374773e-09	5.451879850970225318e-09	1.021886170912471165e-01	7.971376773005924097e-06	-1.834014985175635812e-09	1.780219551441440169e-07	-7.574100680197011120e-09	-3.150646997138599814e-09	-5.878257150563808629e-09	-8.048268442363752188e-09	-6.732888959194043829e-09	-5.920042893295528931e-09	-8.017656751821364027e-09	-7.707129897601622082e-09	-7.564916800182949381e-09	-3.657172017230108377e-09	-7.623196881926023942e-09	-2.374204686118907378e-09	-4.074272368038006422e-09	-5.813609625573244469e-09	-8.128960199352625375e-09	-7.434141158694912409e-09	-7.051940702447020454e-09	-7.324391406223715001e-09	-5.753453584677508299e-09	-6.123711893711676128e-09	-5.546262258100487641e-09	-3.464381910194558683e-09	9.280170388677531035e-09	-7.092443020894278377e-09	-3.559516043390152868e-09	1.781151273079881715e-06	1.341328642828439075e-05	1.081992451266386654e-08	2.812254133362643720e-07	1.504498751874829843e-01	2.502071638364272352e-09	7.761387497109129744e-09	1.428974443349793042e-07	5.138324525077835048e-03	-3.439445809059049272e-09	6.850932049533996170e-08
-4.009056296756745036e-09	-1.253699185259315240e-09	9.116159296411294972e-09	-2.941959378018906332e-09	-1.979916900570666598e-10	-7.496802263940952660e-10	-3.386603954541972526e-09	-3.114581726105758441e-09	-2.915346873681556103e-09	-2.461964756178193291e-09	-3.340792724165264374e-09	-3.069863623045373353e-09	4.855474527977232074e-09	-3.840010753948453275e-09	-4.543323410208280846e-09	3.269265476770947320e-11	-2.264583625239118030e-09	-4.005600898341286750e-09	-1.370325133234073103e-09	-2.135302561915695796e-09	-4.712899061975746205e-09	-4.211748323502350977e-09	-3.419981323006101421e-09	-2.227525695847416772e-09	-2.553055645472388174e-09	1.711968783758637111e-03	4.353759631802769231e-02	1.679634988765278520e-08	2.177008147281461940e-07	1.225155078167295894e-02	8.238722463577228647e-09	6.629926887229518513e-08	5.089708659854604716e-02	4.992207247066871717e-02	2.280761789843166269e-08	7.395227723616161659e-03	1.608934033567360433e-09	4.963944213665883386e-09	1.490344352648559515e-09	3.096119540532422529e-09	4.886578279322197539e-09	5.041637195052397745e-09	3.096940444487156784e-09	3.914805509829810592e-09	3.196358289502843303e-09	1.403337616005964390e-09	2.420231061159729752e-09	3.821797436410531154e-09	-1.825706130538052060e-09	1.426848609218005772e-07	5.828432851469145769e-03	2.189672469375812890e-08	2.354442914045825846e-07	7.280134410149623203e-02	1.017772698418478071e-08	5.205435024299428720e-08	1.378842532431687698e-07	2.584098155628013552e-02	9.312085671385476853e-09	1.049220216645844342e-07	7.585613210692925537e-10	4.150413814518075557e-07	1.258602922454419537e-06	3.550027142817359042e-08	4.716398602047237093e-07	1.758608450245376931e-01	1.750577229797357949e-08	7.412007688921975643e-08	1.587836594590448022e-07	5.054861544166585827e-04	1.094457559166406929e-08	1.581400837664660009e-07	5.180228811273079644e-09	2.881797533756955411e-05	3.383042219318137945e-06	6.165665111343580247e-08	1.413734414020604942e-06	2.911512404091031181e-01	4.514501440477146518e-08	5.795273563535901381e-07	9.441326807106070751e-02	1.041507389096095991e-02	1.684207483897862011e-08	3.194188284726640991e-07	-3.325605925936384170e-09	-4.763885731638193132e-10	-1.375256947710893589e-09	-2.302095473021264392e-09	-1.290711405307862909e-09	-5.552778206968686234e-10	-2.655291799845053762e-09	-2.284365232465230344e-09	-2.480899518793358467e-09	-2.201002904578675208e-10	-1.707060682231269065e-09	3.014411891672469944e-09	-1.292934964179804609e-09	-4.895619171661958383e-10	-2.919085058871226456e-09	-1.395320395433245253e-09	-1.612473786111448595e-09	-1.870513167923795526e-09	-5.717693843954291294e-10	3.139731499225443311e-10	-2.018034641402996236e-09	-2.610274241095746088e-09	8.329425879846455530e-09	2.771396733214385682e-09	4.869432658705620401e-09	1.668880738633030797e-04	4.598289295899255733e-05	4.853475286837740778e-08	8.100230772738186879e-07	1.572107773440307998e-01	2.724575600933932529e-08	1.161704790861139928e-07	2.335821411444590757e-07	4.530637172276806167e-06	1.375652442329289912e-08	1.329858798276540593e-07
-4.724999388837579310e-10	-4.008449893637099581e-10	5.055167671479721467e-10	-5.251366072858540466e-10	-4.094795057880722203e-10	-1.558640244231451875e-10	-5.303280521707038726e-10	-5.488593293809484917e-10	-5.382882971374195691e-10	-4.904873041495446116e-10	-5.700686653916851425e-10	-5.444027759666187145e-10	5.809015993794864550e-10	-3.131309180395786880e-10	-4.738802136748065601e-10	-1.660663173799430690e-10	-5.236257802421171086e-10	-5.388987297565615715e-10	-5.350971728950384145e-10	-4.924335090525396197e-10	-5.638103918940909055e-10	-5.248657454752581060e-10	-4.127468655271531985e-10	-3.730385131769080833e-10	-4.285529039771984097e-10	1.850762357251244800e-03	3.710442038082949895e-02	-2.091097845709908670e-11	2.507434902818969288e-09	1.758510809613707954e-02	-2.263178830792738357e-10	3.559647338022738324e-11	5.478647832253803057e-02	5.295692289086614823e-02	4.165454337606593865e-10	9.780158272190492968e-03	-1.411426454025788377e-10	-5.889238562705354649e-11	-2.793201555046744629e-10	-2.988773936091778281e-10	-1.579060118474203571e-10	-6.816598871168029117e-11	-2.363597504086750146e-10	-2.203792253350082040e-10	-2.156289149424003992e-10	-3.124890283813530674e-10	-3.891951249344900947e-10	-2.675956673124654068e-10	-4.178250015882785436e-10	4.651561276242491874e-09	1.101841306784808600e-02	1.108749905888733539e-10	2.710749693995846947e-09	7.650537711900881610e-02	-1.651690421659610844e-10	1.578243517537141418e-10	6.912598511792195648e-09	2.332833127362528985e-02	-3.708619260421846987e-10	2.268474591322640810e-09	-3.538737173679317801e-10	1.687525551650010680e-08	2.502267266688096646e-07	4.486609574218867031e-10	4.516124917427284981e-09	1.569990247075417344e-01	1.906029261937729478e-11	4.252039058019606655e-10	6.756019451826738047e-09	7.751113191694354414e-04	-3.080148292399066441e-10	4.225557857673267098e-09	-2.568657160282848169e-10	1.480717727083537990e-07	1.188978765828960298e-07	1.095893439252480652e-09	8.381010715975234127e-09	3.224026949823294852e-01	7.706629384849373038e-10	2.789726646892188356e-09	7.588288875862629623e-02	7.985176964081384249e-03	-3.123704595091942029e-10	1.067960631757066178e-08	-4.629324270298378100e-10	-2.106039757441626230e-10	-2.393733890370240690e-10	-4.703615518008262653e-10	-3.677877666773242755e-10	-2.453573832480727724e-10	-4.700555061239001855e-10	-4.415766007636464114e-10	-4.116134214554331517e-10	-1.992424793591329915e-10	-5.089122444760046829e-10	-2.244068629463363046e-10	-3.072039430078194331e-10	-3.301723410324860545e-10	-4.568839771016265231e-10	-4.312473964206142649e-10	-4.156504197358079384e-10	-4.268369358104609572e-10	-3.529803319443623487e-10	-2.653576753524782905e-10	-3.799678438393732641e-10	-4.584728895394128800e-10	6.127096222513467888e-10	-4.403672092926463014e-10	-2.382079671678078754e-10	4.071920697614045566e-07	7.574302089631457409e-04	7.524477770637026520e-10	6.633105216964582849e-09	1.502802235656517382e-01	2.613200017035575162e-10	6.064739932277655243e-10	1.013819769443232970e-08	4.771835407136278708e-07	-2.284668163674830111e-10	3.890847609158815182e-09
-1.570436261241795893e-09	2.194936595263196258e-10	9.096916525472625135e-09	-9.828255950815181619e-10	5.091848325169420686e-10	1.706904646256869592e-09	-1.209851911201453311e-09	-1.073102913577107283e-09	-8.772369012503033549e-10	-1.313824213852359255e-09	-1.446624706014808218e-09	-1.135939141829726620e-09	3.725030484045368120e-09	-1.270032907653011233e-09	-2.121509334923559498e-09	-9.608228279402786981e-10	-8.277050975343540074e-10	-1.767027515046901184e-09	-1.532171452630762471e-09	-1.327580543199219460e-09	-2.261211772631785668e-09	-2.011090065541588762e-09	-1.093399127773481481e-09	-5.668133686362782463e-10	-1.063093363028247603e-09	1.589103848409902941e-05	3.290995383295353127e-02	8.210091925850345310e-09	6.390554680573492699e-08	1.853244819883534747e-02	3.314443123663478940e-09	1.382495682699417159e-08	5.063920211875238414e-02	6.122144596404202610e-02	2.388564603720768833e-08	1.334043661441629627e-02	3.129462165790070906e-09	3.745843372058098446e-09	1.434089624271254544e-09	1.966698785294332893e-09	2.979945184420251637e-09	3.446276758064174292e-09	1.907351071626146554e-09	2.005508862908789230e-09	2.264550782903877679e-09	1.410312770336099196e-09	1.914249152811131353e-09	2.711348101295682439e-09	-5.921617680108505287e-10	2.334134925526709044e-07	1.696633415246824247e-02	1.060309108678596836e-08	6.489089467736926459e-08	7.885659765692966394e-02	4.472303053107033580e-09	1.018876372307718954e-08	1.073883868880394591e-07	1.009621300198804660e-02	7.121181243718720056e-09	3.752799541989365284e-08	7.861385654425035299e-10	1.016129277392743666e-06	7.007479065514982488e-06	1.659219980818144304e-08	1.110842075145653691e-07	1.623771579528640596e-01	7.765845669355718083e-09	1.487609005128604756e-08	1.182074976449843655e-07	5.712881446413403371e-05	1.129580751588084095e-08	8.073759096380238124e-08	2.826806509496249950e-09	6.170313580405566568e-05	3.799697013048751704e-06	2.912379994563744434e-08	2.272759196630266866e-07	2.920932651271582747e-01	1.916448234481146608e-08	1.740155961989283395e-07	8.694419840424015555e-02	2.169919979065077983e-02	2.460388077412486222e-08	4.819804115889556540e-07	-1.445994139790962282e-09	1.810113370307929343e-09	1.202418798609140571e-09	-8.719695754233367767e-10	-2.266233814967329262e-11	1.243222569354497456e-09	-1.092384856512716598e-09	-9.510989290449740160e-10	-6.176585621891928529e-10	1.299464741932487471e-10	-8.541343916260372579e-10	-7.775134539581962069e-11	-1.627902525787982086e-10	4.865585963386343157e-10	-9.638936898608032516e-10	-2.005561177024190588e-10	-4.352775285879209883e-10	-5.132919154721658018e-10	5.174603876217576870e-10	2.516729349825673395e-10	-5.856984025597453132e-10	-8.748312401577505905e-10	1.122498689662072935e-08	4.248855683955464920e-10	2.665159955851808916e-09	2.671678185829199999e-05	3.798367696820620278e-03	2.249524108041973131e-08	1.621369298469538540e-07	1.503432006329500636e-01	1.201854343065314132e-08	2.461340052639608150e-08	1.884911698994075035e-07	6.276599360632391810e-06	1.430969350376912985e-08	7.857641884606208459e-08
-1.705179909620331659e-10	-1.276951437942958437e-10	8.897507551322262749e-11	-1.866338526110371876e-10	-1.343306061586005772e-10	-2.140155132988647070e-11	-1.893949402961876701e-10	-1.871148959381316170e-10	-1.814888483278189587e-10	-1.499846702354310115e-10	-2.029452249058585591e-10	-1.870077802096771476e-10	2.045618550910206351e-10	-1.869990055013038547e-10	-1.954862999892621083e-10	1.000636137056413234e-10	-1.975623665931507669e-10	-2.045741443624416565e-10	-1.871675240711792056e-10	-2.026120846871022285e-10	-2.074650709925826327e-10	-1.919790472527282775e-10	-1.548755452246254637e-10	-1.678785115375618481e-10	-1.471120012293724354e-10	1.021472683349582500e-08	3.937809756559120661e-02	-2.798410202888273272e-11	1.454662289254306899e-09	1.680034800524390221e-02	-8.624505868329773074e-11	1.546941740548765093e-10	6.050245444070322803e-02	5.059378371449933104e-02	7.730939291902581091e-11	9.568167678472471599e-03	-3.328382444494070769e-11	-7.979131422781138175e-11	-1.134565793667514992e-10	-1.085989863664065036e-10	-5.639411640448486016e-11	-3.490806635683550617e-11	-9.199084840524014620e-11	-6.971405431557863039e-11	-7.883412373902529547e-11	-1.140906819666549244e-10	-1.388988275582871574e-10	-8.826144141421737276e-11	-1.443776318050335035e-10	1.293530177236473692e-09	9.087478014352771971e-03	9.441625911135271231e-12	1.483841273048913072e-09	8.418690666660083588e-02	-7.258800294105341217e-11	1.265476867088146734e-10	1.130132697427820609e-09	1.534229064726702792e-02	-9.829092461206930307e-11	1.033096878839393468e-09	-1.241781258393000764e-10	2.917363773932280547e-09	1.590026093197765325e-08	1.189478560146214934e-10	2.841833599518256430e-09	1.461543274275269311e-01	-1.155894750519460368e-11	2.565558747368550489e-10	1.290718318044005325e-09	1.283294577463651304e-02	-4.756409046690204903e-11	2.903266675554786955e-09	-9.057731799792638914e-11	1.102452756547901615e-08	1.156430933821956539e-08	3.911050824061181755e-10	5.767467218867541105e-09	3.096629723591733385e-01	2.493896881423906431e-10	2.132421554265602803e-10	7.632473557332410119e-02	9.338540436817026336e-03	1.391186398353579679e-10	7.598564628243887286e-05	-1.621348142959379910e-10	-1.257219689654244441e-10	1.790508462459598177e-11	-1.668091648119681915e-10	-1.331491811811453802e-10	-1.107245327570703725e-10	-1.624618230956445931e-10	-1.516881120364219166e-10	-1.463953657893720604e-10	-8.823628313657721613e-11	-1.705577361970189788e-10	-1.186597367440195799e-10	-1.333218732718198213e-10	-1.045311446749044306e-10	-1.588003654921919882e-10	-1.209093492290861502e-10	-1.457847161805280018e-10	-1.488030721812725296e-10	-8.988576304903115928e-11	-1.244937366237961702e-10	-1.348495568640706260e-10	-1.495209926319879553e-10	5.583196726247598316e-11	-1.399565049844876680e-10	-1.024559946823621108e-10	1.783088979503321115e-08	2.907403114106889385e-07	2.346170018356734122e-10	4.431097906339980279e-09	1.601505773793538701e-01	6.944061581212332205e-11	4.224725064479054045e-10	2.032846276612461753e-09	6.805038002001218827e-09	-2.208620445412902337e-11	1.685766629845560563e-09
-3.925784946004466581e-10	-1.765061599116344661e-10	5.224213659085988469e-11	-3.854841239594301762e-10	-2.654208394253019163e-10	-1.186169543139877948e-10	-4.211965429758193699e-10	-4.031170666886710275e-10	-3.899994446983122963e-10	-4.180711035805641646e-10	-4.332820830543382401e-10	-4.175682200081360117e-10	1.326611632190056216e-10	-3.670638626823745200e-10	-4.482514722315309034e-10	-3.238214249591099951e-10	-4.140042595705497676e-10	-4.572827597095268298e-10	-2.344465327135367919e-10	-3.355628617455479605e-10	-4.746215661128201436e-10	-4.649033722232517821e-10	-4.248147435264062993e-11	-4.543984259649323098e-10	-3.715985783398581485e-10	3.838216481777305123e-09	3.590805764912309572e-02	-5.651295160881572741e-11	5.364142317852183811e-09	2.918816628291078658e-02	-2.364548103861256540e-10	2.440773164920096912e-10	5.336665372141444208e-02	4.895708002744700305e-02	-4.035142496184186838e-10	1.074357772605289904e-02	-1.000770874889948214e-10	-1.789418854858834625e-10	-2.811137628920952262e-10	-2.667596174861408154e-10	-1.699215495336583661e-10	-1.379164710422163634e-10	-2.541455387032443922e-10	-2.282559226812018010e-10	-2.339030975718020521e-10	-2.704177391095763591e-10	-3.137724596235493706e-10	-2.450225917967415556e-10	-3.620694984769002588e-10	1.350540510723282766e-09	1.326548953089881459e-02	4.643727143909539767e-11	5.503001224884593104e-09	7.743281497319159934e-02	-1.972165866260427532e-10	2.776583191775323139e-10	3.040381412632999512e-09	1.251703832652745207e-02	-4.233442325173097294e-10	1.069616518595856858e-09	-2.946267775765333471e-10	3.604945627889360384e-09	7.079110145757636742e-08	3.189662390345213408e-10	1.159697218748154022e-08	1.537435542661620136e-01	-6.651956397751556410e-11	5.448080745534697177e-10	2.654207287566829413e-09	1.320088295777544635e-02	-3.826238610738207437e-10	2.013016783779459222e-09	-2.134834777976338823e-10	7.513503646544170180e-09	2.703748289850846026e-08	8.472080111362937061e-10	6.317153410411515426e-08	2.906245951967898478e-01	5.030584509344285495e-10	1.062455719140972758e-09	9.125544463023542441e-02	2.156153033558089530e-02	-1.727034638378327838e-10	2.238439641713440558e-08	-3.888727668646372418e-10	-3.252560025397360498e-10	-1.827305473531333145e-10	-3.869945624183112421e-10	-2.976487749793151321e-10	-2.074912211923543368e-10	-3.935850922645339288e-10	-3.646592863490514250e-10	-3.424986664756959044e-10	-2.388756138924391407e-10	-3.823975982016196023e-10	-2.617443625867199226e-10	-2.740126292843977272e-10	-3.040901053396429794e-10	-3.981299528322096355e-10	-3.677952677948005246e-10	-3.524471863645076053e-10	-3.625667521701469231e-10	-3.169610601197546350e-10	-2.783792638306417110e-10	-3.234262327964746189e-10	-3.864711434272188872e-10	3.423736133669125182e-10	9.330974123501713187e-11	-1.597439485840457997e-10	1.752600592565839926e-08	3.425907508240657874e-05	5.433169213641035191e-10	2.307266086655686315e-08	1.437181112402048655e-01	8.093443219998974239e-11	8.627478877145002292e-10	3.666707572975329556e-09	4.482481687471389677e-03	-3.478130313574598046e-10	2.566628868009236816e-09
8.233467334632304488e-10	1.457525480983194691e-09	1.242477017722338740e-09	1.351626942541641091e-09	1.465138479686265304e-09	1.431247513333004613e-09	1.221069209774213607e-09	1.330436263724730704e-09	1.238277142880030583e-09	1.065873749152739699e-09	1.369944960688906926e-09	1.395564569154753738e-09	1.580742424168919655e-09	9.039817294194125452e-10	6.756335909491251701e-10	1.008161986777111946e-09	9.035108740603110216e-10	8.341093301972606979e-10	1.077634071447152549e-09	9.051961622045597819e-10	7.745966301018881519e-10	6.608905608430717783e-10	1.287514975255852926e-09	1.007981215681000430e-09	1.117694899785183268e-09	4.998819922375077407e-04	4.191521789928555342e-02	7.197513359259529806e-09	4.334298639889737026e-08	9.115099203222312013e-03	4.378834055674488691e-09	2.041653490750129310e-08	5.508209008703904286e-02	5.385464633450279953e-02	7.828789514978084492e-09	9.770781183481715149e-03	1.784536785074020227e-09	3.131373170791950132e-09	2.441012021361762558e-09	2.962906212979745203e-09	3.190541202765478610e-09	3.054593696308952433e-09	2.845694181742542744e-09	3.078622649257559782e-09	2.807490312026049174e-09	2.370554071591503339e-09	3.298787493566113063e-09	3.282556472812609790e-09	1.353626108230986423e-09	3.471403591299994955e-08	4.963902432174966024e-03	8.804059791029320383e-09	5.170362821367067656e-08	9.280684500318275854e-02	5.277527416595121689e-09	2.009146929169331010e-08	8.414201077428901315e-08	1.202789070108309377e-02	6.705436202916623522e-09	2.790101912518772638e-08	1.872294540620111987e-09	3.941001847737600256e-08	8.201268204947112385e-08	1.271972343460680021e-08	8.887272777249060033e-08	1.384258564385400514e-01	7.413222230552740258e-09	2.731049599796082805e-08	8.010556334045117430e-08	1.868633246424656127e-02	9.114667495114418960e-09	4.714550474484719507e-08	2.844595631025289596e-09	7.482990454159627931e-08	1.062952162727892132e-07	2.031867405493184701e-08	1.720974312304818844e-07	3.202926575952524946e-01	1.401288979523126151e-08	1.011095501731079834e-07	7.875599937761937341e-02	5.361551007126269183e-03	1.379097189211510117e-08	8.001779247438689888e-08	8.592678281616863408e-10	1.269182411764209506e-09	9.994966258208996972e-10	1.201062489391889606e-09	1.245664814010116748e-09	1.196127515867183561e-09	1.155777670109795897e-09	1.189546628982827554e-09	1.082065973761049629e-09	9.802207145296321537e-10	1.493255343130243958e-09	1.426608053227763489e-09	1.276767046825627002e-09	1.648373527359807996e-09	1.207547467379886728e-09	1.550188308628800192e-09	1.550060312919291460e-09	1.459801566950553413e-09	1.636520378257420880e-09	1.632471256959170825e-09	1.440378773929119536e-09	1.243756703771851607e-09	2.414641311196503616e-09	2.088152095176011210e-09	2.456670867892081484e-09	8.121476341331033893e-08	1.966626851595727100e-07	1.663983628758642564e-08	1.253444572854064850e-07	1.584390108269801423e-01	1.029865439312670396e-08	4.231552711727605719e-08	1.229046411025747857e-07	1.927900930184187192e-07	1.046209158484390289e-08	3.558742780308401422e-08
-4.901428572799683916e-09	-4.842191467637888917e-09	6.260911688411632820e-09	-4.925750437272703392e-09	-4.952803297538281459e-09	-2.098367756250398154e-09	-5.120060561671453890e-09	-5.134100207894275460e-09	-5.357302272784440155e-09	-5.903943754627784091e-09	-5.130642404679056237e-09	-4.851989139799047438e-09	1.285273400464844792e-09	-4.639088021729778407e-09	-5.290229315692007502e-09	-3.560122873202837615e-09	-5.354610740052123099e-09	-5.429986340782511633e-09	-4.047411855364622328e-09	-4.874530106528371352e-09	-5.678124227408365238e-09	-5.693032345511032739e-09	-1.184146301201677897e-09	-2.942353318190325463e-09	-4.421388064007765975e-09	1.911469902195650115e-04	4.363974864514352098e-02	-4.699848585923413629e-10	3.475696974041004610e-08	3.846435926978556546e-02	-2.493742980297547363e-09	6.726839283512304011e-09	4.402016824428423014e-02	3.933239065999944578e-02	3.378820769494547191e-09	9.879986762274053230e-03	-1.575486828079412399e-09	-2.054289342918983796e-09	-3.423189427713328461e-09	-2.876634455760475026e-09	-1.867442405179049216e-09	-1.321223386287436724e-09	-2.737712907310125680e-09	-2.254191083547692346e-09	-2.400713750610630551e-09	-3.312005836260926599e-09	-3.134287352830362581e-09	-2.680228730935087033e-09	-4.405890545189134661e-09	1.051428003002363931e-07	6.683960261426804758e-03	9.060145590749130524e-10	4.111214953806659121e-08	7.180525859469127914e-02	-1.834753352551026591e-09	6.423961852406827973e-09	4.037891605039594588e-08	2.529767836889274674e-02	-1.615669218919371563e-09	2.270088778173516706e-08	-3.722455094411651818e-09	1.193141218415749526e-07	1.374160468934813216e-07	4.534816176083378592e-09	7.456963469452076858e-08	1.495995816736722939e-01	1.430051515860733143e-10	1.207115262380549871e-08	5.232492930433028322e-08	2.174668912218710726e-02	-4.135665751535474111e-10	5.014205097374813251e-08	-2.697869763592615465e-09	3.712820764416999285e-07	3.277771872898576930e-07	1.093142408125451396e-08	1.478651093985054230e-07	2.800389817494222111e-01	7.707108826260065228e-09	-3.096206011105622234e-09	1.092669106332503637e-01	9.069950838415084121e-03	2.608353790336883079e-09	2.657300849610300011e-07	-4.955464919285486520e-09	-3.032458514109293356e-09	-2.585734332224104183e-09	-4.910569147350753155e-09	-4.134156051995287957e-09	-3.054373874740130524e-09	-5.023568580037413519e-09	-4.747983696284037010e-09	-4.641456969083510933e-09	-2.359157075993206770e-09	-5.225353034995217169e-09	-2.643936750066948762e-09	-3.236575073256579636e-09	-3.458929166003821796e-09	-5.104981684917960479e-09	-3.996281631591881585e-09	-4.671275761592749666e-09	-4.779780289430587126e-09	-2.063037937881374006e-09	-2.988784174338084883e-09	-3.945381092975621753e-09	-3.143709664804137849e-09	3.144137494882836038e-09	-2.903943966239568184e-09	-1.782669463887196199e-09	2.783886459763564039e-07	3.104844697099164946e-07	7.926624996987022758e-09	1.139752285425348132e-07	1.509603101292140703e-01	2.920065429886866445e-09	2.142760404933068388e-08	1.116803048942012300e-07	3.864416507866157957e-07	7.851161106442767771e-11	3.420994073398206111e-08
