-3.691603589792548808e-10	-4.306393460871254307e-10	-1.255676642568308637e-11	-2.854188453522826330e-10	-2.358909555923804984e-10	-1.249730189064966930e-10	-3.274346670910430264e-10	-3.191949580305482882e-10	-3.174646401801103048e-10	-2.851267699263869855e-10	-2.963307754296944150e-10	-2.817466089511573470e-10	-2.459990558103781518e-10	-3.486095800972048778e-10	-2.250832289265469394e-10	-1.710701181100286059e-10	1.250357078731265653e-10	-3.420255329731929184e-10	-3.373791954888839268e-11	-3.372084802685316936e-10	-3.744636383494901791e-10	-3.377593523693889985e-10	-3.123484522812811234e-11	-3.029186136971436520e-10	-3.030005398895677843e-10	6.026891731499883294e-09	4.425673436744622519e-02	1.633346042770896739e-09	6.214699538754509264e-09	4.114090227523969014e-06	5.224882762056681552e-10	2.107100322430616124e-09	6.114625615643914242e-02	1.047382916263438629e-01	5.205073148267454975e-10	2.304683491731846524e-09	-2.442220892615223224e-10	-5.743170366298977347e-10	-1.853137157914815750e-10	-2.778301333819124984e-11	-3.740459044475729708e-11	-4.096981212438954950e-11	-6.846442994724274377e-11	-1.174679919801344693e-10	-8.482427354443561179e-11	-1.594855872586205536e-10	7.138732423033113948e-12	-1.072245758154714996e-10	-2.032468435872893323e-10	1.240417711839864416e-09	5.888182525677315531e-03	1.853320412134973151e-09	5.807849978037393510e-09	1.240204522143869281e-01	6.878250717040041096e-10	2.124449596881268029e-09	3.574433572477588092e-08	4.149131703307221142e-02	4.578193556983822303e-10	1.821314884321238064e-09	-8.111761466289515564e-11	4.232647601004741465e-09	4.248489404908852280e-08	2.763062778196543757e-09	8.174322582930424499e-09	1.226152806525912103e-01	1.201157843539303710e-09	2.972867802104700285e-09	2.695878210566639408e-08	2.581681040587906505e-08	7.822371694949457350e-10	2.338249881506411855e-09	2.806554476111381023e-10	2.458259303369857231e-09	1.135831295028457944e-08	4.641502774320237246e-09	1.331150333502518378e-08	3.480368615390387332e-01	2.500297951895660881e-09	7.382365602190573053e-09	3.969094779228377057e-02	1.334263917928939583e-08	1.324961240728386384e-09	3.223412033503460912e-09	-3.234243906425737721e-10	3.894399774199188917e-10	9.599901524082676531e-10	1.801828098563001662e-10	4.608941425379609674e-10	6.815565009650916723e-10	4.317566400873982648e-12	2.628995136475494130e-10	4.318665328845105026e-10	6.485319742092214782e-10	1.050787483821801792e-10	2.955977964331172357e-10	-6.698382991745241403e-11	9.400367120481950857e-09	6.658250912646798833e-09	2.184868403142796255e-09	4.849211101681321923e-09	1.242461826050743411e-08	1.344775821268568503e-09	5.112025091195233408e-09	4.633096441636438967e-02	4.622269364480497550e-02	4.768509462230658972e-09	1.555760003106892303e-02	-4.218654407288844824e-11	2.225155158287584080e-09	1.615020849247825576e-09	7.635633729111209422e-10	1.725499097535330175e-09	2.939824438316391547e-09	5.113197277626628534e-10	1.306031370978943429e-09	1.801107984440842673e-09	1.052850957700574252e-09	3.129436968275707526e-10	4.492752318868594885e-10
-5.184626836566115300e-09	-5.496023090899074316e-09	2.228890402103476319e-09	-4.932913163024558295e-09	-4.753491720491440928e-09	-4.660838214419352934e-09	-5.032510218422719780e-09	-5.010961430187649017e-09	-4.996694201239809874e-09	-4.502172429645121572e-09	-5.008328558899783206e-09	-4.804243783836713316e-09	4.716584957243923566e-09	-4.870077444689152031e-09	-4.247909814338375626e-09	-4.129919629860594371e-09	-2.807499283177856037e-09	-5.293506298092882068e-09	-3.152328605172632905e-09	-5.333035930923482516e-09	-5.463722045498129963e-09	-4.000836177475362830e-09	-3.881658671989277230e-09	-3.909054989937771986e-09	-4.477833601509720779e-09	3.547902882533910465e-10	3.199121934947992546e-02	-7.324013310692450968e-10	8.670278507488878337e-09	1.964261268350647391e-02	-2.820482061430264596e-09	-1.356218281408815903e-10	6.578431539331169864e-02	9.887236640414050204e-02	-2.435193733653215066e-09	4.235728743845410037e-09	-3.643293027382465734e-09	-4.493890330190589548e-09	-4.368051106445517443e-09	-4.049155824417638397e-09	-3.790628029136984974e-09	-3.708999683385639219e-09	-4.021515961577760764e-09	-3.741331114967306149e-09	-4.009683251554303757e-09	-4.298991907620707497e-09	-4.040257159963623108e-09	-3.416551175383848735e-09	-4.157315105371695968e-09	-4.602762389045898896e-09	2.636621423206392950e-02	-9.412683391345025416e-11	7.360153675756608041e-09	1.148652593904547076e-01	-2.449316192999284276e-09	9.379757720443974882e-11	7.271009693258933461e-08	3.382522958161689186e-02	-3.115476843320154153e-09	1.891220126400409382e-09	-3.626823158518564715e-09	-3.470885659328315588e-09	3.948891865054123269e-08	2.591904252533158967e-09	1.226081207370247520e-08	1.221349330468324834e-01	-1.043436863387034885e-09	2.224077436409916828e-09	7.817335099972407636e-08	2.193762936713165605e-08	-2.575843093558702203e-09	1.621556497834841360e-09	-3.152028074930070284e-09	-5.573902723688838487e-09	1.191674642207970246e-08	6.401197413875243173e-09	2.187631072526704072e-08	3.422400192776934857e-01	2.303743034171784712e-09	8.187097216516505877e-09	3.756044481508471339e-02	9.322599479004668670e-09	-1.407816550807002514e-09	2.649785529235236316e-09	-4.328292739094858397e-09	-3.991945021069801576e-09	1.244519542870193866e-09	-3.948592181107590396e-09	-3.531553053911327673e-09	-3.948500696792951260e-09	-4.250785697402577432e-09	-3.930708707237078002e-09	-3.750881261239084303e-09	-1.980968580354799186e-09	-4.110151509566838832e-09	-3.154983507047848559e-09	-3.854055597713579801e-09	4.434418766244116301e-09	4.559908209810962256e-09	6.274106335741419839e-10	5.010539724048786408e-09	1.986747241677793617e-08	-4.390612717059930667e-10	2.612860342207312312e-09	4.133535840684844642e-02	4.748122154203959083e-02	4.566963929089511595e-09	1.790070370944071149e-02	-3.581685864114461744e-09	-2.483174695806538367e-10	-2.188562710499486410e-09	-3.663279967346882147e-09	-1.269899842748626504e-09	4.932576735565104538e-09	-3.669155318087989396e-09	-2.566412646132248263e-09	-9.261426393623832753e-10	-2.989356945974096619e-09	-3.861078034385610879e-09	-3.796115476373565381e-09
-8.016424373276060955e-09	-8.767846391402226979e-09	3.038735802370880063e-09	-7.919536669517493126e-09	-7.749456470418456639e-09	-6.772844727373937437e-09	-8.067656039157248925e-09	-8.027733667617849662e-09	-8.034180395021488357e-09	-6.788591617593197864e-09	-7.959768900973107441e-09	-7.629874547246011382e-09	9.530309590217959587e-10	-8.741945659248610319e-09	-7.794959076108424760e-09	-3.426065969101495301e-09	-3.151659821888056578e-09	-8.482175980956814338e-09	-6.051969114232589004e-09	-5.968039306821034919e-09	-8.751244409449686731e-09	-7.279939841528449963e-09	-6.007852148029389380e-09	-8.470335736135084180e-09	-6.841579854418156339e-09	1.112619858286694905e-08	3.360457673074573881e-02	-7.448254521418981164e-11	1.781193067819021884e-08	6.811144119827982485e-03	-4.394606903287785093e-09	-7.514792470857470003e-10	7.485077315717647561e-02	9.597483331980305454e-02	-4.657963449510158712e-09	1.267206947891903895e-08	-5.034571323226697157e-09	-6.742534021813091808e-09	-7.033451111557177974e-09	-6.579375332574612644e-09	-6.272939649133208132e-09	-6.140769728277534430e-09	-6.438332894404041814e-09	-6.561255160387632647e-09	-6.655289052515316643e-09	-6.985280189251112356e-09	-6.330893907316218798e-09	-5.882419941789578146e-09	-6.324899561984078365e-09	-3.005847136335289200e-09	2.071593335737336936e-02	2.303118682055600140e-10	1.037643939333404345e-08	1.052044795142199063e-01	-3.634860530961131017e-09	-5.545513432777275776e-11	1.421782938190537501e-07	3.461863246779746384e-02	-4.590087251091486086e-09	6.317988618077610823e-09	-4.869750199927486579e-09	5.972405881596493641e-09	4.341453495085744332e-07	4.411478084728531938e-09	1.699015932696727722e-08	1.292657346920266237e-01	-1.511612991962925853e-09	2.617185869657343474e-09	1.085538146906854294e-07	4.410092589780834213e-08	-3.950525375780763971e-09	5.439654529145950539e-09	-3.784611327358116804e-09	-2.730143479749242717e-09	2.126078571469684595e-08	1.164420284297886206e-08	3.187786051569085473e-08	3.556562193080449741e-01	3.944069835788647849e-09	1.007282118495264450e-08	4.410896708942928929e-02	1.963367608414446633e-08	-2.087108156817313731e-09	7.227084665237001541e-09	-6.745406759861403217e-09	-5.848770915531623499e-09	3.927870075516973848e-09	-6.190644185196074858e-09	-4.857037617375796966e-09	-3.595626247746945677e-09	-6.786270057805099649e-09	-5.810432926811386436e-09	-4.726448872974757461e-09	-3.977572562266661176e-09	-6.439185345797083870e-09	-4.780414768502143816e-09	-5.688747670108069480e-09	1.196782128444462305e-08	9.868234470656684016e-09	2.317335509342876387e-09	9.215379207343534354e-09	5.206793536209887818e-08	-7.354544156686766771e-10	1.628200782132827289e-09	2.589743881925175156e-02	5.644521292130259826e-02	1.175088674855260096e-08	1.684542147286600608e-02	-4.151967577697608586e-09	7.486093832565260421e-09	-5.974734934238340225e-09	-6.163216724338819991e-09	-4.178544171581264611e-09	1.425411985507920116e-09	-6.123073978909010375e-09	-5.429407101588822957e-09	-4.446761052569998031e-09	-6.169674961334875561e-09	-6.347395645106849565e-09	-6.272493417373676381e-09
-6.472131033470584223e-09	-6.748801826326624680e-09	1.808053538150799512e-09	-5.961097894634977037e-09	-5.803025309198269628e-09	-4.855034485376053633e-09	-6.170284560676884752e-09	-6.174239959965649463e-09	-6.240369207062306132e-09	-5.410456149366166198e-09	-5.934335060583222219e-09	-5.793686338805206167e-09	1.288336652170185561e-09	-6.596016745418654733e-09	-6.030501469900531472e-09	-4.776935194210469802e-09	-3.461564945247176241e-09	-6.449454471178944290e-09	-5.399236730962649400e-09	-4.254328632832455457e-09	-6.789365574545998542e-09	-7.164815217793977428e-09	3.301546726699385730e-09	-4.027365290374025667e-09	-5.233271357195671528e-09	-4.199804903942177595e-09	4.055420691339217676e-02	6.005832323004582332e-09	4.141673859796672945e-08	8.167851341917596944e-03	-6.125203529768925143e-10	9.506473348173742769e-09	5.881701041995931328e-02	1.024779353017181566e-01	-8.282338440665299960e-10	1.343638376320560206e-08	-4.131431842786219339e-09	-6.146345163838183312e-09	-4.793654702219683478e-09	-3.918465706725534544e-09	-3.811335775778452323e-09	-3.756559737066771000e-09	-3.810682098075703028e-09	-4.222867697291826400e-09	-4.313935809214109599e-09	-4.948116954022844772e-09	-4.006331822437792255e-09	-3.487094141296283048e-09	-4.680159580261241306e-09	-7.671552425383819240e-09	1.215702458987396803e-02	6.460709824323563605e-09	3.148672718771962538e-08	1.041226181512437121e-01	5.115153489684063843e-10	1.062678482105067029e-08	2.412484286752269598e-07	3.944260050299715215e-02	-1.231267575734570589e-09	7.591468825409989677e-09	-3.339256957204940589e-09	-6.344949793067670222e-09	3.011499676601307925e-07	1.248449193852964689e-08	4.765989780202945963e-08	1.382201720355338004e-01	3.529246607368318660e-09	1.555270308128784446e-08	1.410628848834679107e-07	1.406014283553770077e-07	5.621081556626259408e-10	1.037150554728321846e-08	-1.829307710206977027e-09	-6.749102959273161506e-09	5.736985705470433344e-08	2.303691868227754484e-08	7.860603361877790653e-08	3.396548683656859802e-01	1.177077678348032964e-08	4.037645188557633303e-08	5.540290546000322530e-02	6.133473367488903574e-08	3.725594377108924996e-09	1.481191383843705767e-08	-5.329267268976920458e-09	-4.023071886860044509e-09	2.297940548515754462e-09	-3.520133575442073676e-09	-2.381076757114476648e-09	-1.799490459059531976e-09	-4.359937816514042056e-09	-3.385781445734349019e-09	-2.639707606967465381e-09	-2.411812904475467179e-09	-3.754546821593175012e-09	-2.412289785657082422e-09	-3.294013521375493253e-09	5.626977649130450221e-08	4.395941445612093869e-08	8.608767509134704261e-09	2.493442304199076763e-08	7.317490218323832677e-08	4.441643572286996773e-09	2.550696566535045170e-08	4.725807302637864693e-02	3.998541459343699089e-02	1.511207228203550468e-08	1.373799506594602926e-02	-4.314487910428504841e-09	-9.536274465331102334e-10	3.588925794532213974e-09	-6.259794860774167526e-09	-1.466157305541709541e-09	1.041358424665296135e-08	-4.616264173934116598e-09	-3.019822328181600028e-09	3.255011131326884743e-09	-3.351190852727028102e-09	-3.551587446684754144e-09	-4.603669847703678004e-09
-1.713865491484926063e-09	-1.943837750144236607e-09	-4.918881385768601897e-10	-1.461942306244339841e-09	-1.305124811984412349e-09	-8.538733345981534224e-10	-1.572422568068548683e-09	-1.558655657894659465e-09	-1.529038463983986060e-09	-1.450058186365994830e-09	-1.549350985797826014e-09	-1.449446224572685765e-09	-9.373142432809256762e-10	-1.639701617238498484e-09	-1.741112434060299858e-09	-8.296942040660634291e-10	-4.914553018992997728e-10	-1.595966935974796489e-09	-8.260345632906205962e-11	-1.585953806365111448e-09	-1.679734648217391020e-09	-1.306450400392974375e-09	-9.886081726842933981e-10	-4.929349696701205630e-10	-1.496906174869114772e-09	6.419212032657278375e-09	3.711639372781865703e-02	3.200537041008897139e-09	1.512603511245201516e-08	3.501885638419006616e-04	3.136769825228526181e-10	3.240090036906071848e-09	6.384196955412481389e-02	1.109120689473772903e-01	-2.699901563975137175e-10	5.491876220841764197e-09	-1.440080354622644014e-09	-2.267285708303027860e-09	-1.448257091755613492e-09	-9.569940931998078290e-10	-1.029526317750392788e-09	-1.028952699923266467e-09	-1.042203956211806692e-09	-1.167230198902820576e-09	-1.135190901639017607e-09	-1.390843246782404862e-09	-1.008230809761531513e-09	-9.759456677180269319e-10	-1.291567058941764941e-09	-4.166484926944809244e-10	1.256296078895464269e-02	3.349013138288355821e-09	1.101713678256284335e-08	1.238232300084772253e-01	6.489805350713945496e-10	3.220186507507766218e-09	4.438373997295739990e-08	2.798110366499212409e-02	1.935129753178708310e-11	4.093812189808498575e-09	-9.848734555826473260e-10	2.025087872505986997e-09	1.360514841734621176e-08	5.597511690177769302e-09	1.606775043140461525e-08	1.320089630414309489e-01	1.778368290222285521e-09	4.900326766661261293e-09	4.429996398965057565e-08	2.372876403029166618e-08	5.857328435231848835e-10	4.362275959911972835e-09	-3.912878951896874877e-10	-9.693497876305105947e-10	1.038716931274450405e-08	9.903958556809095766e-09	2.681650225511529368e-08	3.237973362671088817e-01	4.641861010041788841e-09	1.278596724626932755e-08	6.599939088707923451e-02	1.492159347081496430e-08	1.694774430017980649e-09	6.242276520347344599e-09	-1.499469529065021384e-09	-1.200384998626763020e-10	2.355882647171451297e-09	-4.429743788398291898e-10	2.091207118109892250e-10	8.075709591005050558e-10	-8.807513004506664896e-10	-3.439110560257155915e-10	1.600800829938985938e-10	2.700142372589275552e-10	-8.338780386331948539e-10	-2.376297237705646098e-10	-1.090089391547256513e-09	1.462350800217141143e-08	8.892396745820558513e-09	4.277657946876051149e-09	1.030009849048503361e-08	3.168694859095829182e-08	2.078033295391674574e-09	7.284487096146982620e-09	2.736706922092572644e-02	5.094453409192219867e-02	7.164217881373721142e-09	2.329442950834328604e-02	-1.161769048700034504e-09	4.395330146454574033e-09	3.272016891612554731e-09	-4.778967491496446528e-10	3.543193433277779093e-09	9.150070801602050601e-09	-6.730597492378823880e-10	1.673341463705779508e-09	4.277730758437084777e-09	1.364953583659298293e-09	-1.093392542047465813e-09	-1.110473181904184548e-09
-1.228343879777285586e-09	-1.293837735234263022e-09	4.738185726030046642e-12	-1.096228061856628278e-09	-1.086251066785945535e-09	-9.992594171805418767e-10	-1.162447402367877762e-09	-1.145610102072859574e-09	-1.142910418486985067e-09	-9.108605547387076932e-10	-1.117143615874653961e-09	-1.063767814344000098e-09	-4.764846138556492605e-10	-1.200399130612418431e-09	-1.242137962829483187e-09	2.915254217725980014e-10	-7.612262618751812810e-10	-1.125915209413378543e-09	-1.082072932260139906e-09	-1.082689398864597753e-09	-1.208475056039076310e-09	-1.264480952987660830e-09	-3.249516468334024906e-10	-5.133601914340211880e-10	-1.080736238894088197e-09	5.148009813121450901e-09	3.731757621872451580e-02	1.166445932494211251e-09	6.568064929502584867e-09	1.077931725406244476e-02	-1.147072274403286021e-10	1.361233662635122840e-09	6.417253572887264557e-02	1.044521262917321169e-01	-2.095101034212279462e-10	2.804098130380100254e-09	-1.032652311124888600e-09	-1.563749221217583125e-09	-1.083236515007565766e-09	-8.616210102669521938e-10	-8.901540237718963317e-10	-8.951805798649873769e-10	-8.794902269922636772e-10	-9.525316079314547123e-10	-9.527293294192397909e-10	-1.040348743042280546e-09	-8.267518474368936398e-10	-8.012402950167589760e-10	-9.848090577227318458e-10	7.182854210199735377e-10	1.661913167203008315e-02	1.405181003272713840e-09	5.688977381500271794e-09	1.047927533372228215e-01	7.265049408047252766e-11	1.492170877340619520e-09	3.766481284622986050e-08	3.773016252088079447e-02	-2.705420285846508803e-10	1.727604751512552043e-09	-7.444384641568211483e-10	4.553251448191395456e-09	2.046242207424728416e-07	2.529505198620511311e-09	8.169504088614352312e-09	1.408919095152921519e-01	6.640478519834571353e-10	2.380112707059543156e-09	2.726664381905639258e-08	1.258543538307575995e-07	1.545344525888604104e-10	2.731961687430533025e-09	-4.190292623637414557e-10	5.241805965646685494e-09	1.200042720998386695e-08	4.665252822171801517e-09	1.391664166515957256e-08	3.383974632076767186e-01	2.112242986102334073e-09	5.599607971472638863e-09	5.669320414756950227e-02	1.525861102994408666e-08	7.348341313310079775e-10	3.479006627933024175e-09	-1.075055917855409388e-09	-6.572311277750759365e-10	4.418558033210144239e-10	-6.341428097745995391e-10	-4.146396960885819523e-10	-3.482831297840036473e-10	-8.033953668900432498e-10	-6.217460466586587481e-10	-4.833495233442706639e-10	7.752022050781018980e-11	-7.211567343494708930e-10	-3.961168734492874107e-10	-7.636030540807688590e-10	5.747993902849217956e-09	4.919747198417682102e-09	1.741772389808531233e-09	4.413315179316474449e-09	1.195651680300791222e-08	9.097745285155958212e-10	3.286295344354067025e-09	3.614752964636579191e-02	3.819653766004753315e-02	2.434371580849154405e-09	1.380922836981741605e-02	-1.212243043105783035e-09	7.396347866572750247e-09	3.206357132781091560e-09	-8.968320943164757614e-10	2.966656492469655302e-09	9.791296109138812059e-09	-9.655995106818105931e-10	9.438858701546864362e-10	4.088170192509305923e-09	2.310750381709783717e-09	-9.727192605231006847e-10	-1.154861081326085845e-09
-1.617684387747812655e-08	-1.682481872378304095e-08	5.170655238834447821e-09	-1.525631870289204356e-08	-1.444817454020971026e-08	-1.293662967631356211e-08	-1.552124547342063318e-08	-1.549894639056082842e-08	-1.552271900425997274e-08	-1.424303928256694344e-08	-1.505853129121297668e-08	-1.466332195998754372e-08	1.124600721016989205e-08	-1.705505261960271781e-08	-1.744073979483346984e-08	-1.172299059645441981e-08	-1.576726086705086862e-08	-1.675500015400437079e-08	-1.518305523799815486e-08	-1.628137944335210297e-08	-1.699047173030576526e-08	-1.761500229339444497e-08	3.785078310539968244e-09	-2.741476103059391939e-10	-1.328245011703057410e-08	-1.812066408472092297e-08	2.908469882124973746e-02	1.141113223971922209e-10	3.684286525792893181e-08	1.799623999567175406e-02	-7.888725970029968288e-09	1.819251214329469853e-09	7.031633609902707138e-02	1.004243808674489119e-01	-8.348616522326843213e-09	1.991870880973055010e-08	-1.064234110830168536e-08	-1.288108973851740894e-08	-1.275044653595199588e-08	-1.196681278860985740e-08	-1.124738260092116580e-08	-1.103264214906025451e-08	-1.101666470535450816e-08	-1.171766550973111024e-08	-1.210908109258845723e-08	-1.364913289693143754e-08	-1.239585596023496730e-08	-1.028623524680884636e-08	-1.259962012879945108e-08	-1.457367954271226411e-08	2.230489409931743841e-02	1.885134551452226703e-09	3.218604297085355489e-08	9.852019271979507720e-02	-4.694463606778175450e-09	1.132217871671567024e-08	6.381739448355647302e-05	3.699331819799046156e-02	-8.893855071645492913e-09	7.655721202335731069e-09	-1.064027399778046032e-08	-1.466080243234113863e-08	4.116356587565211483e-07	1.068012247723853860e-08	5.070634635563605593e-08	1.301719266861225133e-01	-5.724772696473048800e-10	1.552859897985371923e-08	8.150552295683151134e-07	1.176848910620912469e-07	-7.246931692709089502e-09	8.206654368139591201e-09	-9.066345191989188327e-09	-1.155557628060417137e-08	6.605764080298027182e-08	2.517632719782734559e-08	8.810179111689589354e-08	3.450894739612098139e-01	9.573506527840851403e-09	3.376670278474555711e-08	4.750652708221573400e-02	5.905700726452292634e-08	-3.603466226459789116e-09	1.299307104053203737e-08	-1.332884774397721860e-08	-1.360568315941174732e-08	6.311409217917804071e-09	-1.205591523095404977e-08	-1.073366249525749593e-08	-1.049411156354373044e-08	-1.295655537558881027e-08	-1.178312632868238443e-08	-1.072752728236612238e-08	-1.107732077211766579e-08	-1.240713501687009039e-08	-9.658221986988860059e-09	-1.044891359426307104e-08	7.763519171191539106e-09	4.625048700161659575e-08	3.839873455951291704e-09	2.259934541723602561e-08	9.941249570084158473e-08	-1.291316860785539426e-09	1.019428586740495654e-08	2.563905591336068657e-02	5.747869075157335805e-02	1.314697474793663395e-08	1.840921237301688940e-02	-1.047690609131945908e-08	-8.307663757069469522e-09	-7.837714187398163425e-09	-1.149113299534948257e-08	-5.633171293548318680e-09	8.441742463682899303e-09	-1.116444440740799064e-08	-7.922580076603872372e-09	-3.047055553126220195e-09	-1.040133501172877014e-08	-1.189121158487425806e-08	-1.167137914586856042e-08
-7.711487944659061441e-09	-8.387656175485968182e-09	2.586360036144597112e-09	-7.577171195344502376e-09	-6.889795450529305561e-09	-5.671518391113788705e-09	-7.656859811761595418e-09	-7.709548382404454744e-09	-7.677024784073970210e-09	-7.259948447942834346e-09	-7.626170673463130836e-09	-7.325793034763733401e-09	3.709057887663946742e-09	-8.024333309234220798e-09	-8.401299192328045077e-09	-4.358102173485262670e-09	-6.669813805245264470e-09	-8.261958716643237754e-09	-7.226261938334972056e-09	-7.908872774265773253e-09	-8.405663501418506787e-09	-8.080088681708669638e-09	6.802868402049251260e-10	-2.843661012022107354e-09	-6.963554039724318707e-09	1.119159679350291930e-09	3.265257069004874613e-02	-2.436634738127887317e-09	4.878396023823319037e-09	1.165449060237247101e-07	-4.693647875918413220e-09	-1.323372551883182065e-09	6.360680176814380304e-02	1.110704610738730558e-01	-4.543477815376489184e-09	9.922105109772788073e-09	-5.471392102228332661e-09	-6.615478762769463813e-09	-6.147567040610267538e-09	-6.090687368290169547e-09	-5.823527321898042123e-09	-5.655529883873135590e-09	-5.121846608771145491e-09	-6.164124537653159530e-09	-6.273391543569519490e-09	-6.595779853339813791e-09	-6.266164120697629602e-09	-5.101379511762729853e-09	-6.659273554483218619e-09	-8.191077749793106737e-09	2.260890610927560399e-02	-4.389763383305546190e-10	1.039324440872463885e-08	1.304010518954044073e-01	-3.601875392337003517e-09	1.093658251631246476e-09	6.991572978571274728e-07	1.973418598261755807e-02	-4.869753573803553103e-09	2.412239837494697861e-09	-5.357094358509761066e-09	-3.927765059066063344e-09	2.862144674126551956e-06	3.002028909643671403e-09	1.705303127339272209e-08	1.277389586776151997e-01	-1.932771473514370582e-09	3.257600145236086575e-09	1.868935217680184205e-07	8.168117492354426659e-08	-4.143727016466391213e-09	2.690953957387507570e-09	-4.818715661950702179e-09	-8.360626929366779262e-09	8.124796538423187245e-08	8.708364240385218602e-09	3.041065463472334065e-08	3.317730690095093693e-01	2.139368276775302159e-09	8.448570716675960043e-09	6.548035644979657843e-02	5.997569989828939957e-08	-1.937324952747685971e-09	7.390001921184758995e-09	-6.948473034496362885e-09	-6.467596695685541795e-09	2.521725805789171626e-09	-6.090801813457798694e-09	-5.039434980876596893e-09	-4.578743529029422312e-09	-6.576435355355105510e-09	-5.739905976950563686e-09	-4.891498039493960545e-09	-4.991063976014239189e-09	-6.257355797115449456e-09	-5.023860666653145295e-09	-5.709983349142706701e-09	3.043216310029581700e-09	1.098743160558033378e-08	-4.292963155524932460e-10	3.923711032539510786e-09	1.579565739707428660e-08	-1.345507660237223982e-09	3.228215926330947035e-09	2.132828479752231846e-02	5.138919860886172197e-02	6.341456836491528037e-09	2.221230554696194612e-02	-4.489216563901604891e-09	-7.149797820180801901e-10	-2.111969420528673048e-09	-4.629042784076733540e-09	-2.589333858516954933e-09	4.426965300544753252e-09	-4.911152033089217759e-09	-3.695141115996844274e-09	-2.442330571963780167e-09	-4.779473523636678267e-09	-5.651329894204371171e-09	-5.114839431494819006e-09
-5.540564224725282820e-10	-6.041542145820960365e-10	4.901792215218516565e-11	-5.485245448707018116e-10	-5.114313184068437791e-10	-3.128351081777106773e-10	-5.583826508709251350e-10	-5.618144279538988916e-10	-5.664542418942917967e-10	-5.013068212461251538e-10	-5.488035734857528405e-10	-5.294603590039796243e-10	-1.276578529532738272e-11	-5.635762148457068532e-10	-6.377653693971368249e-10	-2.593897237379641659e-10	1.526608875738765235e-12	-5.857363852421728524e-10	-5.092500166738975136e-10	-2.592447875950638375e-10	-6.140674666043994216e-10	-5.856860748135110565e-10	-1.528516126317683120e-10	-5.873004936052113197e-10	-4.734835077123208892e-10	-6.639158114277952837e-10	4.628926627038088687e-02	8.271087046726300857e-11	1.153006070776359050e-09	5.567644699900830005e-09	-2.034870135170600166e-10	2.932351931428867372e-10	5.394881750419882466e-02	1.118465901832660508e-01	-2.180917690777823521e-10	9.731935893575165073e-10	-3.471263509161997163e-10	-4.723905273178703201e-10	-4.357097208592315157e-10	-3.980743202383289463e-10	-3.937588606264036962e-10	-3.770307960993615651e-10	-3.666598888246369194e-10	-4.082791581583929927e-10	-4.173925694990366377e-10	-4.768901530475593423e-10	-4.100273780226136737e-10	-3.146248549927196340e-10	-4.460084478739749773e-10	-6.140785339462846045e-10	7.598691182710732260e-03	2.693267104645054084e-10	1.790528386823933211e-09	1.208220298132927223e-01	-6.209342567876631148e-11	7.053817335868462681e-10	2.746444453366587556e-03	2.453795554974594686e-02	-2.469456025190254276e-10	4.470814532215796116e-10	-3.297462222542270615e-10	-6.536435931845386477e-10	1.235669898481229699e-07	6.837069110627554440e-10	2.786341382286336376e-09	1.462533415793592084e-01	1.229984509277029469e-10	9.025979407500163354e-10	2.909895892262745270e-08	1.141317102854744482e-08	-1.298854187010655623e-10	6.363239632312402269e-10	-2.093833857334497926e-10	-5.958103851987294099e-10	1.040040292143019152e-08	1.352089883080351029e-09	4.573361004616843989e-09	3.307406059743167037e-01	5.878109969878731551e-10	1.814838325702198993e-09	5.879283759450978919e-02	7.919130406002419421e-09	1.319071261240080176e-10	1.173678518201504877e-09	-4.858743866556332119e-10	-4.536581333330066184e-10	1.699938745844251261e-10	-4.070784723356660166e-10	-3.846063468479181608e-10	-4.081018084990886523e-10	-4.418428493419148277e-10	-4.246364467350040741e-10	-4.204935157685570366e-10	-1.715865145297902505e-10	-4.246645712229577897e-10	-3.197337241952240289e-10	-3.430976780512146811e-10	2.136551785417904074e-09	2.695102688578361199e-09	2.525128133277265587e-10	8.111789251173523755e-10	1.839542206633467716e-09	1.095567570074834025e-10	8.508092162359582781e-10	3.026367138018654437e-02	4.937061945506272809e-02	4.882119240598791513e-10	1.678893862965924813e-02	-3.393007094375383445e-10	-3.818637722934464516e-10	6.459645868622205608e-11	-4.773326715238810811e-10	-2.040485631936245120e-10	5.584184520928752516e-10	-3.933624189467611628e-10	-3.213384463745304177e-10	1.717358866420763675e-10	-4.265314198626978848e-10	-3.617731572418816360e-10	-3.949066980588824674e-10
-2.089910220771189037e-10	-2.239002486953828088e-10	5.863796129405251952e-11	-2.020943881651166208e-10	-1.893897657429001540e-10	-1.581770184705296078e-10	-2.051833319156722649e-10	-2.061842699103002778e-10	-2.051763058401268056e-10	-1.930442230727981507e-10	-2.047918122171737724e-10	-1.965113020442689653e-10	1.904582608297051851e-11	-2.128099891006592209e-10	-2.345333221625818923e-10	-9.310773473609475286e-11	-6.808983609299273328e-11	-2.194183254012846110e-10	-1.569699703997138061e-10	-1.620867787881454107e-10	-2.279332732160171869e-10	-1.679850268073823201e-10	-5.900636685126218687e-11	-2.175307250454419125e-10	-1.772718722964408459e-10	-1.854160667983055550e-10	4.243637594140295399e-02	4.528077750056938200e-11	7.515854368211663517e-10	2.170699854419893236e-03	-9.245105569895134179e-11	7.372133991090171674e-11	6.685869493755158821e-02	1.040126406017672089e-01	-1.003497492382692834e-10	3.222117136042611419e-10	-1.144709050197421312e-10	-1.740884677835620770e-10	-1.716910510125843087e-10	-1.568162801550095423e-10	-1.562333426471218916e-10	-1.503008197999252973e-10	-1.397323894792898707e-10	-1.616273810080098440e-10	-1.690064365529066280e-10	-1.828061606623740454e-10	-1.627607175261940758e-10	-1.266684196100029588e-10	-1.658784093681548319e-10	-2.158245271240629718e-10	9.369011245721229827e-03	4.888608045893392816e-11	4.837936370599659317e-10	1.282544474436945747e-01	-6.689964557784666722e-11	1.001492314416058796e-10	5.649888791721082859e-09	2.173262464952839534e-02	-1.039562488337443177e-10	1.336027877359382700e-10	-1.260090022393856738e-10	-1.960691266289672005e-10	2.697722109234946273e-08	1.733725793298383086e-10	7.600101031856548036e-10	1.219891147492697947e-01	-5.950737355561408526e-12	1.895839537512034855e-10	3.003189834029595997e-09	2.066230923696599611e-09	-7.342171592958110512e-11	1.686982319818601199e-10	-1.006693810264129217e-10	-1.965379154843247102e-10	1.606684324499347085e-09	3.901356806324280688e-10	1.321246683172111772e-09	3.254503281086668087e-01	1.622787864190477511e-10	5.471110434592847966e-10	7.300977603044661590e-02	7.368446777371856791e-10	-1.678737707099285260e-11	2.129147967518189730e-10	-1.751416141892513665e-10	-1.727734750183625155e-10	7.928892702615183142e-11	-1.556863114186942472e-10	-1.262803874507070890e-10	-1.056983107023081229e-10	-1.727658891099667220e-10	-1.516318473932052259e-10	-1.294752453535988159e-10	-1.441023853189277560e-10	-1.631936583564596418e-10	-1.268696966447426224e-10	-1.470190693912544900e-10	3.415246802269011616e-10	9.384899933193669098e-10	1.085807112908209012e-10	3.940963250848034671e-10	1.490683316268800397e-09	1.220635503601592213e-11	2.463446546243450283e-10	2.367745145493247924e-02	6.370942747357671854e-02	2.547731635052998076e-10	1.732936796985131908e-02	-1.337286970909767914e-10	-5.467487370470150010e-12	-5.711138729139143434e-11	-1.346521827773593961e-10	-3.623078389800697038e-11	1.497903144729360118e-10	-1.378161509943493256e-10	-7.562694836595865907e-11	-1.470969038696290565e-11	-1.181739282564738985e-10	-1.472859202725734470e-10	-1.448832008769744883e-10
