-1.518110495650502977e-09	-2.764076517416193864e-09	1.941836936336455534e-09	-1.063933313674790534e-09	-1.948612309363308026e-09	-1.152914018683108428e-09	-1.457800190807347189e-09	-2.478225003515143812e-09	-2.312659879768592540e-09	-9.933638764794335825e-10	-2.179066603820505046e-09	-2.312815679496020432e-09	6.775640912888882901e-09	3.506056086222440619e-09	2.639931858080782176e-09	6.138905260093291734e-09	5.736438380186448489e-09	5.200660904396694071e-09	5.702787144953298118e-09	4.868684067676370579e-09	4.240809279955741347e-09	2.337965149622292838e-09	4.426230912369870849e-09	3.145101068394521671e-09	1.263855691985945309e-09	9.395405851173941596e-09	1.573088434987290896e-02	1.880201932694450492e-08	5.068812053735080192e-08	1.337347989971390518e-07	7.634582815404428603e-09	2.135609280616753732e-08	5.267312821729029648e-02	1.812843498278142729e-01	3.553018770730480615e-09	5.705184416178590368e-09	3.001905653270996279e-09	2.582879023457726894e-09	2.589156292440427236e-09	4.277888789075914958e-09	4.592908465236716448e-09	4.480893605995442853e-09	3.910321350584154755e-09	3.934962574099032623e-09	3.967114920011163589e-09	2.239427489199811714e-09	2.314446689875366572e-09	1.828191245075757683e-09	1.970895791960303022e-09	9.558797899367714584e-09	3.174142531716607485e-02	2.860975650106962020e-08	1.114061946548884605e-07	3.733825643952964814e-03	1.026224119068123002e-08	2.673756970115333900e-08	2.049817379937816236e-02	7.886313400881524160e-02	4.208614514216286859e-09	6.638115149955118763e-09	4.864221481904301661e-09	1.611302051326215864e-08	8.634023296182256565e-06	3.850770539645059960e-08	1.238511846843500201e-07	2.156874390312359391e-01	1.697492060710613920e-08	4.154427943714025502e-08	7.314022566491808208e-03	9.559277517850703748e-07	7.294777831384481931e-09	1.030391158803237151e-08	8.077529901139335716e-09	2.016236673819016613e-08	1.288079191089452139e-07	6.058691505340297344e-08	2.009277415437863091e-07	2.554565352042481030e-01	2.661878403552869668e-08	5.896598834199954104e-08	8.000320366149567264e-02	8.799206218569828678e-08	1.053582344854137120e-08	1.310054715640585348e-08	-7.989804541055164840e-10	-6.527100609010323023e-10	6.170560562096028991e-10	-7.717864652550537485e-10	-4.733787139809958279e-10	-6.500424929906420247e-10	-1.232121348723307830e-09	-6.782081942824777922e-10	-1.260235017512281116e-09	-1.587867425764384394e-09	-1.413036403434438810e-09	1.102123778561308956e-09	5.178598065604991058e-09	1.217703011168503304e-08	3.114507926584714759e-08	2.037031448018307104e-08	3.253752675311263477e-08	4.067941095635080254e-08	1.573993200451043273e-08	3.484552464473916571e-08	1.595389528425232226e-02	4.095645648856608562e-02	2.901595918886154664e-08	1.660457968347835649e-08	8.240411135064297030e-09	2.478837053855654999e-08	1.224268972087346005e-06	6.820898941044394812e-08	2.076638300164452419e-07	8.956919203534512738e-05	2.626671012786528437e-08	6.986201125284525806e-08	9.534778935629674439e-07	1.290892199089951269e-07	9.477176019958264391e-09	1.266345432380260506e-08
-2.347945274789754249e-10	-2.476718982527145659e-10	-1.487642266631044188e-12	-2.350686791530725275e-10	-1.674552231347537685e-10	-2.037806752402099169e-10	-2.191446821933342172e-10	-2.438297492413271554e-10	-2.574695850460210238e-10	-2.225025075492881358e-10	-2.514514986460558403e-10	-2.325861750707271642e-10	7.044779739507627979e-12	-1.042293240176213598e-10	-1.440797510019434609e-10	-3.982414078545548663e-11	-5.642989284049810563e-11	-7.426200072845943859e-11	-7.090750513001773965e-11	-9.705548352824192920e-11	-1.131894244049008281e-10	-1.524301356749831968e-10	-1.067366437025382514e-10	-1.315882473655942990e-10	-1.785289610040004175e-10	2.470291926397787842e-11	1.728259558250855310e-02	1.969580369669693423e-10	9.107665863430811007e-10	3.274887693548596450e-09	-4.161785309930068240e-11	2.606282871846022162e-10	4.752118039462833315e-02	1.850644189824502128e-01	-1.784521259477006408e-10	-1.118289156969139515e-10	-1.281934736355121956e-10	-1.380344254442451826e-10	-1.400014918299199205e-10	-1.043855360779259156e-10	-9.699585445657337560e-11	-9.650553079355004939e-11	-9.704314531311405504e-11	-9.449775655775654596e-11	-1.011591798272375335e-10	-1.568034722742275420e-10	-1.547726172065806331e-10	-1.554017772723213116e-10	-1.588771914241666493e-10	2.295907377539046155e-11	3.544611687942350597e-02	3.765181391584948889e-10	1.889388208557643837e-09	2.909658055123460693e-02	2.388365743624189481e-11	3.908074673591200854e-10	2.432404159877672375e-02	5.547844132867426475e-02	-1.377316844416056100e-10	-7.585795909658058873e-11	-9.000788144135643879e-11	1.595216750663691980e-10	3.735365829111762219e-08	6.187663758749244506e-10	2.385158034107960669e-09	2.038401133387930109e-01	1.796576754990168528e-10	7.303666857484442366e-10	9.067323879368096098e-03	5.449797826477814070e-09	-8.693462065201087018e-11	-1.973072851155996843e-11	-5.813928416877291510e-12	3.130328221412722552e-10	4.547613979317167494e-09	1.080664914209114361e-09	3.991442621629033895e-09	2.525263316247760570e-01	3.664328969284846074e-10	1.027887085375265369e-09	8.723488934591945576e-02	1.191692560881114108e-09	-2.160330948459038378e-11	3.444737497705124849e-11	-9.675548925912763686e-11	-2.091930842135166161e-10	-9.960077396203459879e-11	-2.160003227557613172e-10	-2.181304668721811488e-10	-2.281947814817026615e-10	-2.321210585382135948e-10	-2.247154125458250937e-10	-2.186901603537773011e-10	-1.934078493091887908e-10	-1.923928550946701693e-10	-1.547789954282678272e-10	-8.092881918031047975e-11	9.243439152884697022e-11	6.525524747570049920e-10	2.638089761401675852e-10	5.376430755259162268e-10	7.446532319152332320e-10	1.364973851592829616e-10	5.243738156280620635e-10	8.618060656349026566e-09	5.311788843106837743e-02	3.018755263592365996e-09	6.720219743093724625e-10	-1.624231547563380131e-11	1.291563570909298777e-10	-1.005455182185807857e-10	4.182145680715726778e-10	4.198765975056569256e-10	2.613487374255157596e-09	1.794263888456998197e-10	4.336038686529132166e-10	2.721166227420913489e-10	3.071855658843572429e-10	-7.973134493450244311e-11	-3.999153247735826199e-11
-5.970273831158355401e-09	-6.767560983137332249e-09	4.907413388014052796e-09	-5.046390507021940084e-09	-6.181660156733691465e-09	-6.025688197667910206e-09	-4.851579977011774287e-09	-6.525542049474844970e-09	-6.227027601371693563e-09	-6.037469263345629852e-09	-6.119819829200666769e-09	-5.681091423067373059e-09	-1.655197730716994522e-10	-2.265068308961761395e-09	-3.131998504997840437e-09	2.296233006338515232e-11	-5.488911461514802736e-10	-1.058375845543231447e-09	-1.359220662449272312e-09	-1.931081514209084373e-09	-2.297305149864312917e-09	-3.417691274176122739e-09	-2.648402296660803786e-09	-3.135873462477211914e-09	-4.276432358828704037e-09	7.300132395423998634e-10	5.623546654663795497e-03	3.967416819849591511e-09	1.808422893810391959e-08	6.089667641071290416e-08	-1.228140920431159854e-09	5.457027518119487429e-09	5.725183334084009423e-02	1.850248564961149145e-01	-5.709504019132009502e-09	-3.446568110632016113e-09	-2.251699187679391010e-09	-2.934263027212184834e-09	-3.463085345188365699e-09	-2.269940489801272372e-09	-2.090115372597486574e-09	-2.130416296767189393e-09	-1.702384951946601648e-09	-1.971893984256028142e-09	-2.435760107475786548e-09	-3.684213175607371238e-09	-3.681124666555481502e-09	-3.468039519274060795e-09	-4.028823428456720371e-09	-1.794608179315528726e-11	4.795590492553838957e-02	8.050144235142047614e-09	3.897598697959775917e-08	2.289260640421122983e-02	1.037940305793786374e-10	8.515384507336467307e-09	1.699300987289070058e-02	5.884923539084471050e-02	-3.924168423024181933e-09	-2.196924302721233162e-09	-2.216850521632762393e-09	3.582967642959462308e-09	2.308679462992781752e-06	1.340055117545302777e-08	4.711525851743629899e-08	1.757085506544760756e-01	3.501909827806519494e-09	1.477112278608593849e-08	2.569455424376853453e-02	1.290411573044851944e-07	-3.011134848277254945e-09	-1.161190597052635313e-09	-2.038181044325245137e-10	7.317955488776546725e-09	1.398017462785914146e-07	2.412576179964172552e-08	8.141903163008068056e-08	2.781715454958182399e-01	8.162099353824656474e-09	2.319489793450087861e-08	6.877920626642174129e-02	2.509179362505368379e-08	-1.281982465106003891e-09	2.998246177125520699e-10	-6.490132362515902890e-10	-5.609687624930877024e-09	-4.262081520213559400e-09	-5.083277904514669892e-09	-4.709145920407904308e-09	-5.098113387337855985e-09	-5.638882624912922160e-09	-4.861445071417851014e-09	-5.153995673109060212e-09	-3.573795406006576553e-09	-4.091875753255459079e-09	-5.368448818481376758e-09	-2.260729436560034071e-09	1.107314702746808345e-09	1.065186102412254416e-08	5.641653541823732974e-09	1.325649095506443469e-08	2.038403956283457834e-08	2.947311528119818283e-09	1.243432020936115521e-08	2.091384313400956339e-06	5.704912344744977187e-02	2.519318529022958465e-08	1.093748220743519279e-08	-4.380647804773575342e-10	5.695187687980978998e-09	5.423624309010669138e-09	1.912204236793810000e-08	4.299574597977531666e-08	5.490123619934083987e-07	6.974383153798127822e-09	2.106426829958500056e-08	3.928485235030439367e-07	2.217022551866632984e-08	-2.159518787529362254e-09	-5.159347397334740493e-10
-5.352229874548488214e-10	-4.506766924183251057e-10	-9.178151958986740287e-11	-5.313530992877350261e-10	-4.399031944422549285e-10	-4.182725865229450053e-10	-5.688192294971270122e-10	-5.407734237694007566e-10	-6.057294820666368267e-10	-4.033006203327707426e-10	-6.047467525060718821e-10	-5.903724391125763524e-10	1.926469627652377280e-10	-1.990779606337134434e-10	-2.676380906676781040e-10	1.007926165131816303e-10	5.231719273642453466e-11	-4.119859568032249698e-12	3.715606147651896811e-11	-5.549715116630674205e-11	-1.199860160403379454e-10	-2.966545974042718473e-10	-1.229405621757982840e-10	-2.158063947966289826e-10	-3.366797018415423513e-10	4.105145200273952763e-10	2.365413364078564756e-02	1.104031476125056020e-09	4.105902581394494549e-09	1.556354377867998527e-08	1.683504506878374180e-10	1.256639474655965402e-09	5.654470145745795623e-02	1.682096716454506147e-01	-4.268588722933793869e-10	-8.420505297163659058e-11	-1.323368246723391815e-10	-8.692527385846920608e-11	-1.911776869908447344e-10	-9.100140359094493625e-11	-6.811531813652378666e-11	-7.148576817599768403e-11	-2.625039362687221352e-11	-8.878746060440597647e-11	-9.045680843986279948e-11	-2.781458414934561845e-10	-2.591288533470080489e-10	-2.670501178461855598e-10	-2.686355470568314026e-10	3.799152501735887141e-10	2.308422857785894650e-02	1.825301715412632206e-09	8.776148299578837280e-09	9.482872263696510637e-03	3.788351455064645324e-10	1.660699928801366036e-09	3.142596191906384812e-02	8.887159486514548123e-02	-1.512730636520920183e-10	7.227656878660913958e-11	-4.990293573356315239e-11	7.973723982922948773e-10	3.302084499080541293e-08	2.620961125782236541e-09	9.828821079144145412e-09	2.091898326515298778e-01	9.845717104722444530e-10	3.060618765066688028e-09	1.539109472775529160e-04	9.890130089893523488e-09	3.607811749188373163e-11	2.563159298723397325e-10	2.665381741726095205e-10	1.282022504397782918e-09	1.039229181569162289e-08	4.317716862676194732e-09	1.600750517635243615e-08	2.597003540136583188e-01	1.700868641969530978e-09	4.299365786188154325e-09	7.614486172339525460e-02	5.181729688827525784e-09	3.221113497779149338e-10	5.262793045631163622e-10	-5.414236002905534846e-10	-6.023316956222165580e-10	6.963913257743124439e-11	-4.743178140929606396e-10	-4.685688767107707235e-10	-4.985365957520603575e-10	-4.895983644708054137e-10	-4.625501645359160363e-10	-4.510988556162716735e-10	-4.250226306760460058e-10	-3.396307371627023422e-10	-4.252541116644172204e-10	3.094762437196368802e-11	6.062763286501845367e-10	3.017689806650447842e-09	1.492527179766264055e-09	3.218623495330276007e-09	4.773532071671891327e-09	9.062795220081557091e-10	2.782940897486059343e-09	5.906493611768121817e-08	5.353759862919461876e-02	1.640502765581651573e-08	4.534123744194620650e-09	2.334108267527340184e-10	1.064757838469217331e-09	1.577337935422868023e-09	2.802060072951286790e-09	5.164130152770883907e-09	2.639064763391311277e-08	1.250807341643043828e-09	2.920646239287783473e-09	1.067308906962619191e-08	2.631410000647098135e-09	1.111214195326059946e-10	2.757311781479521954e-10
3.300432991461200312e-09	2.692843931371805748e-09	2.671265379754665794e-09	3.253392495727997232e-09	3.194491571222388031e-09	3.090685269514862321e-09	3.070848327531376040e-09	2.958650478392842645e-09	2.881499724900983939e-09	2.618870607773215008e-09	3.154863250834819836e-09	2.828784148108820177e-09	1.190143044693329660e-08	8.995406409534556216e-09	8.370887275622742294e-09	1.131957630124080604e-08	1.095340816678425807e-08	1.047821175087552445e-08	1.096410545397297443e-08	1.029255855256018916e-08	9.801100454582720527e-09	7.893130616296818162e-09	9.983013053355702155e-09	8.709997887415266781e-09	6.227391370677041997e-09	1.404750280798297926e-08	2.137014074772689010e-02	2.527937059918070731e-08	6.308075568914095563e-08	1.959558562879999552e-07	1.308005514098872638e-08	2.726850062068614317e-08	6.594026555396712008e-02	1.634676772744852458e-01	9.630335596357174650e-09	1.190236479822737027e-08	7.509426864074115009e-09	6.801634435882321941e-09	7.112543205713356875e-09	8.645918764086650784e-09	8.733354557082131022e-09	8.541947635712341234e-09	8.034277042047143947e-09	8.077968825884421522e-09	8.161949946815315258e-09	6.665012849080271528e-09	7.142839656938802096e-09	6.544351338454199842e-09	6.963764793325141972e-09	1.489472442220532956e-08	3.381288902670785690e-02	3.376100900527006686e-08	1.054348474597992143e-07	1.811431035931099914e-02	1.584592583284043806e-08	3.279098829779971299e-08	2.044802465735372221e-02	7.161541971150774122e-02	1.015350823965894107e-08	1.267893476599549471e-08	9.731819608170143437e-09	2.118107032256842240e-08	2.749581612551943975e-05	4.635356374903150229e-08	1.459038093448850844e-07	1.954867356957680491e-01	2.194977229654017139e-08	4.562121408791077431e-08	1.822382498214229741e-05	6.734772725298992823e-07	1.353818729799252564e-08	1.665398083732455176e-08	1.340621868740924365e-08	2.737433524834219701e-08	1.820397304905235105e-07	6.781945365253527865e-08	2.206249679310341754e-07	2.678621163170578634e-01	3.252504257391847789e-08	6.795283007207906785e-08	8.436437678452853028e-02	8.279187581772767291e-08	1.624290145676315222e-08	1.858460306172088195e-08	3.889806979452019749e-09	3.319955703540395117e-09	3.321475424896007040e-09	3.993021330387713884e-09	3.958605684042014372e-09	3.839881838875343429e-09	3.755454763606650987e-09	3.680294136533342872e-09	3.633564586600037861e-09	3.330524572486883027e-09	3.993777637442158679e-09	3.586782639180855932e-09	9.559587585942432893e-09	1.839446271662318642e-08	5.109310985966642181e-08	3.113190381317888923e-08	5.144711765924339857e-08	7.041888319184928578e-08	2.271178025928052517e-08	4.572359114675783338e-08	6.505218179432861760e-07	5.042116193995685447e-02	2.489685492463191292e-08	3.156786840995697114e-08	1.239582756548199814e-08	2.529721737403245597e-08	2.881252274348421218e-07	5.648277923137525779e-08	1.575795774626250830e-07	7.033168265486765616e-03	2.755549122006191777e-08	5.605329419394314884e-08	1.363457760976892577e-05	8.331307704915256857e-08	1.429855365777396782e-08	1.645709289930785619e-08
-7.322275561181584327e-11	-7.179810641817577455e-11	8.947980127132774459e-11	-6.342398884220444915e-11	2.990719712562411422e-11	-7.525274760732396846e-11	-9.566812955828363743e-11	-1.012737057327677322e-10	-1.303641864456815817e-10	-5.247096399767457063e-11	-1.148277314054305391e-10	-1.363515478419411797e-10	6.298931925727921912e-10	3.681044368178958744e-10	2.882162915712564359e-10	5.602116978471000142e-10	5.245475337583833853e-10	4.795339055473477082e-10	5.095004090537108746e-10	4.476777097032731326e-10	4.027344494841769280e-10	2.416626320457897619e-10	3.988712486701230910e-10	3.038079421311620198e-10	1.781821821984191270e-10	8.553556566841183360e-10	1.754398304529910732e-02	1.496841308334337024e-09	4.042681330627853941e-09	9.332148255056443145e-09	6.531233086089857593e-10	1.730771588707422202e-09	4.681937093632975583e-02	1.811222327705836466e-01	2.987934058926704960e-10	5.135513858933867186e-10	2.854014828975598602e-10	2.855233653571052027e-10	2.854510586482304370e-10	4.132372675236742601e-10	4.363842730031926338e-10	4.272751374130212843e-10	3.754428234995042113e-10	3.876865385689990733e-10	3.960383745590847214e-10	2.390584135131546579e-10	2.396097373425282638e-10	2.204338645838852257e-10	2.323318679024835287e-10	8.489798593727764405e-10	3.273337845794659084e-02	2.372856891447635570e-09	1.011303084062621728e-08	1.041782758055429664e-02	8.761147953964716435e-10	2.218278830440559573e-09	3.278749541011748841e-02	7.118168489081115602e-02	3.647401572188689194e-10	5.768803590652036327e-10	4.695929608481605818e-10	1.343904073532671692e-09	1.027446644707895379e-07	3.111375329782751913e-09	1.113623733971469893e-08	2.172077804430259107e-01	1.395695337221050928e-09	3.423023964760238614e-09	1.451810582029597396e-05	4.327123957202243667e-08	5.998114475916473788e-10	8.624054688314627379e-10	7.861295762190111289e-10	1.976366752915146677e-09	1.999381922360071242e-08	4.868870706896867107e-09	1.760429319071350548e-08	2.350158301183880027e-01	2.099770777056543798e-09	4.673371008601846094e-09	1.033802645797698150e-01	7.055688288622808485e-09	8.422490406076951917e-10	1.065198208137043977e-09	5.311091475438999396e-11	-6.804850126204802073e-11	7.768125002965899507e-11	-3.691857725064173506e-11	-3.309988794850305094e-11	-5.385064449213321573e-11	-4.867900759942301812e-11	-7.174644310861146995e-11	-4.805129661794135068e-11	-7.534516481888044026e-11	1.161723064525628089e-11	6.558888290040468314e-12	4.432406778635705194e-10	1.065156179519897562e-09	3.295491318453159276e-09	1.827194429613683969e-09	3.292504832401322857e-09	4.423528850610212762e-09	1.341324616242825076e-09	3.145821770917595202e-09	1.730602337147530963e-07	5.143240242255793515e-02	5.643153184317900167e-09	2.242284105871820883e-09	8.258353694020077327e-10	3.064586731803606708e-09	1.476816197868668267e-07	1.191616354159310269e-08	1.615314232080208808e-07	2.182971733624948247e-04	3.193542738537195939e-09	1.328117760805836406e-08	1.240882471326648997e-04	2.833811069202886005e-08	8.736870862066936112e-10	1.239585537521101461e-09
-4.715040313558182360e-10	-5.808133531562531242e-10	3.360127498342447498e-10	-4.383320036196922041e-10	-4.713683146520653322e-10	-5.153790937396480966e-10	-4.046151019727982923e-10	-5.257322267753295542e-10	-5.600854724705103087e-10	-5.312031998396055149e-10	-5.277414832756838802e-10	-4.644543427114161383e-10	2.438046934209875391e-10	-9.669062961101401903e-11	-1.785694458422150529e-10	9.547641653035909117e-11	6.253565318035384919e-11	1.723520869172231322e-11	9.179527668488977494e-12	-4.975120277923092855e-11	-9.966937402813104637e-11	-2.375835874552900882e-10	-1.159349220349079315e-10	-1.944011201857716041e-10	-3.180311257890260628e-10	2.576123856449700199e-10	2.421161724033972507e-02	6.180349836458583552e-10	2.242658881485434982e-09	5.122995814086789150e-09	3.292378706559474049e-11	9.103990104717657267e-10	6.108108806589091638e-02	1.761455859907666011e-01	-4.245489594687791993e-10	-8.931557095625930054e-11	-2.049918418746383465e-10	-2.003164131911219449e-10	-2.027355347478227751e-10	-1.278213804610937891e-10	-1.046361227642943848e-10	-1.105803711168391018e-10	-4.581579377297932940e-11	-1.142080878915502954e-10	-1.145332804312471591e-10	-2.587429755446142626e-10	-2.490410481594477850e-10	-2.683112751016996539e-10	-2.532790886624422365e-10	2.277007305767795680e-10	2.363958414779171457e-02	1.186171283145111258e-09	5.523530943973323920e-09	4.298393393712442168e-02	2.865641609409251468e-10	1.522853109001720353e-09	2.457873809512131440e-04	6.907599083629098469e-02	-2.016541360628991040e-10	-2.129434113148041015e-11	-5.567104969112706802e-11	6.558110475461295836e-10	3.960032116294460652e-07	1.841024107586249775e-09	7.161312723579029849e-09	1.777473042744014964e-01	6.237545469158511351e-10	2.058327451331102638e-09	2.478457113657049973e-02	2.435443607815050317e-08	-5.377697652477379775e-11	1.534234277203619908e-10	1.309841345479661246e-10	9.861960845649693784e-10	1.159368804866555760e-08	3.091854405137796200e-09	1.169739256070554257e-08	2.310231529311423671e-01	1.175905307371170093e-09	3.059434207452524825e-09	1.052168702579661108e-01	5.176049390627364072e-09	1.622365871705088861e-10	3.495718134403262772e-10	-2.230114966333399075e-10	-4.211023073961164187e-10	-3.011315237009261278e-10	-3.976340527534621608e-10	-3.331790971083205636e-10	-3.947999804685408814e-10	-4.612931819208415093e-10	-4.559435257658498913e-10	-4.195592760072798279e-10	-4.439991017624095623e-10	-5.108104198299865976e-10	-8.833877914556573359e-11	-2.166051301849826738e-11	5.091869012314828393e-10	2.992412125369837688e-09	9.807658583313429010e-10	2.219735491249864527e-09	3.318416003212557917e-09	6.130966684248525225e-10	2.045183315260550877e-09	5.583187664573540168e-03	5.826079778727787789e-02	1.501268212104012279e-08	1.992368249394444315e-09	1.055563668700257549e-10	6.754462641275887252e-10	9.939873262065677994e-10	1.632223784530558026e-09	2.679493846272429068e-09	9.474537894260227222e-09	7.638305516862746881e-10	1.749466207576885682e-09	4.187724967371213088e-09	1.681359114598703417e-09	-1.488353880729980299e-11	1.216173102331374182e-10
-4.535306968207320602e-09	-5.397855878184100803e-09	2.176202023352411126e-09	-4.509197502453739604e-09	-3.683406927868043688e-09	-4.369581240289030413e-09	-4.375761254047460684e-09	-4.785805304843342448e-09	-4.986472665560979653e-09	-4.677510449805112163e-09	-4.859413423293995128e-09	-4.371720536668095608e-09	2.361739099378815977e-10	-1.432563649127418741e-09	-2.199075111040346041e-09	1.099047226084400814e-10	-2.211814078474158255e-10	-6.255244637549443512e-10	-6.135648445831024939e-10	-1.147958810857676805e-09	-1.511140856805233384e-09	-2.488295756753609654e-09	-1.492453052997416843e-09	-2.140361123312161728e-09	-3.031837636734115971e-09	1.322736783304129376e-09	2.485002374074181744e-02	4.533289519904286206e-09	1.648323434454218343e-08	4.422358519607265856e-08	8.728445486404043377e-11	6.985391329881973256e-09	5.734972693630194240e-02	1.699696837808780392e-01	-1.823417862893597183e-09	-1.746587416358448556e-09	-2.157372085896615444e-09	-1.981777791593065936e-09	-2.004169468452994860e-09	-1.355221228382902537e-09	-1.105503973676087900e-09	-1.072884004699156144e-09	-1.057685405122952745e-09	-1.144831780916058206e-09	-1.137710476133213595e-09	-2.419720598292141468e-09	-2.527549803722337946e-09	-2.655028792091260932e-09	-2.656671288282925504e-09	1.388914212339993091e-09	2.409050268612619727e-02	9.088512685706020932e-09	3.919054560525579717e-08	2.649680536911753342e-02	1.736815356730296915e-09	1.100066690792115937e-08	1.182463454530071831e-02	7.924947101215727707e-02	-1.650929515102158476e-09	-6.750557453537968440e-10	-7.743103566205289347e-10	5.426409376601832245e-09	1.850598204145613510e-04	1.404979935095219885e-08	4.794881988405221115e-08	2.024010720221414705e-01	4.959069227622284220e-09	1.750295049002168758e-08	6.459809848810672904e-05	2.234930912951095221e-07	-3.639125452560824021e-10	6.794707900150206024e-10	9.977174096498691140e-10	7.809910879171287615e-09	1.275129310301172618e-07	2.408749217301995646e-08	7.843314589406734498e-08	2.337735695649692524e-01	9.326646767818437001e-09	2.440213863237145874e-08	1.074612830051601131e-01	3.193889743444299607e-08	7.402830346946514750e-10	1.708925710728306400e-09	-2.420427424701590966e-09	-3.492375495098131932e-09	-1.345179089914722002e-09	-3.778333093475587561e-09	-3.826063117616287740e-09	-3.902336723779910436e-09	-4.271236414306674252e-09	-3.928104734483861850e-09	-3.693493509261517090e-09	-3.409347726886335050e-09	-3.085508775335006959e-09	-4.358104577869596960e-09	-1.160607532083061376e-09	3.555168522705387108e-09	1.965382888162422427e-08	6.159484097334716095e-09	1.268544576280311120e-08	1.798813372363120670e-08	3.986003722686566116e-09	1.244364917749922766e-08	1.534997672603687600e-02	4.693274370390448230e-02	1.327113950039127130e-08	7.272148742874970577e-09	-3.361007880648772462e-09	4.412580510262038901e-09	4.180481691371705238e-09	8.079978041584508309e-09	8.346731228876893954e-09	6.923395293641016417e-08	4.609590806145595280e-09	9.861233586794458345e-09	2.312799194979045558e-08	5.124489257494330508e-09	-5.965463272592690389e-10	-1.897259531238607166e-10
-1.924715374810650626e-09	-8.431085558961351864e-10	-1.007972884682842734e-09	-1.120698989909652765e-09	1.071185517008475645e-10	-1.062527845283614244e-09	-1.179450038301303412e-09	-2.211650397602391799e-09	-1.908836345021980205e-09	-2.226876584719568044e-09	-1.815523382666326867e-09	-1.609457175146863304e-09	9.090024682769002579e-09	4.851026553267447879e-09	3.933453574918816980e-09	7.911210833949752060e-09	7.368917599219555801e-09	6.744826979339822140e-09	7.113365274830956499e-09	6.211861161861818008e-09	5.549462672263989704e-09	3.219045734553243979e-09	5.705314221773214878e-09	4.178889846270828452e-09	1.474891431613600682e-09	1.045529735030082373e-08	3.171788832666210672e-02	2.140497578832648738e-08	5.365709159080728846e-08	1.217985235243644358e-07	9.159090325143938275e-09	2.494123632042628126e-08	5.722346195779101641e-02	1.667725492382884922e-01	5.403936817657809303e-09	7.245491996307652880e-09	3.847194665973238609e-09	2.796365154301220523e-09	3.766577292982164944e-09	5.217086685394980646e-09	5.504530340451695705e-09	5.414236886330592176e-09	4.611956853908758123e-09	4.782730821310505159e-09	5.009281837559015884e-09	2.758849703512393909e-09	2.847841111778264343e-09	2.312132633816037167e-09	2.297217842173391777e-09	1.119397269021935729e-08	1.663060800555889174e-02	3.164329696817310054e-08	1.088789105534543415e-07	3.777327988025089289e-02	1.247512750514528524e-08	3.223530601171607575e-08	1.224868148204024711e-02	7.980301516002699658e-02	5.945679555973831742e-09	8.781769280042282226e-09	6.022626032440961816e-09	2.024759298132012733e-08	4.875314706532411709e-05	4.488091119909192922e-08	1.422168427467760016e-07	1.838955972990221066e-01	1.926997690773510893e-08	4.532881429207879982e-08	2.399748675294298417e-02	1.310372213286719257e-06	9.801511922002571455e-09	1.331353417189719023e-08	1.065607947978725621e-08	2.762001796732196614e-08	2.768860965199295351e-07	7.094234754601596897e-08	2.290230222196957288e-07	2.564033557562092058e-01	3.068903036330790996e-08	6.667980430671515910e-08	8.620287865244456726e-02	8.683236084167464515e-08	1.245232140064786554e-08	1.516971467188548712e-08	5.465045469259820121e-10	-2.623021886685094425e-10	-1.208564782460141181e-10	-7.777626387975524462e-10	-6.114918357366343523e-10	-8.125396548880138919e-10	-1.305799445288006389e-09	-9.554604035028663415e-10	-9.533230026346183278e-10	2.261724069354081667e-11	-4.223256212390433606e-10	-1.231879620994511447e-09	5.455297346237113573e-09	1.273066180682715309e-08	2.850060817520753002e-08	1.984930891405542530e-08	2.898076481203108496e-08	3.138866098920537092e-08	1.509312446252291793e-08	2.793828828514584395e-08	1.518217417573758677e-07	4.568816844361184987e-02	1.831592225337855558e-08	6.618978799679751503e-09	9.960039709572687200e-09	3.295745180144038978e-08	1.110405945778413388e-06	9.172833975168992419e-08	5.506635810420227890e-07	1.412339086793252575e-03	3.261915250203740517e-08	9.586324639262894921e-08	1.764765005623154294e-04	1.577851984730840840e-07	1.179658512686791961e-08	1.538333228951608252e-08
-1.898265972901981136e-09	-2.205388047412340165e-09	1.636903303302704112e-09	-1.513135901146142020e-09	-1.818374526224779029e-09	-2.034784760397434213e-09	-1.669423650867955381e-09	-1.809264120396922788e-09	-1.978948427301502658e-09	-1.924926929759991957e-09	-1.985172705763273915e-09	-1.920596630382362425e-09	8.754520299754586442e-10	-2.969203535059149177e-10	-6.768715419317103300e-10	3.918646539463583610e-10	2.592476359650590786e-10	6.478231527604357989e-11	5.181578535204738857e-11	-1.635778275837901214e-10	-3.649830222428653613e-10	-7.999051247352610296e-10	-3.120082839042281063e-10	-6.053073081520848830e-10	-1.018674961419221413e-09	1.009362498115249213e-09	2.228408950032069111e-02	2.707439964316216998e-09	9.255383779590404385e-09	2.346032090918149736e-08	3.478749548454007777e-10	3.705790087746935858e-09	3.869594840817800613e-02	1.982370888806111731e-01	-1.516923605006950386e-09	-3.427831934086378783e-10	-1.618407202994123520e-10	-5.881605020730501877e-10	-6.289958996407541523e-10	-2.690881589979154808e-10	-1.612554296522345095e-10	-1.710056616421799709e-10	-8.138609981390963029e-11	-2.331128027137814260e-10	-2.626066379529361337e-10	-7.130271807112738092e-10	-7.244083517017648522e-10	-6.678280475987367206e-10	-8.845871771208303670e-10	1.024231914040684356e-09	2.776170568396550686e-02	4.854382765156741786e-09	2.025634817371055042e-08	3.471203353531671087e-02	9.497913167002915146e-10	4.801514688450163698e-09	3.565522084574062472e-02	4.779326787411246336e-02	-7.561068649783407733e-10	1.673125429320617850e-11	-1.694137744723357562e-11	3.261274891398742891e-09	1.724455588811792681e-03	7.440459296659156423e-09	2.696891003144583935e-08	2.021626598876596348e-01	2.746220631073266192e-09	9.135905858519409884e-09	3.119701780373316646e-03	4.065577077743199358e-07	-8.060758863566199606e-11	9.177674079542666095e-10	8.769969516137761571e-10	4.474028555461411253e-09	5.405756634762241488e-08	1.250924835566768469e-08	4.355481480206026448e-08	2.183667850151495560e-01	4.763891320780565122e-09	1.226825381776150095e-08	1.191176875836349874e-01	2.438248860386963673e-08	8.141868127765007070e-10	1.714837278213488738e-09	-1.410469256441044043e-09	-1.415479914917757248e-09	-7.232361102351392385e-10	-1.344584912855046844e-09	-1.407853540516063203e-09	-1.416190834077653028e-09	-1.644150565409689000e-09	-1.545620610716640861e-09	-1.423929813289804876e-09	-1.808335573259445333e-09	-1.886843496788726818e-09	-3.976270872711141129e-10	-1.758336138524627290e-10	1.939148180357550916e-09	8.874132288073833747e-09	3.176596170987526752e-09	6.002982596741668035e-09	8.206211598938749225e-09	1.987132025953211264e-09	5.861884882003679444e-09	4.533695115529219343e-08	5.036724920131906841e-02	5.413971802995374838e-08	8.312559139772168797e-09	9.609122397078544843e-10	5.454343844194748019e-09	2.160610879386336209e-08	1.498924009082956953e-08	5.461299756273140394e-08	7.651335954951332028e-07	5.242088399889966725e-09	1.643735049044229639e-08	4.014734451937628207e-07	3.218040667396875507e-08	5.020155880964634261e-10	1.528540085528903464e-09
