-8.052165612735212908e-10	-1.837249848171927633e-10	6.601191165817375368e-10	-5.074582265349231441e-10	2.243119621594012265e-10	1.541375263523698094e-09	-7.196343266935480370e-10	-4.040944172936123153e-10	5.368702053868516270e-11	2.770003659436942401e-11	-1.022852486633046482e-09	-9.184467305940321876e-11	4.610349362090632462e-10	-9.203704447617663116e-10	-1.029928161749751954e-09	-9.784695803264675327e-10	-8.723007606745610860e-10	-9.514532302618551621e-10	2.525855276144407837e-10	-9.465092988633730394e-10	-9.674443200045746529e-10	-1.016528232158708525e-09	-9.329192591847365084e-10	-4.785250911867208149e-10	-8.493976224542878179e-10	5.778970634803221990e-09	2.752280910917398807e-02	1.930109392147850394e-10	1.625539045737071381e-08	5.073830861894074000e-03	-3.957675667038998607e-10	4.110048634673622766e-09	4.465295158661832658e-02	9.221416502601133963e-03	-9.464231129385338185e-10	7.778560689147097505e-08	-4.734790905849390973e-10	-3.677628155196830520e-10	-8.234561465144298306e-10	-5.659464793813508234e-10	-8.572515922382040548e-11	-2.385390177095881310e-10	-5.843267198396646415e-10	-2.476406367739225009e-10	-4.005459730088349587e-10	-8.109059013126674732e-10	-6.305062405973043576e-10	-3.295926280592082838e-10	-8.805955192090276035e-10	5.175723433591891363e-09	1.712282306659177952e-02	5.163043882610423717e-10	1.670160828175413820e-08	2.134489861687961787e-01	-1.984948299243023893e-10	5.640979532093948442e-09	2.231609330193566956e-02	6.593338678345708748e-02	-9.087334632258749670e-10	3.529311068522923995e-07	-4.917914550111465515e-10	1.107076904220991938e-08	1.282307511056479962e-08	1.431358710875660169e-09	4.306831317794957460e-08	1.834288104687698817e-01	2.367760160580121502e-10	7.259073421717922375e-09	2.173073545438199960e-08	9.776063110964450663e-09	-7.894969996677420086e-10	1.454546251002346769e-08	-4.003544272821095041e-10	4.355631987639179295e-08	8.331174316355974200e-09	2.857402964239282058e-09	1.089556125141472459e-01	2.207013154773037969e-07	2.842199712948022195e-09	2.152753685486508486e-02	1.552756238647098582e-03	8.056332080683547104e-09	-1.850514219597660677e-10	3.844512524519115263e-07	-8.217476108372915345e-10	6.502539960374472928e-09	1.449306211026569688e-02	2.583950177355134587e-10	1.510546328471401566e-08	1.246722126966853805e-02	-3.829214929719352191e-10	3.377467120357016439e-09	2.225634326706171051e-08	7.170376444451145165e-03	-9.478957862204697815e-10	2.605768727257851607e-07	-6.916865493051409402e-10	-8.487495537734479780e-10	-9.353095579556213104e-10	-8.443336798630827630e-10	-8.623929640054712689e-10	-8.334860860621385941e-10	-8.420884647048309603e-10	-7.896336912230037921e-10	-8.626408935366232877e-10	-1.004318270681536904e-09	8.020788793554743704e-10	4.785988967322911730e-10	-4.702076708409403063e-11	3.898598952800018694e-08	1.162355452902464669e-08	2.484727877750346281e-09	8.442862902179575080e-02	9.516678313029408587e-02	8.194372015802896332e-10	2.899268142897313052e-08	4.652543317946474660e-02	1.200755019190822438e-08	-9.261082104438660816e-11	1.898983130831875810e-02
-3.737633880865204826e-09	7.475797169121496739e-09	1.379364714875306343e-08	2.446453112674570599e-09	1.455736011880935745e-08	1.417177439806353743e-08	-1.103641770273436909e-09	8.934394882273522067e-09	1.344548284102844691e-08	1.613097183233334360e-08	-3.816603764057790363e-09	1.206213161180460486e-08	7.776705098147267019e-09	-3.557372682901834413e-09	-4.289313581011291755e-09	-2.744268910141614954e-09	-3.054517260972167290e-09	-4.028077620482403624e-09	-3.516933932604417145e-09	-3.359378501561693807e-09	-3.866560184497893749e-09	-3.727319954615769036e-09	-3.505770363584298843e-09	-4.109582416382226965e-09	-3.673244991995656486e-09	5.190753583740829518e-08	3.384450125026593204e-02	6.700373786494998987e-09	1.127978844112898092e-07	5.752560125016730787e-03	6.104162438889762580e-10	5.920184767485328165e-08	3.093488581522985809e-02	1.845289143641043114e-02	-3.401508515829899012e-09	1.822871699543349025e-03	-1.446029962403233525e-09	1.478591162000448172e-10	-3.048702044348451275e-09	-2.340929103819791880e-10	3.271184144790385843e-09	1.184342255983885721e-09	-5.129231482963918472e-10	1.872807876902632468e-09	-3.226816054377864054e-10	-3.294274371027942172e-09	-1.744772577489787389e-10	1.010107874853355233e-09	-3.875921151352043199e-09	5.671349103565439676e-08	2.640040500221219402e-02	9.894865783777380645e-09	1.557786038885111687e-07	2.042969445332608325e-01	2.311639193572728725e-09	8.478897847169468066e-08	3.144817413355012470e-02	5.377107094598742448e-02	-2.665766108781309250e-09	2.350917760854147199e-05	-2.527975690900269694e-09	1.304534823294285684e-07	1.460792563599946633e-07	1.888911412397803655e-08	4.121602337768580718e-07	1.741277748793053914e-01	6.366470365848200627e-09	1.158604811262407757e-07	2.297707470814590348e-07	8.862479307224181683e-08	-1.202325328884166445e-09	1.175913681232691900e-07	1.285074134631303995e-09	9.877026290302998775e-04	8.364614246012778431e-08	3.994181347683374123e-08	1.037861478046086389e-01	8.375790853910684176e-07	2.539477480229757465e-08	2.654279024973530549e-02	8.196832006479134009e-07	5.850842852839050901e-08	1.956702570792277135e-08	5.534883826342797334e-07	-3.276733765472475057e-09	4.820213749342898930e-08	2.569604664804806058e-05	7.651889900743087054e-09	1.190160987510554289e-07	2.851637366357094583e-02	1.030079205028433608e-09	5.196613328739597246e-08	2.340489618329113970e-07	7.581607246389151025e-03	-2.893304439939854308e-09	4.405915422078568108e-03	-3.706116928783205110e-09	-3.296155510643434408e-09	-3.886719161384898017e-09	-3.576239160019964034e-09	-3.274473587132661364e-09	-3.582148286229944978e-09	-2.819889893500691213e-09	-4.106206889925382136e-09	-4.096022015719708414e-09	-4.114005308273431219e-09	2.889581670037179347e-09	1.629418673497418079e-09	-1.680260101853741508e-09	2.333446253658596850e-06	1.271480189445881212e-07	2.915717108024814879e-08	8.102511377588073049e-02	1.052018851653148679e-01	1.791467078806601009e-08	1.270726096422490899e-06	5.387012007657281110e-02	8.622106824920525581e-08	4.034898004186804426e-09	7.172479067944721731e-03
-1.331778702636228464e-08	8.223976135988252133e-10	3.970098287138324545e-08	-3.560064983211008497e-09	5.821867486088752640e-09	-5.355192373501742981e-09	-7.971455055169466240e-09	-3.131242117254140009e-09	3.129527659487113657e-09	1.172328860893388430e-08	-1.161251710058928289e-08	-1.526205869713420643e-09	-2.121236388451262558e-09	-1.146916628764103498e-08	-1.481851392113130228e-08	-1.221182073910564954e-08	-1.052381548053092741e-08	-1.366293838220110961e-08	-1.181159293181299355e-08	-1.152837519682247292e-08	-1.381584833070498476e-08	-1.415185519415859785e-08	1.023123260450160338e-08	-1.292383558409789708e-08	-1.367997024968770327e-08	1.001396350808589114e-07	2.018062662079448885e-02	1.120930674091905307e-08	2.166470675869808879e-07	3.577737411642342286e-06	-1.749154797125554178e-09	9.852348025568035837e-08	5.340622606111392751e-02	1.337871594492628935e-02	-9.040148636560654764e-09	6.342922858869760099e-06	-1.160163404611200372e-10	-6.839205490068836700e-09	-6.007614749373286985e-09	-7.748475382267061144e-09	-2.072984023561774091e-09	-8.795591514054607884e-09	2.256366612741884662e-09	-6.180115359086115624e-11	-8.722716886637729853e-09	-5.711220029090684469e-09	-8.737147430122175499e-09	2.344142600878295881e-08	-1.327392033602351519e-08	1.166226762214633425e-07	3.084224369696831475e-02	1.806709189106640647e-08	3.636113589950758447e-07	2.391469172974936552e-01	1.668298593022950619e-09	1.198089023520549239e-07	5.019220128888572278e-05	5.811249714986758269e-02	-7.545435377847076389e-09	1.236071471813992170e-06	-8.161954186515869949e-09	2.076050115123007453e-07	2.073394816077766584e-07	3.981339085817364650e-08	9.447127759375346075e-07	1.814457321265640632e-01	1.093620908065430509e-08	1.979059592470813460e-07	4.158752195282837127e-07	1.493234713656123826e-07	-3.674797441206691840e-09	1.866609333639697942e-07	6.899063705876194185e-09	1.573193519912376029e-03	1.594387060560931635e-07	8.497197862097765562e-08	1.246994296936763669e-01	2.251356011273283686e-06	6.590802536189869956e-08	1.367956985073282111e-06	4.916949290870987209e-07	1.147548331903623175e-07	3.549007746511325272e-08	5.232654956201520122e-07	-1.252016056713532896e-08	1.269877212593144705e-07	1.151956934818139204e-02	1.202524874833271742e-08	2.559274344909810584e-07	9.871101226792241418e-03	-1.330473357469598189e-09	8.943051540715266014e-08	7.927756274345695667e-07	1.070480227561326596e-02	-8.680211238959821512e-09	8.659380882554420329e-04	-1.185208377173951774e-08	-1.232101674154613754e-08	-1.383922820355433785e-08	-1.205477687690313150e-08	-1.200381028089641453e-08	-1.255568767431776064e-08	-1.158331184368239273e-08	-1.131730366032600466e-08	-1.280920445929519124e-08	-1.401961729836859923e-08	3.014095533980083644e-09	1.775590637613248453e-08	3.576160958521485710e-09	1.095263188099834478e-06	2.140741691901820504e-07	6.387763331698389920e-08	6.938656650493434108e-02	7.713020303016003554e-02	2.251350478942224588e-08	2.110044729673879807e-02	6.092691015488811007e-02	1.689870706731544925e-07	1.054768448097533881e-08	1.563648327916541611e-02
-6.981396619297360674e-09	5.116632635513477032e-08	6.220001306899120210e-07	-6.468230550024809293e-10	9.856854449029308460e-08	1.195248062288718456e-06	-5.094284816193616200e-09	2.432868341961980166e-08	1.231157912658803979e-07	1.351706743392257056e-07	-7.462096682700091853e-09	4.659753251586762334e-08	9.824883074975489645e-09	-8.216274580354795066e-09	-8.869957533795807964e-09	-5.380940801275024962e-09	-8.271423765186313419e-09	-8.604773402885216421e-09	-7.018536957437955440e-09	-8.320563123063880195e-09	-8.344541548451936334e-09	-7.576507728869158437e-09	-1.310434215588776771e-10	-8.579869818586115989e-09	-7.296239566046149021e-09	7.320061285128333564e-08	2.332274349067123970e-02	9.404753205487788690e-11	8.575308620173972428e-08	2.330946851413107090e-02	-4.446489183067920748e-09	3.749813789221700993e-08	4.054489433427349576e-02	7.734432656827771278e-03	-5.593647463627039200e-09	5.395397759566779248e-07	-4.882880040100728026e-09	-1.568254013981286373e-09	-6.151068587842811049e-09	-3.963946180079862312e-09	7.267510444454593581e-10	-4.742918928253576660e-10	-3.117761336611364839e-09	-6.420701399340728158e-10	-2.278069715169269944e-09	-6.747962545596838932e-09	-3.774618998696469266e-09	-3.114384032569424934e-09	-7.547558719850461075e-09	6.133110729965828626e-08	2.036173591673243535e-02	1.957914909879191996e-09	1.156615343675082967e-07	2.058122379587556394e-01	-3.160106954538511739e-09	5.392832657102724443e-08	1.714415476830628837e-02	7.321293619233330829e-02	-5.197859484845466697e-09	2.759070717295733846e-03	-6.190459699449417470e-09	1.512729684386376765e-07	7.751075212318295470e-08	9.149050874344458361e-09	3.534085327274050627e-07	1.800794201766927338e-01	1.543591231651432118e-10	7.991749316737801356e-08	1.863968187410055448e-07	5.596359088533620632e-08	-3.312213816423202932e-09	7.360247644868259584e-08	7.003108185407038524e-10	2.390950260161446399e-03	4.950992392995061372e-08	2.230909124347498915e-08	9.484543290820111883e-02	7.357257274886248743e-07	1.484112923806161922e-08	2.062570102614095721e-02	1.845753781937174748e-06	4.870578965440553363e-08	7.610014425939078330e-09	3.214549754561397336e-05	-7.189015459439891705e-09	9.238863759749108636e-08	1.658687646607113000e-02	5.008244446653766809e-10	1.059843794218145095e-07	1.300574989991182089e-02	-4.167323068529202007e-09	3.585371516495140438e-08	2.721357896204274120e-07	3.315690011418477752e-03	-5.838475501690629060e-09	1.809700319759100949e-03	-7.440094834854136449e-09	-7.387326841809394262e-09	-8.108355201044528551e-09	-7.571700088011650137e-09	-7.423268110753836789e-09	-7.629093117445230768e-09	-6.725039881253365214e-09	-7.701590012390611443e-09	-8.213217296500118037e-09	-8.383948270027869091e-09	-8.104511936033296446e-09	1.420506707583818536e-08	-5.584689663990208651e-09	1.362332599941380190e-06	6.489767934272156438e-08	1.669978669478030884e-08	9.945241992452404090e-02	8.128943955624501339e-02	8.801361333344828288e-09	1.588074017277143005e-06	6.270764180107232799e-02	5.812723401675377911e-08	1.098651029197421273e-08	9.646824798157918254e-03
9.958158088029124412e-11	2.484178375966486571e-08	2.425718589732250780e-07	5.956117742227656292e-09	6.505065651912398164e-08	2.386106211960954790e-04	2.320919586250202429e-09	2.498618478288300489e-08	6.733856960831863128e-08	1.440336039290942341e-07	5.011806504660150702e-10	6.451590571135382635e-08	3.045158825985900334e-09	1.410032254313376197e-10	-1.776753175323948505e-10	1.816937694209352236e-10	1.041888229655629880e-10	-1.588049324455939822e-12	5.384176739642707882e-10	8.692782269956301984e-11	-5.071256411253996973e-11	-2.394122291704610034e-10	6.044538430368843899e-10	1.088938151256785363e-10	-1.283309430442583336e-11	3.884412551678454573e-08	2.570044726259966550e-02	6.540557167311174571e-09	8.134287204359916949e-08	7.345768708463821161e-04	2.826930730104821592e-09	4.293348581683380446e-08	4.038602748820234456e-02	2.288829636948183990e-02	7.852361433084585170e-10	1.417381728147079112e-05	4.899229608291399474e-10	1.917848587836308594e-09	9.048929024451455381e-10	1.717059149634019523e-09	2.710153751929803425e-09	2.120716732355502058e-09	1.954546982276809493e-09	2.465370499274237409e-09	1.726858039235976412e-09	8.297976069604025941e-10	1.045621315186402793e-09	2.234250914896252376e-09	2.241129404924616930e-11	4.006672127657515450e-08	2.815856249380087675e-02	8.293456470348299918e-09	1.078421349062949227e-07	2.186415033976483735e-01	3.834065879369687986e-09	6.395561185013058528e-08	2.170656941063818859e-02	4.999612096661354421e-02	1.131736801322017711e-09	4.913560601886514182e-07	5.559986370419094685e-10	8.502001063014775188e-08	8.395573200584539565e-08	1.363950157117126506e-08	3.043615052792504179e-07	1.797144850015623130e-01	6.010627148415688851e-09	7.831016623814475349e-08	1.198728043393236299e-07	5.753872353051585032e-08	2.105988166379610370e-09	7.988024429281352901e-08	2.021844981117013920e-09	2.682150210592025488e-03	4.781379216678517508e-08	2.646407955860728012e-08	9.839329072994207337e-02	4.906576845116007439e-07	1.400407271410219616e-08	2.635202365613929787e-02	2.929850016492579569e-07	3.606533148614039409e-08	5.929418192067865489e-09	4.010299385532657466e-07	1.236409465075550147e-10	4.406518214236720298e-08	9.134597155086753711e-03	6.998018130178751598e-09	8.707749751520462280e-08	1.844316118729641060e-02	3.083114393923284589e-09	3.703572577722302284e-08	1.386644381638574424e-07	6.776820594109432896e-03	8.780552197417521157e-10	1.507650306483810689e-03	2.156169918337682619e-11	1.982985094558996269e-10	-1.226764049532246124e-10	2.453736550792754889e-10	2.333124118329545618e-10	1.818008563205712726e-10	3.842256078856127848e-10	5.020529538642831586e-10	2.827016934551026029e-10	-1.380796480816594576e-10	3.796753863176685373e-09	2.731700848338213845e-09	9.544982605026750379e-10	1.942294035652483120e-06	7.563462551176013269e-08	1.972815274137855911e-08	9.308613446915282863e-02	8.670774098773322003e-02	1.040918539165360234e-08	8.059705563432069191e-05	5.608378003619396424e-02	5.830123633431217439e-08	3.558127621470256610e-09	1.256653812941368499e-02
-9.939875364881822090e-09	8.261071140664020066e-09	2.959695312364056403e-08	-2.553850997370702337e-09	2.878339730993146095e-08	5.299689035202613124e-08	-7.491469564035624459e-09	1.369074920685796364e-08	2.234149643908221343e-08	2.921670805150594508e-08	-1.134212869248552694e-08	4.668758069913910806e-08	8.684817741222707428e-09	-9.156425397082329842e-09	-1.086680692749466990e-08	-1.059061222212145405e-08	-1.075722046100275609e-08	-1.138780924341516955e-08	-4.174261967489165530e-09	-1.108989043880410481e-08	-1.113200581881686361e-08	-1.055242229137079369e-08	-6.873700033220956812e-09	-1.093857116023703274e-08	-9.789985174440253635e-09	3.622273155846028002e-08	2.834726406852482866e-02	-5.562764222908514180e-10	1.078346671332501896e-07	3.173322413977223666e-06	-6.051493620842558471e-09	6.735805195583947746e-08	4.436886675552664805e-02	1.325891490636831906e-02	-1.002642297184647020e-08	3.248247754879918887e-04	-8.452378589931840576e-09	-3.497850714505106787e-09	-8.129764071930674696e-09	-5.132444483906184886e-09	-2.745248449858549250e-10	-1.812532440335773764e-09	-3.826883721910217236e-09	-2.227575815042407838e-09	-3.855017649546674694e-09	-8.394226246216729738e-09	-6.412091022815783527e-09	-5.429676839356089727e-09	-1.041997992314419280e-08	3.992634962789742245e-08	2.240647509137144722e-02	2.795981771750496902e-09	1.560882308802801038e-07	2.177173947002495336e-01	-4.097994282724616171e-09	1.009031201080155991e-07	1.667133932611958302e-02	5.906199344484735353e-02	-9.703105755392490395e-09	3.542759889669480722e-06	-8.183119241026214012e-09	8.280456268534109947e-08	1.036373920450147018e-07	1.191506196060822099e-08	4.459061087242588740e-07	1.815366122164923379e-01	-1.808787693671937006e-10	1.143906710419020510e-07	1.869893937816118850e-07	7.446140768304304240e-08	-7.321042580066610060e-09	1.340528929174620110e-07	4.204600710608256713e-09	3.218572191311672506e-03	7.806810791075295850e-08	2.739937155091201744e-08	9.471986544572118250e-02	1.458789962446317882e-06	1.481428994914121128e-08	2.422489092837405017e-02	7.029670930347214065e-07	7.754525603391310752e-08	1.576778911889154779e-08	6.952281675391936214e-03	-8.900222363275877454e-09	3.985211457483515927e-08	9.393407166961601981e-03	4.720582208555726076e-10	1.436810833492693618e-07	1.027984589665642372e-02	-5.684401922755545630e-09	5.639174117948600340e-08	2.619388705508099138e-07	9.247746142764235594e-03	-1.013276782782488763e-08	2.601481620055040404e-03	-1.014959278098894186e-08	-9.817630972486805311e-09	-1.088421907296959915e-08	-1.005276753323105906e-08	-9.898171572908963552e-09	-1.014558305427310645e-08	-9.390650674517393301e-09	-1.019205545818986381e-08	-1.096800708609085539e-08	-1.124148816480044207e-08	-9.403227118133742395e-09	1.900025793027523647e-08	-7.166523682504328633e-09	3.235783268058273409e-07	9.967070115269592005e-08	2.190028077091931189e-08	9.554238771337036917e-02	9.440366659027092655e-02	1.052169342021537076e-08	4.599119063535837652e-03	5.132713918215416060e-02	9.331201821804095265e-08	1.249501977365461520e-08	9.784233748841280470e-03
-1.913148948017987087e-10	2.500106063363861926e-07	1.969938183982753985e-06	8.618568786442740851e-08	5.193225828551111170e-07	2.095815107079487022e-06	4.836824604668942127e-08	1.640138563374484327e-07	2.913814843661571916e-07	8.820302758759649549e-07	1.542289585727966841e-08	2.443960245360284105e-07	2.023384392005631341e-08	9.069817222199316537e-09	2.223223742522081767e-09	1.287497294461901968e-08	8.889064888051834539e-09	6.173613547695356153e-09	1.324286157029828223e-08	8.703315028140513779e-09	5.108150889417761235e-09	1.254299553915571473e-09	3.691752705596551645e-08	8.670199137593782054e-09	1.184446516678660136e-09	7.289945806712461441e-07	2.598407088377347254e-02	1.409272191378184567e-07	1.880979085462511874e-06	5.630415904587973263e-04	7.335530646590287152e-08	7.616006574614379184e-07	4.804550897068710774e-02	1.828479612357435460e-02	2.471885733755320939e-08	2.079390754808489500e-04	1.838478784189049487e-08	3.136232290206661337e-08	2.125190156085751468e-08	3.378695854152721802e-08	4.113926276783983292e-08	3.314841619329059620e-08	3.489261499800223296e-08	3.283924159867082468e-08	2.906557724228024966e-08	1.963787483478243192e-08	2.287562419840132637e-08	4.113402175189088435e-08	4.537796439797691937e-09	5.234120354194225218e-07	1.967026339648184075e-02	1.769778615673483958e-07	2.490638870455633949e-06	2.495932662322899176e-01	9.339929866217871069e-08	9.919046749050464413e-07	2.251091945813961371e-04	4.795913852305237757e-02	3.200042905618809246e-08	1.276619153625901045e-05	1.781424032267550750e-08	1.087953305868593664e-06	1.262100663700758326e-06	2.844984316062255692e-07	7.490256924770418086e-06	1.864975274443040620e-01	1.481559555097495518e-07	1.428701908579884382e-06	2.848402454093657621e-06	8.764756661372535619e-07	5.002610110577588282e-08	1.136747635742909048e-06	6.342883172553710965e-08	2.463491278450594128e-06	8.209885966444531436e-07	5.470385806856362099e-07	9.972436594382566577e-02	8.591696309312049794e-06	3.472999778687165298e-07	1.104138021799469516e-02	6.937030290312203010e-06	9.574964424132692296e-07	1.179941555831904005e-07	9.240896751717244187e-03	3.226066853703743416e-09	6.881326565825925513e-07	1.450859393808547233e-02	1.524070786752130430e-07	2.263595332176900529e-06	5.136706333094777019e-04	7.987169304167850784e-08	7.344661674200854649e-07	4.370758438899865723e-06	1.414642118276533342e-02	2.632452582832600948e-08	1.007972681359412703e-04	4.949972373675575015e-09	7.854000460722512023e-09	2.475287215798447400e-09	9.582356463582720583e-09	9.764530831208301354e-09	7.670168450117946150e-09	1.175233781349394632e-08	8.370527112953043671e-09	5.012750919580695165e-09	2.002535072408987918e-09	1.657879135772860448e-08	4.364741735459097172e-08	3.106367059369820422e-08	3.682045061995450851e-06	1.246678209211675550e-06	4.057594722032946229e-07	9.643126278804503571e-02	6.401772489799326116e-02	2.324139372538044649e-07	1.163011865376117025e-02	7.391841551079873784e-02	1.118380807636232601e-06	8.299738181793220822e-08	7.615215004171939535e-03
-2.236846458973725579e-10	1.439005203993536198e-08	3.393078693977362377e-06	1.416036980401192721e-09	3.676788921346202682e-08	6.269288947360873394e-06	5.639964465475977476e-10	8.968335274387683081e-09	3.589796003118249429e-08	1.123530961526022278e-07	-6.317765709295988192e-11	1.999815139337015410e-08	7.180498096083365956e-10	-1.635085063465532013e-10	-2.690447776884478388e-10	-1.863363076885221816e-10	-1.771354358802921767e-10	-2.374913589731705921e-10	-1.439997738820435849e-10	-2.061023518550122525e-10	-2.494826232208526962e-10	-2.525884318909464498e-10	3.043570151345837966e-10	-1.544258223109947932e-10	-2.275298082256591434e-10	1.617498730518879331e-08	3.320657748053221225e-02	1.315111174121262236e-09	1.729380249861487692e-08	7.926555712311470284e-03	6.562139033070849984e-10	1.109888673413613346e-08	3.845317165017437394e-02	1.054970806072152122e-02	-2.480846654262860384e-11	2.964494269402056119e-08	-6.676455335498921803e-12	2.202378692192747345e-10	-1.706787302464222963e-11	1.548950691217347681e-10	2.875690866820049069e-10	1.983212742460965125e-10	2.249086938608847234e-10	2.195301991859972302e-10	1.037670613291903773e-10	-3.179768397604916324e-11	4.570964162234640341e-11	2.361722009052453181e-10	-2.007854351361966776e-10	1.213248510271046721e-08	1.658590278661979320e-02	1.721352270774587059e-09	2.330602807928760366e-08	2.234101881438646242e-01	9.580663163064064650e-10	1.651566890141175160e-08	2.655006930390554562e-02	5.175639811084666031e-02	7.311326266549981505e-11	1.264283647715642927e-07	-4.307730401253036064e-11	2.821226230797662574e-08	1.455622825973062739e-08	2.980359200253964701e-09	5.905346433180500875e-08	1.740004572919426340e-01	1.635932524049594430e-09	2.011852340514553322e-08	3.130536685080052228e-08	1.240466102212682698e-08	2.899863463798242208e-10	1.307023910870800065e-08	3.951560462833851639e-10	1.589313896976556799e-03	1.094762642332278901e-08	5.946623905304944485e-09	1.047899514891287437e-01	1.527702979088277094e-07	3.505375958396100040e-09	2.611922870633212948e-02	1.484228443263932091e-07	9.371841677962775551e-09	1.102218722261739714e-09	3.703911867959284031e-08	-1.297065117380867136e-10	1.720293031112769140e-08	8.842498694078493315e-03	1.426333123049451597e-09	1.947426681151810148e-08	5.286841392235292446e-03	7.074213863035737697e-10	9.217972967943369636e-09	3.489219300766681054e-08	1.722805128076436085e-02	9.404882074477528203e-12	4.569367896220457616e-03	-1.943481359885653295e-10	-2.056581499451403952e-10	-2.958868998888346733e-10	-2.222259272380599944e-10	-1.889556083109967595e-10	-2.450630023350626314e-10	-1.458850513283208250e-10	-6.498720978587026718e-11	-1.129249500786469858e-10	-2.613448659556769262e-10	6.702186184794074686e-10	3.676543836226160247e-10	1.002625332278460271e-10	1.248219036138395726e-05	1.496421397304583294e-08	4.426473802804411823e-09	7.392883325268150008e-02	1.097352471215203018e-01	2.852588143591676491e-09	2.847198559600784117e-03	5.034324008045388404e-02	1.525982365116106035e-08	8.076314355965964834e-10	1.225789358121809336e-02
-1.014406180910507435e-08	-1.860211424541471421e-09	8.278934804593542338e-09	-5.342355336119208609e-09	1.825711754529834838e-09	-7.886045197535233176e-09	-8.912101871565812080e-09	-7.579289840078387465e-10	-4.240597311720092748e-10	1.080404147113341692e-09	-1.013480228151028913e-08	1.145627618984476642e-10	7.210806366681882434e-09	-1.050763862821083875e-08	-1.051614787626812420e-08	-1.064821478105769742e-08	-1.046164836319096408e-08	-1.079983898379991658e-08	-2.118698488648913202e-09	-1.013543493629586216e-08	-1.082555032317990798e-08	-1.049028214888906640e-08	-7.080166229238642205e-09	-5.798384912031225687e-09	-9.488081641249561410e-09	2.011557312185565779e-08	2.295887664785943236e-02	-2.067721921188217076e-09	8.909821023101386552e-08	3.597889318124759123e-03	-7.343669824163042610e-09	3.557251567805731019e-08	4.843089962728402975e-02	1.422420583905184034e-02	-8.864891925034388559e-09	8.354875442339887114e-06	-6.182164195563706066e-09	-5.352812943455686919e-09	-7.512661263120137902e-09	-6.007757815652167631e-09	-2.121998558201344674e-09	-4.282098674985526325e-09	-4.174353694512548444e-09	-2.883571778439392118e-09	-5.500000055517274468e-09	-7.833078517581252366e-09	-5.827317087908143938e-09	-4.089154046819210686e-09	-9.955098884093252862e-09	2.279275318781474128e-08	2.577743262890968418e-02	6.963820854595788714e-10	1.144301434683591015e-07	2.229292742877037048e-01	-6.035417752569261793e-09	4.853582758981243360e-08	3.657995492137548852e-03	6.267818230208213603e-02	-8.030938993724183662e-09	3.722928461079395498e-03	-7.187252706264634589e-09	4.828568789984960979e-08	8.367074848443828042e-08	8.434379548683010019e-09	2.611762466896365451e-07	1.821447074889366857e-01	-2.326508141623580645e-09	7.210775921951144586e-08	1.455772315152154645e-07	5.315701955517979796e-08	-6.319885697578256346e-09	6.261987744530522299e-08	5.570484036828225764e-09	1.756008314425493979e-03	5.403550276123262079e-08	2.372962772678352607e-08	1.099264755393789955e-01	6.834955478614719399e-07	2.866155244519907609e-08	5.284350654038876167e-03	3.213482122675902826e-07	3.284433937596303648e-08	1.877443137906601922e-08	2.176724193409054328e-07	-7.546710607275741778e-09	2.288642408332571815e-08	1.195209156194838168e-02	-1.683995567424998013e-09	8.011145033777437207e-08	1.927510315924720052e-02	-7.225200890465264138e-09	2.729975781326978871e-08	1.468114896929987656e-07	4.236904981869141218e-03	-8.832641686024542363e-09	2.631399931982004569e-03	-8.609189726251573111e-09	-8.806930094454327991e-09	-1.014262985949726149e-08	-9.180627439449649585e-09	-8.728049772170307144e-09	-9.170143383933407696e-09	-7.811695190599421082e-09	-9.162190172354540983e-09	-9.388508380846263357e-09	-1.002064949849004959e-08	2.032962933387619601e-08	-8.713287405545991861e-09	-4.221012987876784085e-09	1.797993938862477177e-07	7.669499491891830839e-08	1.789000410758802525e-08	8.924741204933839267e-02	7.424421382353608989e-02	1.384905109812405880e-08	1.466539302562389069e-02	6.786944914928816353e-02	5.752484616970176503e-08	-4.422380810351629799e-09	8.777744626630048716e-03
-9.272764474608848125e-09	2.542791041716993589e-08	3.672121475158061628e-08	1.474907728989682062e-09	1.656703224928338952e-07	1.847025217508553455e-03	-6.649302024443159803e-09	4.015089796855972576e-08	1.482977363638547988e-07	3.609289105266422650e-07	-1.209504618855947334e-08	1.939959563191747843e-07	1.720470952448147489e-08	-1.100690389290490763e-08	-1.170970371741080208e-08	-9.314780527574286286e-09	-1.121718389257637447e-08	-1.154123020885133499e-08	-1.030259157436006968e-08	-1.099779103137558085e-08	-1.121793187683895251e-08	-9.642401361288394163e-09	-4.849647995388542409e-09	-1.056464857562499024e-08	-9.219447581900528953e-09	4.861658297563558094e-08	3.354396943703006478e-02	2.550177156561289158e-09	1.995625824937399957e-07	1.305596471289788296e-04	-6.363556768362933239e-09	8.151145803207833037e-08	3.014564797091542903e-02	2.219971811728043906e-02	-1.148516609533860228e-08	3.718714438121943698e-04	-8.466446941164406303e-09	-3.687641463282166423e-09	-7.907195816224640299e-09	-4.659032353281545548e-09	1.041853317083690563e-09	-1.968139221563972747e-09	-4.187560188855679769e-09	-1.492294010134229389e-09	-4.303500026732906041e-09	-8.209642805642727379e-09	-4.875971509357775289e-09	-2.076052355765558891e-09	-9.866682902237076658e-09	3.997271487581606465e-08	2.001810500280860536e-02	6.334656196038728568e-09	2.481037829726299465e-07	2.169897719682641890e-01	-3.505151127661734434e-09	1.168105468949633195e-07	2.418754518643377593e-02	5.304555639912812010e-02	-1.063420733878288683e-08	1.494658693585447615e-06	-8.151563592718842575e-09	8.796321420982983427e-08	1.815625072073124596e-07	1.750284007840756675e-08	7.163609101190687011e-07	1.886404390848871737e-01	1.108036830988636522e-09	1.639575427571147066e-07	3.351878593044088594e-07	1.121013212752886117e-07	-8.211428020429533710e-09	1.837706569455130024e-07	3.709462669548258296e-09	2.803019223485895498e-03	1.299613969453866696e-07	3.150764534788791532e-08	8.919078750698004876e-02	1.618623388819321820e-06	2.939660981256037677e-08	2.540836968112136426e-02	9.268924758424348174e-07	1.107373368589613239e-07	2.062024069871463840e-08	8.725074251117967764e-03	-1.012952265970237984e-08	4.647100313671955226e-08	7.764959190356439910e-03	3.626542264013432259e-09	2.263604021904801595e-07	2.613553896683395300e-02	-5.733470912851703686e-09	8.033152909733654598e-08	4.933108575218170824e-07	5.052246653537937129e-03	-1.165464517267480004e-08	1.930280527775134750e-05	-1.011856371806190991e-08	-9.373521806466255998e-09	-1.060150609710582834e-08	-9.990570824566007304e-09	-9.396342797814726448e-09	-9.922085017434126845e-09	-8.509523363528111296e-09	-1.048520551114024209e-08	-1.113347450112990411e-08	-1.113697988689043562e-08	-3.474979027638703701e-09	1.707722222040581383e-08	-5.364054680429900305e-09	3.856222952209350398e-07	1.833873886694792021e-07	3.042969960241424114e-08	9.360242449906527873e-02	6.587771863416541640e-02	8.341959203015736485e-09	4.070675532916961589e-03	7.083480156654907434e-02	1.327578939776580925e-07	7.555889240986807009e-09	9.385753418705252912e-03
