-9.880727494384995524e-09	-1.049423550372498802e-08	3.595142075432453638e-09	-8.598673032613598842e-09	-1.001501241346472987e-08	-1.007425721023952389e-08	-8.322873190431767360e-09	-1.014219624337874969e-08	-1.004758251383991548e-08	-9.238539111899616340e-09	-9.700276877304976169e-09	-9.296691240442393377e-09	-1.703949695410565183e-09	-6.189211386787470136e-09	-6.693626830921174714e-09	-4.581232963043244893e-09	-4.785396738140960783e-09	-4.839621341192933467e-09	-5.000580456806357083e-09	-5.354144158533377137e-09	-5.584508765948616063e-09	-6.855591566491963072e-09	-5.426948030397270729e-09	-6.529022476687046671e-09	-6.683886711281791416e-09	1.319408069198068488e-10	1.344358874886805548e-02	-7.511202745051691551e-10	8.313115199919672545e-09	3.923640389594853169e-08	-4.469763944560462461e-09	1.956303033123776457e-09	5.646999961422943110e-02	1.713179556754531596e-01	-2.818657161010861474e-09	-3.791531335835398536e-09	-5.322728445214726453e-09	-9.085399678552789924e-09	-1.102446417256900581e-08	-9.687282760061751475e-09	-1.208163601816831288e-09	1.440377632402668939e-08	-9.512286989889753441e-09	-9.953714637795684788e-09	1.340636408508036630e-08	-8.578375296593932924e-09	-6.490708337291551626e-09	-8.628246490765905282e-09	-6.249883889543120117e-09	-2.384731870653813225e-09	3.861499571382222967e-02	3.340815684654343306e-09	2.391258682509032466e-08	6.597593168643212103e-02	-2.493086468133468512e-09	9.204515327053558727e-09	8.324349963230401675e-03	5.427032838096908229e-02	-4.990295768810424116e-09	-4.858058155024207259e-09	-4.257868504416811364e-09	3.418950950854914903e-10	3.009332525888487549e-07	9.128783801333073478e-09	3.442476679931863213e-08	1.769084782156077063e-01	1.062246995281848229e-09	1.630337232916905691e-08	1.485870106355813359e-05	1.330330902825325575e-07	-3.098953057013451907e-09	-3.111460339063577564e-09	-2.853772345333165358e-09	1.873564037547793809e-09	5.856988652181614709e-08	1.799011730878752044e-08	5.553882930973061398e-08	2.164574198587841669e-01	4.760392331121094197e-09	2.022250149521299007e-08	7.072621280443011638e-02	1.762480009039010165e-08	-2.958419357142055258e-09	-3.084005875272795389e-09	-5.568235635336661568e-09	-8.682422635704037140e-09	-1.290347512839469783e-09	-7.464822456627442030e-09	-6.809103766015087624e-09	-6.628512497057914051e-09	-8.203127081429844764e-09	-7.042152506635877066e-09	-6.397109535853586435e-09	-5.363133781319662187e-09	-7.266380399587319602e-09	-5.300087419667473942e-09	-3.697144636210660287e-09	-4.108506957390150263e-10	1.765256063229773507e-08	1.949202737521177162e-09	8.066657785408888502e-09	1.515554212611212140e-08	8.113894140486807810e-10	1.224181559381258527e-08	3.733248045248425268e-02	9.014297732874225477e-02	1.841213463057171822e-08	2.788637633520063610e-08	-5.552807050777212150e-09	-7.356331950123358863e-09	-7.391014397709140928e-09	-6.442738586819865826e-09	-6.396270098358594812e-09	-6.179901268971828770e-09	-6.635117756461998475e-09	-6.666638159842363901e-09	-6.507038826622764929e-09	-7.618416132859985828e-09	-6.514028637644737038e-09	-7.542759639695038946e-09
-2.663627527613812433e-09	-2.854024573214621891e-09	1.321439225736034925e-09	-2.379033826403718244e-09	-2.653170145702969078e-09	-2.640485428293884524e-09	-2.253004974494833675e-09	-2.700637762866666214e-09	-2.669286935389719618e-09	-2.604563078011066571e-09	-2.586768433238910875e-09	-2.491546386262028291e-09	4.608755841544606242e-10	-6.099886469877378029e-10	-1.094925476059306587e-09	-1.951105324072946498e-11	-1.391671029226548782e-11	1.897301873345185719e-11	-6.519632110961795619e-10	-6.609214965182578262e-10	-6.669412656308376356e-10	-1.279892181411637487e-09	-1.099842838341082700e-09	-1.274478544290691962e-09	-1.637806220431994731e-09	6.404151974246259652e-10	2.053763655734409596e-02	7.442821034619812186e-10	4.497610586365429687e-09	8.225494903121261286e-08	-9.268223782858493996e-10	1.166316803915985903e-09	5.989266505389396339e-02	1.727734850049209292e-01	-1.210005532920698419e-09	-2.690906122850472818e-10	6.351233080932396401e-10	1.047890290271915398e-09	6.592860744462825838e-09	4.109337046620659681e-10	4.968954817978718677e-09	2.226205104645934767e-08	2.793361293728449627e-11	4.666097809137057021e-11	1.297326131232642415e-08	-1.244315848991023929e-09	-6.953837847540350929e-10	-4.127064575216393576e-10	-1.290054452536788692e-09	-7.582327088629129808e-12	2.935566357714486721e-02	1.484663424273903315e-09	5.834520205145501704e-09	5.092207099416641569e-02	-5.197404462565388666e-10	2.348380448275271606e-09	1.887787376651608312e-02	6.942317202050554692e-02	-1.286583259874742896e-09	-6.619559711882912666e-10	-8.200022906839194728e-10	5.790025510371087665e-10	2.281764777837952022e-08	3.752063687985290016e-09	9.995935041935664619e-09	1.681052323344861266e-01	5.479041391038339476e-10	4.086229987800089192e-09	2.767425397742037050e-07	1.114004653092415292e-08	-9.101764279996255818e-10	-3.715718613403049968e-10	-4.494795203828479474e-10	8.885110167812292642e-10	6.904706468557609623e-09	6.547052625716225561e-09	1.432767569665546907e-08	2.124095586766122090e-01	2.108242684182974703e-09	6.708097552445940058e-09	6.708699583421852408e-02	4.920719135221856370e-09	-4.797158277871608652e-10	-1.294456023313964033e-10	-1.197968540018235879e-09	-1.935291257671900654e-09	5.755598298030035181e-10	-1.877758234573359299e-09	-1.734126019543867526e-09	-1.638124106751931222e-09	-2.243409537662484192e-09	-1.854767331763976401e-09	-1.663346511193116024e-09	-1.220531490278416733e-09	-1.945433403804956599e-09	-1.903949748904171131e-09	4.174064760445300446e-10	8.142396488088906939e-10	6.996554730142196045e-09	1.886840132678312420e-09	4.883985481664159936e-09	1.577472638979721297e-08	6.431798910118884634e-10	4.042775036202767637e-09	4.267472037458617390e-02	8.794042117706050987e-02	1.393926179491875591e-08	2.112620139172360192e-09	-4.663433075738724650e-10	-5.316598032999418667e-10	-3.015201734758318856e-11	2.725568535670757364e-10	8.888655967842173878e-10	1.441150814424200964e-09	-4.614890841808182588e-10	-1.125610764311572808e-10	6.359446215264851847e-10	-3.839153240122200097e-10	-1.045919963348914816e-09	-1.063877078266701002e-09
-5.692845396752217211e-09	-7.316015085151432014e-09	8.429781298746186119e-10	-6.297294693822006096e-09	-6.930082251044713824e-09	-6.962256992392554510e-09	-6.299761496420478708e-09	-7.219950243471784881e-09	-7.156051148273982052e-09	-7.290602980853465176e-09	-6.904727140201300686e-09	-6.762646777287689802e-09	-1.385342397931477750e-09	-4.515605298043449465e-09	-5.004530543637729622e-09	-3.455241876136173031e-09	-3.570784833434589310e-09	-3.617043050802657905e-09	-3.665492778298111771e-09	-3.989068757895550382e-09	-4.190041467387563729e-09	-5.232630564171164083e-09	-4.255350244592192460e-09	-4.904409559973546896e-09	-5.160808918830077756e-09	3.993757456256308064e-10	1.637808993536159219e-02	-4.466609532770489075e-10	5.935471072877817587e-09	2.888558492019829777e-08	-3.293861282506194665e-09	1.218511729784001446e-09	5.737498349253701557e-02	1.752559376061599838e-01	-2.925014680101375303e-09	-1.927647323650249723e-09	-3.912638741297427017e-09	-6.047406141203301370e-09	-7.587204549985220168e-09	-5.794220547135640261e-09	3.232419273766751428e-10	1.123051977874921281e-08	-6.068273172268535418e-09	-5.899656886729437744e-09	6.264094706395731830e-09	-6.063382300751841533e-09	-4.962888178883533411e-09	-6.016798317126263821e-09	-4.494135647094838096e-09	-1.416793376732131780e-09	3.313360080594923013e-02	2.344424558984821606e-09	1.633974584162988043e-08	5.606586845015859577e-02	-2.032627650396353843e-09	5.435205058834214046e-09	1.266657241591768839e-02	6.759828312292208430e-02	-3.659388519482333559e-09	-3.093696940036016058e-09	-2.831536282127948077e-09	5.077666415216072353e-10	2.873099781849458021e-07	6.417317292286143629e-09	2.328652966074079645e-08	1.731880358266844888e-01	5.387979328703631742e-10	1.028370406338775321e-08	4.531849713469229766e-06	5.515244301065647062e-08	-2.729621597515052270e-09	-2.325949487728668558e-09	-1.852084655117829638e-09	1.965318657665197748e-09	4.903404235936142498e-08	1.272030568198227142e-08	3.762509915451642807e-08	2.100352100908616793e-01	3.338005754604196503e-09	1.399125189766875878e-08	6.970786488678901160e-02	1.450482269038010909e-08	-1.662700947780981455e-09	-1.642481039378104708e-09	-4.020802961603717055e-09	-5.794992158763013194e-09	1.066760041630388825e-09	-5.318503905019460366e-09	-4.926990984880358980e-09	-4.623195100687542195e-09	-5.895055263538030242e-09	-5.356094213784044622e-09	-4.805127198594308155e-09	-3.203849190621039516e-09	-5.690081536712263634e-09	-5.438732295809621928e-09	-3.156448049023921492e-09	-5.916707778524559563e-10	1.543774698600508449e-08	1.332425950422000531e-09	4.721686105917976069e-09	9.368155826269322250e-09	2.711117068353757468e-10	7.955609253651258523e-09	4.468968129369209341e-02	8.390099250224060390e-02	2.572788007876666443e-08	1.814597112424868208e-08	-3.997339611708936835e-09	-5.155026330370263538e-09	-5.251508869666665162e-09	-4.447532349544772079e-09	-4.418180653605528853e-09	-4.238819934618589366e-09	-4.608590383215068795e-09	-4.668710850277510785e-09	-4.564350248132977607e-09	-5.350469832948555913e-09	-4.824330691919552434e-09	-5.389213990158250440e-09
-1.535446623937321425e-08	-1.617415781744725789e-08	6.934030234223397556e-09	-1.390948816034489935e-08	-1.466715496916695320e-08	-1.422495693608442360e-08	-1.490041769200265924e-08	-1.337059863488532872e-08	-1.544630230757777534e-08	-1.444022696573825364e-08	-1.454327850016305487e-08	-1.467907675781670535e-08	-2.642919077138373474e-09	-1.064414007430102787e-08	-1.204141342053438600e-08	-9.971067238574736050e-09	-1.036699465441306671e-08	-1.016156297008665586e-08	-9.881870031394626355e-09	-1.074248448014294550e-08	-1.131730794613964180e-08	-1.246741491093395621e-08	-1.057477879219587620e-08	-1.184595751306118718e-08	-9.559123019215712613e-09	-1.977881540747237363e-09	2.049094501577243196e-02	-3.534688643954316717e-09	4.034070673690611674e-09	3.325168320570702063e-08	-6.990062653727954304e-09	2.795908080325582677e-09	5.997556928905584811e-02	1.713965392442358682e-01	-8.870566881926040491e-09	-5.704450997923518574e-09	-6.815690542729275390e-09	-8.523072287998833048e-09	-1.247500041225378179e-08	-8.233160572860665582e-09	4.398856083492585839e-09	4.437186047568638785e-08	-1.008741495739087732e-08	-8.609578016307268700e-09	2.754605097689559182e-08	-8.319635954048971320e-09	-9.756120899626351237e-09	-1.123366443915098656e-08	-1.010754196243205872e-08	-4.662292727827150384e-09	2.895595042602929631e-02	2.923434620901990010e-09	2.710263572581680247e-08	6.752468907970771150e-02	-2.670378216122105289e-09	1.837051756569321806e-08	1.524575006658476740e-03	6.964665283996289424e-02	-9.407464605912667494e-09	-8.618471561637662349e-09	-7.094780055314798591e-09	-1.721260544275426084e-10	1.022232734374541115e-06	9.698435551446435409e-09	3.235861715663021491e-08	1.663623540366755416e-01	2.271408179645580690e-09	2.697753271785893203e-08	8.466196594108136111e-05	1.613918966311225418e-07	-7.404625910858135033e-09	-6.778857940297198780e-09	-5.582652009736018553e-09	1.877379644647455162e-09	1.128442692350596211e-07	2.122001143310080127e-08	5.264276644748478145e-08	2.117259105869404301e-01	6.006118944331628234e-09	2.716627336444549856e-08	6.898496153249104867e-02	2.950719565776633371e-08	-6.415591698612432538e-09	-6.058441838341011470e-09	-1.113506114345502994e-08	-1.119431148288742733e-08	2.749279968892030357e-09	-1.144628097522060596e-08	-1.043820892910042503e-08	-9.707558644747838942e-09	-1.200355033983347638e-08	-1.118506771984275328e-08	-9.668571338073111315e-09	-6.195517648166491927e-09	-1.190110335431568996e-08	-1.206569212971906393e-08	-7.425075687621776120e-09	-1.458515470268226268e-09	2.644750732481495161e-08	5.608698859637046555e-10	6.245153534141776351e-09	1.977066271621409543e-08	-5.683684973975221444e-11	1.514767997364754599e-08	4.476843067363851097e-02	8.855772100720538109e-02	5.929163450858482460e-09	4.606644875624632236e-09	-7.884797956965914663e-09	-1.068111049048771112e-08	-1.017039023111315108e-08	-9.105739069044034629e-09	-8.215036275171184043e-09	-7.291660242128185438e-09	-9.685872543669960408e-09	-9.508843923091841177e-09	-8.705254915659388656e-09	-1.063527694054706636e-08	-1.062335452272019047e-08	-1.166490201272620095e-08
-1.634635734941733220e-10	-6.643311421309416781e-10	-1.607742534706157213e-10	-5.593205837867451495e-10	-6.109528424861705130e-10	-6.026457693117578732e-10	-6.021862230898502331e-10	-5.521732993925673455e-10	-6.452577769891052100e-10	-5.756136804965234295e-10	-6.158353886012700034e-10	-5.964731842358092230e-10	3.393027765296796579e-11	-3.312194418407489611e-10	-3.599834637705573817e-10	-2.145724099701722263e-10	-2.298442587436976875e-10	-2.257144688960760553e-10	-2.638587297335536840e-10	-2.882505154733600313e-10	-3.036185456136959603e-10	-3.928651548931006424e-10	-3.482323161287809723e-10	-3.912898449483365555e-10	-4.607988983696843589e-10	-1.035521584698453465e-10	3.321012565399343586e-02	1.048743225903768680e-10	7.674380980003791740e-10	3.071196254952021734e-09	-2.094712660541374416e-10	3.306897008344214209e-10	4.501484411752666032e-02	1.675253588031591079e-01	-3.376551798312821773e-10	-2.337221137044195328e-10	-2.480494316236752344e-10	-5.290535699504515879e-11	-1.499381488728681421e-10	1.199504927596824772e-10	5.805426898308216426e-10	4.223163603316779224e-09	-1.708054801033746523e-10	6.619527446036112770e-11	1.094073304317509061e-09	-2.771470888324846431e-10	-3.225728538887473711e-10	-3.207024557975091433e-10	-4.318841786078167413e-10	-9.782940891370151442e-11	1.905865067413016131e-02	4.123687464072869121e-10	1.682841196034279341e-09	7.609279284023651169e-02	-8.311397021794704899e-11	6.332217516589866647e-10	1.322144337369506560e-02	6.110388739288064724e-02	-3.428132870327211138e-10	-2.562700458690471485e-10	-2.941729944489995690e-10	1.291258691733501577e-10	1.228450229677342816e-07	8.205032001870753703e-10	2.314253840091616550e-09	1.650300460139955683e-01	1.475174926632123459e-10	1.003016642408601713e-09	1.034676018961995494e-07	8.826685612838030971e-09	-2.493756595002346101e-10	-1.619585164731728481e-10	-1.337521020698735121e-10	3.415327162374025416e-10	9.553138509701117039e-09	1.522078435955018831e-09	3.701363993259367805e-09	2.127385078577205824e-01	4.950287907950310828e-10	1.547506869511287714e-09	7.325904778231759340e-02	1.741511557142187389e-09	-1.636779299617385583e-10	-9.726087506563156306e-11	-5.217048177909227021e-10	-4.339673353495280320e-10	1.499350733596413481e-10	-4.540181721773260726e-10	-4.292084938739127881e-10	-4.049132521869175804e-10	-4.926338522433467747e-10	-4.678402246980852584e-10	-4.120104873621338148e-10	-2.208232510355749079e-10	-4.624452529641545511e-10	-4.503160665507305376e-10	-3.194562244724186604e-10	2.266611612702900027e-11	1.836121739631694482e-09	3.911982596894489016e-10	8.979116739996321386e-10	1.978778727592109077e-09	1.683941862080703029e-10	9.497264437455580305e-10	5.884723628493991610e-02	7.489780500383458328e-02	-3.075768647467703190e-10	-1.608520585648725457e-10	-3.004394469214222839e-10	-3.449758530750137376e-10	-2.466575027308710661e-10	-2.457662587411438185e-10	-1.705709453569573419e-10	-9.000771844603818050e-11	-3.262597852243470904e-10	-2.876213783861463067e-10	-1.992792655926171012e-10	-3.053290836619931494e-10	-3.955458477706946008e-10	-4.214106362732734625e-10
-1.593671130040723225e-08	-1.718081468863384913e-08	7.958769302404166944e-09	-1.421217477766487899e-08	-1.636147020479788353e-08	-1.659330321684789142e-08	-1.542187873411993644e-08	-1.588611976415162932e-08	-1.675117140029234279e-08	-1.672646528668120243e-08	-1.586566095825968450e-08	-1.533196787757334947e-08	-7.590299071972157744e-09	-1.138495016596405033e-08	-1.308129015144021457e-08	-1.063821232671450318e-08	-1.133306184375396118e-08	-1.138987742769740865e-08	-1.011315580810109193e-08	-1.127230470202552822e-08	-1.213836251837770723e-08	-1.342800617969091588e-08	-1.146206425425937148e-08	-1.264936515355276992e-08	-1.032842751221173904e-08	-2.435298503765195861e-09	2.494193778712677084e-02	1.408894866814515739e-09	2.627117097498487942e-08	2.518533887523319407e-07	-7.027604629609918329e-09	5.314665181043548153e-09	6.516519557567612697e-02	1.641887038759989870e-01	-9.889851818954372533e-09	-7.725375995084084252e-09	-8.799311393821043456e-09	-1.023355444737939779e-08	7.753291668070466192e-10	-1.180158185329433310e-08	1.450792531732737841e-09	3.827225767091389240e-08	-1.201690048488258184e-08	-1.259894144901144593e-08	1.726825107936503844e-08	-1.557385374935841876e-08	-1.245872153308919302e-08	-1.353076197965743581e-08	-1.007321342352432556e-08	-2.696411576665984646e-09	2.034637299692602930e-02	7.486081251934721115e-09	5.223511173451703109e-08	6.414131285521613990e-02	-3.543023367388110578e-09	1.438262515765300647e-08	1.652734984285332900e-02	6.692983110481451337e-02	-9.700876590589496068e-09	-8.687452652167917795e-09	-7.508699722091320548e-09	1.122791158619484082e-10	3.182861948355635233e-07	1.599117117721574582e-08	6.065716287753688387e-08	1.685503939620322245e-01	2.699222392529181039e-09	2.605405274509503305e-08	8.392882143660558493e-06	1.190883029511587449e-07	-7.814558173792524948e-09	-6.855498956052675168e-09	-5.583800011565362727e-09	1.897061477154493770e-09	7.095197720965011237e-08	3.153262925044205885e-08	1.011578438279332124e-07	2.057357092256634212e-01	9.900217490903048944e-09	3.707955969081684476e-08	7.402428647361510017e-02	3.218296497186770299e-08	-5.836920435723161116e-09	-5.277927527137515590e-09	-1.257481447525372618e-08	-8.654776681010512649e-09	-5.034680919737472176e-11	-1.188760319651840959e-08	-1.078438212428040311e-08	-9.585525575309106974e-09	-1.330847011125347468e-08	-1.210651160506605142e-08	-1.068883111368015588e-08	-7.173557585175600606e-09	-1.316249018233487949e-08	-1.231148472452864066e-08	-7.132742447244470999e-09	-9.545836534223691577e-10	3.165865393492863408e-08	6.291615294066951915e-09	2.391570221950953277e-08	4.997583436338799062e-08	2.680999364887905147e-09	2.382991033966579373e-08	2.472621951893472919e-02	1.047136487654627690e-01	1.534123513253634739e-08	1.192979176890754943e-08	-8.826906554708557936e-09	-1.134789161467177230e-08	-1.045067520917683380e-08	-9.455182370743867009e-09	-8.725101158815279034e-09	-7.703545923803612574e-09	-1.037695486300749012e-08	-1.006972138247740200e-08	-8.915920286651048250e-09	-1.091823107489353128e-08	-1.206886487217495646e-08	-1.277581308641895136e-08
-1.113178395980792169e-08	-1.570547632819910851e-08	-9.553487244220654716e-09	-8.145376874640282403e-09	-1.490419974753764442e-08	-1.393637702390372398e-08	-1.065316197203578283e-08	-1.501603333026826175e-08	-1.431152623652896807e-08	-1.013599379947912627e-08	-1.476558486357454225e-08	-1.233376053890828593e-08	-5.472074851519028687e-09	-7.577699695130844658e-09	-8.374803290147209244e-09	-4.448279020472984817e-09	-4.383603160222018227e-09	-4.852752707008926582e-09	-4.972859781277325252e-09	-5.568391705477569093e-09	-5.893056175537036608e-09	-9.112533468952975579e-09	-6.097740493633781671e-09	-8.602075485010765118e-09	-9.004073683396636616e-09	1.569533976288199473e-09	1.365630276813905621e-02	5.995386004053016960e-09	2.979790215819763875e-08	9.636643909927013898e-08	-3.642453752290056067e-09	1.125909031925477853e-08	6.131061309611827298e-02	1.796136692845421157e-01	-2.684852067894056690e-09	-5.984824585925786406e-09	-7.147333503060980872e-09	-1.509240313792652377e-08	-6.608076282268619104e-09	-1.447289865638609398e-08	1.016076948805295731e-09	2.447586717702013274e-08	-1.421719870092599527e-08	-1.759165314932565663e-08	1.068197217048150103e-08	-1.398613686183532676e-08	-9.929333181825774325e-09	-1.368797158647051885e-08	-8.814204594898589641e-09	-1.468286011601147456e-11	3.109512435917533013e-02	1.508177996168682210e-08	6.957269350200260783e-08	5.006356478384021980e-02	1.093280539697362013e-09	2.570788835715144719e-08	9.492708821292948184e-05	8.068892842352129446e-02	-5.364498069662081540e-09	-5.178944153357880124e-09	-5.420212189321240276e-09	5.574879609476498695e-09	5.424702421072465909e-07	2.692485863618140193e-08	9.174975925415739441e-08	1.776570275855287318e-01	7.507871952211240563e-09	3.650172244448488899e-08	5.701044989479573710e-06	4.275426509248267360e-07	-1.228534541031398949e-09	-1.497131654574700755e-09	-8.674617831333715234e-10	1.099051826250052389e-08	2.059564529156802228e-07	4.744290958363361056e-08	1.454701932996347588e-07	1.971862147621780137e-01	1.735604857172571164e-08	5.051505970376985930e-08	8.364564506556618206e-02	6.734708827480197502e-08	5.995047046881979060e-10	4.534169007226354428e-10	-1.054718119756053843e-08	-8.473172898844956122e-09	-2.844236006821157213e-10	-1.088028628267296409e-08	-9.710466123428162320e-09	-9.233269495329224324e-09	-1.161545069961266095e-08	-1.055653556745907935e-08	-9.645115644859271991e-09	-9.705341507500876660e-09	-1.069978821520211572e-08	-9.950735227870094666e-09	-3.980330642305735768e-09	5.222376024707344210e-09	4.557603663008373735e-08	1.039406076664266942e-08	2.559702210499013209e-08	3.307659867072062050e-08	7.038583735752761756e-09	2.913014435367340882e-08	5.537259471104501174e-02	6.960798404498838576e-02	1.005852199248928881e-07	8.898479869054060018e-08	-7.937365845278732839e-09	-1.082101533485001057e-08	-1.040856605154839003e-08	-8.726655430073549430e-09	-9.212099404647623748e-09	-9.192561739334136402e-09	-9.282875966781212078e-09	-9.334846090685487503e-09	-8.858312825728643404e-09	-1.138250370884833351e-08	-9.460362717872823486e-09	-1.136100048711594574e-08
-6.890931820110180815e-10	-1.012870623194080500e-09	-4.041844129813846381e-10	-5.832632063505721329e-10	-9.509007349615364746e-10	-9.688794964183969875e-10	-8.622349532282810541e-10	-6.658941965525056542e-10	-9.789850949231444937e-10	-9.387289795377327300e-10	-8.721382644537991733e-10	-8.704382251482418269e-10	7.522975266520548537e-11	-3.596506624838557072e-10	-4.129916899401247575e-10	-9.620484438486381574e-11	-1.214197867585904327e-10	-1.267910971572205799e-10	-1.757070261444969328e-10	-2.216402918342179710e-10	-2.520328368023806683e-10	-4.438690621461749918e-10	-3.447399639165676120e-10	-4.355711043656611275e-10	-6.144050996108998651e-10	1.935861851254127966e-10	2.152897569560331334e-02	6.079430646887962245e-10	2.118950106101864506e-09	5.704938546712559151e-09	-8.761310332655431988e-11	9.947610035276447887e-10	6.306574547138489584e-02	1.677161184529813720e-01	-4.382792803612319534e-10	-1.556735145488450282e-10	-2.446460806347259168e-10	3.687212293644181923e-10	1.019168029562594150e-09	1.051437013915513774e-09	2.028219981423804240e-09	1.235850308127147002e-08	-8.538525949768753475e-11	8.780781905751164840e-10	4.016891847035847846e-09	7.996087245139002814e-10	-4.776105214638333110e-10	-4.422039927644130226e-10	-5.127780343281263686e-10	1.562471169348002669e-10	2.740780641339527618e-02	1.208855055054636826e-09	4.002689890718482551e-09	7.961797014555248297e-02	1.567035366895844021e-10	1.648298229694282482e-09	9.781162909704965366e-03	5.206702726651150220e-02	-3.996083047235396707e-10	-2.316541802886592332e-10	-2.845841297343423196e-10	4.730901431787226109e-10	1.780654498719896556e-08	2.127578302499447490e-09	5.663074242204147476e-09	1.575175221594848352e-01	6.914879542228656210e-10	2.642594911714825879e-09	9.082408743083315131e-07	1.049264996148360631e-08	-2.020451136922876746e-10	-3.219418195023378794e-11	1.359627866024525624e-11	9.352864516087379635e-10	9.107146451697203840e-09	3.697352614864322964e-09	9.048686717317691062e-09	2.243472570446597425e-01	1.421068671600439808e-09	3.734406081681945674e-09	6.008013659703857062e-02	3.667709259479437824e-09	-8.329300821825592347e-12	1.163504097894396968e-10	-5.928869044788865256e-10	-4.374977798812245407e-10	-5.528580300316991164e-10	-5.973941305061985888e-10	-5.267986536075827687e-10	-5.131575342451940661e-10	-7.150573327591860512e-10	-6.172372480868894236e-10	-4.013969410657939359e-10	2.949941104966792173e-11	-7.490783700888868017e-10	-4.350265392942883679e-10	-3.008667703073670294e-10	4.130796055472122173e-10	3.366901540709301854e-09	1.121464850910182674e-09	2.315124916338464092e-09	4.261106916656765830e-09	6.550827121751064225e-10	2.271548272328661102e-09	3.188956225972026937e-02	1.049797109494279845e-01	-6.197453701416148799e-10	-9.595551141877816085e-11	-3.741498371392051636e-10	-4.768527856517493162e-10	-3.927643929359038864e-10	-3.432333808265398833e-10	-2.639440466744116153e-10	-1.659257635139066150e-10	-4.599201162070167752e-10	-4.048424135289174670e-10	-2.971809226384881042e-10	-5.054838547061726296e-10	-5.850458399114224379e-10	-6.380618138246789061e-10
-3.515921932639714703e-10	-4.719731348461514177e-10	7.419280325736635247e-11	-4.255119958310074674e-10	-4.054928170978985618e-10	-4.269681970571880490e-10	-3.722030494049260680e-10	-4.589787818134851789e-10	-4.495150480222935515e-10	-4.325568690054263814e-10	-4.281855342591840852e-10	-4.115876607713230093e-10	-8.288282162860653187e-11	-2.436117120290829002e-10	-2.703540675409413831e-10	-1.637172973322756747e-10	-1.766917519872556697e-10	-1.746388487071506679e-10	-1.906354484646473667e-10	-2.091090246076353178e-10	-2.222561671780898218e-10	-2.915206978107042349e-10	-2.628983032055842132e-10	-2.926296658892700388e-10	-3.013819222376713321e-10	-4.000833643398220998e-11	3.004845553739156697e-02	8.963241153560753176e-11	6.219523419266004156e-10	2.628396932294051752e-09	-1.414486710207286828e-10	2.385465179097923733e-10	6.049884700654188652e-02	1.686495744281816811e-01	-2.567049128542631728e-10	-2.181684540100145017e-10	-1.414621735898850122e-10	-6.443873643138449267e-11	1.168665060913834166e-10	-1.328357454149454798e-11	4.241227116663194702e-10	1.958795394378309413e-09	-1.590289355215720191e-10	-7.645494070555136799e-11	5.929441946601993691e-10	-2.877315936614216633e-10	-2.684522817388419683e-10	-2.793624065290952849e-10	-2.837057688980490352e-10	-6.245732897245457483e-11	2.318282923646367358e-02	3.078198638437958356e-10	1.384477615914840856e-09	6.551825935340972740e-02	-4.067375843578531806e-11	5.680440728303780361e-10	8.728096868207623274e-03	6.455481561095315068e-02	-2.660539331126142204e-10	-2.112500232241978840e-10	-1.996566848420540281e-10	5.879552243833503284e-11	1.665866497264492826e-08	6.127200905478620036e-10	1.848794562637433980e-09	1.639034019971343514e-01	1.430934711016525752e-10	9.114758291695344198e-10	4.595307903349963358e-07	6.283064992228743978e-09	-1.900999636449710309e-10	-1.358709478654184862e-10	-8.307404283389782081e-11	2.160305431075274690e-10	5.091772775770018442e-09	1.112016225147849113e-09	2.895827468417315648e-09	2.152959248980061691e-01	3.699468438500668060e-10	1.207392176875582382e-09	6.464959412601234412e-02	1.370525866968641992e-09	-1.284079759603855906e-10	-8.100753964252481381e-11	-3.358339174533730129e-10	-3.213855701245522326e-10	1.342092742351493814e-10	-3.136354937261049496e-10	-2.890623835807237199e-10	-2.736584006786033830e-10	-3.624893069308047915e-10	-3.172254774967900380e-10	-2.847591667193302233e-10	-2.074199495040826592e-10	-3.565635008279455336e-10	-3.051714259636439908e-10	-2.168836825550393778e-10	4.159407675922743213e-12	7.943715319023585648e-10	2.522711016942704538e-10	5.662250110040676233e-10	1.058025079155815365e-09	1.294476477128844871e-10	7.635330144381375053e-10	4.953784049621536706e-02	8.543186629057045178e-02	1.039861144606700794e-10	1.273874597194986531e-10	-1.966858387534892724e-10	-2.380690242576614265e-10	-1.766012695506493955e-10	-1.628651351280986291e-10	-1.202623966365960995e-10	-7.328038062686758678e-11	-2.279553227724559019e-10	-1.980879179843790411e-10	-1.451013578256035377e-10	-2.171709859555976930e-10	-3.008720783582149471e-10	-3.126705273665801506e-10
-2.165463661972711459e-09	-3.433876741726106829e-09	-5.105849734086097008e-10	-3.138357973735467576e-09	-2.880310557018377403e-09	-2.592721924986895712e-09	-3.305363157013793888e-09	-2.943450847897834279e-09	-3.342696366851774377e-09	-2.575535506156447005e-09	-3.333395341164408924e-09	-3.396050937216475327e-09	-8.156702849626686821e-10	-2.438473034154937121e-09	-2.837945166188820643e-09	-1.883247359530310213e-09	-1.936227265937992374e-09	-2.009735461815236863e-09	-1.850399246933864300e-09	-2.099239185360556314e-09	-2.282825271327490349e-09	-2.702742347132160308e-09	-2.134370046060222658e-09	-2.310386169961519992e-09	-2.285325333410276331e-09	-3.269053923020250848e-10	1.976912202789750037e-02	-1.132847469260921512e-11	3.087794099697362954e-09	2.536614205187988714e-08	-1.479811037786166236e-09	7.177341798108390664e-10	5.447898509797719641e-02	1.780933537971110536e-01	-2.128844440847352436e-09	-1.369353957463777690e-09	-2.035664228540937362e-09	-3.252272418633395477e-09	2.678023724795489696e-09	-3.130372494403753600e-09	1.848186483992308065e-09	5.741967643526199821e-09	-3.853748535562364987e-09	-3.256773481596609033e-09	3.636195108277863988e-09	-1.869427302963916961e-09	-2.924781340607919929e-09	-3.294107237647670826e-09	-2.193026624282361245e-09	-8.242919221833323970e-10	2.972421326453542068e-02	1.102847093251951013e-09	6.134503216149636515e-09	5.936721756676967277e-02	-9.327096499987925955e-10	2.118404543133526429e-09	1.928508587423086867e-02	5.172574688185241354e-02	-2.164501905352640566e-09	-1.573302490891062182e-09	-1.531376687033012619e-09	-1.574427317415791105e-10	2.435738074929377546e-08	3.159491759862608813e-09	9.654239575122869220e-09	1.755816770454559084e-01	2.388135293417343563e-10	4.465741310987487565e-09	1.397009501477238668e-06	2.016664502031551004e-08	-1.709364027524347835e-09	-1.132498766883171735e-09	-8.734036431275935589e-10	2.806890663355143884e-10	1.366941168730045857e-08	6.343661530690403386e-09	1.551146566025909706e-08	2.037279872090020927e-01	1.900454246010621331e-09	6.678689473031802790e-09	9.024983598864287637e-02	5.513324558700189260e-09	-1.336167727598225431e-09	-9.178986475898033052e-10	-2.861321023335717277e-09	-2.361177421367567773e-09	1.592572079003055222e-09	-2.528316668689922580e-09	-2.543400235317043065e-09	-2.479647778658660720e-09	-2.678763810661112293e-09	-2.529089406427026905e-09	-2.435408077308652172e-09	-1.942053940237062626e-09	-2.743419378963652452e-09	-2.406089445730571935e-09	-1.237350353579116605e-09	-6.323990945834754865e-11	8.090640188541846750e-09	1.141198781737508275e-09	4.122629599054452465e-09	1.060554377187806706e-08	2.420765702189182378e-10	4.038713892440506818e-09	1.892763669747673030e-02	9.906769661859485265e-02	1.404535094266416320e-08	2.762752351115963140e-09	-2.064677219213446747e-09	-2.773420066108277578e-09	-2.971891119465193186e-09	-2.519233156873689703e-09	-2.659579816833231727e-09	-2.638570352409536620e-09	-2.541524388124017279e-09	-2.599682504228542982e-09	-2.633247053679464874e-09	-2.929368207103504534e-09	-2.687609935703656705e-09	-2.780482405486044462e-09
