-1.144801865670209419e-10	-1.516955744192582976e-10	-1.421557011995501592e-10	-9.682736242219765597e-11	-1.276754823496317528e-10	-1.344216029120920404e-10	-1.103994655667505736e-10	-1.249031463803971476e-10	-1.304250694410728384e-10	-8.453536350055202853e-11	-1.158631206065811260e-10	-1.211648660735710490e-10	7.048921657714277710e-10	4.360171791438781063e-10	4.165598126234572224e-10	6.665803654597811680e-10	6.240847939786687632e-10	6.040011303074563657e-10	6.099611705544292533e-10	5.669387339636082037e-10	5.325281427405730402e-10	3.888100317159221298e-10	5.277047660408925224e-10	4.518834633312229018e-10	2.377140123085281983e-10	7.477721418446405938e-10	2.671811451101803458e-02	1.815447636679697232e-09	3.575864484197217615e-09	1.183064409950055420e-08	8.305899777542989736e-10	1.966356490034914569e-09	4.648636938018062964e-02	2.380037820781292224e-01	4.410519287301808318e-10	7.039273987216065975e-10	7.055083347570537489e-10	1.456245999921796668e-09	4.026908226127204353e-09	2.657406982096751910e-09	2.486178826399171279e-09	5.915213277201002806e-09	1.607891549073673721e-09	2.478923033425965801e-09	6.790087017158144937e-09	1.725895879941011120e-09	8.662868930488311060e-10	1.202278433379698005e-09	3.181213183682878284e-10	8.135397849265906558e-10	1.165207897563200291e-06	1.869045545853164195e-09	3.406241487265926368e-09	1.105130349125679187e-08	8.466127680080945629e-10	1.694710371544630368e-09	1.194438431960219796e-08	1.904770505728808211e-02	4.687785693520042315e-10	7.030496822620333200e-10	5.338006678236044118e-10	1.228650509531835304e-09	5.186427203607437558e-02	3.596496480901278390e-09	7.979594693711884649e-09	2.553945833326307646e-01	1.487983892941753929e-09	3.280182315251276183e-09	8.457058679554950442e-02	1.316761110163819359e-02	7.695164971297251163e-10	1.134958542765212352e-09	8.362142480559868635e-10	1.619976602250895940e-09	1.362742030621918408e-08	5.155299674607297320e-09	1.067300819368460008e-08	1.575388225810782361e-01	2.267860780970857567e-09	4.772990809529044890e-09	6.198733726983960551e-02	6.458700048909472021e-09	9.415640330776683291e-10	1.194914353914263847e-09	1.123654830922626710e-10	1.276060812114745579e-10	3.393307734579975554e-10	2.518032034642502266e-10	2.669944596181883602e-10	3.001322344261920528e-10	1.710367961709729045e-10	2.110679697163284439e-10	2.647667816042317370e-10	2.789375107084916643e-10	1.508787589678408086e-10	1.684176290048309090e-10	5.050935983017754239e-10	1.046866745729332592e-09	4.242650508321577355e-09	1.999814380501398025e-09	2.858769892457567010e-09	4.173064217359560739e-09	1.241001429298389454e-09	2.312522751664242973e-09	8.825278324618179461e-09	4.521945211194562664e-02	1.264935085637992725e-09	2.310612863729075028e-09	4.348589712136001017e-10	3.379937675063260909e-10	4.469520558886312873e-10	5.397075560111331283e-10	5.391143231746302942e-10	5.802244546348405826e-10	4.204760455869107942e-10	4.650539177191757097e-10	5.206717790941058015e-10	3.711071145286440466e-10	3.280099010687697809e-10	3.100855562424005794e-10
2.141829123669759537e-09	1.348787328212829292e-09	1.395426760027310040e-09	1.679764109679896514e-09	1.539961604672905633e-09	1.470565049692039307e-09	1.717532005969152207e-09	1.473345806160857942e-09	1.362434782895446072e-09	1.320343997850594593e-09	1.762038119908233356e-09	1.606937351732442958e-09	9.692022237640278548e-09	7.438177863091242225e-09	7.104094608999537955e-09	9.466177972620287668e-09	9.030647977244342638e-09	8.681756361674412425e-09	9.075385809460869087e-09	8.548470281461602869e-09	8.118780156336390441e-09	6.695911148551099525e-09	8.094755716318876117e-09	7.303669851572085108e-09	4.878361132710969856e-09	9.872064740112598254e-09	3.295173550088791037e-02	2.399607228607349472e-08	5.277919252012454576e-08	2.380311505145183688e-07	1.124840261538836535e-08	2.310817521205800746e-08	4.675879028242820035e-02	2.453510951388159500e-01	7.070288848561561080e-09	9.452379327116405887e-09	8.940589715338382331e-09	1.248739877812896342e-08	8.882810450281920519e-08	3.451241848100308354e-08	7.116476559344701600e-08	9.797155986744665349e-08	1.281752384469512260e-08	3.206576383865451883e-08	8.273664441666340863e-08	7.237610036734976306e-08	9.532771939080737137e-09	1.031837701542028399e-08	5.413639526018759143e-09	9.691269134090760328e-09	4.665929597187373117e-08	2.290385559249698690e-08	4.475950364291844380e-08	1.219679863078992816e-07	1.183063137945811942e-08	2.186054674285603474e-08	1.550488998524915768e-07	2.548458013357464760e-02	7.335454118942470769e-09	9.257646917388291891e-09	7.676030336281599268e-09	1.554426461166588541e-08	4.109664705092021947e-02	4.219019629502721248e-08	1.072819440916233316e-07	2.530291586767222101e-01	1.875008898370035083e-08	4.001303594370636958e-08	8.672223924035057929e-02	8.091051111251280903e-03	1.119907558416093471e-08	1.538419161950950359e-08	1.132178543895164204e-08	2.239103716750640041e-08	3.042256767777963714e-07	5.874630354958888667e-08	1.541249124765021271e-07	1.385059823453052008e-01	2.655700800932376818e-08	5.594231941239458497e-08	7.498262530888705202e-02	1.239555101554798038e-07	1.345074163914827579e-08	1.683230017084224192e-08	3.614654305242263179e-09	3.571345536427597664e-09	4.245993581597604600e-09	4.820104034318921627e-09	4.878788806373591945e-09	4.862518227334023408e-09	4.185834104026369743e-09	4.373329601456433975e-09	4.573646464070890563e-09	4.338744679828289727e-09	3.941326196497379905e-09	3.888349756859231905e-09	7.705543959496742186e-09	1.334194186941655126e-08	7.857860816526576219e-08	2.526581858754768375e-08	4.000106660400827244e-08	5.848239282826576736e-08	1.645545641292262979e-08	3.101188147512376761e-08	1.819772713285253211e-07	4.702295206777949016e-02	1.120608897508541406e-08	1.201183543900612110e-08	6.712971473440511310e-09	6.047145134086147909e-09	6.121900515533488113e-09	7.847074946416480499e-09	7.637124977434470839e-09	7.228569729891878629e-09	7.298232934513292180e-09	7.221670688186851856e-09	6.898850233607811940e-09	6.072081072690402869e-09	6.231258875653506495e-09	5.921582971229959599e-09
-1.446764825558894986e-10	-2.201240196903314497e-10	-1.555596602491676234e-10	-1.425563321741043798e-10	-1.977914012150634927e-10	-1.993537530418380233e-10	-1.639965597376517916e-10	-1.996936807049029380e-10	-1.786677598963047560e-10	-2.226954892132992138e-10	-1.363230580637575260e-10	-1.231121806228955069e-10	7.873984857167803454e-11	-4.235315035721130780e-11	-5.785565662657542076e-11	1.613510218843830456e-11	8.314287480663479940e-13	-5.805648647349891874e-12	1.107778648948932837e-11	-9.220347449395503969e-12	-2.299337274206000939e-11	-6.229906162935574351e-11	-1.111511867869257469e-11	-4.034177559623659041e-11	-6.980238412167423598e-11	1.049286562851099699e-10	2.279823589654778743e-02	4.012710860954831845e-10	8.821172424297554293e-10	2.991780554471212668e-09	1.119821584561701157e-10	4.647408182573130212e-10	4.247769505920666322e-02	2.513902296275644654e-01	-1.988563253261828841e-11	5.275739735518048903e-11	-4.597927151797943814e-11	-2.060541606234818284e-10	2.278027290044692946e-09	1.023181747277871599e-11	6.268819418752419907e-10	1.629070121082832317e-09	-2.396135300276648706e-10	-4.296935399134834021e-11	1.423843522435750031e-09	8.135386281818612142e-10	-1.307710636969909444e-10	-1.930492972959197246e-10	-4.623985059596972833e-11	8.899403348372116290e-11	1.596267697527440621e-10	3.690637567917714273e-10	6.903289012958280545e-10	1.521249167298432378e-09	1.080292045808940670e-10	3.364021678781068272e-10	1.763834804497583213e-09	2.227039156710822546e-02	3.501526834651922757e-12	7.370551032679062835e-11	3.366230897172034114e-11	2.592186184095321336e-10	5.586252503511196510e-02	9.884436416281977433e-10	2.242161630158264945e-09	2.536168673802161044e-01	3.368698444325137004e-10	8.945511668489025211e-10	8.998514835450417693e-02	4.669750158863534596e-03	9.844458303186030954e-11	2.132353772287779614e-10	1.389086923080550973e-10	3.885393558392160445e-10	7.679576317716265390e-09	1.375090458626127486e-09	2.852113148711363198e-09	1.430333328780133140e-01	5.686964678494322564e-10	1.286671831354573547e-09	7.006994669663599296e-02	2.643469169483727625e-09	1.646475058904777354e-10	2.481234407385508857e-10	-1.067623807339487033e-10	-1.057799557741010679e-10	6.149189731129944771e-11	-6.595464755450468837e-11	-6.045326576743850063e-11	-3.997917419692387886e-11	-9.567087723309214232e-11	-8.002391749351361308e-11	-5.541203412865267739e-11	-3.139210841588832678e-11	-1.067047732275331136e-10	-1.008647466153137833e-10	2.110277858898695759e-11	1.535527483464165573e-10	8.318786036229966898e-10	3.718660208956291176e-10	5.870880648856633214e-10	8.789063678240389243e-10	2.200821441258658451e-10	4.621039763136362893e-10	3.252485719318470554e-10	4.382583976469701936e-02	-9.119449091265779078e-11	-4.140890650226657293e-11	-1.057226946484270005e-10	-1.303216423425017065e-10	-1.711409031562613204e-10	-9.971411465752312301e-11	-1.107144097743841722e-10	-1.291412121747503648e-10	-9.546167411463606211e-11	-1.133436990234786582e-10	-1.318227638374199087e-10	-1.392551782788858701e-10	-9.826103229281974585e-11	-1.195058270579039977e-10
-1.047747624463302444e-08	-1.237557050997988596e-08	-1.237043094512733559e-08	-1.127469302340424142e-08	-8.699155845495106447e-09	-1.050902435613511621e-08	-9.052916639582731351e-09	-1.177276828226591060e-08	-1.027726030541218673e-08	-6.838828598422593060e-09	-1.234584487899040028e-08	-3.871810151222519735e-09	-1.534354879419798980e-09	-6.464069700285618745e-09	-7.090171937984426051e-09	-4.256415031784028877e-09	-4.870767747003504141e-09	-4.998675607008802032e-09	-4.536940614986252464e-09	-5.271024592354456535e-09	-5.781335506385994829e-09	-7.182828721878919446e-09	-5.192790310028799689e-09	-6.276328811666671173e-09	-6.457430331888511783e-09	-7.030381332155438914e-10	2.487302882273366780e-02	7.802463887004898239e-09	2.328961548181223091e-08	1.119981804443969203e-07	-1.379717071419429156e-09	1.091477338988487749e-08	4.546053717054921589e-02	2.489357045111455780e-01	-5.252822845116490005e-09	-2.875346592631717626e-09	-6.979005778784839103e-09	-1.218223926198894122e-08	3.565896205324548667e-08	-7.169924261242486019e-09	6.207560903947077471e-09	3.127542092888477374e-08	-1.406485390094099930e-08	-8.039854296121228749e-09	2.569885706418909454e-08	9.687147246877989527e-09	-9.672913422277153968e-09	-1.015408052578854871e-08	-6.007290363977072179e-09	-1.359895386219318657e-09	5.938028101556657786e-09	7.954706779758627305e-09	2.075869856531128171e-08	6.347370201188762511e-08	-1.237502612848027477e-09	7.311230779854454626e-09	7.071756272056036450e-08	1.845115852754161678e-02	-4.630620237455479231e-09	-2.061791728172574625e-09	-2.742741434265867553e-09	4.273634360968696161e-09	5.335772183531058838e-02	2.620536939157985792e-08	6.194927751847951449e-08	2.526152288784436761e-01	6.097734874928479997e-09	2.457324772605399458e-08	8.214444972990557481e-02	1.039139583355527807e-02	-1.642528273873097918e-09	2.093872678396875866e-09	-9.104191255447786189e-11	7.135951744807298940e-09	2.326045367536805677e-07	3.549436454301899562e-08	7.884727592418366893e-08	1.504269853223693110e-01	1.316276005380311565e-08	3.515079793048488286e-08	6.775416141245672874e-02	8.460669433073898250e-08	1.739356575261724209e-10	2.762489036762328130e-09	-7.572650609533369562e-09	-7.416578418192573591e-09	-7.764358009736935972e-10	-6.411346121406121300e-09	-6.221542729733054305e-09	-4.986244824995216235e-09	-7.928966295633638038e-09	-6.985397035571517714e-09	-5.690276329566395964e-09	-4.379205455198617580e-09	-7.974708317337407787e-09	-7.666101302819132266e-09	-2.988831236703280819e-09	3.747769079377290381e-10	2.736086681674961978e-08	7.160501655295126737e-09	1.370316631628965830e-08	2.622295695005304342e-08	2.131350044582619739e-09	9.811745371016873815e-09	3.004668976031962460e-08	4.558892798760350029e-02	-1.500217392138017835e-09	2.718616620079300673e-09	-5.711474912324728742e-09	-9.431348506330274721e-09	-1.050987164403341134e-08	-8.561614896144060020e-09	-8.982802990174558603e-09	-9.272934314233609759e-09	-8.378731825242214447e-09	-9.009554794730637457e-09	-9.565339621717487037e-09	-9.978088748337432561e-09	-8.376048886081823343e-09	-9.078703881639331359e-09
-1.222713353078856612e-08	-1.274571280101812687e-08	-1.193269316853385910e-08	-8.603952948514055601e-09	-1.233933718630439091e-08	-1.147351041200235940e-08	-1.222617942232377405e-08	-9.844449201238368383e-09	-1.190368141495066548e-08	-7.840314777672286027e-10	-1.234145925947345912e-08	-8.018057933626577355e-09	-3.455601870713062564e-09	-7.494599791275698046e-09	-8.079213046941565860e-09	-5.845295321371695314e-09	-6.248566514419954431e-09	-6.291488339674459971e-09	-6.112734219425732367e-09	-6.740627090934562077e-09	-7.103797496228024399e-09	-8.307485017590340123e-09	-6.681704606757564346e-09	-7.553470915142417357e-09	-7.605137274477726043e-09	-2.880305601675178670e-09	3.675062547980630090e-02	2.452080624577437542e-09	1.327087375633370091e-08	7.055541024888730781e-08	-3.508053854021997486e-09	6.370160826157994653e-09	4.082186315426438589e-02	2.343379832843704713e-01	-6.727483820001889770e-09	-4.383026222515990628e-09	-7.241665264861730325e-09	-1.276197042737737959e-08	6.643816235027595776e-09	-1.229190116283849417e-08	-4.951210087575494018e-09	1.583207404613326518e-08	-1.420261941718516126e-08	-1.286977754705295383e-08	1.237399082396460608e-08	-5.398685517008800336e-09	-1.013795224696658148e-08	-1.080504076105488546e-08	-6.685681694042104810e-09	-3.236988178271195999e-09	2.331248796846328646e-08	3.428834482103891845e-09	1.374516020468906664e-08	5.052363228517421348e-08	-3.298228797545455811e-09	3.836515396854812072e-09	6.942194478598992298e-08	2.230930438262906240e-02	-5.902651478189433221e-09	-3.741078990338144732e-09	-3.746847669250687175e-09	1.609427363235495583e-09	4.122841970540300216e-02	1.677932926225859910e-08	4.238917501526297400e-08	2.513599917508149706e-01	2.202216284070899740e-09	1.613490675137711455e-08	9.754314680305622987e-02	2.157137097917287150e-05	-3.723443027001083335e-09	-6.103596581088887076e-10	-2.078487316195412116e-09	3.904869380485844645e-09	3.746787437247694691e-07	2.222760950467031320e-08	5.207256480913205351e-08	1.609121312057928410e-01	7.568410694240325412e-09	2.389857887143601835e-08	6.395544346447303019e-02	6.731717292706396368e-08	-2.457023341029074565e-09	-4.095278857917317556e-10	-7.761367922170785269e-09	-7.750397303138961003e-09	-7.231717061338543313e-09	-7.502419916397775138e-09	-7.042022533056876918e-09	-5.620780714023979488e-09	-8.751899017073987672e-09	-8.006492643139037826e-09	-6.531325272313547088e-09	-3.733675080785596462e-09	-8.848021531846319040e-09	-7.275308587067609057e-09	-4.764211265555864319e-09	-2.002706487052632519e-09	2.417946269236415142e-08	3.166125916988373660e-09	9.484280728899377045e-09	2.335437963403164022e-08	-2.764177108832500648e-10	5.842166067642393773e-09	1.070473099728438013e-08	5.075908103183258274e-02	-4.392166699283564732e-09	-7.684852768161345337e-10	-4.852643517702653780e-09	-9.487757039721248373e-09	-1.002212344932043058e-08	-8.687069658793818469e-09	-9.026492887573551050e-09	-8.914652386058485331e-09	-8.758829617737928203e-09	-9.090957479173732749e-09	-9.284278312230444375e-09	-1.001956127940149595e-08	-8.977269031202380619e-09	-9.523574901288494210e-09
-3.932330113341416019e-09	-5.653356047541073683e-09	-1.287796716755799403e-09	-5.114396449044177235e-09	-5.120993557901460417e-09	-4.857334495853415558e-09	-2.992697293492615805e-09	-5.586880183990003313e-09	-5.414175821173870209e-09	-3.718950186084278440e-09	-5.314717520108405888e-09	-4.250306589604779190e-09	-8.514109236215478095e-10	-2.981691201117979926e-09	-3.244116988872621681e-09	-2.104715135692558712e-09	-2.349499875184703397e-09	-2.397816407033740902e-09	-2.224217393403277624e-09	-2.509213258691810457e-09	-2.701281320171569346e-09	-3.296146445994581931e-09	-2.554217301960849285e-09	-2.915814377622439889e-09	-3.089882608013872274e-09	-7.861674563523758029e-10	3.770061880976617597e-02	2.506346267817394892e-09	8.681601377754580416e-09	4.605416509942052492e-08	-1.040251318803489125e-09	3.743745467004199877e-09	4.521766178750152160e-02	2.392035674104001364e-01	-2.604741342121831198e-09	-1.108618234184097726e-09	-3.170061935068208225e-09	-5.604073205444955519e-09	9.236184277132509220e-09	-4.013517978046452623e-09	1.542973060209834712e-09	1.214742217094670383e-08	-6.090213642861167989e-09	-4.851087284540025384e-09	8.205721399758964225e-09	2.412819136741728787e-09	-4.542869362278701530e-09	-4.666300938719078929e-09	-2.650028327953625065e-09	-5.648872174473060747e-10	4.433551177005724699e-08	3.420543831182418868e-09	1.031472774643935320e-08	4.089645186409786120e-08	-6.803606312920865467e-10	3.278091742642689541e-09	4.816001598810430330e-08	1.765630900594635996e-02	-2.318980479046123708e-09	-1.023234181099649564e-09	-1.445298434375464080e-09	1.496901610596391852e-09	2.882014892958483301e-02	9.702254849234337603e-09	2.357072377604338476e-08	2.515375056157905242e-01	2.001439150035586350e-09	9.150039804432116762e-09	9.184872945432255575e-02	2.593712447502106999e-02	-1.388843199907326738e-09	1.953382601901501318e-10	-6.371711989613006742e-10	2.029689497475708325e-09	6.281129075703220149e-08	1.306340687673926750e-08	2.982311262548419185e-08	1.442746873785207273e-01	4.754167406521645321e-09	1.307299138043207769e-08	6.844700313989728058e-02	2.705208286501200173e-08	-7.180379525648871106e-10	3.452731738906558452e-10	-3.541054149671867344e-09	-3.491518024083205273e-09	3.665762757271299548e-10	-2.984620531110656299e-09	-2.880816859603766897e-09	-2.423293869047763210e-09	-3.637163922247140327e-09	-3.278749035694639826e-09	-2.718476685287153188e-09	-2.544923792907010525e-09	-3.652682203648904740e-09	-3.487969322647287090e-09	-1.491974923720949320e-09	-1.882687064813932953e-10	1.247168162995482075e-08	2.531420712428297866e-09	5.534556842971836550e-09	1.111446071008386511e-08	4.438958023271780370e-10	3.458484864226811010e-09	1.875090048383384350e-08	4.935636031734057932e-02	-4.703629067880432619e-10	5.299926178464608296e-09	-2.523431974079843098e-09	-4.140044833631722329e-09	-4.555037254953074347e-09	-3.803301948626732623e-09	-3.977651201355930777e-09	-4.068151549977577549e-09	-3.731796780429686418e-09	-3.965843861578711688e-09	-4.164878552308804758e-09	-4.392931753189477527e-09	-3.801152040168165238e-09	-4.016229465521267189e-09
-5.944064143878131335e-09	-7.685621080375891168e-09	-2.512049128183807792e-09	-3.731875928648099440e-09	-7.083044001995673740e-09	-7.558517402319867806e-09	-5.100343267256076551e-09	-6.607684773112589269e-09	-6.525947768768680015e-09	-7.727146915384514646e-09	-7.367622078353308395e-09	-2.518088345109583964e-09	1.438018147824558202e-10	-2.973616639103075074e-09	-3.362403692689991340e-09	-1.309527192574009483e-09	-1.762666402469890755e-09	-1.859515930291662510e-09	-1.594192621214212569e-09	-2.098042404708285024e-09	-2.424670125346937438e-09	-3.552249224591894493e-09	-2.212819243919897400e-09	-3.063718847918863509e-09	-3.580197176455540540e-09	4.807070465814718857e-10	2.422306623301066428e-02	7.717157146943893728e-09	1.959920986383177727e-08	8.517980631350373860e-08	5.761502875765329314e-10	9.388596411224658224e-09	5.660658524853281331e-02	2.445658128526755071e-01	-2.324263256771265543e-09	-4.808556829589039643e-10	-2.202810950849162171e-09	-1.053030015409191977e-09	4.439511519424368832e-08	1.033507599613500253e-08	1.743614053192149694e-08	2.576089522371213930e-08	-7.712936447180491136e-10	7.971073355222676208e-09	1.384038044170767304e-08	1.287442613179469707e-08	-3.063392248704972236e-09	-2.768515148086369739e-09	-2.831929711482687656e-09	6.399249997628646274e-10	2.176610492610788991e-07	8.495649945870202053e-09	1.952021758945429287e-08	6.540446466452206681e-08	7.053956418846033090e-10	7.197714479472156670e-09	6.308612479570412681e-08	1.862473315109627187e-02	-2.012769657415772379e-09	-7.466280754093118613e-10	-9.465324737045249398e-10	4.009586329404032079e-09	4.607539117686832580e-02	2.137487033029599733e-08	4.899355484105483218e-08	2.412826191081405280e-01	5.958886584728337625e-09	1.931192318837198115e-08	7.466810462815286209e-02	3.768762401229924092e-02	-1.562581159075925615e-10	1.672377887881963384e-09	1.147274398150692432e-09	6.975477949970329606e-09	2.286322474998977505e-07	2.977758322976556810e-08	6.240993707674741611e-08	1.404338505819877070e-01	1.130250380295410451e-08	2.785354591371601607e-08	7.924404996715379845e-02	5.001749808760812513e-08	1.098851957510035840e-09	2.478553806844060809e-09	-3.898894329388957980e-09	-4.231737064208685695e-09	-2.543669857478138445e-09	-3.772229457652448170e-09	-3.566891368176294614e-09	-2.740353689860196189e-09	-4.586300462839792267e-09	-4.162150698463695192e-09	-3.413215685838690455e-09	-5.245108859206386774e-10	-4.573913341151461848e-09	-4.703834214318117114e-09	-1.161814861382595255e-09	2.518988426865306052e-09	3.014763804542694287e-08	8.803312080969440823e-09	1.616406535734225877e-08	2.929263318419238513e-08	4.223705560817855555e-09	1.220881679058243111e-08	4.352460843328910476e-08	3.658706712465400329e-02	3.050222751519021539e-09	-6.017016691284573348e-09	-2.329107701815511854e-09	-4.406908136391216150e-09	-4.373933602134515087e-09	-3.321684239108898920e-09	-3.523131621797507510e-09	-3.358974743271358344e-09	-3.733312230768726253e-09	-3.805297622002333183e-09	-3.751232578657846513e-09	-4.596084010513040981e-09	-4.151134293241079960e-09	-4.681075781225101998e-09
-3.066019707866873747e-10	-4.062246152582503389e-10	-2.017381585147510597e-10	-2.032632846586329857e-10	-3.418116826759419161e-10	-3.444763426953231154e-10	-3.308219404173178502e-10	-2.980415088452250960e-10	-2.983911516301264823e-10	-3.019044469543129544e-10	-3.678968337656900913e-10	-2.254426641004443468e-10	9.594204595294436918e-11	-8.918886205248946313e-11	-1.186596870941456009e-10	1.299932874168078022e-11	-1.519695825065464893e-11	-2.442310999395870591e-11	6.884429844163748321e-13	-3.624591725416094258e-11	-6.078315609792578508e-11	-1.257942468085727400e-10	-2.893679065241551552e-11	-8.271888920339474104e-11	-1.315851733482655593e-10	1.786905853998674839e-10	2.978451376858655755e-02	6.813668989622005295e-10	1.562752059441829360e-09	5.635056600891836699e-09	1.822750928979270182e-10	8.110824625941320312e-10	5.165017967748562755e-02	2.400974079180854814e-01	-4.054355422134604158e-11	6.515933039243357115e-11	-8.763045330254909798e-11	-2.969913218038891260e-10	1.906231323050293473e-09	-1.963753922586048875e-10	5.005199259091145286e-10	2.243572535770255449e-09	-3.632806906722311585e-10	-2.591252911306323595e-10	1.840339482543998560e-09	4.995989797383349759e-10	-1.769918673759421624e-10	-2.090717240217168466e-10	-8.470882041527973355e-11	1.607512104973216908e-10	1.962685192467869213e-09	6.432343007509989185e-10	1.233560239872882670e-09	2.394423621063509097e-09	1.730341796653748415e-10	5.843823536672422009e-10	2.537559894791995634e-09	2.042042019094486571e-02	4.681797373252525019e-12	1.270525305640520719e-10	5.388319915618184946e-11	4.472849618684006186e-10	4.479561226677954144e-02	1.664032882671771975e-09	3.856771899704490032e-09	2.446258917837936808e-01	5.616364889470512072e-10	1.520740557641608890e-09	9.538325616376189253e-02	1.809822454291740504e-03	1.814405160967172495e-10	3.841053725351117424e-10	2.194257778199987433e-10	7.000705425003172550e-10	1.407034507442129617e-08	2.374402364138558062e-09	5.042177846172342682e-09	1.783779867817663900e-01	9.990185799574246124e-10	2.321516020322650189e-09	3.621370277676735222e-02	4.565235575251208218e-09	2.622632562197938311e-10	4.017216183632272339e-10	-1.934500155043331864e-10	-2.071238385391396085e-10	9.539537077617787501e-11	-1.360712212213171897e-10	-1.277198772710304577e-10	-1.004409258482768477e-10	-1.841167137888849313e-10	-1.559174868104472649e-10	-1.158797835168861547e-10	-3.810992397562835062e-11	-1.855093115737273909e-10	-1.753356440317711331e-10	1.665241940788725388e-11	2.532859319335096351e-10	1.343226318610285770e-09	6.479287974932536435e-10	9.946196571507678595e-10	1.442722181909487869e-09	3.703205160645685629e-10	7.898427527784214903e-10	1.646930018247305720e-09	5.684114286415726386e-02	1.982587325838421067e-10	-1.021288599978621403e-10	-8.955140281194420277e-11	-2.207056820513478648e-10	-2.618800745679834210e-10	-1.659481733611296893e-10	-1.897559924568581974e-10	-2.102741766904626191e-10	-1.642312010711927209e-10	-1.935047542734558762e-10	-2.205138003026268892e-10	-2.421929580748236895e-10	-1.690657222713169113e-10	-2.050217439325977874e-10
-3.616682791700155790e-09	-4.272010501477319107e-09	-3.865374171520556517e-09	-3.579921967813595447e-09	-3.856790784715346429e-09	-3.706286971272135927e-09	-3.332008617732919635e-09	-4.130063411650977845e-09	-4.067686985452734305e-09	-1.942902746303676875e-09	-3.778542555719604916e-09	-9.848158829246314382e-10	-8.359796229886922733e-10	-2.327606961115432472e-09	-2.543108570587567026e-09	-1.706965643805670400e-09	-1.905865588789702990e-09	-1.933598011575494567e-09	-1.801501305075617911e-09	-2.030232069912359642e-09	-2.178928679678438867e-09	-2.624044646165413401e-09	-2.023502648179792277e-09	-2.360899443846167308e-09	-2.351533217691101011e-09	-5.810473255534982389e-10	3.719125553829741304e-02	1.635733158166647137e-09	6.155625496166766856e-09	3.186724506718991454e-08	-8.114599041924210850e-10	2.828247245352623848e-09	5.239740187318849690e-02	2.370417987113772329e-01	-2.017640936885554693e-09	-1.395978789573837953e-09	-2.418972447277511542e-09	-4.139788797442300327e-09	1.127504981894394253e-08	-2.856339928956464488e-09	2.901394152096822954e-10	4.901997850971049619e-09	-4.626631605674181763e-09	-3.272222114549042750e-09	4.268980115785602454e-09	2.023612613824659037e-09	-3.341127657808686411e-09	-3.484971831399481956e-09	-2.074793630908888962e-09	-5.068531137238637833e-10	6.443855916217862790e-09	2.998267422798267135e-09	9.350339030788380274e-09	3.603314005335808687e-08	-4.059402761299077074e-10	3.029769841486200042e-09	4.466902239867608918e-08	1.474690651053852351e-02	-1.790761556446796925e-09	-9.978829016130013315e-10	-1.156551498691051578e-09	1.023214252658048672e-09	4.114106829777783303e-02	7.055933755370363431e-09	1.786378256234309284e-08	2.388440306388866508e-01	1.407678783456449656e-09	6.746858319479806758e-09	9.763348809601218870e-02	2.061345415025184896e-02	-9.738405653852508439e-10	5.317982453418279579e-11	-5.726461843640464031e-11	2.799280332623409410e-09	4.558192593022445696e-07	8.128410265065203233e-09	2.101069300594672724e-08	1.686824687642097809e-01	3.568668005055590619e-09	1.080322183904265070e-08	4.384173194153422048e-02	3.464683055854134515e-08	-4.491363248860448888e-10	2.883262477492072459e-10	-2.534924276664390674e-09	-2.661060867333764302e-09	1.846574100218609195e-11	-2.339255446475314591e-09	-2.241127855061982456e-09	-1.898277473816523545e-09	-2.753338508254046831e-09	-2.484353437860985412e-09	-2.064335636309202766e-09	-1.869715909526816098e-09	-2.796856452414779576e-09	-2.711408744745287867e-09	-1.462023057081454784e-09	-2.371522678534381168e-10	1.148686718505935748e-08	1.779004836421319723e-09	4.425470732120581483e-09	9.422218671039998290e-09	4.651450651154127679e-10	2.899615793635679674e-09	2.152056000544147611e-09	4.786579277808698102e-02	1.949238192107060356e-10	-1.846872601765259318e-10	-1.579585469328389939e-09	-3.192938974542390473e-09	-3.483773852791038333e-09	-2.906711395327111774e-09	-3.042234202419248772e-09	-3.082037291396196464e-09	-2.882748028771095308e-09	-3.044386314454513980e-09	-3.165423342637703615e-09	-3.373051086700791518e-09	-2.896486125802988267e-09	-3.126338230430867995e-09
-2.761851934273463660e-09	-3.766212571133283800e-09	-1.318106995906663120e-10	-2.358307679176982486e-09	-3.642468973543659010e-09	-3.619615452748288720e-09	-2.721250965886209404e-09	-3.504022013771117367e-09	-3.573135750860632436e-09	-3.873299007024495047e-09	-3.355573500948061585e-09	-1.693687493578049363e-10	3.074935375455649035e-09	5.544514128958400637e-10	2.218210918477442249e-10	2.007299414624934251e-09	1.653116091756406082e-09	1.484892391890464343e-09	1.846905493071324049e-09	1.374964947019508506e-09	1.045834130147855525e-09	4.293692332532467755e-11	1.200943805392671823e-09	5.690171555143956110e-10	-3.306677414675177406e-10	3.770404027261574008e-09	2.664801363691343683e-02	1.141753197031098874e-08	2.665079230847552402e-08	1.172311163581634712e-07	4.052394752187569879e-09	1.293217399884248362e-08	4.245486299690193199e-02	2.550637095343041283e-01	7.985009503331513097e-10	2.509270747462807717e-09	4.843412795875725226e-10	-1.119110411802587485e-09	2.018729749305168078e-08	1.426669964601625832e-09	9.491297105380559246e-09	2.309554242657194984e-08	-1.652288956087463628e-09	1.072019017628197075e-09	1.958904691135772348e-08	9.899182822866147614e-09	-3.644730753763958527e-10	-3.932924468692807159e-10	2.803676514117742358e-10	4.437083402556964573e-09	1.274930340577505539e-07	1.399200429510187502e-08	2.990348534316763524e-08	7.779824567830257620e-08	4.961708960510286625e-09	1.322850817608240273e-08	8.047791918305987222e-08	9.739066894307207498e-03	1.569261045426837624e-09	3.590315708388478234e-09	2.001342356185410496e-09	7.484306298602610121e-09	4.987182978629613878e-02	2.421046173292961980e-08	5.853051638549801625e-08	2.535356468091821691e-01	9.239619216607854139e-09	2.301323149208851542e-08	8.274372112134299739e-02	2.045849064605232207e-02	3.422027926783686551e-09	6.020820758994293517e-09	4.244556766349913301e-09	1.056616919645561325e-08	1.475313200275757884e-07	3.497176776571164226e-08	8.152582938153670020e-08	1.398357257152382516e-01	1.521267514441160763e-08	3.382963908359526967e-08	8.278345880357691755e-02	5.391457884991100756e-08	4.752214686455121701e-09	6.674443088783406613e-09	-1.170954998399320435e-09	-1.274065252957924108e-09	1.573765078745537834e-09	-4.158472867646576629e-10	-2.763485222882352146e-10	5.492834439588543430e-11	-1.042045742326511628e-09	-7.177442456170085293e-10	-2.315971477671337830e-10	3.296606449233982734e-10	-1.227941386431729769e-09	-1.163528030190727713e-09	2.023604695430310366e-09	5.919656017261436872e-09	3.413594968116672626e-08	1.220414771371364413e-08	1.940382999577809826e-08	2.980848303101533203e-08	7.213166776622217427e-09	1.491030990415169264e-08	5.049096225532768569e-08	3.686417516398286798e-02	3.560870941275085657e-09	8.757105198782490110e-09	3.152646543514932021e-10	-1.295756203313943727e-09	-1.674624356785776666e-09	-5.552406162385839435e-10	-8.069595925571820314e-10	-9.890938860044851033e-10	-5.531938164241257024e-10	-8.994290865817161796e-10	-1.184926308250082316e-09	-1.620453076468493608e-09	-7.751135778144561088e-10	-1.160344749761110044e-09
