4.577086919817558172e-09	1.728135918645420622e-09	4.960842288555989223e-09	4.098905736441369650e-09	5.904399033901646776e-09	3.595244470347995652e-09	3.457421117428736223e-09	2.185653247647300225e-09	1.630704613832220270e-09	1.918695841761820754e-09	2.577130162033701768e-09	3.269691889031374863e-09	7.466790152411615696e-08	1.434386974452458640e-07	1.055237192326735862e-06	4.881754419163476655e-07	2.976423773785227224e-06	1.552079312912982246e-03	1.855084369234857333e-07	3.951743904191564781e-07	4.362185556381297857e-06	6.821205390217718893e-07	6.780737713014504801e-08	8.780459634437131780e-08	1.964905601515772815e-08	4.815943066985176604e-08	1.565911523747750829e-06	9.283179446341221602e-08	2.176812143942323055e-07	3.511768826871000680e-07	4.618223192141343861e-08	9.557767000621929108e-08	9.271181889367982145e-07	1.851537397070869007e-01	2.256761767847959890e-08	3.324537617439831838e-08	2.164693144281336950e-08	1.438892522935963432e-08	1.341344035738347005e-08	1.893681211185070637e-08	1.842890662617425688e-08	1.704883014746171088e-08	1.761176055244571309e-08	1.639983237999694054e-08	1.564987820448344339e-08	1.263617398206588622e-08	1.455029191391754707e-08	1.308593251618809218e-08	2.319015062866446139e-08	5.642700224377990738e-08	1.615817931718862080e-02	1.262898728471901911e-07	3.789489381306845850e-07	8.872609997496536353e-07	5.591149448500173052e-08	1.150077415130581199e-07	1.303264195983400496e-06	7.006624653925000445e-02	2.513603186388640896e-08	3.660240137421370786e-08	3.227277838457763706e-08	7.469946257511008702e-08	6.460489562694049503e-02	1.960473128716288273e-07	8.792593798221465076e-07	1.579540923424211651e-01	7.906196333493778639e-08	1.690040895639743102e-07	9.623141091169011563e-02	1.597499196270448299e-02	3.377019380843316876e-08	4.762082332305628809e-08	4.715304960525846792e-08	1.069611522175636116e-07	3.703170638270497825e-06	2.846447428031361357e-07	1.403855711235570641e-06	1.967405500566485055e-01	1.123561363520129903e-07	2.345473401440224728e-07	1.441079770647897551e-01	2.317652380160675700e-06	4.831747286587931788e-08	6.533193150996887167e-08	1.019207792871449919e-08	1.080477922956831271e-08	1.451137387422580331e-08	1.326351634858297777e-08	1.361364513233310184e-08	1.290062952016563948e-08	1.141420772955853210e-08	1.157872444036830034e-08	1.179441424715065905e-08	1.154649191717978620e-08	9.570154956930785475e-09	1.107433258381559481e-08	3.217873298706913952e-08	6.891957777511963684e-08	2.930769171838747207e-07	1.340531896591755583e-07	2.492581783012246673e-07	3.199844832339228063e-07	8.725765618829904632e-08	1.884271601708445025e-07	8.101372445714715917e-03	4.332549549582539322e-02	6.780621537141227836e-08	7.775273909860178289e-08	2.383281381792988682e-08	1.984306882641916922e-08	2.608836603506943309e-08	2.751449988999060797e-08	3.123415098312571944e-08	3.009371490181112994e-08	2.351108605470542985e-08	2.397315815601068372e-08	2.759292439911634615e-08	2.272078607888169688e-08	1.817751168857956122e-08	1.754364413032499597e-08
1.526651470473388723e-10	-5.962221612611973589e-10	-6.094984853159980770e-10	-3.386873484519868312e-10	-3.181191050202740186e-10	-4.200259028780422122e-10	-4.817283029818397242e-10	-5.524956023997459259e-10	-5.982991114886039057e-10	-5.811975146268539792e-10	-5.782887390761009295e-10	-2.978341187655651239e-10	1.487596821393317925e-09	3.096665052876345107e-09	2.382608242495724101e-08	9.435116103770823986e-09	4.612054755020241149e-08	9.041189647433491259e-08	3.458654730806914297e-09	7.194502731334152045e-09	4.533116784603957054e-08	1.279845810010453938e-08	1.274853445861278382e-09	1.733966773205331537e-09	-9.810937084309514992e-11	7.393776487880520450e-10	3.428427841566604034e-08	1.714641659389280702e-09	4.520347737633338114e-09	7.049358990108773830e-09	5.851575480172649445e-10	1.802774984693061137e-09	2.197710998954153946e-08	1.857440354340728628e-01	7.687061387492254387e-11	4.161090534983158453e-10	3.771558682962730238e-10	-1.629983999681864138e-10	-1.852232798698073691e-10	-2.321615312939320790e-11	-2.479850654794761944e-11	-6.176855579579748011e-11	-7.757799717630820231e-11	-8.236441287439105539e-11	-7.845728549327193892e-11	-2.085837055122816435e-10	-1.278079218871273523e-10	-1.994239692982527184e-10	3.117556736879580968e-11	1.055715166343497052e-09	2.812293958737208804e-02	2.684768194413897815e-09	8.767555783403397082e-09	1.611756529306041246e-08	8.908641027742084990e-10	2.456651093414474065e-09	9.951728556367723081e-09	6.260380891705748241e-02	1.423822507315915405e-10	4.855262511293492988e-10	2.998164363823307786e-10	1.539792807524622747e-09	5.159295337052635655e-02	4.718562483145085212e-09	2.096916063629476186e-08	1.701358852418186907e-01	1.550930040615073214e-09	4.106905336983979298e-09	1.021047923167941601e-01	3.624708006582701321e-03	4.458458792448340064e-10	8.996200254444438838e-10	8.461913769734057953e-10	2.942952483964065328e-09	4.430334623589786761e-03	6.890859019544567282e-09	3.321006308335039897e-08	2.019740911384720339e-01	2.452217193771127714e-09	5.883346075757723441e-09	1.356729791677836749e-01	1.019939807516891454e-07	8.262488452433901812e-10	1.375801117823890437e-09	-3.244317902580883617e-10	-2.777878725178182080e-10	2.176514503303021781e-10	-1.727312937296977369e-10	-1.446645985373147343e-10	-1.542444382888951731e-10	-2.409355828365139946e-10	-2.172818638911993200e-10	-1.770427357897560395e-10	-2.700412860503585857e-11	-2.147025566821616288e-10	-2.444031239230323653e-12	3.032062633710535775e-10	1.397084754886726181e-09	5.851766770318053253e-09	2.445104879916072175e-09	4.384706006895877013e-09	5.373224833523390284e-09	1.424105667465284823e-09	3.052877875058743113e-09	1.159221647763266735e-08	5.399288342906150701e-02	2.593206947688389435e-09	1.948230986157376788e-09	2.908235737150042762e-11	-6.647446463475925671e-11	7.949785342057096058e-10	3.025087119822103990e-10	7.582511909742256868e-10	7.361888835648463052e-10	-1.537422189594336590e-11	1.874258976366623277e-10	8.471355694481634601e-10	1.749385478996081466e-10	-1.413602104227751860e-10	-1.694003520408328153e-10
8.696994615933040451e-09	6.341330680029212907e-09	5.861177101211356919e-09	7.498022369879944386e-09	7.189193554460203731e-09	6.820219013515806478e-09	7.386571356401427591e-09	6.845010601744244643e-09	6.425871402190434121e-09	5.708259364094187865e-09	7.208325164757815511e-09	6.477628966570890363e-09	6.056212882572576502e-08	1.150045215640980680e-07	5.465083757565960563e-07	3.662778888254694306e-07	4.313523519027584106e-07	4.224631879616999423e-03	1.448478714973221697e-07	2.847782341789914944e-07	1.133766009106715030e-06	3.313312292811348948e-07	5.833346770164180346e-08	7.182251922070749346e-08	1.899444283991445572e-08	4.030617841427721780e-08	5.803698942739716827e-07	8.018861305547589677e-08	1.880193134626010701e-07	2.982996463455761057e-07	4.210536034909779449e-08	8.445875624556775915e-08	8.349276856964371522e-07	1.845007142537612443e-01	2.339911780323887973e-08	3.170650670068294071e-08	1.954488781640235424e-08	1.530710608093641023e-08	1.458357682776126250e-08	1.875131749554959021e-08	1.825367045416040171e-08	1.732235012559926660e-08	1.802703891122230052e-08	1.713010453830219171e-08	1.639299941767694209e-08	1.408574062854963052e-08	1.624118847820338572e-08	1.494260799708469886e-08	2.221638497452944682e-08	4.840768922194225544e-08	2.593694151649186125e-02	1.088302674580933560e-07	3.464595279798170331e-07	8.294465002663623897e-07	4.984855274121925025e-08	1.008616352318159303e-07	1.185494356261259460e-06	6.400263148293471038e-02	2.562307072924114725e-08	3.441546969407960363e-08	2.913968807391743659e-08	6.305985320057776553e-08	4.420851309060445933e-02	1.637338386037034336e-07	7.552450790459432055e-07	1.650953774127768836e-01	6.787091093560775545e-08	1.445466235643227966e-07	1.099114435536144574e-01	7.492258653527015394e-03	3.326003259335484307e-08	4.411292430034408732e-08	4.230243463210966256e-08	9.400735898865707204e-08	2.041277363585307023e-02	2.333558220668678031e-07	1.213009561745076574e-06	1.925442746418629947e-01	9.506976330804927729e-08	2.001694045703121343e-07	1.280447962341585977e-01	1.524597526804413961e-06	4.388805084159375004e-08	5.734463351752242064e-08	1.281929639198188755e-08	1.209602538483712697e-08	1.291946002975873489e-08	1.534525110558480758e-08	1.556614991557046241e-08	1.497057319715357072e-08	1.391757897276978408e-08	1.409352256493891281e-08	1.426479836943822667e-08	1.310935572367086943e-08	1.261748091298206455e-08	1.237345221774722414e-08	2.767364236880154847e-08	5.464759112736154092e-08	1.992595107487903287e-07	1.161165178472356677e-07	2.204421479380216633e-07	2.832182734833428868e-07	6.968557452407000073e-08	1.380360220172873136e-07	9.292452841172238327e-07	5.360946364144249243e-02	4.691341634828216505e-08	6.546883591806753811e-08	2.223120899552828424e-08	1.944478153813849018e-08	1.968070602598270415e-08	2.479076411537502047e-08	2.460039200032626102e-08	2.345761776829168023e-08	2.305012598953333471e-08	2.265869960920146926e-08	2.214725746977954602e-08	1.893375706136723723e-08	1.919322898730924491e-08	1.829678695751959363e-08
-1.013089299605527748e-09	-5.345970451300133572e-09	-2.200423564304726360e-09	-4.139499655313722556e-09	-4.071027024137158427e-09	-4.459008570501440537e-09	-4.905689429941772262e-09	-5.253267717957091127e-09	-5.247540448987291043e-09	-5.307841027956535065e-09	-5.351620099375283633e-09	-5.047556520691430035e-09	6.312794645561255886e-10	-5.146398026176230072e-10	2.962096948969425391e-09	2.469935024715630628e-10	1.464215722612318158e-09	1.257444991639422189e-09	1.222140805338819743e-10	4.282997262040925153e-10	1.003199335218906571e-09	1.883870228384741278e-09	-2.477946809380219381e-09	-2.044121057584984510e-09	-3.523155197556799826e-09	-1.015413282929101394e-09	1.865309615962930617e-04	-1.027800625588309773e-09	3.336403672203525201e-12	8.602630419155963419e-09	-2.577329710816026890e-09	-1.404533553931848155e-10	6.209550971205731037e-09	1.863061015279727506e-01	-4.200349310401227166e-09	-3.470620531334646652e-09	-2.403293663394126831e-09	-2.830228483163328819e-09	-2.898765394327928336e-09	-2.852393440480429324e-09	-2.635073288450755289e-09	-2.724683876680134249e-09	-2.860587969339586234e-09	-2.864502594965360843e-09	-2.626677983577279011e-09	-3.180243170943533521e-09	-3.701516090858744593e-09	-3.472615021930232673e-09	-3.434135632849571104e-09	-1.309483270589025594e-09	1.966757407393187815e-02	-2.309515900791359958e-10	6.415564019328375707e-10	1.170816480611349267e-08	-2.238929391339862414e-09	6.599388945825275927e-11	9.465475190629744335e-09	7.736409504662003500e-02	-3.958064929361227266e-09	-3.155132947046529032e-09	-2.674766646626472111e-09	-4.821413927981922013e-10	5.797064892426482402e-02	4.293601678760757068e-09	1.456430203119006185e-08	1.573862327705764785e-01	-3.730081967231043912e-10	4.573906685799313306e-09	1.117867820535392992e-01	2.942933453095400191e-07	-3.549807152174493727e-09	-2.714856366661004427e-09	-1.111353594677432526e-09	3.259529292180191414e-09	1.095435847852631924e-03	7.246675340477791480e-09	2.031031430380080937e-08	2.039460787967586342e-01	1.356405779132288666e-09	7.244856780221440251e-09	1.293784154954504273e-01	7.224318996176342411e-07	-2.670004267748185119e-09	-1.556707719105441464e-09	-4.195666628967436159e-09	-3.656810723317811316e-09	3.982208451509657522e-09	-4.396032721386790926e-09	-4.515807607877937874e-09	-4.542678350560585847e-09	-4.330173426096870449e-09	-4.463440113692204539e-09	-4.699830018455063168e-09	-3.701511648579924944e-09	-4.685820312779874650e-09	-2.847930653272547265e-09	-2.673890963079905570e-09	-8.169625498710489797e-10	9.270416409182910844e-09	-2.565103427521775922e-10	8.807790770238314207e-10	6.745191259833583439e-09	-1.044540953115817196e-09	9.978020836983716358e-10	6.293518626028274809e-09	5.491113737061066591e-02	3.927950646117245293e-09	-1.266249606020287420e-09	-1.887982157597733120e-09	-2.614704721431424896e-09	9.283303444629327472e-09	-2.188363532832925564e-09	4.606041649589414900e-09	4.137231528152896369e-09	-3.254443044237743141e-09	-2.297256505941510651e-09	6.042679227504315592e-09	-4.608631962773355526e-09	-4.314416858141619794e-09	-4.203512146839423899e-09
-3.642554838703096038e-10	-1.047356895707867190e-10	-4.829038777091348466e-10	-3.942779108177989398e-10	-3.536769554767102296e-10	-4.266924909601837893e-10	-4.090914073803972776e-10	-4.946019756339345093e-10	-5.001407132068429057e-10	-1.132975808311598275e-10	-5.010610077261804567e-10	-4.543817564288427329e-10	1.030239758409650888e-09	2.351239696565295199e-09	2.410104533742322728e-08	7.663086457579559309e-09	5.112274679022665520e-08	6.461470106778166578e-03	2.925099769404412350e-09	6.529942795797161851e-09	1.675399504848061174e-07	7.632342200562871602e-09	7.082924560123662081e-10	9.834852966391761659e-10	-1.135537869760682884e-10	4.670767536438382373e-10	5.712220439323582345e-03	1.322542285571248046e-09	4.162686297778071159e-09	1.051042575814299793e-08	4.414778259199678286e-10	1.614467054840793914e-09	2.178204808280551533e-06	1.859626297569959563e-01	-8.662110103700757220e-11	6.471984208356372071e-11	2.625218988945131003e-10	-1.503170544061995734e-10	-1.523296097697558792e-10	-4.819662170149382724e-11	-4.853693776617702835e-11	-7.130812442774125981e-11	-9.553554291121549264e-11	-8.785227434110099883e-11	-8.000716875808829396e-11	-2.049163491968675196e-10	-1.907680455971836441e-10	-2.460729725675360561e-10	-6.306179937111836671e-11	5.328544648883397286e-10	4.014808694176683068e-02	1.968789997577916920e-09	8.066767923205729043e-09	6.213008504486176840e-08	6.654222622755226838e-10	2.113431278820695348e-09	5.040352703558860156e-04	4.845802651613215911e-02	-3.667397357936966391e-11	1.420526564018468990e-10	1.512821420937914528e-10	9.453510819453489931e-10	3.591275157269235158e-02	2.979021677254762449e-09	1.241124615020580681e-08	1.744175485541318016e-01	1.013008490292500261e-09	2.675403154386532849e-09	8.912547549460327068e-02	2.435057504512148224e-02	1.384198198429005379e-10	3.625276794600272939e-10	5.008632090260106433e-10	1.857350174658796947e-09	3.720247650073150785e-04	4.319591457479864666e-09	1.831857294271087665e-08	1.807817458971883451e-01	1.619096969789365972e-09	3.769877230288226204e-09	1.599589571524674403e-01	1.818646374287074830e-08	3.484584598724657269e-10	5.982909891290418607e-10	-2.127451734959139195e-10	-2.836761037950625099e-10	-1.414765548271774332e-10	-1.810302918090499903e-10	-1.555070890172868415e-10	-1.539302554003343012e-10	-2.272826640123049085e-10	-1.958065872123128561e-10	-1.700954174679249025e-10	-3.042519623857876717e-10	-2.686085111866513312e-10	1.305390756891383192e-10	9.837969073192281877e-11	6.690141185560104490e-10	3.701396233956007840e-09	1.768057374863517043e-09	3.587052508614078063e-09	5.252806359642461207e-09	1.064439227770317474e-09	2.521346542622757365e-09	2.616352073907726247e-08	4.783179503805862903e-02	8.118436029385354176e-10	8.517912560286473982e-10	2.483709857541967910e-11	4.818934578998552550e-11	1.357756325261010784e-09	2.478897900891924601e-10	8.353000386307699717e-10	8.521455332198671647e-10	9.153429779462672419e-11	1.701532532492344678e-10	7.698156358919337887e-10	-1.312500375136255499e-10	-1.458925895575376351e-10	-1.744357744351792266e-10
1.694517620707655292e-09	1.223864414633304912e-09	9.051005752084890996e-10	1.696356591562212510e-09	1.522843823049601448e-09	1.308982546168892467e-09	1.380064285581320252e-09	1.165826155380746924e-09	1.070634631430510436e-09	8.574956154528264753e-10	1.275551391713670482e-09	1.192546868671867122e-09	1.626818266640538704e-08	2.925839481234564397e-08	1.476889544068820552e-07	7.068265550366630873e-08	8.416715351566945324e-07	7.132424541350484461e-03	3.335311457653608332e-08	5.818467596043717272e-08	1.495011106558380775e-06	6.961594532799763207e-08	1.469092748814427080e-08	1.787187997761253965e-08	4.778084309998415200e-09	1.108776305994166491e-08	3.600964969033642876e-07	1.974174311999002870e-08	4.377582560824778980e-08	6.436772806762950971e-08	1.041491420096636374e-08	2.041183259660023208e-08	1.524202984309961518e-07	1.793357345655891277e-01	5.839138271948049331e-09	8.266596898689695675e-09	5.043907216824963410e-09	3.689873987988735971e-09	3.539798029348838697e-09	4.708141669201283533e-09	4.615700828514047651e-09	4.374046945040910021e-09	4.449159277052779948e-09	4.260197177544097538e-09	4.133303836342586934e-09	3.375802812412862864e-09	3.857946977822545978e-09	3.517423865935237067e-09	5.675423325350839616e-09	1.308103243524897521e-08	2.380670200496260228e-02	2.871473975596764321e-08	9.441552558885828497e-08	2.252340820428963922e-07	1.293831454631813138e-08	2.664599007696278270e-08	4.805811304213568065e-07	6.811985301799435011e-02	6.396726414732241998e-09	8.911014362130626806e-09	7.744240948089379484e-09	1.741921781829101669e-08	5.160909187460806236e-02	4.360786262394040191e-08	2.205467732353190604e-07	1.700574095463338042e-01	1.776089029655219123e-08	3.784466015220765482e-08	9.740268959716383290e-02	2.015580915798819220e-02	8.436162697809677835e-09	1.150423658085290059e-08	1.136072492730212011e-08	2.580695040649722063e-08	1.079526783443755106e-02	6.202899477851594642e-08	3.159208380693227729e-07	1.654629641804342688e-01	2.497510007734715016e-08	5.228788638790542990e-08	1.579192119055232713e-01	2.157693204975402507e-06	1.168540888586798127e-08	1.578974684257271614e-08	2.874442350851197984e-09	2.684490142691724610e-09	3.255311656465003072e-09	3.417910061273784210e-09	3.496432111490584615e-09	3.359034536374692048e-09	3.038601015787815816e-09	3.081861989215271867e-09	3.161322868182054464e-09	2.902811845931735081e-09	2.772079214889036744e-09	2.919251000505115498e-09	7.389268806920382111e-09	1.571647639355761918e-08	5.867985843976922379e-08	2.914634556332960714e-08	5.392148712850481430e-08	6.778260574063180710e-08	1.798693306835729858e-08	3.540210435704068772e-08	2.617477019985743376e-07	4.819465623140994914e-02	1.280367284930685819e-08	1.782910409249710669e-08	5.604056803349899496e-09	4.763868734757412184e-09	5.041565186650410144e-09	6.240743496013650756e-09	6.309142907620826238e-09	6.079037763411872368e-09	5.665151878574664122e-09	5.623125871239556830e-09	5.698019010929445852e-09	4.741454994661221169e-09	4.631013605308250042e-09	4.412157123735848931e-09
5.275177334799547455e-09	-1.387090019788052526e-08	-1.168383297529465320e-08	-1.219662586905609790e-08	-9.687984882226365824e-09	-1.121741607148367870e-08	-1.180481889547078480e-08	-1.311746199428485625e-08	-1.323253850500447934e-08	-1.269603651914193715e-08	-1.345641480868532172e-08	-1.007481618644407829e-08	5.207059278173547266e-09	1.193905067184654705e-08	3.007712282307259187e-07	5.221785495101029595e-08	3.140212788941478108e-07	4.343789763933904660e-03	1.757817082675888104e-08	4.717215769082807524e-08	2.117870369163323688e-06	6.685708131784092477e-08	-3.292297134062640224e-09	-1.368393574207605402e-10	-9.690597349747109792e-09	-3.737300992689816790e-09	3.639310597861416351e-07	1.578573556881434788e-09	1.700823199869337591e-08	4.210992156006046361e-08	-4.859498019258104490e-09	4.376551724483044253e-09	1.217538828444468382e-07	1.883713424974328698e-01	-1.002872816400076991e-08	-7.379185227178257059e-09	1.121392253686211995e-09	-1.069742268054268922e-08	-8.324409248324890986e-09	-5.660918920619702701e-09	-5.973406892299307284e-09	-6.384024721255265170e-09	-6.634929788166939282e-09	-6.487217060858057604e-09	-6.536449205181522903e-09	-8.142041375191195109e-09	-8.448170842606522020e-09	-8.567980812917995115e-09	-9.296706146830904249e-09	-3.205155404848509550e-09	3.013876171091275924e-02	6.816452875245775684e-09	3.577919335888910808e-08	1.643057191610432000e-07	-3.283271484059366473e-09	6.742915933527407065e-09	2.756882956209581710e-07	5.493454683570461738e-02	-9.430423773250041258e-09	-6.928287065485466018e-09	-7.044944877075839295e-09	6.865110825346417595e-10	4.800852271162274476e-02	1.866679098630437445e-08	8.018512801611165271e-08	1.553192996307566076e-01	1.275869443590182903e-09	1.683922225691499333e-08	1.009450388189967879e-01	1.637497426869400849e-02	-8.091852770631860589e-09	-5.374368409170843741e-09	-3.393200284126743106e-09	8.547266811266187751e-09	2.837043793631056194e-04	2.959903058537915490e-08	1.169066263094044025e-07	1.880663623091707037e-01	6.345037207615861183e-09	2.564776773834078374e-08	1.546216076352313340e-01	1.325524577682989512e-06	-5.695001449162188800e-09	-2.184860257139788693e-09	-1.122032016586327691e-08	-8.720251935392948002e-09	9.342126142056731704e-09	-1.083494047511282533e-08	-1.074150684518228534e-08	-1.090933218066992758e-08	-1.100914932149209532e-08	-1.117948040180832401e-08	-1.176107038410633946e-08	-7.417660565544862772e-09	-1.134089994161115855e-08	-1.074163967132617496e-08	-6.861866560714531004e-09	2.545768190416322474e-09	5.972400184100439172e-08	9.426578530903547372e-09	2.927658281524026419e-08	6.503929849182167367e-08	3.572715505045359460e-09	2.011084844003917648e-08	1.845875461213395460e-03	5.674080902488608941e-02	3.229949996123118039e-08	1.433682067892764373e-08	-7.885244111569517996e-09	-9.785820477198647071e-09	6.324272482346706025e-09	-6.648139131829320069e-09	4.585133638851931159e-09	4.541242253102029267e-09	-1.044809261797915614e-08	-7.162347167628968863e-09	7.262852243989848247e-09	-7.280587452432590111e-09	-1.189436299041806261e-08	-1.199005885966613971e-08
-1.116230117662880359e-08	-1.502794979695224428e-08	2.888188612718726720e-09	-1.452871014593558025e-08	-1.278319890748408692e-08	-1.366265694115939668e-08	-1.347555501463833385e-08	-1.546985984681030690e-08	-1.534460329283266895e-08	-1.357338816946315515e-08	-1.504739412434886922e-08	-1.327895705995041337e-08	4.176823178088759652e-09	5.843522595636831651e-09	2.048952426572197596e-07	4.580952032378722183e-08	3.544469224456969370e-07	1.615350149155877283e-06	1.379304839956719962e-08	4.692284558010633914e-08	1.149046159153506483e-06	9.630260938252989588e-08	-4.639215193247299646e-09	-2.271585538856603124e-09	-9.609133541542505663e-09	-3.515152244829722573e-09	2.884382974303263941e-03	-4.560817126587419450e-09	-8.151387791978478912e-10	1.581510257356014377e-08	-8.197988700404419910e-09	-1.942098853691086057e-09	7.712218081060634346e-09	1.837807640307328461e-01	-1.146731260351456611e-08	-1.103742226679942904e-08	-1.316368267391726670e-09	-1.011480575989573541e-08	-1.079948258705507962e-08	-9.110732244104362337e-09	-9.181225607315762757e-09	-9.645011168493393510e-09	-9.326033135482206085e-09	-9.337507716678908434e-09	-8.691622274132038680e-09	-1.126287851744240419e-08	-1.096609579278466514e-08	-1.174247499557266242e-08	-9.581638740732464486e-09	-4.186634328843025064e-09	9.262904014853292831e-03	-1.720018907275132362e-09	7.096673163639729809e-10	4.928212305117082240e-08	-7.053127293302410801e-09	-8.070890184380825460e-10	6.959768404910931999e-08	7.470032376791221895e-02	-1.089136566114604664e-08	-9.736845808081751703e-09	-7.434383943699642114e-09	-2.193049535124015971e-09	7.253124883814768276e-02	8.972036168186179515e-09	2.338894857552975948e-08	1.740818137396037968e-01	-3.045686291375952777e-09	8.152588213504758835e-09	7.745205690913761765e-02	1.960895387035020178e-03	-9.201032153266728437e-09	-7.516057347001546565e-09	-4.729815542139556519e-09	6.544216940984278327e-09	7.510697270143199900e-04	1.468323767326629803e-08	1.047496719388920881e-08	1.725647677826843696e-01	1.170158720970763559e-09	1.495142189795150690e-08	1.709724198577971255e-01	3.486138310699784440e-07	-7.822153233529590465e-09	-5.971848770845302394e-09	-1.102715650484890165e-08	-1.058442959271568570e-08	-6.160611653005549999e-09	-1.030032114695100421e-08	-9.794708439126518842e-09	-9.919983672948997230e-09	-1.161904015933172235e-08	-1.055339886643472635e-08	-9.935604581820237852e-09	-1.310421833034652319e-08	-1.089987123307872965e-08	-4.793235759834297542e-09	-7.383772158622055380e-09	-3.292041862767313043e-09	3.716298766484571504e-08	-1.607803363102327080e-09	4.982409718789925709e-09	3.688197997567717684e-08	-2.766578752362582708e-09	5.041995814644587613e-09	1.323494843453986401e-02	4.581878586172790507e-02	4.399195585887392688e-09	-1.262956424757811161e-08	-5.953232366969622727e-09	-6.855252046935723599e-09	4.354321230446989350e-08	-7.558881589379353678e-09	5.993503848985050030e-10	-3.438407197824663319e-09	-9.193534470933195857e-09	-7.944027585216295957e-09	6.146187973376262682e-09	-1.228719448366182656e-08	-1.214393990953754313e-08	-1.308380774806029355e-08
-1.680080259869523397e-09	-2.757349639904546506e-09	9.258414658737928517e-10	-2.372104551154918578e-09	-1.885634871620758887e-09	-2.450960530161081912e-09	-2.464680206971624897e-09	-2.610642961483524384e-09	-2.766977526011310944e-09	-2.751804322226317081e-09	-2.749003351162290247e-09	-2.662196622061748925e-09	2.211858465182307234e-09	4.973800929703431902e-09	8.576708895780882061e-08	1.972325569147905479e-08	1.129590383097473804e-07	3.323271021430061951e-07	6.090780570975231661e-09	1.501611211904107691e-08	1.454483854415636621e-07	4.131472788610367738e-08	1.040137216759975428e-09	2.164884132058165640e-09	-1.200188292235749463e-09	7.898175237891822271e-10	3.608008709613334461e-03	1.734982898228767702e-09	6.486406029328268996e-09	1.196447332943378524e-08	-2.611134685718340956e-10	2.203817843466746869e-09	3.244552456808162355e-08	1.848657116193789807e-01	-1.525880009433950123e-09	-8.479709275272785192e-10	1.872588075514083083e-09	-1.660817705223517924e-09	-1.688648946725566287e-09	-1.125268351105157836e-09	-1.134695250379454585e-09	-1.233248442185796371e-09	-1.157887402851570557e-09	-1.109702619687482987e-09	-1.085099146768904153e-09	-1.654699143611623974e-09	-1.522547605265592456e-09	-1.703169570070442877e-09	-1.186718201488865192e-09	7.127735543421471120e-10	1.883009077634525269e-02	2.697388319027749993e-09	9.083689658531616920e-09	8.327583474773247639e-09	8.868111842243194627e-11	2.396279180508303715e-09	8.077295823546820604e-10	7.299410258324830203e-02	-1.298461076630772942e-09	-5.740789946908091069e-10	-7.744168199053523392e-10	1.350823295855869294e-09	5.097976208377224400e-02	7.224606841334939559e-09	3.119500287769192323e-08	1.837790919099590581e-01	1.664065816530832030e-09	6.437772617049941697e-09	9.664843961482377788e-02	5.142620256874660739e-04	-6.638077642564937491e-10	3.021237226845335770e-10	4.345137621011538695e-10	3.782280883992892720e-09	9.625410886177599226e-03	1.102812799546734868e-08	4.924904096313530268e-08	1.771572331253887800e-01	3.416295539938575083e-09	9.561913333993967002e-09	1.564355368066621121e-01	8.895442384926971262e-08	-8.385142939746482505e-11	8.834809970386469212e-10	-2.031920412165120145e-09	-1.764577232355303309e-09	1.661546952099912938e-09	-2.009488840398918250e-09	-1.912039808258267955e-09	-1.949028543035351613e-09	-2.092389320209631886e-09	-2.106528541508645371e-09	-2.029002625305746151e-09	-1.418184517288042899e-09	-1.737598740593619806e-09	-1.208955220678191670e-09	-6.492082324433226286e-10	1.079099990494796160e-09	7.275749229966456077e-09	2.365244058476521789e-09	4.553401821728241538e-09	6.387778711144204492e-09	1.125909523543550987e-09	3.293515728338236977e-09	1.144860791372346029e-08	4.456130707594289225e-02	6.794263919083541531e-09	5.918102980469898666e-09	-1.035483392291631127e-09	-1.419073665076922453e-09	1.260460931670867837e-09	-7.109273739570793465e-10	1.681743968826988749e-09	1.725800843682682528e-09	-1.426273745208883900e-09	-1.032051110352841490e-09	1.828234530972448334e-09	-1.688151095545403010e-09	-1.882424187367223956e-09	-1.928668780469808462e-09
8.561275572174914614e-09	3.211252493862211929e-09	1.480563696177290062e-08	6.474496766447892694e-09	5.778094244902538311e-09	4.617123397079808134e-09	6.076615086512450508e-09	4.530294018677500117e-09	3.515530706870022405e-09	2.762739692246041428e-09	5.414017350521813931e-09	3.767381831719382125e-09	1.350446525892926641e-07	4.101525256987112884e-07	6.161768329710854420e-06	1.628501297899597374e-06	2.056145790835026398e-05	6.294411443564751308e-04	4.044844236840338278e-07	1.148995107367370118e-06	2.029209639084494660e-05	2.271844154737729566e-06	1.394567870073892483e-07	1.900673254591668379e-07	3.250926605968708543e-08	8.229561233425576438e-08	7.469405864914845662e-06	1.464554455079880748e-07	3.224156024041193981e-07	4.844683894420068612e-07	7.407630793494964308e-08	1.455912471512706008e-07	9.544050587306591443e-07	1.932647242885459915e-01	4.164370606486413316e-08	6.099135773556728060e-08	3.651692918992815551e-08	2.601211078301308231e-08	2.518343819336289001e-08	3.428261018302413111e-08	3.361884832181214504e-08	3.179497488339061177e-08	3.184337114230896501e-08	3.070700410815458596e-08	2.920672639836035288e-08	2.437026961398436085e-08	2.758689892101040079e-08	2.477397442748351505e-08	3.912807118345482032e-08	9.612505134428237323e-08	2.965380321505947311e-02	2.162567636032392785e-07	7.581714968799404346e-07	1.869568171213010695e-06	9.508612087107061116e-08	1.976347533001969070e-07	3.061336475081081051e-06	5.679076620670406306e-02	4.576502446948381436e-08	6.582431810509689320e-08	5.479746989100721680e-08	1.288538256525230251e-07	5.300499003756103944e-02	3.281425016073283857e-07	1.527478430147730897e-06	1.734469944907652550e-01	1.355817754965225680e-07	2.938708688343387250e-07	9.915809893634351668e-02	1.029423461139800783e-04	6.433404250327349866e-08	9.082334391467440988e-08	8.992908690757385134e-08	2.214190613541009211e-07	1.893240765526702169e-03	4.671447746312977775e-07	2.417750753604440950e-06	1.737318244963712566e-01	1.929314922057221545e-07	4.055101439927830964e-07	1.611903612952193254e-01	7.315554129480136836e-03	9.103077342178560160e-08	1.256661937429212098e-07	1.826789147549531568e-08	1.786328925957613059e-08	2.559885954502639842e-08	2.402164411422591737e-08	2.447768184352589016e-08	2.350878795932546880e-08	2.042355736525351999e-08	2.116766566430179214e-08	2.143421131442298065e-08	2.269617885629529294e-08	1.787435850526445724e-08	2.233410105742626207e-08	5.235775175859733561e-08	1.132981227529297100e-07	4.206323461281292068e-07	1.964796748389202031e-07	3.341699516519936732e-07	3.999987186319215089e-07	1.278283812810610206e-07	2.356405424726186478e-07	8.798194629875509554e-07	4.973680259203802634e-02	1.100168832963519839e-07	1.465453267113924637e-07	4.200998060602415862e-08	3.644200844858201049e-08	4.174246391612990098e-08	4.988634079883505534e-08	5.280231917167347895e-08	5.154144316094002897e-08	4.372719194881911286e-08	4.462350072385766341e-08	4.787847226506306431e-08	3.820352709253452521e-08	3.420638880082955651e-08	3.283772842242344241e-08
