-1.192829243281773145e-09	-2.911496838515798628e-09	-1.363317200018196670e-09	-2.519399227068266239e-09	-1.764280569052880357e-09	-2.559735970798259205e-09	-2.459638557142948970e-09	-2.672767761512355008e-09	-2.477568873150726702e-09	-1.883553220497739025e-09	-2.687020110142025635e-09	-2.705417925361825045e-09	-2.058915589484234028e-10	-1.152833027928126281e-09	-1.493962993295966871e-09	-6.269834384005070717e-10	-7.139852398166068462e-10	-7.638106264433032636e-10	-7.826950402145848441e-10	-1.026473699522277981e-09	-1.196328784257408747e-09	-1.586663048032678422e-09	-1.142006558195465426e-09	-1.382992690996091294e-09	-1.811611878906192412e-09	3.153786275783928244e-10	1.795580998213874846e-02	1.199456235839953306e-09	4.310550833183387987e-09	5.352815108331912190e-09	-2.661604449275701075e-10	2.896778090803658047e-09	5.212783939639427377e-02	1.439140318573318145e-01	-1.620617234947340360e-09	-6.096381808500979976e-10	-1.933919849796615965e-09	-2.320881621179392186e-09	-2.481498519000214697e-09	-2.173712130992139152e-09	-2.238323059385809052e-09	-2.283705589473161809e-09	-7.305933224675321490e-10	-2.318688678352806601e-09	-2.406908032681754729e-09	-2.413170113042986672e-09	-2.055307542996730820e-09	-1.687351239109621250e-09	-1.578070091288239400e-09	2.954501307908532785e-10	2.582643131414230284e-02	3.054914967502499535e-09	9.991219592192763771e-09	6.790482357861497842e-02	9.208152454176915140e-10	6.573570434697314401e-09	5.550943639715476795e-04	3.879942773311623183e-02	-1.321258380484746932e-09	-4.567762876879965989e-10	-7.134331168360690311e-10	1.770966760805825474e-09	3.453078777050593078e-07	5.633064173530541013e-09	1.495711010922800364e-08	1.505740610176420080e-01	2.337676664214671902e-09	8.780861917672359752e-09	5.571264128033294138e-06	4.950064268128787548e-08	-7.034966677439648170e-10	2.225398988159477783e-10	4.616437599202792995e-10	3.635866155540201582e-09	4.872226040197597045e-08	1.032937380199020756e-08	2.587050261380622753e-08	2.885134196846194099e-01	4.212976341193697203e-09	1.094101945980271618e-08	9.593333003703347073e-02	1.444105491405127674e-08	1.241010526468813240e-10	9.017095921897514107e-10	-9.389622582335417076e-10	-1.959686657356906782e-09	9.161759201517047758e-10	-2.305441485024892088e-09	-2.285580257480776984e-09	-2.195785655237510545e-09	-2.277574656996367507e-09	-2.293160168045054680e-09	-2.266170211762982186e-09	-1.233562024100913458e-09	-2.030600170676621468e-09	-1.194581938639368524e-09	-2.576893461641944611e-10	1.612202637645928194e-09	8.094714380171556565e-09	2.556933510169335350e-09	5.035836392272408762e-09	8.748665681737146216e-09	1.967852035460815340e-09	6.884617363274337771e-09	2.237579256437634972e-02	9.551384324276203375e-02	1.193847740780552267e-10	6.807719668280599340e-10	-9.065977871884604859e-10	-1.823276350794450119e-09	-8.576320347591790124e-10	-2.402480582080089848e-09	1.541400412148355957e-10	7.146895079694002942e-09	-1.998273417250121497e-09	-2.118339173760635384e-09	6.549905754350041582e-09	-1.394596455608988099e-09	-1.579354304755783173e-09	-1.850444952240719988e-09
-1.756379837043339059e-10	-4.781508910727141666e-10	-2.220597455262827062e-11	-4.243907561364940724e-10	-4.082111164452274084e-10	-4.518883353061717060e-10	-3.684176942047742275e-10	-4.693197597203927435e-10	-4.459858226334280891e-10	-4.598073407144033530e-10	-4.676497203501436165e-10	-4.257935700224329475e-10	1.210301276835711175e-11	-2.508139265718813871e-10	-3.033681981507991246e-10	-1.672144750760069787e-10	-1.879016871736119142e-10	-1.999878103138421616e-10	-1.697496249549548638e-10	-2.128908763464934114e-10	-2.420339456378898801e-10	-3.121198190954415299e-10	-2.387051331075897768e-10	-2.709968149391190654e-10	-2.424790331928875360e-10	1.040409737443147408e-10	2.017531751431886344e-02	2.148697151933608875e-10	8.207727233464488845e-10	2.639847814999893319e-09	-4.228925146905342949e-11	4.784300836906449903e-10	3.606762046135007782e-02	1.470703651475744334e-01	-3.414746848570638570e-10	-1.188064183128998736e-10	-2.787567225801228923e-10	-3.765700004679163477e-10	-4.516074417429993410e-10	-4.060256638426010974e-10	-4.168689144683781591e-10	-4.244669036736506802e-10	-3.393913479139420224e-10	-4.162602642298837443e-10	-4.312556818811865111e-10	-4.557413066131003108e-10	-3.448572392909264018e-10	-3.971412584604449961e-10	-2.289617354001765162e-10	9.090901727672074403e-11	1.753616199270730328e-02	4.851341722797224079e-10	1.588079479222190820e-09	7.176388927466022249e-02	1.028133198572496503e-10	8.333744051776880796e-10	1.278849667775286934e-02	4.767751144040162370e-02	-2.488847173309563331e-10	-9.583887688743732035e-11	-9.101932845758782266e-11	2.626790686607289928e-10	1.385203463159020958e-08	8.805745324064001373e-10	2.246337819428225182e-09	1.400670196705507131e-01	3.491081459519261234e-10	1.245883181492578908e-09	1.608892883426846933e-07	3.909344062809209541e-09	-1.643572680653503070e-10	-1.454114250566490059e-11	4.404213028214685990e-11	4.035804425385502588e-10	2.782790795702751957e-09	1.653314966557424593e-09	4.102723737991017541e-09	3.059572794391612338e-01	6.928958351783749973e-10	1.776101200432238543e-09	8.253234972496134580e-02	1.797175852896510550e-09	-3.357907372276244691e-11	9.954091260838212132e-11	-3.445132127351776047e-10	-2.880473418099639723e-10	1.133650670659364997e-10	-3.178923932750600479e-10	-2.912635450802096445e-10	-2.347050565746013216e-10	-3.260886055864557492e-10	-2.882608880546031653e-10	-2.616218326552746918e-10	-2.797636958362176050e-10	-3.310810935260732079e-10	-2.699820365460763550e-10	-4.707170282882658463e-11	1.614620558183576274e-10	-3.313285200426554358e-10	3.755694941142330291e-10	6.397694946134370744e-10	7.762348778635089459e-10	3.212471442497942323e-10	1.079354626257487232e-09	2.752919110773136696e-02	9.083460632082056285e-02	2.289840584434060028e-09	-1.673442315006167704e-10	-1.642347533155781747e-10	-3.145374492394769568e-10	-2.002573347371273600e-10	-3.211327438854458647e-10	1.824684731482038905e-10	3.863047163291710010e-10	-3.686715207608566800e-10	-2.238067827235843487e-10	1.980197886029076876e-10	-8.965301243386360062e-11	-3.236059462014798005e-10	-3.541381282022406803e-10
-1.748576690884943993e-09	-1.891961828609777638e-09	1.094946372583370052e-12	-1.621796790277060314e-09	-1.471359595396335452e-09	-1.671228680924919178e-09	-1.544115080501149072e-09	-1.660296484580063048e-09	-1.663427779509989319e-09	-1.645830594883160072e-09	-1.756638797755796210e-09	-1.705962672805210036e-09	2.263843977888330844e-10	-7.108499733657261046e-10	-9.140212646450497303e-10	-2.755606241748325593e-10	-3.565286356850797488e-10	-3.983386200760155679e-10	-3.444798706637729679e-10	-5.145212072398571256e-10	-6.315586859232496515e-10	-9.491317585051353185e-10	-6.534594272117963357e-10	-7.997071876124637398e-10	-5.971796228546062521e-10	6.444369935870935746e-10	1.455215808362001276e-02	1.074021312303982787e-09	3.408498736675297804e-09	7.029007906583642641e-09	-1.824794863513649986e-11	2.099338392667168585e-09	4.560307184487902288e-02	1.462354915502951935e-01	-1.069373199042353759e-09	-1.752549312465076796e-10	-8.405217445463401620e-10	-1.328077243676258171e-09	-1.623444527216301127e-09	-1.416176418594919724e-09	-1.462239743570122265e-09	-1.490317539545870896e-09	-8.928816013063797989e-10	-1.404022921491174059e-09	-1.529485613376006299e-09	-1.641751625989088130e-09	-1.326940292060168196e-09	-1.448707063970870385e-09	-7.286746080974969871e-10	5.536240139222109535e-10	2.829705595030716433e-02	2.332068517950899725e-09	7.221023632141419427e-09	5.074311502265953233e-02	7.659066678572382007e-10	4.409554318613901874e-09	4.203002726052370197e-05	5.201516029679625203e-02	-8.173386556781188380e-10	-1.497456152137136742e-10	-1.594486925408491455e-10	1.451124733373849097e-09	5.834554861591945172e-08	4.245477561922336303e-09	1.103851347583083886e-08	1.602263314345220291e-01	1.798372035334258032e-09	6.154066541010595424e-09	2.104923064780221293e-06	2.542466364133663355e-08	-4.158597278704883287e-10	2.680984625350292487e-10	3.850505394745830490e-10	2.293378746134333337e-09	1.594764892552361122e-08	7.563602929127383434e-09	1.874728422800534147e-08	2.994737028157263836e-01	3.156894288891688125e-09	7.943478663652362829e-09	7.233029175051579329e-02	9.842365357045419429e-09	1.426015013338865279e-10	7.478181791964301903e-10	-1.391370013775951456e-09	-1.238443491352400547e-09	4.228568835510674312e-10	-1.222277732151695568e-09	-1.134228133064019124e-09	-9.260865484123327868e-10	-1.295025778266113468e-09	-1.177278915988531618e-09	-9.871339496381613182e-10	-9.812355488470823241e-10	-1.309798672793090974e-09	-1.044173939301247344e-09	1.617335887554418716e-10	1.419957966510575995e-09	2.322437450188991031e-09	2.013887943394848791e-09	3.630259243408082310e-09	5.648280038472283882e-09	1.470018779489792931e-09	4.728005101549828118e-09	3.769955935977228195e-02	9.277975430104246080e-02	6.134396095345626158e-09	1.092544079309566003e-09	-3.887422569434703710e-10	-1.173538056641858579e-09	-2.003792575866594692e-09	-1.812847078103198983e-09	-8.283545080819098079e-11	2.618405011171423570e-09	-1.326941225138421384e-09	-1.575483293731729997e-09	5.031167405819202485e-09	-6.749441051431849986e-10	-9.543813061818230184e-10	-1.149759508232434204e-09
-6.118265973850099386e-10	-6.483071088141824703e-10	9.004772566890720246e-11	-5.531410158648462689e-10	-5.375512164690853868e-10	-5.810024927600240684e-10	-5.291191603025056471e-10	-5.845406799304273477e-10	-5.781100260078030369e-10	-5.578976398659453927e-10	-5.807626401497619208e-10	-5.892498883958997507e-10	-1.307152866521052976e-10	-3.606715765134094337e-10	-3.890680710966314055e-10	-2.178893531479367205e-10	-2.253782509640683920e-10	-2.276791547599284235e-10	-2.431124203748381117e-10	-2.832973686588498484e-10	-3.101236002499118600e-10	-3.851822270942524044e-10	-3.140558257075239862e-10	-3.753449349102173302e-10	-4.185471785567278409e-10	-9.651125980362281355e-11	2.736425657653899710e-02	1.180816679037251829e-11	5.518918242435168667e-10	1.521909734409525938e-09	-2.299054756324385305e-10	2.696194620300040201e-10	4.886363483732834162e-02	1.373915626449477290e-01	-3.243916107155355179e-10	-2.931665605228276863e-10	-4.232809586100533094e-10	-5.323487288649899702e-10	-5.748760568396026238e-10	-5.369875840750456248e-10	-5.461940327493263773e-10	-5.513915149000039168e-10	-3.743583909239361370e-10	-5.459358900423118099e-10	-5.683314050087083446e-10	-5.763686598253308595e-10	-5.185989818412431977e-10	-5.065509339779963311e-10	-3.653388411628216099e-10	-1.433934898886344449e-10	1.848024213886685294e-02	2.932173127461497888e-10	1.367407277352059427e-09	6.413009104572878205e-02	-7.129735438044711745e-11	6.921057086916862882e-10	6.226848336213452556e-06	5.506127898362652567e-02	-3.422237579423564649e-10	-3.225204550314585567e-10	-2.048512766454566402e-10	2.404460178219710441e-11	7.333070471567419926e-08	6.940815353046012567e-10	2.098023438500835828e-09	1.344149958065735950e-01	1.261835744847132138e-10	9.557619211373955602e-10	9.800333758112304615e-08	5.646798422270210399e-09	-2.520584899262183335e-10	-2.406420868842330538e-10	-1.283790733804483084e-10	1.405898135986815758e-10	6.214401182128800849e-09	1.395592760238519625e-09	3.750735162089227199e-09	3.282898781665118948e-01	4.284590813829846419e-10	1.429513746624686321e-09	6.617060192133356056e-02	1.753746603514631300e-09	-1.546203718764403740e-10	-1.502462773518196256e-10	-4.853563264912344192e-10	-2.096343131045393501e-10	-2.552480189424041354e-10	-4.722064439943529472e-10	-4.278677991491967260e-10	-3.417756303955999089e-10	-4.906564249832510786e-10	-4.470719859012320336e-10	-3.442447595592486494e-10	-2.851960753360134801e-10	-4.741641203278434142e-10	-4.055860977247183261e-10	-8.784060443497078307e-11	-4.816835712204993880e-11	1.222458632714092120e-09	2.646900147643927581e-10	7.410137479768852398e-10	1.727753163749945313e-09	1.180458968449628807e-10	8.546068974953025368e-10	3.691801750303552732e-02	8.290902800079730239e-02	2.006102825667598448e-09	-3.345182678755273160e-10	-1.703183979658349388e-10	-3.057319413947086063e-10	1.241991474426311806e-09	-1.345694938553215216e-10	1.988449868449306978e-10	2.904532273900847779e-09	-3.514369692742522799e-10	-1.239610760173611559e-10	2.770786524825095071e-10	-5.203527077081003608e-11	-3.462255107687085162e-10	-4.195687748988098604e-10
-3.218891047785767120e-09	-4.210096476633217540e-09	3.959874311516745942e-10	-3.702769793164571050e-09	-3.287079025791074474e-09	-3.816243285626727556e-09	-3.569039456832409437e-09	-3.899591237500602554e-09	-3.792024852292956028e-09	-3.388246080963459932e-09	-3.907074080961302789e-09	-3.930025110722926755e-09	-8.352160948276249826e-10	-2.217111479493446985e-09	-2.579844143275898158e-09	-1.754664112195938422e-09	-1.794044856472318580e-09	-1.814571791401068784e-09	-1.894899412175360313e-09	-2.177489321828688676e-09	-2.331468023510981225e-09	-2.717996357026492742e-09	-2.387820534980336403e-09	-2.622331235028517260e-09	-3.111018078572139029e-09	-8.647138726551741601e-10	1.426650715573447858e-02	-7.464988604232153234e-10	1.909899453230179192e-09	3.808454605226314295e-09	-1.967201270449051189e-09	7.131939579816508255e-10	4.922814847345318573e-02	1.453135101413286501e-01	-2.692087641861224402e-09	-1.185608320113716205e-09	-3.215154510454513038e-09	-3.239232978556802093e-09	-3.675626343730648964e-09	-3.300071815590390731e-09	-3.396647734184607324e-09	-3.480318364987886652e-09	-2.671851499491753446e-09	-2.863000954079461667e-09	-3.470824809721530823e-09	-3.694108671812523789e-09	-2.844083754257298354e-09	-2.783614806074547597e-09	-2.773455726158750106e-09	-1.272245168689478541e-09	3.371638574829191604e-02	8.174736051526740722e-10	6.650344957976093128e-09	5.478060076186459793e-02	-9.046194943396994045e-10	3.462894033355369423e-09	1.124045701638447297e-04	5.840120247416752397e-02	-2.601157645286183290e-09	-1.987142090974813564e-09	-1.895127645086727823e-09	1.258990960319806066e-10	3.147232481088703407e-07	3.101744642426394196e-09	1.105035916770525427e-08	1.394145739935392092e-01	7.112796635359554875e-11	4.340124381995430716e-09	2.602390129032168237e-07	5.097470730005628056e-08	-2.061202602257408852e-09	-1.374368061737621837e-09	-1.268533872031058692e-09	1.138813378104786406e-09	3.363197229061135026e-08	6.884478509384494877e-09	2.000713712374651320e-08	3.479962141520384633e-01	1.876679293800366468e-09	7.559634128236280405e-09	4.659571815124477490e-02	9.839038546855242454e-09	-1.511811098970553579e-09	-1.045719043797711973e-09	-1.437098577785488000e-09	-3.449308014893744826e-09	-1.266436703485006845e-09	-3.199524076105243359e-09	-2.878676815442371444e-09	-2.329708187436428537e-09	-3.267037685729336982e-09	-3.040698526364392648e-09	-2.594244454133052288e-09	-2.052525880709423588e-09	-3.189883826527095900e-09	-2.493997383412483762e-09	-2.867341192358187053e-10	-3.243691439120053120e-10	6.999725099817184679e-09	4.347277051074448881e-10	2.431186698193403979e-09	5.654684255530602646e-09	3.652300540663639580e-11	4.151931226674583031e-09	5.761871635260791547e-02	5.255543522449408755e-02	-3.099836784346066130e-09	-5.042651511725927919e-10	-1.328249025119420001e-09	-2.565328865423531447e-09	-1.168120620536019826e-09	-2.665215289112485591e-09	-6.841232041533984474e-10	8.915181920051962340e-09	-2.759302820088821335e-09	-2.705605167762061113e-09	1.489032957845685155e-09	-1.823619700297903373e-09	-2.842703220389067285e-09	-2.931949040622710930e-09
-8.342179252224960753e-10	-1.405405969858405753e-09	-3.915472985993547013e-11	-1.234501777308833530e-09	-9.348546195390741148e-10	-1.301535714113215931e-09	-1.184693453426524792e-09	-1.283890258245607533e-09	-1.270723756326365097e-09	-1.234091146366061752e-09	-1.287129444730818253e-09	-1.279049840039701933e-09	-2.594720310989597780e-10	-7.105993651680404707e-10	-8.500466892072260845e-10	-4.564820142809930435e-10	-4.840090759169859380e-10	-4.963360970226722235e-10	-5.652047586087209629e-10	-6.518032114255436215e-10	-7.081581956814637380e-10	-8.872633892472165286e-10	-7.286720911954323551e-10	-8.178489326019326133e-10	-8.548579835908582271e-10	-9.621516304994096271e-11	1.343440031994455608e-02	1.997671321454382533e-10	1.655824550834785896e-09	8.565918966483494630e-09	-4.702586028082189905e-10	6.712344830413726805e-10	5.983916896870609264e-02	1.398786171539557754e-01	-8.335924011782953660e-10	-4.418163603739931685e-10	-9.690884285556775580e-10	-1.254463073587365121e-09	-1.239044843378470884e-09	-1.147162592282951650e-09	-1.165064035829853431e-09	-1.185069681734518691e-09	-7.223204991462723675e-10	-1.181253653930398265e-09	-1.228680524456651838e-09	-1.270261679993188120e-09	-7.897831678175944792e-10	-6.621282491236512839e-10	-8.313329585845173845e-10	-1.311585062425126242e-10	3.247587867470672768e-02	7.629527924669085546e-10	3.316839173184922587e-09	3.951661878792830929e-02	-1.509302381190668179e-10	1.396692701380026459e-09	6.305782044279928003e-07	5.743862821988372086e-02	-7.760004064523027700e-10	-4.551513351091339981e-10	-5.019110572312248061e-10	3.348193166434298644e-10	1.497738371802251914e-08	1.797122174388791246e-09	5.335365378530998833e-09	1.535708247795601611e-01	3.343001062115973711e-10	2.111541130431598647e-09	1.013618874528163012e-07	8.945637414678587701e-09	-5.897286950336986838e-10	-2.896693062566623501e-10	-2.329119692293489234e-10	8.387235143123733579e-10	1.010474635202259676e-08	3.455914822395326330e-09	9.123059809293389968e-09	3.023829275260145333e-01	1.109477343663989822e-09	3.486015363998943804e-09	7.936512025876371612e-02	3.735860302009794586e-09	-3.447781327816311931e-10	-1.063835953480352341e-10	-7.310192434544650053e-10	-9.153394358025642663e-10	7.013891262744272692e-11	-1.024500562555837899e-09	-9.425042693897123466e-10	-7.848768213765472214e-10	-1.080972354332164035e-09	-1.002361291136702910e-09	-9.348293753932581801e-10	-9.441048455071035405e-10	-9.740071722429017173e-10	-8.643019433712241775e-10	-1.963080027853907391e-10	1.451990663992823731e-10	2.549414413796401451e-09	7.700620435017537472e-10	1.724167328932213795e-09	3.740061546800030795e-09	3.653432188762851411e-10	2.120055493954091026e-09	3.471327939998587742e-02	8.738376783129858660e-02	-3.298901816082950309e-10	5.948770981278077639e-11	-3.879854654918219292e-10	-9.193858871694663806e-10	-1.318247007609822733e-09	-1.179877629209911668e-09	-2.993690481241871996e-10	1.506060165787355670e-09	-1.069063663085785070e-09	-1.135284199232273539e-09	1.587000254157635452e-09	-8.757512740642512013e-10	-9.840800872508862913e-10	-1.036804881351009281e-09
-8.176914868515055524e-10	-9.142333397581733813e-10	-1.465189212856612080e-10	-7.998373717819349851e-10	-7.541980488661868844e-10	-8.399949879031823572e-10	-7.881875431937245405e-10	-8.231552794540599103e-10	-8.323727083890022364e-10	-6.838297724736340057e-10	-8.482527425348611211e-10	-8.714398839075736320e-10	1.568696087500822711e-11	-3.492882201235401707e-10	-3.983374607655769553e-10	-8.096506670264042975e-11	-1.139803145902778079e-10	-1.321717877456611862e-10	-1.289401424394947474e-10	-1.991938173674028017e-10	-2.432119223950692581e-10	-4.081364922960589690e-10	-2.207560990753976411e-10	-3.784570595528149811e-10	-3.837212117576693705e-10	2.374371253938980027e-10	2.055751566258252547e-02	6.013327367558972461e-10	1.921074617431787180e-09	4.144607216099774181e-09	-2.527718410336027451e-11	1.020813673182891244e-09	5.309411713020448231e-02	1.362154952381928463e-01	-3.484817065061897354e-11	-3.510787717667576399e-10	-7.384585986176598285e-10	-8.562498381559979270e-10	-8.257326160488495768e-10	-6.959720348504607317e-10	-7.218428546025332651e-10	-7.312123493819973640e-10	-7.450392063404069108e-10	-7.358037961479547737e-10	-7.587656784882563396e-10	-8.168686991075730269e-10	-7.665122186032288534e-10	-8.168907631488710718e-10	-4.010325785119884409e-10	1.642526928707087996e-10	2.352724822985841416e-02	1.191217803517337266e-09	3.605135926088832073e-09	7.005841735562180761e-02	2.676070462304347679e-10	1.744289751038852103e-09	1.163350348461856616e-06	4.783707432327220094e-02	-1.603325434869920179e-10	-2.143455492118864735e-10	-1.178985078143777684e-10	5.053583424538616327e-10	3.615373845170907511e-08	2.074063830962501231e-09	5.270532139426988432e-09	1.384068640055240995e-01	7.421343123739671740e-10	2.541377416067428945e-09	2.790736019885480751e-07	1.212461822869615948e-08	7.513538370319885545e-11	-1.178754659312815288e-11	1.917971967658080597e-10	8.507417473062654905e-10	8.730097264061469700e-09	3.742770774259786810e-09	9.168989029158330715e-09	3.182161025153378286e-01	1.491288656993499105e-09	3.766771992083525051e-09	6.690553013271156868e-02	4.230026374959545289e-09	2.525310320478952896e-10	1.844420914974170839e-10	-5.896029264210822434e-10	-5.914076646664324572e-10	4.534576164347851268e-10	-6.229465602457933937e-10	-5.974412287712317364e-10	-5.338343958088349264e-10	-6.474383588584345313e-10	-6.256010468450364818e-10	-5.852472525660463739e-10	-5.356186097745188044e-10	-5.622246083390585630e-10	-4.483142524443470783e-10	-1.824867556170384433e-11	5.520369941470209082e-10	3.313745427709388580e-09	1.129152382527968412e-09	2.216831462019174320e-09	4.377045554062297766e-09	7.092621584332613918e-10	2.231210091511471543e-09	3.427269575920952049e-02	9.090738287429125930e-02	7.391745328186040395e-09	2.838816537641222744e-09	-2.744089154304527057e-10	-4.677555164972134762e-10	1.121090515835902427e-09	-4.379358567420509329e-10	1.442148631106795707e-09	8.224441301394902569e-09	-1.008443676790652277e-09	-2.199234477111756218e-10	3.201212938612820820e-09	5.713894313226785219e-10	-2.948947679017115708e-10	-6.901044017486716868e-10
-2.574491431905315963e-10	-3.144166763919435636e-10	2.191593490513031582e-11	-2.643398091566967280e-10	-2.393757766979451151e-10	-2.891318223520199891e-10	-2.576209933971814560e-10	-2.805302126328193855e-10	-2.791933207939653799e-10	-2.125158501468247674e-10	-2.870618652893718950e-10	-2.834634808669494031e-10	7.019960127161178159e-11	-9.249884810369781513e-11	-1.274990358589863964e-10	1.936574266110199525e-13	-1.828168454022277879e-11	-2.888882648002510141e-11	-1.184760814450095537e-11	-4.810917821092713966e-11	-7.163392460443186530e-11	-1.401917699013028612e-10	-6.042604117726581405e-11	-1.065590093012180476e-10	-1.233625736284205950e-10	1.701046159966526472e-10	2.065691781266897412e-02	4.100399537041316856e-10	1.104040110754835519e-09	3.227234121104683558e-09	9.453773287001387295e-11	5.862886383020499648e-10	4.612129546845452482e-02	1.420076070844570881e-01	-7.358456433037000817e-11	2.942663046169153925e-11	-1.233851852858585034e-10	-2.151231700377595385e-10	-2.382208172339725654e-10	-1.991692861226413490e-10	-2.075831906297187339e-10	-2.136173841498967303e-10	-1.333610686158289235e-10	-1.805081218192689142e-10	-2.186780632321111073e-10	-2.554340292423689695e-10	-1.797042830972560265e-10	-2.304899675840112622e-10	-1.036002299401694187e-10	1.790855545649065376e-10	2.171186370528539744e-02	6.518010700809658580e-10	1.812221627316393858e-09	6.444237860042678623e-02	2.402057854217534739e-10	9.564162433486149853e-10	4.862827090061902929e-07	5.021201433322143581e-02	-4.088491816714652592e-11	4.173970470209998240e-11	1.255616791771219006e-11	3.549125699940813573e-10	2.266131507364126419e-08	1.056450257501071371e-09	2.496584836083479844e-09	1.549584499629968470e-01	4.608365532293603840e-10	1.311425422137181748e-09	7.734672833527756114e-08	5.661516292649443293e-09	4.676092107800838283e-11	1.333227185863721707e-10	1.296591374762289530e-10	5.461157701481386882e-10	4.647765317514341911e-09	1.804318765371458492e-09	4.202929710123184805e-09	2.587123543597240061e-01	8.423024077545037247e-10	1.973148290309654636e-09	1.264745946074862792e-01	2.370466311319864571e-09	1.776925792322403968e-10	2.583600525995974585e-10	-1.840320162361361386e-10	-1.171726681299507041e-10	-3.759547327228763259e-11	-1.874015668190049981e-10	-1.680014390052332601e-10	-1.296237182773299310e-10	-2.064135084688167067e-10	-1.904634420866561038e-10	-1.647655868083341438e-10	-9.371002849734595773e-11	-1.748481924838912095e-10	-1.771152449940960175e-10	1.914219796857942510e-11	2.742497413802521185e-10	1.058031059612582187e-09	6.169401805681533641e-10	1.054593136614132724e-09	1.950663485379103572e-09	4.166736902736321397e-10	1.121329541112328704e-09	2.516288471692094270e-02	8.953900913043856546e-02	4.606714188411766136e-10	2.593539578922051427e-10	-1.592352721056637496e-11	5.028028567726169672e-11	1.090012566926602281e-09	2.906276898371451527e-10	4.054676723027546153e-10	3.940718198818639530e-09	4.981708689798932826e-11	2.823788685124639844e-10	6.355316975361441116e-10	3.180234562041219467e-10	-1.009275701776624597e-10	-9.417847492005636384e-11
-3.051266533144391855e-09	-3.366000269566113082e-09	1.000379587619294009e-09	-2.963995402384716090e-09	-2.635056080808946769e-09	-3.005455947053417255e-09	-2.858168931586733684e-09	-3.040625867556130119e-09	-3.104573678405324423e-09	-2.843465111757713552e-09	-3.044354499483903327e-09	-3.078960282082447759e-09	-1.751726869749070443e-10	-1.707934698611554764e-09	-1.930135587851123028e-09	-1.079352701118005769e-09	-1.155045897926981774e-09	-1.187310022014478228e-09	-1.195358633403269808e-09	-1.416219382683366695e-09	-1.556493078985858721e-09	-2.010088026931915295e-09	-1.607165405904336139e-09	-1.850638032417091692e-09	-2.094984741036218830e-09	-2.601498703804974826e-11	1.136038498945395568e-02	2.745659283311574575e-10	3.114677745296504986e-09	7.854023428564824176e-09	-1.013016481749600441e-09	1.796026890446675310e-09	4.494508560130286434e-02	1.468342112158801949e-01	-1.727633033621151683e-09	-8.936586617198672297e-10	-1.264862659632257806e-09	-2.560512252708505076e-09	-2.672310492879359215e-09	-2.647670707652443924e-09	-2.671515722373860969e-09	-2.730568810334989417e-09	-1.710006663319400506e-09	-2.799637762931576493e-09	-2.783211075344755933e-09	-2.967291107060280938e-09	-2.349814222947202705e-09	-2.693400203401701156e-09	-1.917720366623770994e-09	-3.281806724312056583e-10	3.110338689166087384e-02	1.927074933851735384e-09	7.972260687710796582e-09	5.829200442925605574e-02	1.490501005815024368e-10	4.932843641139061804e-09	1.144283379069760236e-04	5.557082683572161369e-02	-1.717803494593177438e-09	-1.028939524515557145e-09	-1.100015054659081117e-09	7.445943144553682586e-10	1.032830687490023114e-07	4.223183074805449640e-09	1.228993238647501249e-08	1.487463975381557169e-01	1.317319620785723478e-09	6.555460300969166285e-09	1.661307230820507530e-06	3.032769222852860880e-08	-1.207881861943744555e-09	-5.492561786270528219e-10	-5.534243086191186508e-10	1.761368038835572314e-09	2.377446661431020955e-08	8.257296664761728086e-09	2.177277301502917979e-08	3.203730547632210879e-01	2.968459166130636997e-09	8.797230554085665900e-09	6.681068606683217281e-02	1.060245273470059888e-08	-5.369936907485677672e-10	-1.330029493669652943e-11	-1.818092449367040599e-09	-2.443004389994088817e-09	-1.235372814541053750e-10	-2.464034521646980802e-09	-2.359731232696556661e-09	-2.137515306562266606e-09	-2.529253091943132914e-09	-2.378592012665147616e-09	-2.236382298556072689e-09	-1.586521890017040086e-09	-2.435674593490902054e-09	-1.988944296169734471e-09	-8.762895312514429503e-10	4.556226036169889099e-10	6.942024128273605379e-09	1.426609808676760911e-09	3.401842850351811898e-09	6.327435764026392573e-09	1.193554996808922506e-09	5.382301725905806245e-09	4.562746284850680706e-02	7.022025180705568359e-02	-1.818433849159483874e-09	-1.718259922065289069e-10	-1.246119886564603483e-09	-2.278697417195755654e-09	-2.145096042460499299e-09	-2.734644949998664832e-09	-8.749346934819323157e-10	5.024612327274321926e-09	-2.311345019612083757e-09	-2.607673613539476585e-09	3.412179323208025586e-09	-1.340079247815846299e-09	-2.209730932571503712e-09	-2.355952865905870470e-09
-1.962083041700854781e-09	-3.390460779870284488e-09	-9.342036087038347528e-10	-2.965745623579310134e-09	-2.548887517981074626e-09	-2.765668680083116698e-09	-2.895241973142920207e-09	-2.999885949982113067e-09	-2.990253054085033759e-09	-2.190253957156655795e-09	-3.103980003768942031e-09	-3.139882031114903253e-09	1.689538687557143327e-10	-1.232067717140517317e-09	-1.491507283702480722e-09	-4.071182118671024880e-10	-5.267655528159975943e-10	-5.942394982579837412e-10	-5.668146273372468550e-10	-8.577905664555449800e-10	-1.045586128491106584e-09	-1.626124586203408017e-09	-1.067788207647231964e-09	-1.427356527530065338e-09	-2.085405774063531908e-09	5.535755773335229345e-10	2.408272602689823932e-02	1.421490388419784660e-09	4.885446695559704089e-09	8.178401563212301446e-09	-1.946852036521154407e-10	3.555470585783364387e-09	2.772656072869807489e-02	1.561332367604484628e-01	-1.268528276727093594e-09	-4.117707385107191621e-10	-1.608079162330213978e-09	-2.557659158216496460e-09	-2.692623061443023751e-09	-2.448916367763681250e-09	-2.477265296825426205e-09	-2.532592715431313101e-09	-1.869459548607214932e-09	-2.282810580043676788e-09	-2.538088716933705530e-09	-2.830037781249450438e-09	-2.096307616096068902e-09	-2.351434224228541291e-09	-1.755867845641176926e-09	4.997674040804197374e-10	1.881692149865666838e-02	3.928147397764849132e-09	1.256344945462368476e-08	7.984196135687880724e-02	1.369805284404280689e-09	8.259821329664146112e-09	1.681372882000615110e-03	5.350164961823836857e-02	-1.174797604376279036e-09	-4.620057654950808774e-10	-6.816534593715554493e-10	2.190084502344486010e-09	3.612353001263706137e-07	6.861305263984558517e-09	1.768607645785014492e-08	1.279682797738391775e-01	2.924055614121316166e-09	1.023621896143231034e-08	2.279983035356651438e-06	7.391035601685422096e-08	-4.502475040157873394e-10	3.447078621773760720e-10	4.428909022477906626e-10	4.451896067255003174e-09	8.278873984463305863e-08	1.267669103877762234e-08	3.154181328919387843e-08	3.109293606482819161e-01	5.241888750971117479e-09	1.328971752882440993e-08	7.586997822809274372e-02	2.512485046635610807e-08	5.697148775584470870e-10	1.336066953050168102e-09	-1.162159366519302495e-09	-2.544034433176015836e-09	-4.705933639503331845e-11	-2.392271839950832776e-09	-2.139224066848463493e-09	-1.560593947615121975e-09	-2.484762829739996870e-09	-2.309738440519587305e-09	-1.832944616200365693e-09	-1.626070568153531874e-09	-2.326353563697468049e-09	-1.331414053001452879e-09	-4.355868380171352422e-10	1.864478777019477692e-09	1.261190586199478358e-08	3.146815432338794667e-09	5.884587780211675394e-09	9.276602638431049487e-09	2.527557064004374356e-09	8.104884206881904397e-09	5.516928368108347386e-02	6.827573980607237747e-02	-1.953801169865452100e-09	4.479385563791759995e-10	-9.851039348119279695e-10	-2.163029671115356383e-09	1.580559271320192690e-09	-2.710527024806736725e-09	7.833018190670620611e-11	1.474752146899829348e-08	-2.244609683142325545e-09	-2.524134593999948509e-09	9.954411546379032415e-09	-1.302290246686724267e-09	-1.817748154820728460e-09	-2.061121132850873308e-09
