-8.937747289684474643e-09	-9.979149030834554347e-09	7.404949942961485983e-09	-8.878315801381651264e-09	-8.081272008014047101e-09	-9.752305758671307160e-09	-7.205495782498464510e-09	-8.683821341195448532e-09	-9.548892088331615272e-09	-8.960510787950742451e-09	-8.884654530414688842e-09	-9.091004037568766402e-09	-5.101775789128873553e-09	-8.915667397829567494e-09	-1.069356109297932644e-08	-6.877125028508405377e-09	-7.884864284448104439e-10	3.536558718592934471e-09	-1.017000082401473865e-08	-8.073800576966284988e-09	1.271902919901631374e-09	-7.152811882272982654e-09	-5.999351189684875718e-09	-8.374920392676746687e-09	-5.518614180640215709e-09	6.033285261988423426e-10	3.354870885312600387e-02	1.169135942741327696e-09	1.224934736868100733e-08	1.355777343545084705e-08	-2.926934303579651470e-09	4.617322165748866422e-09	6.816218596724497869e-02	1.631643621298298208e-01	-7.707096093241292491e-09	-2.616143490180897018e-09	-2.800819368109935870e-09	-4.428197544158653293e-09	-3.063282478125631974e-09	-3.873433545726240078e-09	-2.428225431526071416e-09	-1.449866269948009846e-09	-3.917379772921291296e-09	-4.332701458059249439e-09	-3.348247985189959455e-09	-5.102411163047525448e-09	-5.901045055377542191e-09	-5.732461935696907017e-09	-5.501776307594341129e-09	-1.143172393104461561e-09	1.320128332641573587e-02	6.041438475011142645e-09	3.096197695576348482e-08	5.619899401158856556e-02	-8.326970714858919405e-10	1.146735240867335521e-08	1.192846445853887674e-03	7.823051141837139566e-02	-5.891697745539210522e-09	-2.389027508843022314e-09	-2.213960796189994849e-09	4.984722752357539788e-09	4.119761617112359148e-04	1.296116564297897707e-08	4.864016574286267193e-08	2.513679521191692912e-01	2.947422258390464394e-09	1.867478903833864915e-08	5.757145615418983459e-06	5.758733793423288303e-06	-3.950529573061500036e-09	2.318941744538560165e-10	-9.974444798850073385e-10	6.712553406502667174e-09	9.608848027644695102e-08	2.396071854297031879e-08	7.179354902804497570e-08	1.392258485418506886e-01	9.699456637311542911e-09	2.683575560986957933e-08	7.760522559658918074e-02	5.322034129619449343e-08	-1.560940135426265268e-09	1.791151205841906965e-09	-5.933600686231188770e-09	-6.110799329844283399e-09	4.808644706772586245e-09	-5.374813742414829396e-09	-4.377536039869962970e-09	-3.198714512792292129e-09	-6.550357391613630714e-09	-5.567353709474959095e-09	-2.688016945784806969e-09	-4.201446259234143756e-09	-7.264298644054988224e-09	-5.224429764235317441e-09	-3.625399483620790473e-09	2.724218840510611696e-09	2.200325842641917753e-08	4.917205530389688884e-09	1.347376198098238052e-08	2.076966133138168687e-08	2.720852902301302348e-09	1.509358075536568296e-08	2.771747386470699293e-02	5.054056499743545677e-02	2.413530478720685635e-08	1.046705295317598795e-08	6.403570007296895444e-10	5.613406697288591430e-09	3.696240326359673305e-07	1.607125753262319253e-08	4.694015162172830503e-08	3.941667804743720360e-02	7.138348075427451859e-09	2.184329556267383291e-08	3.044870953768376876e-06	8.929704582814400659e-08	-3.037721451136815593e-09	9.968798786994337019e-10
-1.176311049429147944e-09	-1.287877196462953615e-09	1.037893983165997986e-09	-1.082906594891719749e-09	-9.909079386031686047e-10	-1.218066162159780128e-09	-1.010169177864937966e-09	-1.120120584220115792e-09	-1.074785168638214376e-09	-1.206228310471762196e-09	-1.115446044111243205e-09	-1.112147723455227829e-09	-5.909770460460645236e-10	-7.307276364925994693e-10	-3.416357191397880302e-10	3.254087175192167403e-10	1.568949308765671239e-09	2.770318932160231794e-09	-9.826271306346280438e-10	-1.046702095373299698e-10	1.435965879626719658e-09	2.652078801881059623e-10	-1.627481339171040196e-10	-7.376763550456134031e-10	-7.094537108037527373e-10	6.309641475939065883e-10	2.047389338000634579e-02	8.858881870658685963e-10	3.462027185480042749e-09	3.398052408302809482e-09	-8.507129081288245791e-12	1.456202518238451939e-09	8.830502995434690028e-02	1.573253450398439390e-01	-3.457767353875504048e-10	2.742569224481482177e-10	-1.802671312640287294e-10	-5.137863260475452584e-10	-1.073905625597303778e-10	-3.253702902834281468e-10	-1.470244028588680356e-10	9.790266767146065771e-11	-3.427349804688146621e-10	-3.654467688196366841e-10	-2.309987421498021129e-10	-5.157987364165933975e-10	-5.266561434182218166e-10	-5.988039042740154890e-10	-5.067562782485212452e-10	2.370540716703725033e-10	3.834008999657367162e-02	1.717221087035083060e-09	6.521425843288026770e-09	5.636726677095454247e-02	3.397285654340927449e-10	2.534654534499013686e-09	2.920102080045882217e-06	6.174432053459139036e-02	-2.845703366550533932e-10	8.469657613730976175e-11	-5.072118281948108547e-12	9.468800549659636670e-10	1.428033519211399270e-07	3.030919783472633630e-09	1.003835213363140515e-08	2.490596917567819146e-01	1.089887596550162096e-09	4.054603053255446000e-09	2.318874008882599535e-06	2.439647171624720898e-08	6.344303102590517824e-11	4.484534078943993209e-10	3.386846179532607577e-10	1.562136857194994785e-09	1.185262220070093366e-08	5.241746032985705438e-09	1.478968909484643871e-08	1.532741682471475686e-01	2.244424035179781786e-09	5.558869209102392250e-09	6.111141489861657283e-02	5.711981811989565369e-09	4.963341019198009457e-10	7.494730356847787545e-10	-7.123468288104769202e-10	-7.846503577882802652e-10	8.181567501312885492e-10	-5.865724796420951375e-10	-4.047430023008712353e-10	-3.128659630722484399e-10	-7.219702792412937564e-10	-5.850831230998973461e-10	-3.020130095352822208e-10	4.436308478370135556e-11	-7.141417478089080724e-10	-6.712086394240210514e-10	-2.576988785692600473e-10	7.495205725035943368e-10	4.109007190192143875e-09	1.789291363014024665e-09	3.076902441817928029e-09	5.529119718218097475e-09	1.211123968731011629e-09	3.404669585218932066e-09	1.382767191317287557e-02	5.569875422416285110e-02	1.450657961888424433e-09	-5.445919035263704859e-10	4.971590936849327201e-10	1.169690377958373241e-09	2.789973932946462966e-08	3.482635272644178473e-09	8.930993320469338860e-09	4.446485449100726073e-02	1.740762612672858104e-09	4.788392775060316667e-09	1.942001170348910667e-06	1.005002267865231759e-08	3.321570730982572987e-10	6.373551491475726607e-10
-1.189841732054618571e-09	-1.303958411161903655e-09	1.406277710091358336e-09	-1.112232241986131008e-09	-1.036227116146460458e-09	-1.101177410463612356e-09	-8.621165818099861401e-10	-1.090362576616947784e-09	-1.185500429627452683e-09	-1.309377567007039906e-09	-1.126709524483419900e-09	-1.025263897671746141e-09	-6.716625083378676701e-10	-9.107175853399793277e-10	-1.353420069251727421e-09	-1.398333140221422715e-11	1.205403838295376942e-09	2.006499770473271447e-09	-1.236525291167091643e-09	-3.773587969422052782e-10	1.366660879981172651e-09	9.866430651916763239e-12	1.008359489560790667e-11	-7.343260425863545400e-10	-5.923800270068217295e-10	9.170295554411038525e-10	1.860180571929527168e-02	1.154776315237177953e-09	3.640382817162680693e-09	3.630248581093293956e-09	1.827022142917527008e-10	1.907069646009719607e-09	9.135940375357300136e-02	1.552470126462328071e-01	-6.044616972688276921e-10	2.204710981183046535e-10	-3.317357625632512859e-11	-4.002298034434594297e-10	-1.927911438804422371e-10	-2.437214293003399008e-10	-3.821586914013989716e-11	1.983699763883263441e-10	-2.001466342493428266e-10	-2.647799536841372590e-10	-5.903100986564705351e-11	-4.394919652099786249e-10	-5.198790291911317069e-10	-5.299242717312273585e-10	-4.130597256762716776e-10	5.331346371034350644e-10	3.524963110795158866e-02	2.255008633810212225e-09	7.798097987029084594e-09	3.533826439865821178e-02	6.962835509691748429e-10	3.708104355926748455e-09	1.610639263316994429e-04	7.262274769180342149e-02	-3.245103816922945765e-10	3.148674801234981818e-10	1.702540442595326106e-10	1.537743813786063691e-09	3.233022330686968505e-07	3.750836884478000566e-09	1.152220777541875375e-08	2.496397573227949473e-01	1.501199995510934601e-09	5.062930720884885055e-09	9.434378706771302997e-07	3.798419308214286947e-08	7.126601405197650394e-11	7.410835390982740157e-10	6.771179407666573162e-10	2.384125450474265156e-09	1.865080214855139997e-08	6.276591620961319441e-09	1.689660511741539829e-08	1.634041867633644896e-01	2.833149347283163414e-09	6.784842668020498907e-09	6.120959137408069767e-02	9.151985899455392854e-09	6.250875179409240905e-10	1.224211032196251269e-09	-6.479712978574170157e-10	-6.519017159969981883e-10	9.168253701523490701e-10	-4.441996457372607519e-10	-2.196304556929560885e-10	-5.364768344587990610e-11	-6.445197428466985925e-10	-4.263719483651235811e-10	1.171348597409555161e-11	-7.117135278548951092e-11	-7.330065070315075846e-10	-4.834353334214550885e-10	4.632020409121543198e-11	8.326283426833227216e-10	4.276770897790899801e-09	1.997419260522938958e-09	3.573433855368252168e-09	5.804495857733586465e-09	1.399724538130411716e-09	4.153286580016992670e-09	1.385949996273216911e-02	5.515962827080814201e-02	1.339059172090566598e-09	9.447991763699344014e-11	4.951547375978575880e-10	2.188017422579243183e-09	2.407859123505736702e-07	4.195841685638406642e-09	1.025573916846692766e-08	4.814431001994307763e-02	2.172430111692100500e-09	5.871159673291913518e-09	1.389235857687509033e-06	1.516910736766893392e-08	3.488802793462906857e-10	1.002908825678935000e-09
1.257142052886805139e-08	1.480458814503556418e-08	1.508886107122813776e-08	1.652483711849169217e-08	1.724010502535410610e-08	1.675030600540028440e-08	1.500108020863708136e-08	1.614015436285664294e-08	1.592712586736861790e-08	1.446471241842594458e-08	1.585092353129887116e-08	1.308605501026982104e-08	6.589600897909053127e-08	1.583418165559139671e-07	2.331296982275128512e-07	2.545638088874332100e-07	2.867905633114873335e-07	3.649084297473056393e-07	1.582253464839010158e-07	2.236930285263379212e-07	2.202122478638503723e-07	2.162007467298415416e-07	1.072144407133473694e-07	1.248643878602303822e-07	2.821748591630086272e-08	6.124501388912820602e-08	3.342756384296093758e-02	1.112789367569403189e-07	2.402565532838239572e-07	8.831512786260954614e-07	6.096442338356190469e-08	1.236159077171287121e-07	7.389274233122146429e-02	1.595363551416401071e-01	3.964430884004378037e-08	5.765734216519067608e-08	3.419432155716538995e-08	3.309731377996894063e-08	3.422295997990853924e-08	4.485609613767191670e-08	4.444510308941804060e-08	4.317603419142552843e-08	3.963703500267327642e-08	4.175923719772360533e-08	4.195374977900208234e-08	3.540739458496047745e-08	3.605311993317043438e-08	3.412668010493105927e-08	3.233602483024139941e-08	6.958307142914017807e-08	1.726897821786013698e-02	1.408480002970051067e-07	3.420356926266797091e-07	3.444270923650882832e-02	7.373443055819704335e-08	1.486445008728248934e-07	8.851997196140883387e-03	7.294508080238815140e-02	4.765231172217730505e-08	6.281965501674897331e-08	4.338910333926846774e-08	9.784913032252398092e-08	1.621604895230955407e-05	1.955779483449262713e-07	4.818063016623212929e-07	2.635130151848405489e-01	1.005813507150154028e-07	2.023299597517146582e-07	1.474031853110450917e-05	2.040556220302699931e-06	6.309054724365556876e-08	8.185253428633382542e-08	6.106884542694024300e-08	1.197054936189805631e-07	5.170721024077309680e-07	2.901224656799187481e-07	6.994321462492041467e-07	1.453125247000897347e-01	1.507917565314401504e-07	2.972719018690612317e-07	7.488409878416218968e-02	3.980244050711665481e-07	8.031196125310226130e-08	9.633590521491208063e-08	2.318330352191070318e-08	2.898565830312899683e-08	3.296810374178738059e-08	3.839407974369456531e-08	4.248714710271722953e-08	4.563907449020130598e-08	3.134590502866366879e-08	3.608295847940865676e-08	4.284631288471197592e-08	3.693585546291230433e-08	2.902703895012014381e-08	2.927561464507888480e-08	3.922811776886977906e-08	9.610600038939854282e-08	3.342155864327103944e-07	1.420648277525521689e-07	2.278531039664081844e-07	3.902132063388727700e-07	1.005136910865498531e-07	1.948475451867940477e-07	2.507831258647071071e-02	4.652544613039582416e-02	1.048483804557879283e-07	1.003333215068707515e-07	5.010232128294424293e-08	1.119696284483906582e-07	2.865855546721067558e-06	2.205889765093162357e-07	4.728261895695288855e-07	4.425774092876114812e-02	1.194099966828245136e-07	2.295123100256460767e-07	1.374256581643514287e-05	7.567025736271758141e-07	7.134652489228170276e-08	8.899960247840113983e-08
-1.156368235442556005e-09	-1.292628692769035975e-09	8.815001868248646592e-10	-1.022924770711882978e-09	-8.614381177916109595e-10	-1.223771269251719261e-09	-1.167312709750013249e-09	-9.203033246571412270e-10	-1.195804788054410798e-09	-1.303380867021470110e-09	-1.138018515377414666e-09	-1.075079608175711365e-09	-3.860553967615313852e-10	-1.768953910840613894e-10	1.869489371978037629e-09	8.967819597507734006e-10	1.488207424215777336e-09	2.788790561683518779e-09	-9.375042537857421852e-11	5.809979577251166970e-10	7.947392048988972940e-10	5.777870922482006907e-10	6.796159150267355908e-11	-2.953672838130857123e-10	-6.416533292298925736e-10	4.411075473854633753e-10	2.579202502923797283e-02	8.885751927160496335e-10	3.376800054322045354e-09	1.035939248758986853e-08	-6.694506504288165037e-11	1.299689501578662962e-09	7.099523759919112997e-02	1.731114478981862215e-01	-2.107611018705123268e-10	1.452198547281902512e-10	-1.046050719939555585e-10	-4.430108813143847663e-10	-2.046340398314521286e-10	-3.041337195601051850e-10	-1.939990413912436451e-10	-2.103179702977775645e-11	-3.301708912934517697e-10	-3.897764283138404959e-10	-2.762567324797418381e-10	-5.428310778943314409e-10	-5.057717252793503014e-10	-6.420073969174156363e-10	-5.838271817960911678e-10	2.305308741196903768e-10	2.031005000623813811e-02	1.670292189691061962e-09	6.055674051990340571e-09	4.813513475324581598e-02	2.538321671051977877e-10	2.083997716709765054e-09	1.039141503924925249e-02	6.213031278002154045e-02	-1.714303344392268259e-10	1.319754810801921085e-11	-1.484281923520379759e-10	9.706254957859333324e-10	1.086562445242823870e-07	2.999027060369391013e-09	9.463072366949346824e-09	2.589401573328392603e-01	9.453865930260922970e-10	3.342383764532183364e-09	2.361014903561254289e-07	2.691590143343991044e-08	1.772713251602916872e-10	3.771644660577287274e-10	1.457901256283457376e-10	1.319659620994260067e-09	8.869753031448531760e-09	5.131507785506632980e-09	1.394235460832318620e-08	1.333914337628204216e-01	2.274804027471524353e-09	5.526292722139245059e-09	8.682873937767666972e-02	6.640984039787333271e-09	7.228753880960011756e-10	7.958872075972474349e-10	-7.753541354397627458e-10	-7.502249150040593844e-10	1.129408151154723001e-09	-5.720163729601828851e-10	-4.180123456860042911e-10	-2.700601877501645985e-10	-7.644487771012659248e-10	-5.854879509462017486e-10	-2.655443004775943583e-10	-5.012579931585818529e-10	-6.896114266926757133e-10	-7.342142125912615855e-10	-7.379682226039745902e-11	7.714719289742729202e-10	5.367919880446149057e-09	1.626037844291629321e-09	3.711419382283303578e-09	6.624182646323684884e-09	1.029972194174733140e-09	3.386938344401349394e-09	9.077300304536829734e-03	5.895593799859066841e-02	2.832283425316270357e-09	-4.282425552606349635e-10	2.314811962165617042e-10	1.130145480690670373e-09	2.880359131369148833e-08	3.370519679936732140e-09	8.332988644039438839e-09	4.193962088320903753e-02	1.587590821575442226e-09	4.158491775736332116e-09	6.569132059208465250e-07	9.053283228888494771e-09	4.687917961770269588e-10	5.408381719149376780e-10
-4.589993147580073563e-09	-7.671946387461189563e-09	1.646909303390267566e-08	-5.777276342727432815e-09	-5.468435212879846831e-09	-7.003252085848562682e-09	-4.463045378989338222e-09	-7.281061161712629770e-09	-7.389117884302172864e-09	-4.025116066510163792e-09	-6.486019429217082699e-09	-8.173728429665395409e-09	3.532196647028057302e-08	4.628509363999997679e-08	1.178030284511230063e-07	5.259174365826035849e-08	7.343412556303485484e-08	1.306797225339650174e-07	4.469705036486252166e-08	5.383080909446705947e-08	6.486407406545457169e-08	3.476837438899077293e-08	2.188830711943595595e-08	2.467208563603570813e-08	5.815660865658620830e-09	3.843668589246613772e-08	2.986182406547321574e-02	6.047957204900123201e-08	1.394968380428750770e-07	2.572923033054516077e-07	2.979048004970100306e-08	7.891936220649868802e-08	8.119259286029047173e-02	1.625078636490984996e-01	2.207514514435082618e-08	3.240125117393888808e-08	1.974640891360009326e-08	1.023515778474186878e-08	1.440168186564039473e-08	1.549612762690465449e-08	1.718243491055573709e-08	1.972469995983261562e-08	1.352729517861273978e-08	1.396363105925423946e-08	1.593601192419217092e-08	9.952058209529733500e-09	1.129164520846261902e-08	9.066236866753173643e-09	8.531708040960241356e-09	3.729611757501930070e-08	2.299089914188289646e-02	8.973635475320254562e-08	2.526971054005382829e-07	4.775991527589017877e-02	4.337994203753362805e-08	1.210379347700590404e-07	9.015705286676201817e-04	6.885785164888766352e-02	2.172837363589455413e-08	3.273015035970392051e-08	2.224475636937260230e-08	7.235965383163401334e-08	7.401059857970553307e-04	1.305930206233520367e-07	3.538369771453061627e-07	2.563669716838429813e-01	6.438867545989068295e-08	1.605555936102196127e-07	1.835287352055808179e-05	1.901146580892140259e-04	3.898479110979115089e-08	5.626018534279737532e-08	3.676187880005954011e-08	9.067188396270776875e-08	7.060248955869599383e-07	2.005598977215432832e-07	5.088696089554783479e-07	1.424370273241010176e-01	1.002426629724095443e-07	2.131771683878891075e-07	7.494648670246670252e-02	4.372402104576754964e-07	5.337510649458506630e-08	6.665181049933585439e-08	5.985909790899106817e-10	4.023957106879339934e-09	2.791280065603370356e-08	9.609254469910678494e-09	1.291728855150048342e-08	1.455890692932706324e-08	5.336773336084384189e-09	9.589788615766944868e-09	1.369605351789851874e-08	2.170373608234627224e-08	5.966083188075328230e-09	6.702119735534556135e-09	1.812206537606320898e-08	4.379977461300556166e-08	1.168199991573798395e-07	7.380584882313793320e-08	1.103776737345690766e-07	1.489258812759362405e-07	6.429564070067085516e-08	1.352577735103545061e-07	2.254457471384571990e-02	4.224640778521356749e-02	1.240252174928279821e-07	6.882160829323194039e-08	3.173111935495776875e-08	8.211083318378628686e-08	8.485454546424523150e-06	1.472826187699422553e-07	3.584692450811825698e-07	4.637245648930857916e-02	8.385740941589713013e-08	1.918492270302384831e-07	4.611482559717567948e-05	2.935187452781881379e-06	4.889012521470697673e-08	6.394497854395805456e-08
-1.185221470310323529e-09	-1.330533947866588676e-09	1.160329829894006246e-09	-1.083213220219596288e-09	-1.125207837479011759e-09	-1.157476110080980009e-09	-1.062508783144907217e-09	-9.213623820187323872e-10	-1.241695555239640337e-09	-1.247426074766204320e-09	-1.147442112898213816e-09	-1.128177777497958312e-09	-4.267177209491753578e-11	4.127098813042044507e-10	3.494910732202602913e-09	2.102727150916101451e-09	3.023033466725880172e-09	5.020703894763390696e-09	5.813024310588212911e-10	1.754705730206545589e-09	2.221800376725942163e-09	1.111727158113116661e-09	2.370905202208942352e-10	-1.437627865568662300e-10	-5.101996058129856290e-10	9.216220311689373280e-10	1.834210389224295856e-02	1.933444364028022869e-09	6.148775482681772553e-09	2.928111492798144672e-08	3.748281499469252141e-10	2.369347625588402479e-09	8.560730996442444951e-02	1.650208190092575244e-01	-3.044321925640374260e-10	4.363742632615995392e-10	7.241784612941151923e-11	-2.935700541118895091e-10	-1.444838556427065249e-10	-2.860906010748925988e-11	1.494856520972451781e-10	4.156468754739843586e-10	-7.354840271632732336e-11	-8.594830016783508726e-11	7.420257724480130504e-11	-3.150421185390409055e-10	-3.999841590822475261e-10	-4.663939103498115014e-10	-4.225715690075211288e-10	7.511973714809574098e-10	2.978126163713944868e-02	2.895552631293657875e-09	9.388378168975220534e-09	3.257654895377257165e-02	8.515173196338495626e-10	3.671891124014971996e-09	7.910215338806954669e-03	6.491105710198764867e-02	-1.432228799417111988e-10	4.078936756109314651e-10	1.457393921868939019e-10	1.861037670038810051e-09	3.063710522903463384e-07	4.743997759113914311e-09	1.397452306525083854e-08	2.620903869909502193e-01	1.830951718723396010e-09	5.491229721801789071e-09	4.515856214331720995e-07	4.009146079530242752e-08	3.190138904803218892e-10	9.322561803975698721e-10	6.056049054429763004e-10	2.368280689769464336e-09	1.419476911759631529e-08	7.793320318461622635e-09	2.065948041272190631e-08	1.554545365860081352e-01	3.578309603485634565e-09	8.260601715571604634e-09	6.679588852263100562e-02	9.240106099881490920e-09	8.811899107610194463e-10	1.340189824349376795e-09	-6.605533786615728835e-10	-5.508755426067664867e-10	9.720904529077396578e-10	-3.384151616253837478e-10	-1.253080648016355936e-10	6.821486813555112921e-11	-6.089069212588609968e-10	-3.879448169253350481e-10	1.132313508514903362e-10	1.689934512213211341e-11	-6.724171409863797090e-10	-5.581510621770072795e-10	3.098464141395532075e-10	1.652576250178274523e-09	9.234178301685422612e-09	3.181891282032352961e-09	6.619205569625342036e-09	1.428823843571372827e-08	2.093861934385385037e-09	5.915240253116029086e-09	5.230860165557897623e-03	6.414101550992475087e-02	9.913086230078191830e-10	1.678647695528555288e-10	5.592647289324509052e-10	1.966955257283976837e-09	3.816803598853661967e-08	5.084052048866514683e-09	1.197490251138942343e-08	4.213565757153949626e-02	2.618252720813424857e-09	6.510046303380338850e-09	1.252611075031936874e-06	1.419740950611792659e-08	6.427043091750242708e-10	1.172220993369472224e-09
-6.600259804827286730e-10	-1.310967472283799528e-09	4.912026361056473798e-09	-3.459373570294375380e-10	3.343481102008030006e-10	-7.181763339597437678e-10	-5.223949908626776114e-10	-4.843456103723528701e-11	-7.246650275440277921e-10	-1.356071312389158477e-09	-6.364838595202225148e-10	-6.239714700754192266e-10	1.796977360921875131e-08	2.093492668926319232e-08	2.064280518779381424e-08	2.172097945261887762e-08	3.183949178233193102e-08	4.269855505628954587e-08	2.339792814798581015e-08	1.743057104623102313e-08	4.436974318985841873e-08	1.821262420490665839e-08	2.276111442281294104e-08	1.895186720526646764e-08	2.867649309045568140e-09	1.230541066911639977e-08	1.936247569846308650e-02	1.927404838645964227e-08	4.330170613533065762e-08	1.130078533660593151e-07	1.008991856921628181e-08	2.456477453297458022e-08	7.109337980636973309e-02	1.737524193596897693e-01	6.762203670838282707e-09	1.008356012601910503e-08	5.304049297749018095e-09	4.256787187111422264e-09	5.098496034561236044e-09	5.788601472361452357e-09	6.381083718483616719e-09	6.784410187309870471e-09	5.430095353662632773e-09	5.275392731399877331e-09	5.806003594266860308e-09	3.977485530650173293e-09	4.270791217440445052e-09	3.554251287057987770e-09	3.440424724486496049e-09	1.211953752347891798e-08	3.458715905834749971e-02	2.801307007544894354e-08	7.704093754508610105e-08	5.719493085672323202e-02	1.353832954535173980e-08	3.298652696132212737e-08	1.001122016887382067e-02	5.213455681437110384e-02	7.127190876880077249e-09	1.035705021995576783e-08	7.527250003429812216e-09	2.270673110076997090e-08	6.401845666036838070e-04	3.990355709502454231e-08	1.075880107039252024e-07	2.594914104695160151e-01	2.004588239617157837e-08	4.604771795525684038e-08	6.185666161323760859e-06	4.067767682527771529e-07	1.056274109408172311e-08	1.437800802288440065e-08	1.157059710285361641e-08	2.820581512336585073e-08	2.167976634650594182e-07	6.138310493981249719e-08	1.587184407967328885e-07	1.443278660428769788e-01	3.106768076656473908e-08	6.482763588357493063e-08	7.931428544051524754e-02	9.542843981532535769e-08	1.505197276100811145e-08	1.852236805733137560e-08	1.637353317673283253e-09	2.821914116514298513e-09	7.415362103258288597e-09	4.378762176797013231e-09	5.517487748936493727e-09	6.368648560424587798e-09	3.046697373652735601e-09	4.193423633995413488e-09	6.204702812575615635e-09	6.229180200802514347e-09	2.750478781494938025e-09	2.781949500791812996e-09	7.526121992769562853e-09	1.836193190009986953e-08	7.231114559321661428e-08	2.826344661515963961e-08	4.853498037676313129e-08	8.409020978598947746e-08	2.144484967254491712e-08	4.939840411090379703e-08	6.380520256411747505e-03	6.080014126137254366e-02	1.656406444502406540e-08	1.894634217458401502e-08	1.035139438450797535e-08	2.579309409118987132e-08	1.429227733673008893e-06	4.802507609877507886e-08	1.332942947075175782e-07	3.089507708951674120e-02	2.574047458786547543e-08	5.569420691365168665e-08	3.644568347723095791e-06	2.004455800750741502e-07	1.329036045597584902e-08	1.707851648973148244e-08
-5.980583689847560268e-10	-6.677279946986694671e-10	5.577690475713943459e-10	-5.247483698407474144e-10	-2.331001268831250442e-10	-5.790390773729294177e-10	-4.079067824713688272e-10	-6.124845308299189475e-10	-5.783631325261219524e-10	-6.100974629476240426e-10	-5.543679504331178563e-10	-5.341520482933318983e-10	7.984353361431057682e-11	4.478314673767325792e-10	1.742597017408147756e-09	1.458539765201767858e-09	2.219803178185192854e-09	4.562699734090417030e-09	4.861925605836991540e-10	1.194857672270988295e-09	1.582395040901826286e-09	1.076732890056816466e-09	4.290541611746966151e-10	1.929294671818775607e-10	-2.234654338693380779e-10	7.082244369631447162e-10	3.730313436823512463e-02	1.236071276760420923e-09	3.608326983774173131e-09	1.512143075939865215e-08	3.594756523392444822e-10	1.573426871815621873e-09	5.072933133039100179e-02	1.728515866115792887e-01	-1.262154113056354543e-10	3.802416647363848753e-10	9.034014344445202085e-11	-8.449361426647570701e-11	3.714311805035024864e-11	5.886629106933277701e-11	1.512960462102064612e-10	2.295337582044373193e-10	1.639969452616059272e-11	1.052894938068867933e-11	1.068964871031776064e-10	-1.426928977535787916e-10	-1.512613551378546283e-10	-1.775108996324769254e-10	-1.369977312510528644e-10	5.732058073804574255e-10	1.574251302550883427e-02	1.836865119113045726e-09	5.719620237352902076e-09	3.821198216575621281e-02	5.643873800981166119e-10	1.982572418649372192e-09	2.730460015256245404e-02	5.319799920446812574e-02	2.478064543837351123e-11	4.143828411756028960e-10	1.864922195555747617e-10	1.209065580580813553e-09	3.457605222108873626e-07	2.928794650534892630e-09	8.436852718938281007e-09	2.712308342635098568e-01	1.129367070323362040e-09	3.024494926175495702e-09	9.513574837591152604e-08	6.361430993346592194e-08	3.272452961000849827e-10	7.762838706915608403e-10	5.335689495506340550e-10	1.699762076086644186e-09	1.276808031609020945e-08	4.691600303258837569e-09	1.221134902564093606e-08	1.561729505228924286e-01	2.231960229747030182e-09	5.001869785944325093e-09	6.826706021232088750e-02	7.208372320186098259e-09	7.210914664229491256e-10	1.096150591122657309e-09	-3.231699743990021280e-10	-2.974681040429503700e-10	5.668669436551375682e-10	-1.189988221197662736e-10	-3.875069951871949326e-11	5.454496622278084225e-11	-2.704312790517548671e-10	-1.508504997204759535e-10	7.361999634014580346e-11	-1.084998839500210860e-10	-3.029529563718322629e-10	-1.652152084679567250e-10	3.133231834531289635e-10	1.056587286370707108e-09	5.133113040811874635e-09	1.758351121820130141e-09	3.179170499774160717e-09	5.600368334271016370e-09	1.281976136812417657e-09	3.333562240607080947e-09	5.967253807642156765e-03	5.799902121787434139e-02	3.012903320242747639e-10	4.252209927329093814e-10	5.115095324866157633e-10	1.419534364567713824e-09	4.038150458601694333e-08	3.252328225062070320e-09	7.791168847971865775e-09	3.427257957091491003e-02	1.647810656740493931e-09	3.862500493133383488e-09	1.074844840756179233e-02	9.037088930779740001e-09	4.933611249589003806e-10	8.547573670688236909e-10
-4.178002351839679741e-10	-7.193381672562879567e-10	5.861062928924584602e-10	-6.038921932417862768e-10	-4.842896168947000316e-10	-3.630954605714859099e-10	-5.608029096884336378e-10	-6.577008341597926482e-10	-6.497388431405588800e-10	-7.005034234956581806e-10	-6.060883453782947087e-10	-5.483340522894174113e-10	6.773681443807523449e-10	1.513716247385737927e-09	3.999447494601570659e-09	2.841890597072409062e-09	3.814517319979843501e-09	9.986339075199697307e-09	1.457764129376618630e-09	2.426584453256195118e-09	2.631984462598069933e-09	2.396104835775099417e-09	1.099230955081245010e-09	9.138056772798512551e-10	-1.394655027903389047e-10	9.082303846369767277e-10	3.372947240883177739e-02	1.800395894687933418e-09	4.822340099702471558e-09	8.554702754979283064e-09	6.398229202218098765e-10	2.347455479589649558e-09	7.364784677331748242e-02	1.630114145592908848e-01	2.078122014808754536e-10	7.465796326479772218e-10	3.633668217359602217e-10	1.086796061673524529e-10	2.382068953540423703e-10	2.617939184082011549e-10	3.530697790397170354e-10	4.969396181459480746e-10	1.938821511920313892e-10	1.895261851790918196e-10	2.882704496808164033e-10	-6.683175354581660663e-13	-5.088484869914552290e-12	-6.645562128605213045e-11	-7.539636030471671493e-11	9.939129313793221793e-10	1.345075890847016037e-02	2.725234898370899649e-09	8.060021681069901549e-09	5.388461809210597780e-02	9.953021760878063395e-10	3.217900290176369044e-09	1.209919906966746596e-02	5.667453864617101600e-02	3.046728385714744150e-10	7.360043262033349735e-10	4.455815621459490764e-10	2.177919133801504872e-09	3.442477834308101548e-03	4.219645330679561632e-09	1.186868237662550869e-08	2.520233019869966840e-01	1.759591437182643435e-09	4.685480730032974708e-09	3.114031053015678528e-07	6.302826758187929140e-08	7.367261820972896019e-10	1.235918724449282396e-09	8.518345802936010129e-10	2.680692031441124734e-09	1.950100399745515734e-08	6.727176441540682403e-09	1.755012322396516725e-08	1.291549040217668809e-01	3.221846662675813482e-09	7.190269898889286892e-09	9.634010614055306398e-02	9.751177546073744490e-09	1.268364565149081644e-09	1.669567366757163441e-09	-2.617984551842132355e-10	-1.188760906249430297e-10	1.026364114920862585e-09	5.153086882298093800e-11	2.333056675999565860e-10	3.941552885278787298e-10	-1.628658089603045909e-10	1.109702684180965685e-11	3.417821900764689885e-10	2.371017133473915467e-10	-1.822419877548186705e-10	-1.090092942483995460e-10	3.222978480779023317e-10	1.746382072962260994e-09	8.561115988480608623e-09	2.748608204598476863e-09	5.141072724546536229e-09	9.426937219230935589e-09	1.892907303077119529e-09	4.732098024056748594e-09	8.647505618728247231e-03	6.624720677455168960e-02	6.267012446416254273e-10	6.653974819526906761e-10	8.119343719900885391e-10	2.325835251632750759e-09	8.672408095889425097e-08	4.488954171124775028e-09	1.024868971202703737e-08	3.764492155479721991e-02	2.383660928932658481e-09	5.464191205840490589e-09	1.022202281797200567e-06	1.396392579366632570e-08	1.007643354994319545e-09	1.391882166017378783e-09
