-4.035209066120946919e-10	-4.532470016508725664e-09	-2.743362407675644512e-09	-3.370137938056062314e-09	-2.677077450835962414e-09	-3.806630519025210616e-09	-3.098223719705066380e-09	-4.012314146482359698e-09	-4.303405309702377649e-09	-3.986250988064805195e-09	-3.955220508535083312e-09	-3.113764819599581485e-09	-1.290113136470151216e-09	-2.981035746818922857e-09	-3.446081241634369818e-09	-1.569482250108816784e-09	-2.659737121926831780e-09	-2.982039494103553038e-09	-2.152593638655622631e-09	-2.742183970454435906e-09	-3.471674355910235677e-09	-3.329457197162356221e-09	-2.759318941603286724e-09	-3.435350458359937123e-09	-2.868650813004345735e-09	-1.331632111231405344e-09	2.425548820414969581e-02	-5.774013426204339046e-10	2.258585298337616679e-09	1.971195638600205669e-08	-2.125526484672296846e-09	-1.907562408406662639e-10	2.102930718728403953e-02	1.653623628740609475e-01	-2.503150559709968555e-09	-1.430116397650637188e-09	1.878023658962492134e-10	-2.604042959385606211e-09	1.079021853266160526e-09	-2.054305261294751992e-09	-8.973872592745932449e-10	1.904448663987843370e-10	-2.403722760710849590e-09	-2.667338045671956749e-09	-1.300118175826659583e-09	-2.035307509075116896e-09	-2.968200101167348483e-09	-3.115600594606485096e-09	-2.875869990838914659e-09	-1.787877993447587229e-09	2.878474497886593375e-02	8.899933445751488249e-10	6.255270950585069751e-09	1.619311405670609272e-02	-1.621213229073888322e-09	5.022630298295256597e-10	1.677642253396868788e-02	4.982225888923517976e-02	-2.612077514789409881e-09	-2.049331052242799231e-09	-1.867629707095322029e-09	-1.098086922124562749e-10	1.199235586952260524e-04	3.060330584757801867e-09	9.326828605080523168e-09	2.045119263821919553e-01	-2.554162611834768947e-10	2.108929374617105004e-09	5.332942962886794147e-02	1.463679091020720708e-08	-2.127270124514935369e-09	-1.448962844328806301e-09	-5.951688843595497440e-10	5.573969139925512624e-10	5.032195915344501032e-08	6.174883692211771955e-09	1.416422062216498394e-08	1.870254534036813743e-01	1.255868236820430991e-09	4.624320813029127236e-09	1.066235852608636153e-01	4.346740037355016369e-09	-1.719770381016502386e-09	-1.371141198510403074e-09	-1.899567245786570922e-09	-3.739124748200792494e-09	-8.794439872381453729e-10	-2.934000154470781806e-09	-3.934265263678481986e-09	-3.877827355279701552e-09	-3.411992823196882328e-09	-3.679883779353524229e-09	-3.770280971706392448e-09	-8.935754111279506741e-10	-3.234504416950644363e-09	-2.947009012623942713e-09	6.686761635161137596e-10	1.302683574703749447e-10	8.722537693337604080e-09	9.554649956115186488e-10	3.528946819778857605e-09	1.292987089286310637e-08	1.516380664364654570e-10	3.592446685585322054e-09	1.059095764774832353e-02	1.155750387906889498e-01	3.273641971690918644e-09	-2.342333269162099131e-09	-4.489317216919883580e-10	-2.670049143149938300e-09	-2.396361427147243229e-09	-2.228181312648699629e-09	-2.087971431025572995e-09	-1.946007638735786593e-09	-2.489845323538462225e-09	-2.731814866763520486e-09	-2.479409461955167829e-09	-2.029541721726710799e-09	-2.808980554163136870e-09	-2.806962780028052146e-09
-3.209480719900494171e-10	-3.731015217281804076e-10	1.309002891502150303e-10	-2.880286775646561997e-10	-3.528222733643141650e-10	-3.629483899574684269e-10	-3.262497030268581159e-10	-3.363235514959564244e-10	-3.605306099731642167e-10	-3.770557220377475992e-10	-3.532207435615046934e-10	-3.097634265975680686e-10	-1.863045137780839340e-10	-2.572209999888356211e-10	-2.814242506115477650e-10	-1.745355384729665150e-10	-2.165391644772935967e-10	-2.318389359934576255e-10	-1.958474144780171756e-10	-2.553965003164092381e-10	-2.754609547028931771e-10	-3.102954777780630902e-10	-2.665430997902919795e-10	-2.792638480571239285e-10	-2.592119477929250942e-10	-1.794288533543825514e-10	2.532111146918855291e-02	-1.382785524443237664e-10	5.675684142612496678e-11	1.630998518551194063e-09	-2.208271217360893772e-10	-9.739352002664273991e-11	6.245009677575660660e-03	1.706350121110487006e-01	-3.241728799988726937e-10	-2.434103184510131774e-10	1.362893249095912205e-10	-1.963360038437217857e-10	-2.151922884944463692e-10	-1.706157150898759034e-10	-1.151350442884642310e-10	-6.150479448681395856e-11	-1.872460337921637087e-10	-2.064549322045854425e-10	-1.037185560354088604e-10	-2.232334739327836038e-10	-2.731166543812139177e-10	-2.799099996413070014e-10	-2.611637596595533513e-10	-2.094098695697456166e-10	2.260711216948771071e-02	-5.925132213128191534e-11	2.791700441640979285e-10	2.628675208619564788e-03	-1.980189113798373595e-10	-7.038988282956725975e-11	4.356848826823841309e-02	5.561631061649743163e-02	-3.105158466182513565e-10	-2.655071554045018032e-10	-2.297833418840485979e-10	-1.665463166798600836e-10	1.068605416652593375e-09	3.765435911614855576e-11	2.770396950625405853e-10	2.264584329813986718e-01	-1.180885317991585135e-10	4.530856757108898110e-11	2.630367491915715228e-02	1.189496720411680291e-09	-2.956693703911098216e-10	-2.400539166690541037e-10	-2.004222318374333285e-10	-1.644944777862617825e-10	4.691583401762782987e-10	1.796748152365961756e-10	4.775061440087669621e-10	1.951399788603889462e-01	-4.181146741212794389e-11	1.703790629321444802e-10	1.026230938118918995e-01	1.841160272311724442e-10	-2.703784370124825661e-10	-2.296140667450553076e-10	-2.910184095272448703e-10	-3.330133755136774660e-10	-2.910117257530536612e-11	-3.005108591522023599e-10	-3.045663689542635610e-10	-3.073058041359969496e-10	-2.872080357085910554e-10	-3.141420451080634163e-10	-3.140055287779814478e-10	-8.986981610249443041e-11	-3.332834549831000757e-10	-2.676484869364415228e-10	-1.564737402032906902e-10	-1.619093904845037601e-10	8.271108691321171112e-11	-7.001619670313290718e-11	7.213921157109536868e-11	5.333069180319195905e-10	-1.221939462134346056e-10	6.364853259795729757e-11	1.231069301582724852e-02	1.105424201066529805e-01	-7.963225215842794627e-11	-3.567932394340612997e-10	-1.756119041554437182e-10	-2.554882881849719654e-10	-2.223265744549383987e-10	-2.037031762106779677e-10	-1.934802557504431565e-10	-1.801167498273032919e-10	-2.251427232087770382e-10	-2.433021373124731263e-10	-2.239475388403204800e-10	-2.207955691809098775e-10	-2.623084226436815832e-10	-2.579483161417759739e-10
-1.364915152440373454e-10	-2.824230165465691815e-10	-1.215511260978231161e-11	-2.521170816416628899e-10	-2.619411326985115145e-10	-2.718839493211389343e-10	-2.106899202571858625e-10	-2.693003720100672257e-10	-2.726672823029203856e-10	-2.680877200929498498e-10	-2.796246525390688327e-10	-2.375002459746254661e-10	-8.915249898448682080e-11	-1.982580833952625759e-10	-2.227185730366017900e-10	-1.587817399525679025e-10	-1.828574613710363394e-10	-1.930698221892245954e-10	-1.352766821787379439e-10	-2.023440712572684995e-10	-2.189919952824755159e-10	-2.401657524714563849e-10	-2.092891055709508993e-10	-2.183626989373093481e-10	-2.045008720135026677e-10	-1.486159790606867374e-10	1.969821610889250368e-02	-1.092597809033607755e-10	1.828489294356965881e-11	1.064238605799207151e-09	-1.749454369804748121e-10	-7.069871071132882754e-11	1.122454970619852707e-02	1.719983990481809000e-01	-2.368610531589686078e-10	-1.651393518229409546e-10	-7.170293961745182990e-11	-2.333404603922691826e-10	3.037398676670199218e-10	-1.528954920572657061e-10	-9.170512599111096522e-11	-2.086425263626851466e-11	-1.754182796751300514e-10	-1.763639445632056182e-10	-1.484701874677343602e-10	-1.666858110531983508e-10	-2.285015806254818422e-10	-2.260163457603835182e-10	-2.135729840205489590e-10	-1.635885719477689762e-10	3.222641772041274361e-02	-4.998356899179769994e-11	1.830541253858155463e-10	4.933067075732158573e-03	-1.477669899113495592e-10	-4.629523382265358124e-11	1.622200972606889502e-02	5.858150074155976661e-02	-2.298009255485009648e-10	-1.924285587111365392e-10	-1.774385843905152437e-10	-1.097604165119659646e-10	2.216004619431321211e-07	2.574979374198046823e-11	1.907402518516736904e-10	2.125593925414364371e-01	-8.943074462911425512e-11	2.468057778530566934e-11	5.100709562501084399e-02	1.197277659335981326e-09	-2.173286538170499299e-10	-1.740908494049123631e-10	-1.620135028615275913e-10	-1.179505914404914888e-10	5.580760150132360598e-10	1.252183324472651925e-10	3.124199260065994680e-10	1.950191953553332413e-01	-3.232843130502816816e-11	1.173632560902578527e-10	8.885895818150545133e-02	1.328554250898659190e-10	-1.997339609263740207e-10	-1.694156241166973763e-10	-1.342687934920910518e-10	-2.403882525560457314e-10	6.207849707268093414e-11	-2.113475291875076932e-10	-2.419771349465603404e-10	-2.368439938307440591e-10	-2.286921907344916111e-10	-2.416224058155981716e-10	-2.424147854991029027e-10	-2.311642997457227479e-10	-2.105265039401920955e-10	-1.968967770583570564e-10	-1.212210283489024250e-10	-1.209482197892449650e-10	4.923660040323851375e-11	-6.272102145998682062e-11	3.142860068880916881e-11	3.164298099665656632e-10	-9.462003706383712807e-11	3.835089412826592912e-11	2.408629960469689871e-02	1.135846878411252425e-01	-6.006158155975234382e-11	-2.683602801692938841e-10	-1.303996747904012829e-10	-1.924293426618000367e-10	-1.873068778105336261e-10	-1.717826419022291519e-10	-1.753100556510806838e-10	-1.702621938952156828e-10	-1.766620570045414595e-10	-1.944708005472804499e-10	-1.903928214333376354e-10	-1.636940374453863824e-10	-2.101093272526942853e-10	-2.018800344436251684e-10
-8.994010629182992633e-09	-3.613054975428273571e-09	-9.282333758397069078e-09	-8.223965286457821117e-09	-6.998919450579808416e-09	-8.124871661120303062e-09	-6.463662741185486505e-09	-9.219830319262996318e-09	-8.627128981173438595e-09	-2.471832687216107439e-09	-8.528262365001375772e-09	-8.861386960865926419e-09	-3.758321775044775340e-09	-6.247181064110228304e-09	-7.007644151004000899e-09	-4.079932749083532727e-09	-5.200160831942788906e-09	-5.597413024615805358e-09	-3.236594790153067626e-09	-5.733096708980978841e-09	-6.447068562530504256e-09	-7.131360554543939927e-09	-6.188673634998685251e-09	-6.737019535668045189e-09	-6.490470725711133426e-09	-3.828313308333231942e-09	2.978705968561930553e-02	-1.263177511582420394e-10	8.247174121654468673e-09	5.704643212588502959e-08	-3.706953797154443971e-09	1.511271764713274175e-09	2.238620302457989750e-02	1.607128583230809371e-01	-7.742955601109701826e-09	-5.154461851168197580e-09	6.606907330444184185e-09	-6.184530998755329599e-09	1.387371387042156943e-09	-3.901574129217733841e-09	-2.693297714023418213e-09	-1.160413742647636231e-09	-4.808509973595328171e-09	-5.029640979593886824e-09	-2.427522188392783049e-09	-4.803742037622996615e-09	-6.766744944759866312e-09	-6.570042771647701101e-09	-6.412274784151369706e-09	-3.785893315284114646e-09	1.607451676831682386e-02	4.316731568869759443e-09	2.600982475164399717e-08	1.832232185942546778e-03	-2.496564728526040754e-09	4.003018284039773805e-09	2.911214511433169241e-02	6.705970090090614122e-02	-6.976694242209877210e-09	-5.194850990733176675e-09	-4.646303860319138484e-09	-1.190586543067230600e-09	1.278670447236450979e-02	7.634509600726270588e-09	2.457222223566263608e-08	2.222255369932205904e-01	6.459953579354535080e-10	9.242091724821763270e-09	9.005610777520338742e-03	1.117556170390406074e-07	-6.115330891400138275e-09	-4.215417256809281174e-09	-3.308692097682732018e-09	2.500273202297642193e-10	1.383870577234011849e-07	1.451339022409149072e-08	3.787666772768565296e-08	2.052551749091028055e-01	3.706089920256252308e-09	1.403137320197973261e-08	9.252612757856297498e-02	1.804214550266201817e-08	-4.873927408002782526e-09	-3.319043544384435887e-09	-4.399175728178111028e-09	-5.289865814391259304e-09	-1.252342147510075620e-09	-7.156446552353486597e-09	-7.402546236495799513e-09	-7.251342729417719718e-09	-7.645747838629361192e-09	-7.546424419561272839e-09	-7.503878328178031456e-09	-4.883665806590091956e-09	-7.827900793549579898e-09	-6.523584016261403827e-09	-5.440385682414818405e-09	-2.655873813626616713e-09	6.786866223899600587e-09	1.917109279740359491e-09	6.726451675701979989e-09	1.613473331435248152e-08	7.014626953970849368e-10	9.108240887883375928e-09	2.985016010823210789e-02	1.013858490754961234e-01	1.370813249039782965e-08	-5.794516464977922791e-09	-1.595664326196052069e-09	-5.688912734810159812e-09	-3.825001860536534925e-09	-4.235379396294884043e-09	-4.125381786709070192e-09	-3.659032550277874695e-09	-5.096273398663851919e-09	-5.300511993577605681e-09	-4.614063189324075599e-09	-5.072885161938369338e-09	-6.374248787854730008e-09	-5.920340870068949844e-09
-3.518522297546534610e-10	-6.090437173818778476e-10	-4.622626641150434539e-10	-1.295794683769142648e-10	-5.971565763544889981e-10	-6.054924450229609607e-10	-5.818223411843650016e-10	-5.591620355494648837e-10	-5.358899672962746250e-10	-2.216550028630875767e-10	-5.892111759829120840e-10	-6.013561705948284517e-10	-2.558753083177317106e-10	-4.516739602094479352e-10	-4.894000425409433916e-10	-2.785028896780619475e-10	-3.841336653881703595e-10	-4.100961101373985783e-10	-3.963479643368940884e-10	-4.327322356543263269e-10	-4.747178823277277650e-10	-4.919739865113463258e-10	-4.523318802158438658e-10	-4.862068130430854689e-10	-4.741846920626550073e-10	-3.588349578054383013e-10	1.520149662575390193e-02	-3.209876112936999296e-10	-1.229074100106377588e-10	7.954563440595571801e-10	-3.903552110096509146e-10	-2.194243670973592589e-10	1.992876844804209596e-02	1.708489489689291319e-01	-5.443944898855884754e-10	-3.601528918536662507e-10	-1.717922641082582809e-11	-3.628305683595196751e-10	2.819083962199737724e-11	-3.180698129139874677e-10	-2.112637572502542337e-10	-1.084861857744601461e-10	-3.784199936716893331e-10	-4.032242406806065309e-10	-2.870969266946131501e-10	-3.820880725367704185e-10	-4.734854284081520157e-10	-4.742207484871510489e-10	-4.795833665564900523e-10	-3.834489151152312016e-10	2.852652029463537825e-02	-2.290531116246660861e-10	6.410813014050253867e-11	1.935379302290844627e-09	-3.359072412017150074e-10	-1.298938682863646162e-10	2.880929799870982772e-02	6.929631436847213943e-02	-5.213555251005372554e-10	-4.488352014120672987e-10	-3.990595823553468592e-10	-2.904488733323072788e-10	1.761264326284797677e-02	-1.651368229173759587e-11	3.788265033824211354e-10	2.284390307806725695e-01	-1.876692616364742675e-10	9.657757218936063986e-11	9.081073099143904402e-05	6.547280901066903050e-08	-4.932394228263831427e-10	-3.817633420232955891e-10	-3.725024123198644641e-10	-2.840555047475986403e-10	2.357378517474454226e-09	2.301176293909590040e-10	7.100009515288693666e-10	2.146896388606791828e-01	-8.423282528675366091e-11	2.375083037833332144e-10	9.006848581719507918e-02	3.922237112342337620e-10	-4.498783071828302704e-10	-3.890805158315862110e-10	-2.948297686093138277e-10	-4.841711265811439958e-10	3.463289681344741640e-11	-5.317416440150422887e-10	-5.223617164360896980e-10	-5.161851711046308907e-10	-5.033833273664203179e-10	-5.278181929987515550e-10	-5.355617406907278190e-10	-3.700653897621048036e-10	-5.233829040748258042e-10	-4.581276580172015609e-10	-4.051162450396199510e-10	-2.934927964636973642e-10	-1.487750779581789545e-10	-2.615194742799419452e-10	-1.356785799016771487e-10	1.288689102948037784e-10	-1.926018007618308540e-10	8.788268412684762630e-11	4.971634642150080108e-02	6.677165907685576884e-02	-6.403997285879504455e-11	-6.159262345254985342e-10	-1.394426223012597350e-10	-4.076837351291413748e-10	-3.127866673147712600e-10	-3.497528067608467100e-10	-3.287610301373802733e-10	-3.028555317866508954e-10	-3.816279977867336570e-10	-4.112316695994371478e-10	-3.839626100570638097e-10	-3.983870759461316193e-10	-4.381437048439357418e-10	-4.332280944849330940e-10
-4.368809642084524903e-09	-5.792541765899990953e-09	-4.205535143429419473e-09	-3.389551353874535662e-09	-4.643692505987135434e-09	-5.096704330648041047e-09	-5.266557337245887880e-09	-6.797971051675425143e-09	-6.549378674539165244e-09	-5.763105806357518149e-09	-6.376105519409382824e-09	-5.602031974224103085e-09	-2.877796172088717723e-09	-4.826855594544271810e-09	-5.378726688488284867e-09	-3.113308473528550954e-09	-4.304476888738602515e-09	-4.546378566007560050e-09	-4.015066619435010112e-09	-4.778916639069859596e-09	-5.191666415501403363e-09	-5.694246064508433863e-09	-4.941216360705011352e-09	-5.262578269520388051e-09	-5.515094367390921031e-09	-3.922378288156764786e-09	1.987420610296397952e-02	-3.553949567098132603e-09	-1.462384160345730676e-09	1.140838556108453615e-08	-4.429868834179076603e-09	-2.499486296509822329e-09	2.912660383489434207e-02	1.625145850361776612e-01	-6.050235969744389634e-09	-5.008715808521558374e-09	3.688157972373302840e-09	-5.672438479672939981e-09	3.553590283852072409e-10	-3.680795247598529331e-09	-2.303106675508309617e-09	-4.504869072832921099e-10	-4.347411259030773670e-09	-4.543280856066923852e-09	-2.668102089967813083e-09	-3.776763217198652733e-09	-5.158330394921910131e-09	-5.218218870335695463e-09	-5.446831502310270742e-09	-4.337067166970746934e-09	3.573397738025857473e-02	-2.161113374040775343e-09	2.676773457085191874e-09	2.116184895667457843e-06	-3.812738962693483013e-09	-1.385666743781321534e-09	8.559556846683047740e-03	6.416462733608635505e-02	-5.861066177655614064e-09	-5.069692446899367707e-09	-4.627946328614488105e-09	-2.905782350565010467e-09	3.772936274909566501e-05	-4.293800433722742117e-10	3.087465002634692620e-09	2.168217700307219220e-01	-2.684184165177207702e-09	-1.518368555027192916e-10	3.871469510941874526e-02	3.640944927124567785e-08	-5.616308483981970404e-09	-4.685770795891404949e-09	-4.247023265702641590e-09	-2.727883883526660770e-09	7.715834459444283764e-08	1.720028345760181541e-09	5.828957267439208200e-09	1.852265531002510457e-01	-1.514095915575323011e-09	1.788532280190808904e-09	1.067756629851983885e-01	3.821125666970863731e-09	-5.133927236484050590e-09	-4.447088995740978844e-09	-2.603859574057950895e-09	-6.253607137797070745e-09	1.527021532765792330e-10	-5.762282474093857597e-09	-5.798126609946742503e-09	-5.795748942701508810e-09	-5.945826203423452360e-09	-5.579883690950239927e-09	-5.856833870356553310e-09	-4.896777437552305866e-09	-6.059066892099832568e-09	-2.966330443632354722e-09	-4.902928083168195913e-09	-3.026205011767310192e-09	3.298283323522886348e-09	-2.365997160196626687e-09	-5.541589346826468732e-10	4.401308731288531813e-09	-2.566196922456164371e-09	5.085698888227703647e-10	2.298977109457760529e-02	1.094583737448049932e-01	-7.979266592804204523e-10	-6.880115962909117093e-09	-3.779098402235178723e-09	-4.561723037841553398e-09	-4.039892070510480570e-09	-3.888530743192114386e-09	-3.809772490364299746e-09	-3.523354410841848011e-09	-4.197297448592327180e-09	-4.429912485444595790e-09	-4.143052215439467950e-09	-3.624094075417800345e-09	-4.791268056262565328e-09	-4.763586523974620105e-09
-3.191342013754490830e-09	-7.084280996456811316e-10	-3.399844888146301673e-09	-2.925076346445962735e-09	-2.674987593692623487e-09	-2.875264665685159754e-09	-2.319852931618213050e-09	-3.268887190499868101e-09	-3.207787389320437522e-09	-1.278468897130062218e-09	-3.246163829321571471e-09	-2.715370257851110730e-09	-4.892647897730084678e-10	-1.808964877272260417e-09	-2.180970893982910013e-09	-9.874635877709447944e-10	-1.459152617279766883e-09	-1.622234836278498649e-09	-1.234449520937236729e-09	-1.745917654531396498e-09	-2.018084294097110780e-09	-2.369350255377358028e-09	-1.848926009530513950e-09	-2.078567449961099560e-09	-1.935697717719536693e-09	-4.288835806540410039e-10	2.475879366969125500e-02	1.921672765413650541e-09	7.349435074820495488e-09	3.916423801293303068e-08	-3.834531648889266424e-10	2.506214079555357489e-09	2.379101423959719200e-02	1.613900978942671982e-01	-2.311607227006110255e-09	-1.266866732653700769e-09	2.277033559746927898e-09	-1.286353944308875404e-09	7.749174619074017766e-10	-1.015637688273784974e-09	-4.817829849109611676e-10	1.529840816098551868e-10	-1.491269350501192414e-09	-1.521940365656763717e-09	-4.335492290446036521e-10	-1.511165371624468072e-09	-2.257158725041518776e-09	-2.244910008503706061e-09	-1.903530014091815768e-09	-4.267449035622785653e-10	2.901918087944591745e-02	4.434525362006704182e-09	1.801817660351316476e-08	1.100382409010719400e-03	3.362520886528897467e-10	3.945685988606245721e-09	2.244397060148947340e-02	5.932473547897743754e-02	-1.989718458124761075e-09	-1.229226303913560391e-09	-1.013635358636531144e-09	1.070600904233187446e-09	7.517811919250674295e-06	6.292545560039938990e-09	1.778590569878188321e-08	2.384109248246874813e-01	1.942500642499213538e-09	6.659149583343077221e-09	1.853395606817218044e-02	1.357989762948956352e-07	-1.421738275483454148e-09	-4.801733259649707382e-10	-2.269879864907967825e-10	1.919653018420297920e-09	5.290493489036448111e-08	1.050836717173518730e-08	2.705356420314077696e-08	1.936074310804827003e-01	3.963717319570853417e-09	1.005215644014401134e-08	9.448888036890687459e-02	1.173135357635034829e-08	-8.277594964501229573e-10	-1.766989950329198135e-10	-8.274327926507781579e-10	-2.627255304100939415e-09	7.201337219770425217e-10	-2.422246793607461578e-09	-2.500427542133318673e-09	-2.478082492723465610e-09	-2.592861862146250062e-09	-2.638175373620299400e-09	-2.612802575343239327e-09	-2.252121890934115852e-09	-2.227149806246066908e-09	-2.399165945574359195e-09	-1.253860962487021688e-09	3.156955838535011335e-10	6.121969589970513222e-09	3.223910450779240145e-09	6.530986641250053466e-09	1.257732155800029384e-08	2.071265655334523217e-09	6.761780482739102987e-09	2.839485997584068055e-02	1.047279651516801191e-01	7.183157684249536837e-09	-4.405024119448398232e-10	-8.830783948800090768e-10	-1.806612741200116268e-09	-1.248805519951131256e-09	-1.218046910318560524e-09	-1.169526484799830925e-09	-1.002819836706068746e-09	-1.419292201190224026e-09	-1.585957094979462507e-09	-1.314468821976275959e-09	-1.581254233255360944e-09	-2.079875411678336727e-09	-2.021816628997849631e-09
-3.560294626155190753e-10	-5.920079652806022442e-10	5.691661026094599507e-10	-4.957513019730613731e-10	-5.155786808993223478e-10	-5.452068986543264147e-10	-3.919919239405425233e-10	-5.560263537211085539e-10	-5.762119825382387087e-10	-4.539140423182316650e-10	-4.940850484943183593e-10	-4.239641132167809727e-10	8.698823082112511362e-10	1.793052387247624985e-10	1.331765930017398422e-11	5.244627104820624996e-10	3.664470295318173403e-10	2.983402220770945897e-10	5.211245430982554581e-10	2.948283094188775713e-10	1.714456165807612487e-10	-3.291735237807909122e-11	3.460482609734291567e-10	1.296119325728729379e-10	3.476190346399441793e-10	1.690895888693817826e-09	2.463104064561620968e-02	4.124184554499145701e-09	9.512935323604508452e-09	3.870518228673679254e-08	1.825917699936295439e-09	4.238260283931416787e-09	1.653768497171543422e-02	1.640184018149905831e-01	4.724431841300281929e-10	1.041284526099923920e-09	7.266761370545030899e-10	2.007679930920023041e-10	4.908988866271874391e-10	5.030940853618481594e-10	5.612016872796549108e-10	6.805640377255691750e-10	3.925307096230075730e-10	3.285586699698925599e-10	5.018141396621121089e-10	1.774669567502036075e-10	1.616264112346423091e-10	6.709961503011716500e-11	4.716588870006361925e-10	1.813023016864543373e-09	2.719386719324539542e-02	6.204870986650023947e-09	1.924228624670160137e-08	7.501147300002054992e-03	2.398373902288661376e-09	5.326251454434355549e-09	2.351110765612665285e-02	6.276408970833903533e-02	7.976454366308776333e-10	1.232054140694968341e-09	1.045478783323483216e-09	2.819973111052893109e-09	5.565331492812684694e-07	7.860832844411161341e-09	2.000623367114823867e-08	2.358325400667298788e-01	3.787100147066433662e-09	7.997048998508079985e-09	1.628407829497357032e-02	9.323515998863085789e-08	1.340287677367109066e-09	1.855524450306986361e-09	1.753694874408941271e-09	3.886350580575958027e-09	4.119265079908058365e-08	1.184920643338606703e-08	3.003459523399808993e-08	1.422100666389577994e-01	5.646888238301484851e-09	1.093317245505032037e-08	1.530443935421516577e-01	1.378513810710159044e-08	1.905090688719603880e-09	2.243657665135780379e-09	9.965998751886830390e-11	-1.381338569783762991e-10	2.066115241194176598e-10	-6.912003522923682521e-11	-1.059490747508682009e-10	-1.071553508588122437e-10	-1.437240145507960723e-10	-1.948469030677003196e-10	-1.836739574954375537e-10	3.642146377283920829e-11	-1.041400337721425751e-10	-1.537061542904282519e-10	1.004877997608000393e-09	2.213101886161505261e-09	6.483679205132465287e-09	5.325538734393191517e-09	8.743596375931698565e-09	1.321505301271218435e-08	3.619137213252360591e-09	7.265766328800910519e-09	1.908622640895335856e-02	1.073843653404116805e-01	1.474481513436556726e-08	2.784702888431610924e-09	5.644748626975417058e-10	1.139230108175318335e-10	1.431135136704448947e-10	3.781195840869093347e-10	3.443674132417868011e-10	3.665957904229852352e-10	3.503129653314430794e-10	2.510322877912296822e-10	2.670121197225301991e-10	8.216610958178922029e-11	1.545083416424306339e-10	6.093351695927003794e-11
1.634205401271434418e-10	-5.704866048268357720e-09	-4.842566867107887554e-09	-2.781195300624389450e-09	-5.235726588959849726e-09	-5.446943663317997605e-09	-4.554461436500146521e-09	-5.479492646599044103e-09	-5.337241700195230538e-09	-1.966057312439762953e-09	-5.363705753740066295e-09	-5.446049641612350247e-09	-1.128147661197078201e-09	-3.218070990057431459e-09	-3.699532632327681978e-09	-1.976078680763301980e-09	-2.568984564592132875e-09	-2.782788156090095642e-09	-1.431451422697924812e-09	-2.886687932659119491e-09	-3.359094127001961027e-09	-3.829463743897036299e-09	-3.018236563691625277e-09	-3.498498723022605589e-09	-3.520505143848151058e-09	-7.206906127998171023e-10	1.335642086282750815e-02	2.555822897869171642e-09	9.845063770795875921e-09	3.975327869076562681e-08	-4.731260354652873538e-10	4.648468919402109638e-09	1.210908375823432567e-02	1.742223147484276424e-01	-4.220021726134648407e-09	-2.162747779620449249e-09	-6.932908952547507915e-10	-3.420759721105144397e-09	3.046645006126141470e-09	-2.095647482163153650e-09	-9.675414756399832348e-10	3.496582916109698562e-10	-2.631796309241850352e-09	-2.805640706646641954e-09	-1.145085624955094302e-09	-2.621815989953627090e-09	-3.452736802872380153e-09	-3.553370147495219919e-09	-3.211293513034013395e-09	-4.294212334893311859e-10	3.565590177120708804e-02	5.694039121130525242e-09	2.124828699424881329e-08	4.061650267248577614e-07	7.195987487147262383e-10	6.619775452691346546e-09	2.550901134691897429e-02	6.476040655001759350e-02	-3.122561426847577856e-09	-1.729681183111746811e-09	-1.729292610483804681e-09	2.222427376823440807e-09	4.224059770604671714e-03	9.730484491715738886e-09	2.707460099377161895e-08	2.231718229041119717e-01	3.359407024269410060e-09	1.134300575072968620e-08	2.647086106844432490e-02	4.641249521046517344e-07	-2.262308782924498877e-09	-5.002594357366044937e-10	8.479095242757200350e-11	3.620342412251927371e-09	1.036223532151506664e-07	1.650478261922507512e-08	4.049037606332491901e-08	2.091886942911521385e-01	6.853607184042938430e-09	1.679474533767778810e-08	8.794442671291054225e-02	1.871227591835431988e-08	-9.833294883667450716e-10	1.320552468419498090e-10	-3.723235167246494255e-09	-1.306467385310055388e-09	-2.366680440959273328e-09	-3.922162518652509222e-09	-4.136091754323799696e-09	-3.995432285379233638e-09	-4.506521707356761550e-09	-4.150688488998541076e-09	-4.098987939800251239e-09	-1.682311137607158462e-09	-4.372850875648382753e-09	-3.588955019360666445e-09	-2.304503200463210224e-09	-1.116570621225939594e-10	-1.457572339164252324e-09	3.587677684879012519e-09	6.707748383341872482e-09	9.850264214736904577e-09	3.476930940341305016e-09	1.073712866961683070e-08	3.993170075087049131e-02	8.345421346250286865e-02	3.072364084632596798e-08	-1.197626371881876932e-09	-1.378495385079878519e-09	-2.945079021075231922e-09	-1.912001847630242301e-09	-1.983901523674255934e-09	-1.822301448200923993e-09	-1.493068523891069097e-09	-2.385238417039110222e-09	-2.565370999042367330e-09	-2.218661778719754716e-09	-2.715148505402685518e-09	-3.134070592423200433e-09	-3.077564616282098364e-09
-4.025751355108475657e-09	-1.834663742763052559e-09	-4.154335724160556672e-09	-3.456068460830270343e-09	-1.942559954149438576e-09	-2.956094834259483519e-09	-2.769842016444995197e-09	-4.120642079018552386e-09	-4.018046293102458359e-09	-4.196927039886734520e-09	-3.890204230927181467e-09	-2.640415657472781631e-09	-1.177601661410914835e-09	-2.501140925796459739e-09	-2.931628710321779855e-09	-1.230918793040583492e-09	-1.975453562994174589e-09	-2.173852977322947338e-09	-1.368716426039663566e-09	-2.245705688504564287e-09	-2.651102628230667294e-09	-2.945434165505043060e-09	-2.442178092073436885e-09	-2.943264850256276605e-09	-2.673982829117440779e-09	-8.692410457857687366e-10	2.739704397756199256e-02	1.753870722448476705e-09	7.591291428714741359e-09	3.717318027062873648e-08	-6.781372155029614831e-10	3.036439800083967362e-09	3.992577361005753938e-06	1.795812799440000829e-01	-3.377272893660607267e-09	-2.046060732535866934e-09	1.754548363543947222e-09	-2.625688333824179287e-09	7.541660805050728928e-11	-1.374707937460758000e-09	-7.017132100053819256e-10	3.009500050181659217e-10	-1.831317898383277346e-09	-1.880595086662784637e-09	-4.918568434256505107e-10	-2.076565105400249544e-09	-2.870334938606163068e-09	-2.864348995188462462e-09	-2.531366023082421313e-09	-7.370216938642239508e-10	2.479258453727758646e-02	4.321316910365746398e-09	1.848505543225773858e-08	7.106074353555960101e-03	2.558887814102745805e-11	4.120310227398546548e-09	3.034300713481893202e-02	6.483176787591224399e-02	-2.710607647243034818e-09	-1.766313789259245081e-09	-1.351852966426685670e-09	1.061209864080794321e-09	1.868706346155506800e-05	6.553140126268704410e-09	1.857333765594450986e-08	2.103699432615644405e-01	1.944477689216621225e-09	7.394327743211092294e-09	3.215484614169137473e-02	2.602189627452959028e-07	-2.071685174984509823e-09	-9.305407946118251275e-10	-3.111865675926155352e-10	2.163203533435422060e-09	1.230878257979208890e-07	1.110149688258956949e-08	2.765012291121051140e-08	2.088177402691040740e-01	4.428374082391707189e-09	1.145803177013210551e-08	8.316244226386873550e-02	1.664643828789045771e-08	-1.300943060734657401e-09	-4.286304458896956814e-10	-1.705290326760758895e-09	-2.733354666042646970e-09	-1.759664129748164753e-09	-2.916146880719625072e-09	-3.073848222469944373e-09	-2.985688824094116351e-09	-3.350915549692953527e-09	-3.219866091776425913e-09	-3.151141637099194848e-09	-9.657750319497006203e-10	-3.448630484495612043e-09	-2.984546800457522087e-09	-1.613681610767578414e-09	-1.571265653558852874e-10	1.411690846822697084e-09	2.783474551946099460e-09	5.754760230446911705e-09	1.036241375298424840e-08	1.893482918884274533e-09	7.063075256270118493e-09	4.414221316514681942e-02	8.727793523751530003e-02	6.967738152365318827e-09	-1.250335874526289353e-09	-1.405125877319207244e-09	-2.347097497781335252e-09	-1.912391059411245945e-09	-1.516495504506311127e-09	-1.510013298593101081e-09	-1.268241399381386763e-09	-1.895515262134612429e-09	-2.002075713470275265e-09	-1.788651074768878037e-09	-1.764402125501623915e-09	-2.629293745727994378e-09	-2.508556886919920478e-09
